/*!
 * The following copyright notice may not be removed under any circumstances.
 * 
 * Copyright:
 * Copyright (c) Mark Simonson, 2005. All rights reserved.
 * 
 * Description:
 * This is a protected webfont and is intended for CSS @font-face use ONLY.
 * Reverse engineering this font is strictly prohibited.
 */
Cufon.registerFont({"w":571,"face":{"font-family":"","font-weight":300,"font-stretch":"normal","units-per-em":"1000","panose-1":"2 0 5 6 3 0 0 2 0 4","ascent":"790","descent":"-210","x-height":"12","bbox":"-181 -884 1148 199","underline-thickness":"20","underline-position":"-113","unicode-range":"U+0020-U+2122"},"glyphs":{" ":{"w":259},"!":{"d":"114,-174r-41,0r96,-493r67,0xm107,-38v0,26,-22,48,-48,48v-22,0,-40,-19,-40,-41v0,-25,22,-47,48,-47v22,0,40,18,40,40","w":219},"\"":{"d":"147,-427r-29,0v15,-128,25,-197,25,-206v0,-34,39,-59,65,-35v13,11,9,29,4,44xm278,-427r-29,0v15,-128,25,-197,25,-206v2,-39,39,-57,65,-35v12,11,9,29,4,44","w":317},"#":{"d":"229,0r-47,0r105,-186r-119,0r-103,186r-47,0r103,-186r-110,0r21,-41r112,0r119,-213r-112,0r20,-41r115,0r102,-186r47,0r-102,186r117,0r102,-186r48,0r-104,186r111,0r-20,41r-113,0r-119,213r115,0r-21,41r-116,0xm307,-227r120,-213r-117,0r-119,213r116,0","w":579},"$":{"d":"517,-192v0,123,-112,218,-256,203r-19,89r-46,0r21,-94v-82,-12,-157,-55,-191,-111r42,-41v38,54,91,88,160,101r62,-277v-79,-36,-169,-63,-169,-170v0,-112,119,-199,248,-185r20,-91r46,0r-22,97v75,15,129,47,163,97r-43,40v-30,-43,-74,-72,-131,-85r-56,251v51,23,75,35,116,65v33,25,55,59,55,111xm273,-40v106,8,181,-57,181,-145v0,-27,-10,-49,-31,-67v-21,-18,-51,-36,-91,-53xm357,-625v-88,-11,-173,51,-174,127v0,25,11,45,31,62v20,17,50,34,90,51","w":584},"%":{"d":"119,0r-45,0r573,-667r46,0xm669,-182v0,104,-78,194,-175,194v-79,0,-145,-55,-145,-134v0,-104,78,-194,175,-194v79,0,145,55,145,134xm395,-126v0,56,44,99,100,99v71,0,127,-74,127,-151v0,-56,-43,-99,-99,-99v-71,0,-128,75,-128,151xm409,-544v0,105,-77,195,-175,195v-79,0,-144,-56,-144,-134v0,-105,77,-194,175,-194v78,0,144,56,144,133xm136,-487v0,56,44,99,100,99v71,0,127,-75,127,-151v0,-56,-44,-99,-100,-99v-71,0,-127,74,-127,151","w":720},"&":{"d":"370,-677v76,0,138,39,137,113v-1,100,-75,144,-145,173r-73,30v29,65,88,153,128,218v47,-50,84,-102,113,-157r43,25v-45,72,-87,129,-128,171r81,104r-72,0r-50,-65v-61,51,-124,77,-189,77v-106,1,-196,-58,-194,-163v2,-139,99,-183,198,-228v-17,-43,-25,-82,-25,-119v0,-93,85,-179,176,-179xm81,-158v0,78,62,125,139,124v49,0,101,-23,156,-70v-64,-91,-100,-157,-140,-235v-49,23,-87,48,-114,75v-27,27,-41,62,-41,106xm371,-633v-64,1,-121,61,-121,134v0,29,7,62,22,99v58,-22,79,-30,124,-60v34,-23,56,-49,57,-99v1,-46,-36,-74,-82,-74","w":639},"'":{"d":"147,-427r-29,0v15,-128,25,-197,25,-206v0,-34,39,-59,65,-35v13,11,9,29,4,44","w":187},"(":{"d":"117,179r-36,20v-37,-88,-56,-182,-56,-283v0,-211,84,-411,251,-601r26,26v-147,198,-221,398,-221,599v0,69,12,149,36,239","w":227},")":{"d":"109,-665r36,-20v37,88,56,182,56,283v0,211,-84,411,-251,601r-26,-26v147,-198,221,-398,221,-599v0,-69,-12,-149,-36,-239","w":227},"*":{"d":"220,-399r-39,0r33,-119r-112,52r-11,-34r115,-41r-91,-63r25,-30r84,73r20,-116r38,0r-32,118r112,-51r11,34r-115,41r91,63r-26,30r-83,-73","w":335},"+":{"d":"483,-316r-197,0r-48,217r-44,0r48,-217r-197,0r9,-42r197,0r46,-211r45,0r-46,211r197,0","w":496},",":{"d":"66,-78v27,0,44,19,43,48v-1,62,-56,124,-103,146r-24,-26v33,-16,67,-50,78,-84v-25,3,-41,-15,-41,-36v-1,-26,22,-49,47,-48","w":219},"-":{"d":"264,-218r-240,0r10,-48r240,0","w":300},".":{"d":"107,-38v0,26,-22,48,-48,48v-22,0,-40,-19,-40,-41v0,-25,22,-47,48,-47v22,0,40,18,40,40","w":219},"\/":{"d":"-13,20r-46,0r393,-707r47,0","w":282},"0":{"d":"373,-677v143,0,209,106,208,255v-2,151,-56,285,-142,365v-49,45,-102,69,-163,69v-142,1,-212,-108,-211,-256v2,-151,57,-285,143,-364v49,-45,104,-69,165,-69xm142,-371v-38,144,-21,339,138,331v136,-7,193,-136,225,-255v38,-144,21,-335,-138,-330v-85,2,-145,67,-178,130v-20,38,-36,79,-47,124","w":608},"1":{"d":"171,0r-57,0r129,-589r-131,114r-27,-37r181,-155r52,0","w":308},"2":{"d":"340,-677v112,-1,215,55,213,166v-2,75,-49,142,-91,187v-95,102,-240,194,-360,272r351,0r-11,52r-440,0r14,-60r128,-82r110,-77v75,-53,117,-87,172,-148v37,-41,66,-79,66,-142v0,-77,-71,-116,-154,-116v-71,0,-128,22,-173,67r-31,-40v44,-45,122,-79,206,-79","w":582},"3":{"d":"473,-197v0,119,-105,209,-232,209v-108,0,-212,-60,-240,-139r46,-30v26,68,103,117,193,117v101,0,177,-64,176,-160v-1,-77,-74,-120,-159,-118v-23,0,-42,1,-57,2r13,-54v6,1,36,1,89,1v90,1,175,-48,173,-137v-1,-75,-77,-119,-162,-119v-65,0,-122,23,-171,70r-28,-40v43,-46,120,-81,202,-82v117,-1,217,55,217,166v0,98,-92,168,-181,173v64,14,121,64,121,141","w":544},"4":{"d":"354,0r-57,0r40,-182r-316,0r13,-55r386,-430r81,0r-96,433r98,0r-11,52r-98,0xm348,-234r83,-376r-340,376r257,0","w":541},"5":{"d":"520,-227v0,131,-112,239,-249,239v-111,0,-187,-45,-229,-135r46,-33v34,77,97,116,188,116v99,0,184,-82,184,-182v0,-90,-70,-143,-161,-142v-51,0,-99,17,-146,50r-38,-22r73,-331r385,0r-11,52r-328,0r-55,247v40,-31,88,-46,143,-46v110,-1,198,73,198,187","w":582},"6":{"d":"524,-239v0,133,-114,251,-249,251v-142,0,-215,-93,-214,-240v1,-139,47,-258,109,-342v43,-57,114,-107,207,-107v92,0,156,35,192,104r-43,37v-27,-59,-77,-89,-152,-89v-120,0,-176,96,-213,185v-16,37,-25,77,-36,121v37,-44,120,-93,200,-93v113,0,199,64,199,173xm116,-213v-1,102,59,173,161,173v103,0,187,-91,187,-191v0,-84,-69,-131,-157,-131v-69,0,-132,32,-189,96v-1,12,-2,30,-2,53","w":584},"7":{"d":"133,0r-66,0r414,-615r-366,0r11,-52r437,0r-9,40","w":502},"8":{"d":"499,-178v0,113,-114,190,-233,190v-122,0,-229,-53,-229,-167v0,-115,101,-177,209,-196v-58,-22,-120,-69,-122,-143v-3,-116,113,-183,225,-183v108,0,216,57,215,161v-1,108,-92,165,-196,178v61,27,131,76,131,160xm182,-491v0,62,77,112,131,123v98,-8,190,-48,190,-142v0,-69,-80,-114,-156,-114v-85,0,-165,50,-165,133xm98,-165v-1,83,82,125,169,125v85,0,174,-56,174,-142v0,-72,-80,-121,-139,-137v-102,5,-202,59,-204,154"},"9":{"d":"98,-427v0,-133,114,-251,249,-251v142,0,215,93,214,240v-1,139,-45,259,-108,342v-43,57,-114,107,-208,107v-91,0,-155,-35,-191,-104r42,-37v27,59,78,89,153,89v120,0,175,-97,212,-185v14,-35,28,-79,36,-121v-37,44,-120,93,-200,93v-113,0,-199,-64,-199,-173xm506,-453v1,-102,-59,-173,-161,-173v-102,0,-187,92,-187,191v0,84,69,131,157,131v70,0,133,-32,189,-96v1,-12,2,-30,2,-53","w":584},":":{"d":"107,-38v0,26,-22,48,-48,48v-22,0,-40,-19,-40,-41v0,-25,22,-47,48,-47v22,0,40,18,40,40xm198,-450v0,26,-22,47,-48,47v-22,0,-40,-18,-40,-40v0,-25,22,-47,48,-47v22,0,40,18,40,40","w":217},";":{"d":"66,-78v27,0,44,19,43,48v-1,62,-56,124,-103,146r-24,-26v33,-16,67,-50,78,-84v-25,3,-41,-15,-41,-36v-1,-26,22,-49,47,-48xm198,-450v0,26,-22,47,-48,47v-22,0,-40,-18,-40,-40v0,-25,22,-47,48,-47v22,0,40,18,40,40","w":219},"<":{"d":"432,-90r-388,-226r9,-37r488,-227r-12,52r-428,196r341,195","w":496},"=":{"d":"504,-411r-438,0r9,-42r438,0xm461,-216r-439,0r10,-41r438,0","w":496},">":{"d":"483,-316r-489,226r12,-52r430,-194r-343,-197r10,-47r388,227","w":496},"?":{"d":"294,-677v105,0,197,51,197,146v0,145,-159,159,-239,229v-31,27,-37,71,-8,101r-45,25v-34,-41,-34,-102,1,-142v53,-60,150,-75,202,-136v18,-20,26,-43,26,-70v-1,-68,-62,-101,-138,-101v-65,0,-121,24,-168,72r-27,-39v57,-57,123,-85,199,-85xm220,-38v0,26,-22,48,-48,48v-22,0,-40,-19,-40,-41v0,-25,22,-47,48,-47v22,0,40,18,40,40","w":464},"@":{"d":"87,-245v0,159,128,284,289,284v64,0,126,-19,187,-57r17,25v-65,42,-135,63,-208,63v-176,0,-320,-140,-317,-314v2,-156,95,-281,203,-342v61,-34,125,-52,194,-52v181,0,315,143,315,322v0,72,-15,129,-47,170v-32,41,-70,61,-115,61v-53,0,-88,-41,-89,-91v-32,45,-92,90,-164,91v-92,1,-153,-66,-153,-160v0,-131,116,-255,239,-255v65,0,110,38,130,83r13,-65r49,0r-59,282v-10,41,12,73,48,74v27,0,53,-15,78,-46v25,-31,38,-80,38,-145v0,-164,-121,-289,-286,-289v-186,0,-362,177,-362,361xm251,-247v0,69,43,120,111,120v64,0,119,-33,164,-100r32,-148v-15,-42,-55,-83,-114,-83v-104,0,-193,107,-193,211","w":783},"A":{"d":"578,0r-63,0r-30,-164r-353,0r-102,164r-69,0r420,-667r71,0xm478,-216r-72,-390r-244,390r316,0","w":647},"B":{"d":"540,-198v-2,118,-94,198,-226,198r-285,0r147,-667r257,0v89,-2,165,62,165,151v0,92,-73,172,-155,180v52,11,98,76,97,138xm535,-510v1,-60,-54,-105,-115,-105r-198,0r-54,247r218,0v95,3,147,-58,149,-142xm481,-201v0,-68,-51,-115,-122,-115r-203,0r-59,264r220,0v93,4,163,-64,164,-149","w":615},"C":{"d":"129,-279v0,143,97,239,241,239v67,0,130,-25,189,-76r40,34v-65,63,-142,94,-232,94v-172,0,-303,-117,-300,-289v3,-188,99,-313,233,-372v93,-41,210,-38,293,8v45,25,81,60,106,106r-55,25v-43,-77,-113,-116,-211,-116v-80,0,-151,32,-212,97v-61,65,-92,148,-92,250","w":671},"D":{"d":"384,-667v151,-3,275,129,271,284v-3,140,-65,235,-147,301v-61,49,-158,82,-267,82r-212,0r147,-667r208,0xm595,-381v0,-129,-96,-234,-222,-234r-151,0r-125,563r154,0v195,6,344,-144,344,-329","w":692},"E":{"d":"452,0r-423,0r147,-667r423,0r-11,52r-366,0r-54,247r358,0r-12,52r-358,0r-59,264r366,0","w":564},"F":{"d":"86,0r-57,0r147,-667r423,0r-11,52r-366,0r-54,247r358,0r-12,52r-358,0","w":542},"G":{"d":"129,-279v0,144,98,241,241,239v72,0,137,-27,194,-80r35,-160r-252,0r11,-52r310,0r-53,239v-72,70,-155,105,-248,105v-175,0,-300,-119,-300,-289v0,-216,166,-401,373,-401v122,0,210,57,257,137r-51,26v-36,-68,-114,-111,-213,-111v-81,0,-152,34,-213,100v-61,66,-91,148,-91,247","w":711},"H":{"d":"567,0r-58,0r70,-317r-423,0r-70,317r-57,0r147,-667r57,0r-65,298r422,0r66,-298r58,0","w":703},"I":{"d":"86,0r-57,0r147,-667r57,0","w":223},"J":{"d":"156,12v-81,0,-146,-34,-175,-88r39,-40v27,51,71,76,133,76v97,-1,146,-68,165,-153r105,-474r57,0r-104,474v-31,137,-104,205,-220,205","w":470},"K":{"d":"508,0r-68,0r-208,-317r-94,84r-52,233r-57,0r147,-667r57,0r-79,358r397,-358r77,0r-354,318","w":586},"L":{"d":"396,0r-381,0r147,-667r58,0r-136,615r322,0","w":484},"M":{"d":"653,0r-58,0r131,-595r-374,595r-22,0r-112,-595r-132,595r-57,0r147,-667r82,0r104,555r350,-555r88,0","w":790},"N":{"d":"562,0r-56,0r-292,-578r-128,578r-57,0r147,-667r58,0r291,570r127,-570r57,0","w":699},"O":{"d":"736,-389v0,212,-164,401,-369,401v-171,0,-300,-113,-300,-289v0,-212,165,-401,370,-401v171,0,299,113,299,289xm129,-279v0,146,101,239,241,239v170,0,304,-165,304,-347v0,-146,-102,-239,-242,-239v-171,0,-303,164,-303,347","w":764},"P":{"d":"415,-667v92,-3,173,77,170,167v-5,142,-97,223,-247,223r-190,0r-62,277r-57,0r147,-667r239,0xm524,-496v1,-64,-57,-119,-123,-119r-179,0r-63,286r185,0v107,3,179,-69,180,-167"},"Q":{"d":"736,-389v-2,144,-68,261,-154,327r45,60r-46,29r-44,-59v-53,29,-110,44,-170,44v-171,1,-300,-113,-300,-289v0,-212,165,-401,370,-401v171,0,302,113,299,289xm129,-279v0,146,101,240,241,239v47,0,91,-12,134,-36r-86,-117r46,-29r85,116v72,-59,123,-156,125,-281v2,-146,-102,-239,-242,-239v-171,0,-303,164,-303,347","w":764},"R":{"d":"586,-499v0,128,-98,219,-228,220r131,279r-65,0r-126,-276r-151,0r-61,276r-57,0r147,-667r229,0v95,-1,181,70,181,168xm524,-496v1,-66,-61,-119,-125,-119r-177,0r-63,287r186,0v105,3,177,-70,179,-168","w":594},"S":{"d":"515,-192v-1,117,-104,204,-236,204v-110,0,-214,-50,-255,-117r42,-41v50,71,123,106,218,106v97,0,168,-62,168,-145v0,-64,-66,-96,-118,-119v-64,-29,-136,-50,-180,-100v-23,-25,-35,-54,-35,-88v-1,-106,111,-186,225,-186v100,0,191,43,230,104r-43,40v-35,-55,-107,-88,-192,-92v-104,-5,-215,115,-123,192v74,61,201,76,264,150v22,26,35,57,35,92","w":581},"T":{"d":"257,0r-58,0r136,-615r-218,0r11,-52r494,0r-11,52r-218,0","w":564},"U":{"d":"144,-257v-29,129,57,220,184,217v142,-3,192,-90,220,-217r90,-410r58,0r-90,411v-20,88,-51,155,-94,200v-43,45,-104,68,-184,68v-162,0,-278,-102,-242,-268r90,-411r58,0","w":686},"V":{"d":"305,0r-71,0r-126,-667r63,0r109,603r376,-603r69,0","w":647},"W":{"d":"604,0r-64,0r-34,-573r-286,573r-64,0r-44,-667r63,0r30,587r294,-587r52,0r34,587r290,-587r66,0","w":867},"X":{"d":"572,0r-65,0r-170,-302r-295,302r-77,0r342,-346r-180,-321r66,0r157,283r276,-283r78,0r-323,328","w":645},"Y":{"d":"284,0r-58,0r64,-285r-182,-382r64,0r153,328r297,-328r74,0r-349,382","w":618},"Z":{"d":"477,0r-481,0r11,-50r522,-565r-396,0r10,-52r474,0r-10,49r-523,566r404,0","w":581},"[":{"d":"114,190r-173,0r192,-868r174,0r-10,43r-129,0r-174,782r129,0","w":228},"\\":{"d":"178,20r-80,-707r45,0r80,707r-45,0","w":282},"]":{"d":"94,190r-173,0r10,-43r128,0r174,-782r-130,0r10,-43r174,0","w":228},"^":{"d":"428,-333r-45,0r-82,-293r-212,293r-51,0r248,-334r42,0","w":428},"_":{"d":"494,83r-569,0r10,-43r569,0","w":564},"`":{"d":"285,-556r-44,0r-140,-144r62,0","w":216},"\u02cb":{"d":"285,-556r-44,0r-140,-144r62,0","w":216},"a":{"d":"45,-186v0,-157,101,-309,254,-309v81,0,143,41,174,94r17,-82r53,0r-107,483r-53,0r17,-73v-45,57,-100,85,-166,85v-115,1,-189,-80,-189,-198xm463,-360v-24,-49,-86,-88,-160,-88v-119,0,-201,130,-201,252v0,94,56,161,146,161v72,0,134,-46,164,-93"},"b":{"d":"524,-297v0,156,-101,309,-253,309v-82,0,-142,-41,-174,-94r-18,82r-52,0r147,-667r52,0r-56,257v43,-57,99,-85,166,-85v114,-1,188,80,188,198xm106,-123v24,49,86,88,160,88v120,0,201,-129,201,-252v0,-94,-56,-161,-146,-161v-72,0,-133,46,-164,93"},"c":{"d":"101,-201v0,103,66,166,165,166v53,0,96,-21,131,-62r30,36v-47,49,-103,73,-166,73v-128,1,-215,-84,-215,-214v0,-152,119,-293,268,-293v81,0,138,29,173,88r-40,30v-27,-47,-71,-71,-131,-71v-128,0,-215,120,-215,247","w":494},"d":{"d":"45,-186v0,-157,101,-309,254,-309v81,0,143,41,174,94r58,-266r53,0r-148,667r-53,0r17,-73v-45,57,-100,85,-166,85v-115,1,-189,-80,-189,-198xm463,-360v-24,-49,-86,-88,-160,-88v-119,0,-201,130,-201,252v0,94,56,161,146,161v72,0,134,-46,164,-93"},"e":{"d":"103,-225v-15,116,60,192,175,192v56,0,105,-17,146,-52r20,38v-51,39,-107,59,-168,59v-136,0,-230,-82,-230,-213v0,-153,119,-294,268,-294v143,0,233,122,197,270r-408,0xm468,-266v10,-109,-54,-184,-160,-184v-100,0,-188,94,-200,184r360,0","w":567},"f":{"d":"97,0r-53,0r97,-437r-80,0r10,-46r80,0v16,-100,50,-193,159,-194v39,0,71,12,96,37r-32,37v-16,-18,-37,-27,-63,-27v-51,0,-83,34,-98,103r-10,44r99,0r-11,46r-98,0","w":265},"g":{"d":"296,-495v74,1,145,45,175,94r19,-82r53,0r-107,479v-30,133,-105,200,-224,200v-101,-1,-163,-22,-208,-82r37,-39v32,49,89,74,171,74v97,0,155,-60,172,-153r15,-73v-44,57,-101,85,-171,85v-114,-1,-183,-79,-183,-201v0,-153,101,-305,251,-302xm101,-200v0,95,54,161,146,161v67,-1,131,-44,163,-86r53,-234v-26,-50,-93,-89,-165,-89v-118,0,-197,129,-197,248","w":570},"h":{"d":"344,-495v96,0,157,60,135,159r-74,336r-52,0r72,-328v24,-78,-27,-121,-102,-120v-55,0,-109,28,-163,85r-81,363r-52,0r147,-667r52,0r-56,257v58,-57,116,-85,174,-85","w":540},"i":{"d":"226,-603v0,24,-23,44,-46,44v-19,1,-36,-17,-36,-35v0,-24,23,-44,45,-44v20,-1,37,16,37,35xm79,0r-52,0r107,-483r52,0","w":214},"j":{"d":"16,163v-46,48,-162,42,-197,-10r31,-40v18,24,41,36,70,36v49,0,80,-29,93,-88r121,-544r52,0r-121,544v-10,46,-27,79,-49,102xm226,-603v0,24,-23,44,-46,44v-19,1,-36,-17,-36,-35v0,-24,23,-44,45,-44v20,-1,37,16,37,35","w":214},"k":{"d":"432,0r-64,0r-145,-233r-112,88r-32,145r-52,0r147,-667r52,0r-101,456r342,-272r73,0r-274,218","w":505},"l":{"d":"79,0r-52,0r147,-667r52,0","w":214},"m":{"d":"612,-495v82,-1,136,67,116,159r-74,336r-52,0r74,-336v18,-64,-25,-113,-84,-112v-59,1,-113,46,-145,84r-80,364r-53,0r75,-336v3,-20,4,-31,4,-33v-1,-48,-37,-79,-90,-79v-47,0,-94,28,-143,84r-81,364r-52,0r107,-483r52,0r-16,73v49,-57,101,-85,154,-85v64,0,121,44,122,98v53,-65,109,-98,166,-98","w":789},"n":{"d":"344,-495v96,0,157,60,135,159r-74,336r-52,0r72,-328v24,-78,-27,-121,-102,-120v-55,0,-110,28,-163,84r-81,364r-52,0r107,-483r52,0r-16,73v58,-57,116,-85,174,-85","w":540},"o":{"d":"524,-283v0,150,-118,295,-266,295v-127,0,-213,-85,-213,-212v0,-150,118,-295,266,-295v127,0,213,85,213,212xm102,-202v0,100,58,167,157,167v118,0,208,-126,208,-246v0,-100,-58,-167,-157,-167v-118,0,-208,126,-208,246"},"p":{"d":"524,-297v0,156,-101,309,-253,309v-82,0,-142,-41,-174,-94r-59,266r-52,0r148,-667r52,0r-16,73v43,-57,99,-85,166,-85v114,-1,188,80,188,198xm106,-123v24,49,86,88,160,88v120,0,201,-129,201,-252v0,-94,-56,-161,-146,-161v-72,0,-133,46,-164,93","w":567},"q":{"d":"45,-186v0,-157,101,-309,254,-309v81,0,143,41,174,94r17,-82r53,0r-148,667r-53,0r58,-257v-45,57,-100,85,-166,85v-115,1,-189,-80,-189,-198xm463,-360v-24,-49,-86,-88,-160,-88v-119,0,-201,130,-201,252v0,94,56,161,146,161v72,0,134,-46,164,-93","w":567},"r":{"d":"79,0r-52,0r107,-483r52,0r-18,78v50,-55,89,-87,184,-88r-13,56v-84,-17,-146,37,-182,85","w":317},"s":{"d":"384,-143v0,92,-80,155,-182,155v-89,0,-153,-28,-194,-85r37,-36v26,42,89,77,158,77v69,0,128,-40,128,-100v0,-46,-52,-69,-91,-86v-50,-21,-106,-36,-140,-72v-18,-18,-27,-38,-27,-62v1,-88,79,-143,176,-143v75,0,148,35,176,79r-34,34v-20,-38,-86,-69,-146,-69v-64,0,-119,31,-119,87v0,45,52,65,91,81v70,28,167,50,167,140","w":459},"t":{"d":"151,12v-75,2,-107,-41,-93,-106r76,-343r-80,0r10,-46r80,0r29,-132r53,0r-29,132r98,0r-11,46r-98,0r-74,335v-8,40,6,68,47,67v18,0,35,-6,51,-18r10,42v-21,15,-44,23,-69,23","w":275},"u":{"d":"195,12v-96,0,-156,-60,-135,-159r73,-336r53,0r-73,327v-22,77,26,123,102,121v68,-2,126,-46,164,-85r81,-363r52,0r-107,483r-52,0r16,-73v-58,57,-116,85,-174,85","w":540},"v":{"d":"216,0r-59,0r-97,-483r56,0r81,422r269,-422r61,0","w":481},"w":{"d":"491,0r-50,0r-44,-413r-227,413r-50,0r-50,-483r53,0r38,410r227,-410r44,0r45,410r220,-410r58,0","w":719},"x":{"d":"408,0r-59,0r-113,-213r-207,213r-66,0r245,-248r-127,-235r59,0r105,199r193,-199r66,0r-233,235","w":479},"y":{"d":"-46,186r20,-50v53,20,88,6,123,-46r58,-87r-95,-486r56,0r81,422r269,-422r61,0r-381,589v-51,77,-105,108,-192,80","w":481},"z":{"d":"359,0r-357,0r9,-43r370,-394r-282,0r10,-46r353,0r-9,42r-373,395r288,0","w":469},"{":{"d":"33,66v-10,45,16,81,56,81r56,0r-10,43r-49,0v-61,1,-113,-55,-97,-124r49,-219v8,-35,-6,-70,-37,-71r9,-40v35,0,58,-24,68,-71r49,-219v16,-72,60,-122,139,-124r62,0r-10,43v-47,1,-92,-6,-117,21v-14,15,-25,34,-30,60r-51,227v-10,46,-31,75,-64,87v29,12,33,52,25,88","w":249},"|":{"d":"146,20r-43,0r0,-707r43,0r0,707","w":208},"}":{"d":"215,-554v10,-45,-16,-81,-56,-81r-56,0r10,-43r49,0v62,-1,113,55,97,124r-49,219v-8,35,6,70,37,71r-9,40v-35,0,-58,24,-68,71r-49,219v-16,72,-60,122,-139,124r-62,0r10,-43r61,0v46,0,75,-27,86,-81r50,-227v11,-46,32,-75,65,-88v-29,-11,-33,-51,-25,-87","w":249},"~":{"d":"522,-667r42,5v-36,156,-94,234,-174,234v-58,0,-86,-48,-90,-98v-4,-43,-15,-98,-60,-98v-27,0,-52,17,-74,52v-22,35,-40,83,-55,146r-42,-7v16,-69,39,-124,67,-167v28,-43,63,-65,106,-65v73,-1,88,63,96,127v4,34,18,70,55,70v26,0,51,-17,73,-52v22,-35,41,-84,56,-147","w":499},"\u00a0":{"w":259},"\u00a1":{"d":"103,-309r41,0r-96,493r-67,0xm110,-445v0,-26,22,-48,48,-48v22,0,40,19,40,41v0,25,-22,47,-48,47v-22,0,-40,-18,-40,-40","w":219},"\u00a2":{"d":"201,5v-93,-19,-155,-95,-155,-207v0,-152,117,-295,266,-293r16,-70r44,0r-17,73v60,9,104,37,132,85r-40,30v-22,-39,-56,-62,-102,-69r-91,411v63,2,104,-18,143,-62r30,36v-53,52,-107,78,-184,72r-19,89r-44,0xm302,-447v-118,4,-201,122,-201,246v0,86,43,141,110,159","w":494},"\u00a3":{"d":"334,14v-58,0,-148,-47,-205,-47v-32,0,-71,13,-116,40r-12,-48v51,-20,95,-48,129,-86v41,-46,60,-82,50,-140r-157,0r9,-42r132,0v-19,-38,-66,-90,-66,-153v0,-113,115,-215,235,-215v85,0,175,48,193,113r-53,24v-12,-51,-73,-87,-138,-87v-95,0,-175,70,-175,167v0,64,44,110,64,151r147,0r-9,42r-126,0v7,49,-6,78,-34,117v-23,32,-51,56,-81,75v18,-5,34,-8,48,-8v40,0,130,44,167,44v35,0,67,-14,96,-41r16,47v-37,31,-75,47,-114,47","w":504},"\u00a4":{"d":"461,-136r-34,27r-37,-49v-86,63,-203,58,-277,-15r-79,66r-23,-31r77,-63v-58,-105,-32,-201,49,-281r-37,-49r32,-26r39,48v84,-61,202,-58,276,14r78,-64r25,30r-78,64v58,102,32,199,-49,281xm261,-162v99,0,193,-90,193,-189v0,-89,-66,-153,-155,-153v-99,0,-193,90,-193,189v0,89,66,153,155,153","w":522},"\u00a5":{"d":"287,0r-58,0r28,-126r-262,0r9,-41r262,0r27,-118r-262,0r8,-42r234,0r-162,-340r64,0r153,328r297,-328r74,0r-311,340r227,0r-9,42r-256,0r-26,118r255,0r-9,41r-255,0","w":618},"\u00a6":{"d":"146,20r-43,0r0,-316r43,0r0,316xm146,-371r-43,0r0,-316r43,0r0,316","w":208},"\u00a7":{"d":"288,-636v-62,0,-123,35,-123,91v0,77,106,87,167,114v44,20,91,54,91,114v0,76,-56,122,-128,141v49,25,73,60,73,105v-1,87,-82,152,-179,152v-92,0,-160,-27,-205,-80r38,-33v29,44,94,72,165,72v67,0,128,-43,127,-105v-1,-48,-50,-70,-90,-86v-70,-28,-165,-49,-165,-140v0,-78,70,-127,153,-135v-66,-24,-99,-61,-99,-111v1,-81,79,-140,172,-140v85,0,148,25,189,75r-36,30v-31,-43,-81,-64,-150,-64xm340,-243v36,-35,40,-91,2,-121v-18,-14,-44,-27,-78,-40v-51,7,-88,20,-114,38v-46,32,-52,94,-6,124v21,14,56,30,105,47v41,-12,71,-29,91,-48","w":461},"\u00a8":{"d":"316,-638v18,0,33,15,33,33v0,22,-20,42,-41,41v-18,0,-34,-15,-34,-33v0,-21,20,-41,42,-41xm112,-638v18,0,33,15,33,33v0,22,-20,42,-42,41v-18,0,-33,-15,-33,-33v-1,-21,20,-41,42,-41","w":262},"\u00a9":{"d":"408,-679v185,0,346,160,346,345v0,186,-161,345,-346,345v-185,0,-344,-160,-344,-345v0,-186,158,-345,344,-345xm408,-17v170,0,318,-147,318,-317v0,-170,-148,-317,-318,-317v-170,0,-316,147,-316,317v0,169,147,317,316,317xm230,-307v0,86,70,157,159,157v45,0,83,-16,116,-47r17,25v-41,35,-86,52,-133,52v-112,0,-192,-79,-192,-187v0,-127,114,-242,236,-242v72,0,124,27,155,80r-27,19v-25,-46,-67,-69,-128,-69v-103,0,-203,102,-203,212","w":778},"\u00aa":{"d":"372,-562v-16,-30,-59,-51,-105,-51v-75,0,-131,79,-131,157v0,62,36,103,94,103v39,0,75,-19,108,-57xm91,-453v0,-98,74,-195,170,-195v53,0,92,19,117,57r11,-49r43,0r-70,314r-43,0r11,-50v-31,39,-69,58,-113,58v-74,0,-126,-54,-126,-135","w":409},"\u00ab":{"d":"202,-63r-53,0r-120,-180r200,-177r61,0r-204,182xm327,-63r-53,0r-120,-180r200,-177r61,0r-204,182","w":402},"\u00ac":{"d":"513,-453r-52,237r-44,0r43,-195r-394,0r9,-42r438,0","w":499},"\u00ad":{"d":"264,-218r-240,0r10,-48r240,0","w":300},"\u00ae":{"d":"296,-677v115,0,212,97,212,212v0,114,-99,212,-213,212v-114,0,-211,-98,-211,-212v0,-114,98,-212,212,-212xm295,-280v98,0,186,-87,186,-185v0,-100,-86,-185,-186,-185v-100,0,-184,85,-184,185v0,98,85,185,184,185xm402,-522v0,44,-40,83,-80,82r44,97r-36,0r-42,-96r-48,0r-21,96r-30,0r53,-243r91,0v37,0,69,25,69,64xm315,-468v29,1,55,-22,55,-50v0,-25,-18,-40,-42,-40r-62,0r-20,90r69,0","w":494},"\u00af":{"d":"439,-591r-362,0r8,-38r362,0","w":363},"\u203e":{"d":"439,-591r-362,0r8,-38r362,0","w":363},"\u00b0":{"d":"210,-677v62,0,117,55,117,117v0,62,-55,115,-117,115v-62,0,-116,-53,-116,-115v0,-62,54,-117,116,-117xm209,-484v41,0,79,-35,79,-76v0,-41,-37,-78,-78,-78v-41,0,-76,37,-76,78v0,41,34,76,75,76","w":282},"\u00b1":{"d":"485,-323r-197,0r-48,218r-45,0r48,-218r-197,0r10,-41r196,0r47,-212r44,0r-46,212r197,0xm413,0r-438,0r9,-41r438,0","w":496},"\u00b2":{"d":"299,-827v70,0,139,33,137,105v-1,44,-29,85,-54,110v-60,61,-134,104,-215,153r213,0r-8,38r-281,0r9,-39r96,-59v59,-41,144,-88,178,-151v10,-17,16,-34,16,-50v1,-46,-45,-69,-91,-69v-47,0,-85,16,-113,47r-22,-30v35,-37,80,-55,135,-55","w":384},"\u00b3":{"d":"322,-622v38,7,78,41,77,86v0,67,-67,122,-143,122v-73,0,-124,-24,-152,-72r32,-25v25,39,65,59,119,59v57,0,99,-36,98,-90v-1,-53,-70,-73,-132,-66r8,-38v20,1,40,2,59,2v55,1,100,-26,100,-77v0,-45,-50,-69,-98,-68v-39,0,-76,15,-109,44r-20,-29v39,-35,83,-53,131,-53v72,-1,141,32,141,100v1,62,-52,101,-111,105","w":384},"\u00b4":{"d":"316,-700r-204,144r-45,0r186,-144r63,0","w":216},"\u00b5":{"d":"368,-71v-46,41,-114,82,-192,83v-42,0,-73,-8,-94,-25r-44,197r-52,0r148,-667r52,0r-75,340v-13,68,14,111,91,110v67,-1,141,-43,175,-82r83,-368r52,0r-107,483r-52,0","w":540},"\u03bc":{"d":"368,-71v-46,41,-114,82,-192,83v-42,0,-73,-8,-94,-25r-44,197r-52,0r148,-667r52,0r-75,340v-13,68,14,111,91,110v67,-1,141,-43,175,-82r83,-368r52,0r-107,483r-52,0","w":540},"\u00b6":{"d":"79,-479v0,-97,92,-188,194,-188r188,0r-170,767r-38,0r162,-729r-93,0r-162,729r-38,0r94,-423v-78,1,-137,-73,-137,-156","w":449},"\u00b7":{"d":"154,-248v0,25,-22,47,-48,47v-22,0,-41,-18,-41,-40v0,-26,23,-47,49,-47v22,0,40,18,40,40","w":219},"\u2219":{"d":"154,-248v0,25,-22,47,-48,47v-22,0,-41,-18,-41,-40v0,-26,23,-47,49,-47v22,0,40,18,40,40","w":219},"\u00b8":{"d":"120,102v0,53,-48,87,-105,87v-43,0,-78,-12,-104,-37r23,-30v22,23,50,34,83,34v38,1,65,-18,66,-51v0,-38,-58,-45,-77,-16r-24,-16r49,-84r38,0r-41,67v37,-26,92,-3,92,46","w":198},"\u00b9":{"d":"193,-421r-46,0r74,-337r-77,66r-22,-30r119,-99r40,0","w":214},"\u00ba":{"d":"417,-507v0,99,-81,189,-179,189v-86,0,-145,-57,-145,-141v0,-99,81,-189,179,-189v86,0,145,57,145,141xm138,-459v0,60,42,104,101,104v79,0,134,-73,134,-152v0,-60,-42,-103,-101,-103v-78,0,-134,73,-134,151","w":405},"\u00bb":{"d":"77,-420r53,0r120,180r-200,177r-61,0r204,-182xm202,-420r53,0r120,180r-200,177r-62,0r205,-182","w":402},"\u00bc":{"d":"661,-667r-574,667r-45,0r573,-667r46,0xm671,-107r-60,0r-24,107r-44,0r23,-107r-196,0r8,-35r236,-258r61,0r-57,256r60,0xm574,-144r47,-211r-196,211r149,0xm159,-267r-46,0r74,-337r-77,66r-22,-30r119,-99r40,0","w":742},"\u00bd":{"d":"661,-667r-574,667r-45,0r573,-667r46,0xm603,-406v70,0,139,33,137,105v-1,44,-29,84,-54,109v-60,61,-134,105,-215,154r213,0r-8,38r-281,0r9,-39r96,-59v59,-41,144,-88,178,-151v10,-17,16,-34,16,-50v1,-46,-45,-69,-91,-69v-47,0,-85,16,-113,47r-22,-30v35,-37,80,-55,135,-55xm159,-267r-46,0r74,-337r-77,66r-22,-30r119,-99r40,0","w":781},"\u00be":{"d":"778,-667r-574,667r-45,0r573,-667r46,0xm788,-107r-60,0r-24,107r-44,0r23,-107r-196,0r8,-35r236,-258r61,0r-57,256r60,0xm691,-144r47,-211r-196,211r149,0xm288,-468v38,7,78,41,77,86v0,67,-67,122,-143,122v-73,0,-124,-24,-152,-72r32,-25v25,39,65,59,119,59v57,0,99,-36,98,-90v-1,-53,-70,-73,-132,-66r8,-38v20,1,40,2,59,2v55,1,100,-26,100,-77v0,-45,-50,-69,-98,-68v-39,0,-76,15,-109,44r-20,-29v39,-35,83,-53,131,-53v72,-1,141,32,141,100v1,62,-52,101,-111,105","w":859},"\u00bf":{"d":"168,194v-105,0,-196,-50,-196,-145v0,-146,158,-160,238,-231v32,-28,39,-70,8,-100r46,-24v34,40,34,100,0,140v-52,61,-153,76,-204,138v-17,21,-26,43,-26,70v1,67,63,100,139,100v65,0,121,-24,167,-72r28,39v-57,57,-124,85,-200,85xm242,-445v0,-26,22,-47,48,-47v22,0,40,18,40,40v0,26,-22,48,-48,47v-21,0,-40,-18,-40,-40","w":392},"\u00c0":{"d":"491,-728r-44,0r-140,-144r62,0xm578,0r-63,0r-30,-164r-353,0r-102,164r-69,0r420,-667r71,0xm478,-216r-72,-390r-244,390r316,0","w":647},"\u00c1":{"d":"619,-872r-204,144r-45,0r186,-144r63,0xm578,0r-63,0r-30,-164r-353,0r-102,164r-69,0r420,-667r71,0xm478,-216r-72,-390r-244,390r316,0","w":647},"\u00c2":{"d":"557,-728r-38,0r-62,-113r-108,113r-42,0r129,-144r54,0xm578,0r-63,0r-30,-164r-353,0r-102,164r-69,0r420,-667r71,0xm478,-216r-72,-390r-244,390r316,0","w":647},"\u00c3":{"d":"614,-860v-15,66,-44,131,-113,134v-33,1,-57,-27,-65,-51v-8,-22,-23,-51,-52,-51v-31,0,-54,32,-69,96r-36,0v14,-66,44,-131,112,-134v34,-1,56,27,65,51v8,22,24,51,52,51v31,0,54,-32,70,-96r36,0xm578,0r-63,0r-30,-164r-353,0r-102,164r-69,0r420,-667r71,0xm478,-216r-72,-390r-244,390r316,0","w":647},"\u00c4":{"d":"547,-806v18,0,33,15,33,33v1,22,-19,42,-41,41v-18,0,-34,-15,-34,-33v0,-21,20,-41,42,-41xm343,-806v18,0,33,15,33,33v0,22,-20,42,-42,41v-18,0,-33,-15,-33,-33v-1,-21,20,-41,42,-41xm578,0r-63,0r-30,-164r-353,0r-102,164r-69,0r420,-667r71,0xm478,-216r-72,-390r-244,390r316,0","w":647},"\u00c5":{"d":"539,-797v0,55,-50,105,-105,105v-50,0,-87,-37,-87,-87v0,-55,50,-105,105,-105v50,0,87,37,87,87xm379,-782v0,34,23,58,56,58v37,0,72,-33,72,-70v0,-34,-23,-58,-56,-58v-37,0,-72,33,-72,70xm578,0r-63,0r-30,-164r-353,0r-102,164r-69,0r420,-667r71,0xm478,-216r-72,-390r-244,390r316,0","w":647},"\u00c6":{"d":"825,0r-423,0r36,-164r-271,0r-138,164r-69,0r568,-667r444,0r-11,52r-365,0r-55,247r358,0r-11,52r-359,0r-58,264r365,0xm450,-216r85,-385r-327,385r242,0","w":939},"\u00c7":{"d":"129,-279v0,143,97,239,241,239v67,0,130,-25,189,-76r40,34v-70,66,-148,99,-251,93r-27,45v37,-26,92,-3,92,46v0,53,-48,87,-105,87v-43,0,-78,-12,-104,-37r23,-30v22,23,50,34,83,34v38,1,65,-18,66,-51v0,-38,-58,-45,-77,-16r-24,-16r38,-65v-141,-18,-248,-127,-246,-285v3,-188,99,-313,233,-372v93,-41,210,-38,293,8v45,25,81,60,106,106r-55,25v-43,-77,-113,-116,-211,-116v-80,0,-151,32,-212,97v-61,65,-92,148,-92,250","w":671},"\u00c8":{"d":"461,-728r-44,0r-140,-144r62,0xm452,0r-423,0r147,-667r423,0r-11,52r-366,0r-54,247r358,0r-12,52r-358,0r-59,264r366,0","w":564},"\u00c9":{"d":"589,-872r-204,144r-45,0r186,-144r63,0xm452,0r-423,0r147,-667r423,0r-11,52r-366,0r-54,247r358,0r-12,52r-358,0r-59,264r366,0","w":564},"\u00ca":{"d":"525,-728r-38,0r-62,-113r-108,113r-42,0r129,-144r54,0xm452,0r-423,0r147,-667r423,0r-11,52r-366,0r-54,247r358,0r-12,52r-358,0r-59,264r366,0","w":564},"\u00cb":{"d":"515,-806v18,0,33,15,33,33v1,22,-19,42,-41,41v-18,0,-34,-15,-34,-33v0,-21,20,-41,42,-41xm311,-806v18,0,33,15,33,33v0,22,-20,42,-42,41v-18,0,-33,-15,-33,-33v-1,-21,20,-41,42,-41xm452,0r-423,0r147,-667r423,0r-11,52r-366,0r-54,247r358,0r-12,52r-358,0r-59,264r366,0","w":564},"\u00cc":{"d":"279,-728r-44,0r-140,-144r62,0xm86,0r-57,0r147,-667r57,0","w":223},"\u00cd":{"d":"407,-872r-204,144r-45,0r186,-144r63,0xm86,0r-57,0r147,-667r57,0","w":223},"\u00ce":{"d":"345,-728r-38,0r-62,-113r-108,113r-42,0r129,-144r54,0xm86,0r-57,0r147,-667r57,0","w":223},"\u00cf":{"d":"334,-806v18,0,33,15,33,33v0,22,-20,42,-41,41v-18,0,-34,-15,-34,-33v0,-21,20,-41,42,-41xm130,-806v18,0,33,15,33,33v0,22,-20,42,-42,41v-18,0,-33,-15,-33,-33v-1,-21,20,-41,42,-41xm86,0r-57,0r147,-667r57,0","w":223},"\u00d0":{"d":"413,-667v151,-3,275,129,271,284v-3,140,-66,235,-148,301v-61,49,-157,82,-266,82r-212,0r68,-309r-101,0r11,-50r101,0r68,-308r208,0xm624,-381v0,-129,-96,-234,-222,-234r-151,0r-57,256r179,0r-11,50r-179,0r-57,257r154,0v195,6,344,-144,344,-329","w":721},"\u00d1":{"d":"638,-860v-15,66,-44,131,-113,134v-33,1,-57,-27,-65,-51v-8,-22,-23,-51,-52,-51v-31,0,-54,32,-69,96r-36,0v14,-66,44,-131,112,-134v34,-1,56,27,65,51v8,22,24,51,52,51v31,0,54,-32,70,-96r36,0xm562,0r-56,0r-292,-578r-128,578r-57,0r147,-667r58,0r291,570r127,-570r57,0","w":699},"\u00d2":{"d":"553,-728r-44,0r-140,-144r62,0xm736,-389v0,212,-164,401,-369,401v-171,0,-300,-113,-300,-289v0,-212,165,-401,370,-401v171,0,299,113,299,289xm129,-279v0,146,101,239,241,239v170,0,304,-165,304,-347v0,-146,-102,-239,-242,-239v-171,0,-303,164,-303,347","w":764},"\u00d3":{"d":"678,-872r-204,144r-45,0r186,-144r63,0xm736,-389v0,212,-164,401,-369,401v-171,0,-300,-113,-300,-289v0,-212,165,-401,370,-401v171,0,299,113,299,289xm129,-279v0,146,101,239,241,239v170,0,304,-165,304,-347v0,-146,-102,-239,-242,-239v-171,0,-303,164,-303,347","w":764},"\u00d4":{"d":"616,-728r-38,0r-62,-113r-108,113r-42,0r129,-144r54,0xm736,-389v0,212,-164,401,-369,401v-171,0,-300,-113,-300,-289v0,-212,165,-401,370,-401v171,0,299,113,299,289xm129,-279v0,146,101,239,241,239v170,0,304,-165,304,-347v0,-146,-102,-239,-242,-239v-171,0,-303,164,-303,347","w":764},"\u00d5":{"d":"672,-860v-15,66,-44,131,-113,134v-33,1,-57,-27,-65,-51v-8,-22,-23,-51,-52,-51v-31,0,-54,32,-69,96r-36,0v14,-66,44,-131,112,-134v34,-1,56,27,65,51v8,22,24,51,52,51v31,0,54,-32,70,-96r36,0xm736,-389v0,212,-164,401,-369,401v-171,0,-300,-113,-300,-289v0,-212,165,-401,370,-401v171,0,299,113,299,289xm129,-279v0,146,101,239,241,239v170,0,304,-165,304,-347v0,-146,-102,-239,-242,-239v-171,0,-303,164,-303,347","w":764},"\u00d6":{"d":"603,-806v18,0,33,15,33,33v1,22,-19,42,-41,41v-18,0,-34,-15,-34,-33v0,-21,20,-41,42,-41xm399,-806v18,0,33,15,33,33v0,22,-20,42,-42,41v-18,0,-33,-15,-33,-33v-1,-21,20,-41,42,-41xm736,-389v0,212,-164,401,-369,401v-171,0,-300,-113,-300,-289v0,-212,165,-401,370,-401v171,0,299,113,299,289xm129,-279v0,146,101,239,241,239v170,0,304,-165,304,-347v0,-146,-102,-239,-242,-239v-171,0,-303,164,-303,347","w":764},"\u00d7":{"d":"381,-155r-117,-150r-186,153r-26,-31r187,-154r-117,-150r33,-27r116,151r188,-153r25,31r-187,154r116,150","w":496},"\u00d8":{"d":"736,-389v0,212,-164,401,-369,401v-75,0,-138,-19,-189,-56r-38,44r-51,0r59,-69v-54,-53,-81,-122,-81,-208v0,-212,165,-401,370,-401v71,0,132,18,185,54r37,-43r52,0r-58,68v55,53,83,123,83,210xm370,-40v170,2,304,-165,304,-347v0,-67,-20,-123,-60,-166r-399,465v42,32,94,48,155,48xm432,-626v-171,-2,-303,164,-303,347v0,68,19,123,57,165r398,-466v-43,-31,-93,-46,-152,-46","w":764},"\u00d9":{"d":"512,-728r-44,0r-140,-144r62,0xm144,-257v-29,129,57,220,184,217v142,-3,192,-90,220,-217r90,-410r58,0r-90,411v-20,88,-51,155,-94,200v-43,45,-104,68,-184,68v-162,0,-278,-102,-242,-268r90,-411r58,0","w":686},"\u00da":{"d":"637,-872r-204,144r-45,0r186,-144r63,0xm144,-257v-29,129,57,220,184,217v142,-3,192,-90,220,-217r90,-410r58,0r-90,411v-20,88,-51,155,-94,200v-43,45,-104,68,-184,68v-162,0,-278,-102,-242,-268r90,-411r58,0","w":686},"\u00db":{"d":"579,-728r-38,0r-62,-113r-108,113r-42,0r129,-144r54,0xm144,-257v-29,129,57,220,184,217v142,-3,192,-90,220,-217r90,-410r58,0r-90,411v-20,88,-51,155,-94,200v-43,45,-104,68,-184,68v-162,0,-278,-102,-242,-268r90,-411r58,0","w":686},"\u00dc":{"d":"566,-806v18,0,33,15,33,33v0,22,-20,42,-41,41v-18,0,-34,-15,-34,-33v0,-21,20,-41,42,-41xm362,-806v18,0,33,15,33,33v0,22,-20,42,-42,41v-18,0,-33,-15,-33,-33v-1,-21,20,-41,42,-41xm144,-257v-29,129,57,220,184,217v142,-3,192,-90,220,-217r90,-410r58,0r-90,411v-20,88,-51,155,-94,200v-43,45,-104,68,-184,68v-162,0,-278,-102,-242,-268r90,-411r58,0","w":686},"\u00dd":{"d":"608,-872r-204,144r-45,0r186,-144r63,0xm284,0r-58,0r64,-285r-182,-382r64,0r153,328r297,-328r74,0r-349,382","w":618},"\u00de":{"d":"387,-543v92,-2,171,76,171,167v0,59,-21,111,-63,156v-42,45,-104,67,-185,67r-190,0r-34,153r-57,0r147,-667r57,0r-27,124r181,0xm496,-372v1,-65,-57,-119,-123,-119r-178,0r-63,286r184,0v108,4,178,-69,180,-167"},"\u00df":{"d":"331,-677v75,0,161,42,159,113v-3,108,-126,108,-183,163v-28,27,-29,69,5,93v57,41,152,49,199,102v17,19,26,40,26,65v-1,89,-79,156,-180,153v-101,-3,-150,-31,-199,-90r37,-33v40,53,94,79,163,79v69,0,127,-42,127,-102v0,-45,-50,-66,-89,-81v-68,-26,-163,-44,-163,-131v0,-109,121,-117,182,-168v14,-12,21,-26,21,-42v2,-46,-58,-75,-105,-74v-74,1,-125,55,-139,121r-113,509r-52,0r112,-509v20,-91,86,-168,192,-168","w":578},"\u00e0":{"d":"45,-186v0,-157,101,-309,254,-309v81,0,143,41,174,94r17,-82r53,0r-107,483r-53,0r17,-73v-45,57,-100,85,-166,85v-115,1,-189,-80,-189,-198xm463,-360v-24,-49,-86,-88,-160,-88v-119,0,-201,130,-201,252v0,94,56,161,146,161v72,0,134,-46,164,-93xm399,-556r-44,0r-140,-144r62,0"},"\u00e1":{"d":"45,-186v0,-157,101,-309,254,-309v81,0,143,41,174,94r17,-82r53,0r-107,483r-53,0r17,-73v-45,57,-100,85,-166,85v-115,1,-189,-80,-189,-198xm463,-360v-24,-49,-86,-88,-160,-88v-119,0,-201,130,-201,252v0,94,56,161,146,161v72,0,134,-46,164,-93xm527,-700r-204,144r-45,0r186,-144r63,0"},"\u00e2":{"d":"45,-186v0,-157,101,-309,254,-309v81,0,143,41,174,94r17,-82r53,0r-107,483r-53,0r17,-73v-45,57,-100,85,-166,85v-115,1,-189,-80,-189,-198xm463,-360v-24,-49,-86,-88,-160,-88v-119,0,-201,130,-201,252v0,94,56,161,146,161v72,0,134,-46,164,-93xm466,-556r-38,0r-62,-113r-108,113r-42,0r129,-144r54,0"},"\u00e3":{"d":"45,-186v0,-157,101,-309,254,-309v81,0,143,41,174,94r17,-82r53,0r-107,483r-53,0r17,-73v-45,57,-100,85,-166,85v-115,1,-189,-80,-189,-198xm463,-360v-24,-49,-86,-88,-160,-88v-119,0,-201,130,-201,252v0,94,56,161,146,161v72,0,134,-46,164,-93xm522,-688v-15,66,-44,131,-113,134v-33,1,-57,-27,-65,-51v-8,-22,-23,-51,-52,-51v-31,0,-54,32,-69,96r-36,0v14,-66,44,-131,112,-134v34,-1,56,27,65,51v8,22,24,51,52,51v31,0,54,-32,70,-96r36,0"},"\u00e4":{"d":"45,-186v0,-157,101,-309,254,-309v81,0,143,41,174,94r17,-82r53,0r-107,483r-53,0r17,-73v-45,57,-100,85,-166,85v-115,1,-189,-80,-189,-198xm463,-360v-24,-49,-86,-88,-160,-88v-119,0,-201,130,-201,252v0,94,56,161,146,161v72,0,134,-46,164,-93xm457,-638v18,0,33,15,33,33v1,22,-19,42,-41,41v-18,0,-34,-15,-34,-33v0,-21,20,-41,42,-41xm253,-638v18,0,33,15,33,33v0,22,-20,42,-42,41v-18,0,-33,-15,-33,-33v-1,-21,20,-41,42,-41"},"\u00e5":{"d":"45,-186v0,-157,101,-309,254,-309v81,0,143,41,174,94r17,-82r53,0r-107,483r-53,0r17,-73v-45,57,-100,85,-166,85v-115,1,-189,-80,-189,-198xm463,-360v-24,-49,-86,-88,-160,-88v-119,0,-201,130,-201,252v0,94,56,161,146,161v72,0,134,-46,164,-93xm458,-655v0,55,-50,105,-105,105v-50,0,-87,-37,-87,-87v0,-55,50,-105,105,-105v50,0,87,37,87,87xm298,-640v0,34,23,58,56,58v37,0,72,-33,72,-70v0,-34,-23,-58,-56,-58v-37,0,-72,33,-72,70"},"\u00e6":{"d":"489,-225v-15,116,60,192,175,192v51,0,98,-17,141,-52r20,38v-51,39,-105,59,-161,59v-107,1,-179,-58,-199,-144r-29,132r-53,0r16,-73v-43,57,-98,85,-165,85v-115,1,-189,-80,-189,-198v0,-156,101,-309,253,-309v81,0,144,41,174,94r18,-82r53,0r-20,91v51,-69,113,-103,186,-103v143,0,213,125,183,270r-403,0xm463,-360v-24,-49,-86,-88,-160,-88v-119,0,-201,130,-201,252v0,94,56,161,146,161v72,0,133,-46,164,-93xm848,-266v12,-108,-48,-184,-154,-184v-100,0,-188,94,-200,184r354,0","w":947},"\u00e7":{"d":"312,102v0,53,-48,87,-105,87v-43,0,-78,-12,-104,-37r23,-30v22,23,50,34,83,34v38,1,65,-18,66,-51v0,-38,-58,-45,-77,-16r-24,-16r38,-65v-99,-18,-166,-93,-166,-210v0,-152,119,-293,268,-293v81,0,138,29,173,88r-40,30v-27,-47,-71,-71,-131,-71v-128,0,-215,120,-215,247v0,103,66,166,165,166v53,0,96,-21,131,-62r30,36v-52,51,-106,77,-180,72r-27,45v37,-26,92,-3,92,46","w":494},"\u00e8":{"d":"103,-225v-15,116,60,192,175,192v56,0,105,-17,146,-52r20,38v-51,39,-107,59,-168,59v-136,0,-230,-82,-230,-213v0,-153,119,-294,268,-294v143,0,233,122,197,270r-408,0xm468,-266v10,-109,-54,-184,-160,-184v-100,0,-188,94,-200,184r360,0xm416,-556r-44,0r-140,-144r62,0","w":567},"\u00e9":{"d":"103,-225v-15,116,60,192,175,192v56,0,105,-17,146,-52r20,38v-51,39,-107,59,-168,59v-136,0,-230,-82,-230,-213v0,-153,119,-294,268,-294v143,0,233,122,197,270r-408,0xm468,-266v10,-109,-54,-184,-160,-184v-100,0,-188,94,-200,184r360,0xm544,-700r-204,144r-45,0r186,-144r63,0","w":567},"\u00ea":{"d":"103,-225v-15,116,60,192,175,192v56,0,105,-17,146,-52r20,38v-51,39,-107,59,-168,59v-136,0,-230,-82,-230,-213v0,-153,119,-294,268,-294v143,0,233,122,197,270r-408,0xm468,-266v10,-109,-54,-184,-160,-184v-100,0,-188,94,-200,184r360,0xm482,-556r-38,0r-62,-113r-108,113r-42,0r129,-144r54,0","w":567},"\u00eb":{"d":"103,-225v-15,116,60,192,175,192v56,0,105,-17,146,-52r20,38v-51,39,-107,59,-168,59v-136,0,-230,-82,-230,-213v0,-153,119,-294,268,-294v143,0,233,122,197,270r-408,0xm468,-266v10,-109,-54,-184,-160,-184v-100,0,-188,94,-200,184r360,0xm472,-638v18,0,33,15,33,33v0,22,-20,42,-41,41v-18,0,-34,-15,-34,-33v0,-21,20,-41,42,-41xm268,-638v18,0,33,15,33,33v0,22,-20,42,-42,41v-18,0,-33,-15,-33,-33v-1,-21,20,-41,42,-41","w":567},"\u00ec":{"d":"235,-556r-44,0r-140,-144r62,0xm79,0r-52,0r107,-483r52,0","w":214},"\u00ed":{"d":"364,-700r-204,144r-45,0r186,-144r63,0xm79,0r-52,0r107,-483r52,0","w":214},"\u00ee":{"d":"301,-556r-38,0r-62,-113r-108,113r-42,0r129,-144r54,0xm79,0r-52,0r107,-483r52,0","w":214},"\u00ef":{"d":"292,-638v18,0,33,15,33,33v0,22,-20,42,-41,41v-18,0,-34,-15,-34,-33v0,-21,20,-41,42,-41xm88,-638v18,0,33,15,33,33v0,22,-20,42,-42,41v-18,0,-33,-15,-33,-33v-1,-21,20,-41,42,-41xm79,0r-52,0r107,-483r52,0","w":214},"\u00f0":{"d":"46,-193v0,-183,169,-362,350,-269v31,17,55,44,71,80v-25,-68,-66,-130,-122,-187r-156,46r-7,-33r135,-40v-21,-19,-45,-39,-70,-58r39,-40v37,28,67,55,92,80r119,-36r7,33r-100,30v80,92,120,187,120,286v0,162,-108,313,-263,313v-122,0,-215,-86,-215,-205xm102,-200v0,97,62,165,160,165v114,0,206,-124,203,-245v-2,-89,-63,-160,-161,-160v-115,0,-202,117,-202,240"},"\u00f1":{"d":"346,-495v96,0,157,60,135,159r-74,336r-52,0r72,-328v24,-78,-27,-121,-102,-120v-55,0,-110,28,-163,84r-81,364r-52,0r107,-483r52,0r-16,73v58,-57,116,-85,174,-85xm522,-688v-15,66,-44,131,-113,134v-33,1,-57,-27,-65,-51v-8,-22,-23,-51,-52,-51v-31,0,-54,32,-69,96r-36,0v14,-66,44,-131,112,-134v34,-1,56,27,65,51v8,22,24,51,52,51v31,0,54,-32,70,-96r36,0","w":540},"\u00f2":{"d":"524,-283v0,150,-118,295,-266,295v-127,0,-213,-85,-213,-212v0,-150,118,-295,266,-295v127,0,213,85,213,212xm102,-202v0,100,58,167,157,167v118,0,208,-126,208,-246v0,-100,-58,-167,-157,-167v-118,0,-208,126,-208,246xm415,-556r-44,0r-140,-144r62,0"},"\u00f3":{"d":"524,-283v0,150,-118,295,-266,295v-127,0,-213,-85,-213,-212v0,-150,118,-295,266,-295v127,0,213,85,213,212xm102,-202v0,100,58,167,157,167v118,0,208,-126,208,-246v0,-100,-58,-167,-157,-167v-118,0,-208,126,-208,246xm543,-700r-204,144r-45,0r186,-144r63,0"},"\u00f4":{"d":"524,-283v0,150,-118,295,-266,295v-127,0,-213,-85,-213,-212v0,-150,118,-295,266,-295v127,0,213,85,213,212xm102,-202v0,100,58,167,157,167v118,0,208,-126,208,-246v0,-100,-58,-167,-157,-167v-118,0,-208,126,-208,246xm481,-556r-38,0r-62,-113r-108,113r-42,0r129,-144r54,0"},"\u00f5":{"d":"524,-283v0,150,-118,295,-266,295v-127,0,-213,-85,-213,-212v0,-150,118,-295,266,-295v127,0,213,85,213,212xm102,-202v0,100,58,167,157,167v118,0,208,-126,208,-246v0,-100,-58,-167,-157,-167v-118,0,-208,126,-208,246xm537,-688v-15,66,-44,131,-113,134v-33,1,-56,-27,-64,-51v-8,-22,-25,-51,-53,-51v-31,0,-54,32,-69,96r-36,0v14,-66,44,-131,112,-134v34,-1,56,27,65,51v8,22,24,51,52,51v31,0,54,-32,70,-96r36,0"},"\u00f6":{"d":"524,-283v0,150,-118,295,-266,295v-127,0,-213,-85,-213,-212v0,-150,118,-295,266,-295v127,0,213,85,213,212xm102,-202v0,100,58,167,157,167v118,0,208,-126,208,-246v0,-100,-58,-167,-157,-167v-118,0,-208,126,-208,246xm471,-638v18,0,33,15,33,33v1,22,-19,42,-41,41v-18,0,-34,-15,-34,-33v0,-21,20,-41,42,-41xm267,-638v18,0,33,15,33,33v0,22,-20,42,-42,41v-18,0,-33,-15,-33,-33v-1,-21,20,-41,42,-41"},"\u00f7":{"d":"498,-316r-453,0r9,-42r453,0xm272,-142v0,23,-21,43,-44,42v-20,1,-35,-17,-35,-36v-1,-23,20,-43,43,-42v19,-1,36,17,36,36xm358,-534v1,23,-20,43,-43,42v-19,1,-36,-17,-36,-36v0,-22,21,-42,43,-42v21,0,36,16,36,36","w":511},"\u00f8":{"d":"524,-283v0,150,-118,295,-266,295v-63,0,-114,-18,-152,-54r-41,42r-46,0r66,-66v-27,-36,-40,-81,-40,-134v0,-150,118,-295,266,-295v60,0,109,17,147,51r38,-39r46,0r-61,62v29,37,43,83,43,138xm259,-35v118,0,208,-126,208,-246v0,-39,-9,-73,-26,-100r-297,301v28,30,66,45,115,45xm310,-448v-149,0,-257,197,-186,342r297,-301v-29,-27,-66,-41,-111,-41"},"\u00f9":{"d":"195,12v-96,0,-156,-60,-135,-159r73,-336r53,0r-73,327v-22,77,26,123,102,121v68,-2,126,-46,164,-85r81,-363r52,0r-107,483r-52,0r16,-73v-58,57,-116,85,-174,85xm401,-556r-44,0r-140,-144r62,0","w":540},"\u00fa":{"d":"195,12v-96,0,-156,-60,-135,-159r73,-336r53,0r-73,327v-22,77,26,123,102,121v68,-2,126,-46,164,-85r81,-363r52,0r-107,483r-52,0r16,-73v-58,57,-116,85,-174,85xm528,-700r-204,144r-45,0r186,-144r63,0","w":540},"\u00fb":{"d":"195,12v-96,0,-156,-60,-135,-159r73,-336r53,0r-73,327v-22,77,26,123,102,121v68,-2,126,-46,164,-85r81,-363r52,0r-107,483r-52,0r16,-73v-58,57,-116,85,-174,85xm464,-556r-38,0r-62,-113r-108,113r-42,0r129,-144r54,0","w":540},"\u00fc":{"d":"195,12v-96,0,-156,-60,-135,-159r73,-336r53,0r-73,327v-22,77,26,123,102,121v68,-2,126,-46,164,-85r81,-363r52,0r-107,483r-52,0r16,-73v-58,57,-116,85,-174,85xm459,-638v18,0,33,15,33,33v1,22,-19,42,-41,41v-18,0,-34,-15,-34,-33v0,-21,20,-41,42,-41xm255,-638v18,0,33,15,33,33v0,22,-20,42,-42,41v-18,0,-33,-15,-33,-33v-1,-21,20,-41,42,-41","w":540},"\u00fd":{"d":"-46,186r20,-50v53,20,88,6,123,-46r58,-87r-95,-486r56,0r81,422r269,-422r61,0r-381,589v-51,77,-105,108,-192,80xm498,-700r-204,144r-45,0r186,-144r63,0","w":481},"\u00fe":{"d":"524,-297v0,156,-101,309,-253,309v-82,0,-142,-41,-174,-94r-59,266r-52,0r188,-851r52,0r-56,257v43,-57,99,-85,166,-85v114,-1,188,80,188,198xm106,-123v24,49,86,88,160,88v120,0,201,-129,201,-252v0,-94,-56,-161,-146,-161v-72,0,-133,46,-164,93","w":567},"\u00ff":{"d":"-46,186r20,-50v53,20,88,6,123,-46r58,-87r-95,-486r56,0r81,422r269,-422r61,0r-381,589v-51,77,-105,108,-192,80xm426,-638v18,0,33,15,33,33v0,22,-20,42,-41,41v-18,0,-34,-15,-34,-33v0,-21,20,-41,42,-41xm222,-638v18,0,33,15,33,33v0,22,-20,42,-42,41v-18,0,-33,-15,-33,-33v-1,-21,20,-41,42,-41","w":481},"\u0152":{"d":"442,-677v130,2,217,62,248,172r35,-162r423,0r-11,52r-365,0r-55,247r358,0r-12,52r-358,0r-58,264r365,0r-11,52r-423,0r25,-114v-61,84,-146,126,-255,126v-165,0,-281,-124,-281,-289v0,-218,167,-403,375,-400xm129,-279v0,142,95,241,235,239v117,-2,210,-71,257,-154r51,-231v-15,-121,-102,-200,-233,-200v-174,0,-310,163,-310,346","w":1115},"\u0153":{"d":"725,-495v141,0,232,121,195,270r-404,0v-15,114,60,192,173,192v55,0,103,-17,144,-52r21,38v-49,39,-105,59,-167,59v-105,0,-199,-72,-210,-151v-25,43,-38,59,-73,95v-33,34,-84,56,-148,56v-126,1,-211,-84,-211,-212v0,-150,116,-295,264,-295v102,0,182,75,193,151v59,-101,133,-151,223,-151xm877,-266v13,-107,-53,-184,-157,-184v-99,0,-188,100,-199,184r356,0xm257,-35v117,0,206,-124,206,-246v0,-104,-61,-166,-155,-167v-116,-3,-206,125,-206,246v0,99,57,167,155,167","w":975},"\u0178":{"d":"535,-806v18,0,33,15,33,33v1,22,-19,42,-41,41v-18,0,-34,-15,-34,-33v0,-21,20,-41,42,-41xm331,-806v18,0,33,15,33,33v0,22,-20,42,-42,41v-18,0,-33,-15,-33,-33v-1,-21,20,-41,42,-41xm284,0r-58,0r64,-285r-182,-382r64,0r153,328r297,-328r74,0r-349,382","w":618},"\u02c6":{"d":"319,-556r-38,0r-62,-113r-108,113r-42,0r129,-144r54,0","w":250},"\u02dc":{"d":"405,-688v-15,66,-44,131,-113,134v-33,1,-56,-27,-64,-51v-8,-22,-25,-51,-53,-51v-31,0,-54,32,-69,96r-36,0v14,-66,44,-131,112,-134v34,-1,56,27,65,51v8,22,24,51,52,51v31,0,54,-32,70,-96r36,0","w":307},"\u2013":{"d":"557,-218r-533,0r10,-48r533,0","w":593},"\u2014":{"d":"797,-218r-773,0r10,-48r773,0","w":833},"\u2018":{"d":"159,-483v-27,0,-44,-19,-43,-48v1,-62,56,-123,103,-146r24,26v-33,16,-67,50,-78,84v25,-3,41,15,41,37v1,25,-22,48,-47,47","w":219},"\u2019":{"d":"199,-677v27,0,44,19,43,48v-1,62,-56,123,-103,146r-24,-26v33,-16,67,-50,78,-84v-25,3,-41,-15,-41,-36v-1,-26,22,-49,47,-48","w":219},"\u201a":{"d":"66,-78v27,0,44,19,43,48v-1,62,-56,124,-103,146r-24,-26v33,-16,67,-50,78,-84v-25,3,-41,-15,-41,-36v-1,-26,22,-49,47,-48","w":219},"\u201c":{"d":"309,-483v-27,0,-43,-19,-42,-48v1,-63,55,-123,102,-146r24,26v-33,17,-67,49,-78,84v25,-3,42,15,42,37v1,25,-24,48,-48,47xm168,-483v-26,0,-43,-20,-42,-48v1,-63,55,-123,102,-146r25,26v-33,16,-67,50,-78,84v25,-3,41,15,41,37v1,25,-24,48,-48,47","w":361},"\u201d":{"d":"199,-677v27,0,44,19,43,48v-1,62,-56,123,-103,146r-24,-26v33,-16,67,-50,78,-84v-25,3,-41,-15,-41,-36v-1,-26,22,-49,47,-48xm340,-677v27,0,43,19,42,48v-1,63,-55,123,-102,146r-24,-26v33,-16,67,-50,78,-84v-25,3,-41,-15,-41,-36v-1,-26,22,-49,47,-48","w":361},"\u201e":{"d":"66,-78v27,0,44,19,43,48v-1,62,-56,124,-103,146r-24,-26v33,-16,67,-50,78,-84v-25,3,-41,-15,-41,-36v-1,-26,22,-49,47,-48xm207,-78v27,0,43,19,42,48v-1,62,-56,124,-102,146r-24,-26v33,-17,67,-49,78,-84v-24,3,-42,-15,-42,-36v-1,-26,23,-49,48,-48","w":361},"\u2022":{"d":"190,-345v52,0,93,41,93,93v0,59,-56,112,-115,112v-52,0,-93,-41,-93,-93v0,-59,56,-112,115,-112","w":358},"\u2026":{"d":"107,-38v0,26,-22,48,-48,48v-22,0,-40,-19,-40,-41v0,-25,22,-47,48,-47v22,0,40,18,40,40xm326,-38v0,26,-22,48,-48,48v-22,0,-40,-19,-40,-41v0,-25,22,-47,48,-47v22,0,40,18,40,40xm545,-38v0,26,-22,48,-48,48v-22,0,-40,-19,-40,-41v0,-25,22,-47,48,-47v22,0,40,18,40,40","w":657},"\u2039":{"d":"202,-63r-53,0r-120,-180r200,-177r61,0r-204,182","w":277},"\u203a":{"d":"77,-420r53,0r120,180r-200,177r-61,0r204,-182","w":277},"\u20ac":{"d":"153,-242v13,121,105,203,239,202v67,0,130,-25,189,-76r40,34v-65,63,-142,94,-232,94v-163,0,-286,-104,-298,-254r-57,0r9,-41r46,0v0,-33,4,-67,13,-102r-36,0r9,-41r39,0v45,-136,180,-252,345,-252v125,0,216,57,262,143r-55,25v-43,-77,-113,-116,-211,-116v-131,0,-237,94,-277,200r339,0r-10,41r-343,0v-9,35,-13,69,-13,102r334,0r-9,41r-323,0","w":690},"\u2122":{"d":"464,-447r-28,0r40,-182r-115,182r-8,0r-35,-182r-40,182r-28,0r48,-220r43,0r29,160r99,-160r43,0xm257,-641r-62,0r-43,194r-28,0r43,-194r-62,0r5,-26r152,0","w":454}}});
