/*!
 * The following copyright notice may not be removed under any circumstances.
 * 
 * Copyright:
 * Copyright (c) Mark Simonson, 2005. All rights reserved.
 * 
 * Description:
 * This is a protected webfont and is intended for CSS @font-face use ONLY.
 * Reverse engineering this font is strictly prohibited.
 */
Cufon.registerFont({"w":538,"face":{"font-family":"","font-weight":600,"font-stretch":"normal","units-per-em":"1000","panose-1":"2 0 5 6 3 0 0 2 0 4","ascent":"790","descent":"-210","x-height":"12","bbox":"-156 -881 910 199","underline-thickness":"20","underline-position":"-113","unicode-range":"U+0020-U+2122"},"glyphs":{" ":{"w":211},"!":{"d":"154,-201r-86,0r85,-466r122,0xm146,-62v0,38,-35,73,-73,73v-34,0,-61,-28,-61,-62v0,-39,34,-72,73,-72v33,0,61,28,61,61","w":242},"\"":{"d":"195,-677v37,0,58,40,44,77r-79,205r-45,0r15,-215v0,-37,28,-67,65,-67xm358,-677v36,0,58,40,44,77r-79,205r-45,0r15,-215v0,-37,28,-67,65,-67","w":373},"#":{"d":"231,0r-76,0r90,-176r-85,0r-88,176r-77,0r89,-176r-82,0r33,-66r83,0r92,-183r-83,0r31,-65r85,0r88,-177r77,0r-89,177r84,0r88,-177r76,0r-88,177r82,0r-31,65r-84,0r-93,183r86,0r-32,66r-87,0xm276,-242r94,-183r-84,0r-92,183r82,0","w":524},"$":{"d":"137,100r21,-94v-73,-13,-127,-44,-161,-92r68,-81v27,39,65,65,114,76r46,-207v-52,-32,-99,-57,-121,-114v-52,-135,70,-267,206,-266r20,-90r76,0r-22,98v55,13,98,38,130,76r-66,80v-22,-29,-51,-48,-86,-58r-42,191v51,32,78,46,107,97v44,76,16,170,-38,228v-39,43,-92,65,-157,68r-19,88r-76,0xm255,-89v44,-10,77,-49,77,-100v0,-23,-13,-45,-40,-66xm287,-578v-41,7,-76,43,-76,88v0,23,14,45,42,66","w":489},"%":{"d":"131,0r-56,0r498,-667r57,0xm620,-189v0,103,-73,201,-167,201v-76,0,-132,-55,-132,-130v0,-103,73,-201,167,-201v76,0,132,55,132,130xm393,-125v0,42,23,74,63,74v53,-1,93,-70,93,-131v0,-43,-24,-73,-64,-73v-53,1,-92,69,-92,130xm380,-547v0,103,-73,201,-167,201v-76,0,-132,-55,-132,-130v0,-103,73,-201,167,-201v76,0,132,55,132,130xm153,-483v0,43,24,73,64,73v53,-1,92,-69,92,-130v0,-43,-24,-74,-64,-74v-53,1,-92,70,-92,131","w":663},"&":{"d":"339,-677v76,0,133,44,133,122v0,60,-28,98,-57,127v-31,32,-86,58,-127,79v9,24,21,49,32,76r38,86v29,-39,56,-83,80,-132r72,44v-35,64,-73,119,-112,165v18,34,39,71,63,110r-111,0r-24,-42v-49,36,-99,54,-148,54v-99,0,-170,-55,-169,-155v0,-58,15,-105,45,-140v30,-35,73,-67,126,-95v-9,-37,-14,-72,-14,-103v0,-100,78,-196,173,-196xm115,-156v0,50,33,88,81,88v29,0,60,-14,93,-43v-44,-85,-54,-112,-85,-191v-59,41,-89,89,-89,146xm337,-603v-62,0,-92,106,-71,182v39,-19,68,-39,88,-58v20,-19,29,-43,29,-72v0,-35,-15,-52,-46,-52"},"'":{"d":"195,-677v37,0,58,40,44,77r-79,205r-45,0r15,-215v0,-37,28,-67,65,-67","w":211},"(":{"d":"327,-640v-110,160,-198,373,-201,619v0,59,8,121,23,187r-74,33v-35,-77,-52,-164,-52,-262v0,-226,82,-433,246,-622","w":257},")":{"d":"-71,154v110,-160,198,-373,201,-619v0,-59,-8,-121,-23,-187r74,-33v35,77,52,164,52,262v0,226,-82,433,-246,622","w":257},"*":{"d":"221,-379r-54,0r31,-115r-108,49r-16,-48r111,-40r-88,-60r36,-43r81,70r19,-111r55,0r-32,115r108,-49r16,48r-109,40r87,61r-38,42r-80,-69","w":330},"+":{"d":"426,-305r-157,0r-39,179r-71,0r40,-179r-157,0r15,-65r156,0r38,-171r71,0r-38,171r156,0","w":441},",":{"d":"85,-123v38,0,66,28,65,69v-2,79,-70,151,-131,179r-37,-39v34,-16,77,-49,90,-84v-36,3,-59,-20,-60,-54v-1,-37,37,-72,73,-71","w":243},"-":{"d":"230,-199r-210,0r18,-86r210,0","w":270},".":{"d":"146,-62v0,39,-34,73,-73,73v-33,0,-61,-29,-61,-62v0,-39,34,-72,73,-72v34,0,61,27,61,61","w":242},"\/":{"d":"16,20r-76,0r348,-707r77,0","w":265},"0":{"d":"336,-677v127,1,190,96,188,233v-1,156,-57,302,-140,385v-47,47,-97,71,-152,71v-125,-1,-190,-98,-189,-233v2,-155,58,-302,141,-385v46,-47,96,-71,152,-71xm241,-86v33,0,63,-23,91,-68v48,-74,82,-195,82,-303v0,-81,-30,-122,-89,-122v-33,0,-63,23,-91,67v-48,74,-81,195,-81,303v0,82,29,123,88,123","w":528},"1":{"d":"234,0r-111,0r116,-524r-125,107r-50,-67r220,-183r97,0","w":352},"2":{"d":"309,-677v110,-1,208,60,206,168v0,58,-29,111,-57,148v-72,96,-189,186,-282,264r250,0r-21,97r-412,0r24,-108v147,-119,233,-189,257,-211v73,-64,113,-116,122,-157v15,-65,-33,-103,-96,-103v-54,0,-100,21,-139,64r-54,-75v56,-58,123,-87,202,-87","w":510},"3":{"d":"447,-203v2,118,-104,215,-226,215v-106,0,-202,-55,-230,-136r84,-60v22,55,75,96,146,98v70,2,118,-60,117,-127v-1,-54,-44,-80,-103,-79v-22,0,-40,1,-53,2r22,-100v6,1,30,1,71,1v68,1,120,-46,119,-112v-1,-53,-49,-79,-107,-78v-51,0,-94,20,-131,60r-52,-70v54,-59,120,-88,197,-88v113,-1,205,51,207,157v1,92,-81,172,-163,181v59,16,101,65,102,136","w":498},"4":{"d":"347,0r-110,0r33,-154r-268,0r23,-103r323,-410r146,0r-92,415r70,0r-21,98r-70,0xm292,-252r66,-298r-234,298r168,0","w":493},"5":{"d":"477,-255v0,139,-105,267,-245,267v-106,0,-179,-44,-219,-132r84,-61v25,63,70,95,137,95v72,0,127,-80,127,-155v0,-57,-41,-92,-100,-91v-38,0,-74,16,-109,47r-73,-31r77,-351r376,0r-22,97r-265,0r-42,192v31,-30,70,-45,116,-45v94,0,158,69,158,168","w":514},"6":{"d":"479,-262v0,133,-106,274,-240,274v-132,0,-201,-90,-200,-225v1,-109,33,-215,75,-297v42,-84,123,-167,239,-167v84,0,146,39,177,95r-73,74v-19,-47,-56,-71,-110,-71v-43,0,-79,21,-109,63v-34,47,-57,107,-74,174v30,-41,88,-82,153,-82v95,-1,162,65,162,162xm146,-199v-1,65,33,113,96,113v69,0,122,-92,122,-160v0,-53,-40,-88,-96,-87v-41,0,-81,25,-118,74v-3,20,-4,40,-4,60","w":513},"7":{"d":"165,0r-125,0r331,-570r-276,0r21,-97r406,0r-17,77","w":450},"8":{"d":"459,-186v2,118,-108,198,-229,198v-120,0,-215,-46,-215,-160v0,-106,81,-179,175,-206v-45,-24,-89,-71,-90,-135v-2,-110,110,-188,220,-188v105,0,205,51,205,155v0,101,-77,169,-164,187v51,29,97,77,98,149xm315,-578v-79,0,-143,99,-83,160v16,16,34,27,53,34v65,-11,124,-48,124,-119v0,-46,-44,-75,-94,-75xm131,-169v-1,55,44,83,101,83v59,0,116,-53,116,-115v0,-50,-44,-88,-81,-99v-68,10,-136,57,-136,131","w":509},"9":{"d":"73,-404v0,-134,104,-274,239,-274v133,0,201,89,200,225v-1,109,-34,215,-76,297v-42,84,-122,167,-238,167v-83,0,-146,-39,-176,-95r72,-74v21,47,57,71,110,71v43,0,78,-21,108,-62v34,-47,60,-106,75,-175v-29,41,-87,82,-152,82v-95,1,-162,-65,-162,-162xm406,-467v1,-65,-33,-113,-96,-113v-71,0,-122,91,-122,160v0,53,40,88,96,87v41,0,80,-25,117,-74v3,-17,5,-37,5,-60","w":513},":":{"d":"147,-62v0,39,-35,73,-74,73v-33,0,-61,-29,-61,-62v0,-39,35,-72,74,-72v34,0,61,27,61,61xm227,-428v0,39,-34,72,-73,72v-34,0,-61,-28,-61,-62v0,-37,36,-72,73,-72v34,0,61,28,61,62","w":238},";":{"d":"85,-123v38,0,66,28,65,69v-2,79,-70,151,-131,179r-37,-39v34,-16,77,-49,90,-84v-36,3,-59,-20,-60,-54v-1,-37,37,-72,73,-71xm227,-428v0,39,-34,72,-73,72v-34,0,-61,-28,-61,-62v0,-37,36,-72,73,-72v34,0,61,28,61,62","w":242},"<":{"d":"385,-124r-345,-175r17,-71r422,-176r-18,80r-336,135r276,134","w":441},"=":{"d":"446,-397r-384,0r15,-65r383,0xm404,-206r-384,0r15,-65r383,0","w":441},">":{"d":"424,-299r-422,175r18,-80r337,-133r-278,-135r16,-74r345,176","w":441},"?":{"d":"262,-677v90,0,170,51,170,134v-2,131,-122,160,-185,231v-22,25,-28,61,-11,88r-90,30v-21,-39,-18,-100,4,-138v35,-60,106,-82,147,-134v13,-16,19,-33,19,-52v0,-40,-33,-65,-78,-64v-36,0,-69,13,-99,40r-40,-74v48,-41,102,-61,163,-61xm220,-62v0,39,-35,73,-74,73v-33,0,-61,-29,-61,-62v0,-39,35,-72,74,-72v33,0,61,28,61,61","w":390},"@":{"d":"93,-231v0,149,96,268,242,266v55,0,110,-19,164,-56r19,28v-60,42,-123,63,-188,63v-166,2,-277,-130,-275,-300v2,-155,86,-287,187,-352v57,-37,118,-56,183,-56v156,0,263,120,263,277v0,80,-18,146,-53,198v-35,52,-75,78,-120,78v-51,0,-86,-33,-89,-80v-37,53,-80,80,-131,80v-79,-1,-124,-60,-124,-146v0,-125,91,-268,209,-268v49,0,82,23,100,70r11,-54r89,0r-55,259v-6,32,1,70,33,70v20,0,40,-19,60,-56v20,-37,31,-88,31,-151v2,-142,-87,-241,-226,-241v-176,0,-330,191,-330,371xm264,-241v0,49,22,84,68,84v39,0,74,-24,105,-73r29,-137v-9,-29,-31,-60,-69,-60v-79,0,-133,105,-133,186","w":703},"A":{"d":"481,0r-115,0r-8,-132r-220,0r-66,132r-123,0r347,-667r132,0xm358,-230r-18,-319r-158,319r176,0"},"B":{"d":"487,-207v0,115,-82,207,-207,207r-270,0r147,-667r225,0v94,-2,163,60,163,149v0,88,-64,175,-143,183v50,13,85,68,85,128xm427,-499v1,-42,-33,-72,-76,-71r-105,0r-40,181r123,0v62,3,98,-52,98,-110xm375,-216v0,-48,-29,-76,-78,-76r-112,0r-43,195r125,0v63,2,108,-56,108,-119","w":541},"C":{"d":"157,-240v-1,90,46,154,131,154v48,0,91,-27,128,-80r86,49v-57,86,-131,129,-220,129v-145,1,-241,-102,-239,-250v2,-159,65,-295,156,-374v86,-75,230,-90,315,-17v36,33,62,75,75,126r-104,30v-28,-120,-149,-139,-225,-55v-58,63,-102,174,-103,288","w":549},"D":{"d":"352,-667v127,0,224,111,221,249v-3,137,-50,245,-119,320v-52,56,-139,99,-245,98r-199,0r147,-667r195,0xm459,-414v0,-87,-48,-156,-128,-156r-85,0r-104,473r86,0v105,0,177,-93,206,-175v17,-47,25,-94,25,-142","w":584},"E":{"d":"376,0r-366,0r147,-667r366,0r-22,97r-255,0r-40,181r249,0r-22,97r-248,0r-43,195r255,0","w":473},"F":{"d":"120,0r-110,0r147,-667r366,0r-22,97r-255,0r-40,181r249,0r-22,97r-248,0","w":464},"G":{"d":"157,-240v-1,91,45,154,132,154v40,0,78,-18,113,-55r26,-117r-142,0r21,-98r247,0r-57,257v-59,74,-130,111,-215,111v-145,1,-241,-102,-239,-250v2,-161,63,-294,156,-374v85,-72,228,-91,313,-20v35,30,58,68,71,115r-97,33v-14,-53,-57,-96,-121,-96v-37,0,-72,18,-105,52v-60,61,-103,173,-103,288","w":578},"H":{"d":"477,0r-110,0r64,-294r-246,0r-65,294r-110,0r147,-667r110,0r-60,275r246,0r61,-275r110,0","w":595},"I":{"d":"120,0r-110,0r147,-667r110,0","w":238},"J":{"d":"122,12v-69,0,-120,-21,-153,-63r55,-84v20,33,50,49,90,49v58,0,94,-34,109,-102r106,-479r111,0r-107,483v-27,120,-80,196,-211,196","w":410},"K":{"d":"475,0r-123,0r-117,-279r-71,81r-44,198r-110,0r147,-667r110,0r-68,309r270,-309r136,0r-287,315","w":536},"L":{"d":"349,0r-343,0r147,-667r110,0r-126,570r233,0","w":429},"M":{"d":"596,0r-109,0r107,-488r-270,488r-42,0r-54,-488r-108,488r-110,0r147,-667r146,0r48,434r241,-434r151,0","w":714},"N":{"d":"476,0r-106,0r-149,-454r-101,454r-110,0r147,-667r112,0r145,441r98,-441r111,0","w":594},"O":{"d":"371,-678v144,-2,241,105,239,250v-2,157,-61,293,-153,372v-52,45,-110,68,-175,68v-144,2,-241,-105,-239,-250v2,-157,61,-293,153,-372v52,-45,110,-68,175,-68xm157,-240v-1,88,48,154,131,154v38,0,73,-17,106,-52v60,-62,101,-172,102,-287v1,-88,-49,-155,-132,-155v-38,0,-73,17,-106,52v-60,62,-100,173,-101,288","w":615},"P":{"d":"374,-667v94,-2,169,77,165,171v-6,149,-93,240,-248,243r-115,0r-56,253r-110,0r147,-667r217,0xm423,-486v0,-49,-32,-84,-79,-84r-98,0r-49,220r103,0v73,2,123,-65,123,-136","w":515},"Q":{"d":"610,-428v-1,158,-71,318,-169,386r19,47r-86,30r-15,-35v-177,51,-320,-67,-316,-238v3,-157,61,-293,153,-372v52,-45,110,-68,175,-68v144,-2,240,105,239,250xm157,-240v-2,99,65,173,165,149r-48,-119r86,-30r39,96v55,-59,97,-172,97,-281v0,-88,-49,-155,-132,-155v-38,0,-73,17,-106,52v-60,62,-99,173,-101,288","w":615},"R":{"d":"539,-495v0,113,-74,213,-168,229r70,266r-119,0r-58,-252r-88,0r-56,252r-110,0r147,-667r208,0v96,-2,174,74,174,172xm423,-485v0,-49,-32,-85,-79,-85r-98,0r-49,220r104,0v75,2,122,-62,122,-135","w":535},"S":{"d":"445,-208v3,123,-98,220,-227,220v-95,0,-185,-41,-224,-98r68,-81v30,45,90,78,160,81v82,4,142,-96,82,-155v-71,-71,-211,-92,-214,-230v-3,-114,104,-207,223,-207v84,0,160,35,198,84r-66,80v-34,-44,-81,-66,-140,-66v-73,0,-131,86,-73,140v74,68,210,95,213,232","w":488},"T":{"d":"233,0r-110,0r125,-570r-153,0r21,-97r417,0r-21,97r-153,0","w":464},"U":{"d":"170,-223v-18,85,30,138,107,138v87,0,118,-58,136,-138r98,-444r111,0r-98,442v-35,158,-118,237,-251,237v-142,0,-245,-93,-213,-239r97,-440r111,0","w":593},"V":{"d":"281,0r-132,0r-53,-667r115,0r28,535r265,-535r124,0"},"W":{"d":"532,0r-116,0r9,-478r-202,478r-115,0r-5,-667r116,0r-13,497r214,-497r89,0r-6,497r206,-497r121,0","w":747},"X":{"d":"482,0r-121,0r-88,-249r-191,249r-133,0r276,-347r-118,-320r121,0r79,235r176,-235r134,0r-261,332"},"Y":{"d":"263,0r-110,0r61,-278r-121,-389r117,0r76,285r203,-285r128,0r-292,389","w":524},"Z":{"d":"385,0r-401,0r20,-92r359,-478r-253,0r21,-97r394,0r-20,90r-361,480r262,0","w":477},"[":{"d":"115,190r-172,0r192,-868r173,0r-16,69r-98,0r-162,730r98,0","w":229},"\\":{"d":"133,20r-40,-707r74,0r40,707r-74,0","w":265},"]":{"d":"93,190r-172,0r16,-69r98,0r162,-730r-99,0r15,-69r173,0","w":229},"^":{"d":"386,-333r-72,0r-42,-259r-155,259r-79,0r211,-334r74,0","w":386},"_":{"d":"346,109r-427,0r16,-69r427,0","w":422},"`":{"d":"272,-556r-68,0r-103,-144r92,0","w":203},"\u02cb":{"d":"272,-556r-68,0r-103,-144r92,0","w":203},"a":{"d":"170,12v-95,0,-147,-73,-145,-175v2,-112,42,-212,102,-277v71,-78,209,-74,249,24r14,-67r99,0r-107,483r-99,0r14,-62v-35,49,-78,74,-127,74xm359,-341v-12,-36,-47,-66,-93,-66v-39,0,-72,25,-98,75v-26,50,-39,102,-39,153v-1,61,29,103,86,103v46,0,80,-35,100,-67","w":495},"b":{"d":"325,-495v96,1,145,72,144,175v-2,112,-42,211,-102,276v-71,77,-209,75,-248,-23r-15,67r-99,0r147,-667r99,0r-54,246v36,-49,79,-74,128,-74xm135,-142v13,35,47,66,93,66v64,0,105,-74,122,-130v10,-34,16,-67,16,-98v1,-61,-29,-103,-86,-103v-39,0,-72,22,-101,67","w":495},"c":{"d":"129,-191v0,70,39,115,105,115v33,0,62,-14,86,-41r37,72v-38,38,-84,57,-139,57v-117,1,-193,-77,-191,-197v1,-113,51,-207,119,-263v82,-67,232,-61,283,24r-62,65v-18,-32,-47,-48,-86,-48v-92,0,-152,122,-152,216","w":417},"d":{"d":"170,12v-95,0,-147,-73,-145,-175v2,-112,42,-212,102,-277v71,-78,209,-74,249,24r55,-251r99,0r-148,667r-99,0r14,-62v-35,49,-78,74,-127,74xm359,-341v-12,-36,-47,-66,-93,-66v-39,0,-72,25,-98,75v-26,50,-39,102,-39,153v-1,61,29,103,86,103v46,0,80,-35,100,-67","w":495},"e":{"d":"126,-209v-16,82,32,142,113,140v41,0,77,-15,108,-44r34,66v-43,39,-95,59,-154,59v-122,1,-201,-74,-200,-196v2,-109,48,-204,115,-260v40,-33,83,-51,132,-51v110,-1,177,75,176,187v0,30,-5,63,-14,99r-310,0xm356,-280v17,-71,-19,-134,-90,-134v-68,0,-118,73,-127,134r217,0","w":476},"f":{"d":"124,0r-99,0r88,-396r-63,0r19,-87r63,0r9,-44v23,-100,74,-150,153,-150v45,0,80,12,103,37r-48,69v-11,-13,-26,-20,-45,-20v-33,0,-54,21,-63,64r-10,44r80,0r-19,87r-80,0","w":273},"g":{"d":"247,-495v56,0,110,36,128,79r15,-67r99,0r-105,475v-30,136,-104,204,-221,204v-83,0,-146,-24,-187,-71r58,-73v27,39,70,58,128,58v65,0,106,-39,123,-118r15,-68v-35,50,-78,75,-130,75v-94,-1,-146,-67,-144,-171v2,-110,38,-208,100,-269v36,-35,75,-54,121,-54xm129,-190v0,61,29,101,87,101v44,0,81,-35,101,-66r41,-184v-12,-36,-50,-67,-96,-68v-82,-2,-133,132,-133,217","w":495},"h":{"d":"340,-495v80,0,130,52,112,135r-79,360r-99,0r72,-329v13,-44,-6,-78,-58,-78v-36,0,-72,23,-109,69r-74,338r-100,0r147,-667r100,0r-55,248v44,-51,92,-76,143,-76","w":486},"i":{"d":"252,-615v0,40,-35,71,-71,71v-31,1,-56,-24,-56,-54v0,-39,35,-70,70,-70v30,0,57,24,57,53xm104,0r-99,0r107,-483r99,0","w":217},"j":{"d":"42,158v-40,49,-161,51,-198,2r44,-73v10,15,25,23,45,23v32,0,53,-23,63,-69r116,-524r99,0r-116,524v-12,53,-31,90,-53,117xm252,-615v0,40,-35,71,-71,71v-31,1,-56,-24,-56,-54v0,-39,35,-70,70,-70v30,0,57,24,57,53","w":217},"k":{"d":"395,0r-113,0r-72,-205r-79,81r-27,124r-99,0r147,-667r99,0r-91,415r219,-231r120,0r-209,217","w":457},"l":{"d":"104,0r-99,0r147,-667r99,0","w":217},"m":{"d":"585,-495v74,0,122,55,104,135r-79,360r-99,0r73,-331v12,-42,-10,-78,-52,-76v-43,2,-79,39,-100,68r-75,339r-99,0r73,-331v10,-43,-5,-76,-52,-76v-34,0,-67,23,-100,68r-75,339r-99,0r107,-483r99,0r-14,64v41,-51,86,-76,135,-76v57,0,109,37,108,88v43,-59,92,-88,145,-88","w":723},"n":{"d":"340,-495v80,0,130,53,112,135r-79,360r-100,0r73,-329v13,-45,-6,-78,-58,-78v-35,0,-72,23,-109,68r-75,339r-99,0r107,-483r99,0r-14,64v44,-51,92,-76,143,-76","w":486},"o":{"d":"273,-495v118,-1,189,76,188,194v0,78,-23,150,-69,215v-46,65,-106,98,-177,98v-118,1,-190,-76,-189,-194v0,-78,23,-150,70,-215v47,-65,106,-98,177,-98xm129,-183v-1,65,29,107,90,107v63,0,106,-72,123,-127v11,-34,17,-66,17,-97v1,-65,-29,-107,-90,-107v-63,0,-106,72,-123,127v-11,34,-17,66,-17,97","w":490},"p":{"d":"325,-495v96,1,145,72,144,175v-2,112,-42,211,-102,276v-71,77,-209,75,-248,-23r-56,251r-99,0r148,-667r99,0r-14,62v36,-49,79,-74,128,-74xm135,-142v13,35,47,66,93,66v64,0,105,-74,122,-130v10,-34,16,-67,16,-98v1,-61,-29,-103,-86,-103v-39,0,-72,22,-101,67","w":494},"q":{"d":"170,12v-95,0,-147,-73,-145,-175v2,-112,42,-212,102,-277v71,-78,209,-74,249,24r14,-67r99,0r-148,667r-99,0r55,-246v-35,49,-78,74,-127,74xm359,-341v-12,-36,-47,-66,-93,-66v-39,0,-72,25,-98,75v-26,50,-39,102,-39,153v-1,61,29,103,86,103v46,0,80,-35,100,-67","w":494},"r":{"d":"104,0r-99,0r107,-483r99,0r-15,66v39,-51,90,-77,152,-77r-23,100v-64,-16,-110,10,-148,65","w":308},"s":{"d":"353,-152v2,95,-82,164,-184,164v-78,0,-148,-32,-181,-78r57,-66v23,33,74,65,129,65v58,0,109,-64,60,-104v-60,-50,-176,-62,-176,-169v0,-90,75,-155,173,-155v70,0,134,30,166,71r-54,64v-17,-28,-68,-56,-114,-56v-58,0,-100,58,-53,94v63,48,175,63,177,170","w":402},"t":{"d":"157,12v-91,1,-127,-45,-110,-124r64,-284r-64,0r20,-87r63,0r29,-132r99,0r-29,132r80,0r-19,87r-80,0r-59,263v-6,28,1,57,35,57v14,0,25,-4,34,-13r5,81v-17,13,-39,20,-68,20","w":282},"u":{"d":"145,12v-80,0,-130,-54,-112,-135r79,-360r99,0r-73,328v-10,47,5,79,59,79v37,0,73,-22,108,-67r75,-340r99,0r-107,483r-99,0r15,-64v-45,51,-93,76,-143,76","w":486},"v":{"d":"215,0r-107,0r-54,-483r103,0r28,364r190,-364r109,0","w":432},"w":{"d":"478,0r-104,0r-16,-354r-171,354r-104,0r-23,-483r100,0r6,352r171,-352r92,0r16,352r163,-352r107,0","w":669},"x":{"d":"366,0r-106,0r-59,-175r-137,175r-112,0r199,-246r-84,-237r105,0r53,166r128,-166r112,0r-191,237","w":426},"y":{"d":"-51,184r32,-84v38,15,69,5,91,-33r35,-61r-53,-489r103,0r28,363r190,-363r109,0r-320,573v-37,64,-66,106,-148,106v-27,0,-49,-4,-67,-12","w":432},"z":{"d":"308,0r-324,0r16,-76r263,-320r-191,0r19,-87r320,0r-16,73r-265,323r196,0","w":400},"{":{"d":"63,57v-9,36,10,63,41,64r41,0r-15,69r-34,0v-66,0,-123,-56,-107,-131r48,-223v0,-27,-14,-50,-40,-50r14,-60v35,0,57,-23,67,-68r46,-206v20,-87,71,-130,154,-130r45,0r-15,69r-45,0v-35,0,-56,21,-65,61r-50,223v-9,47,-31,76,-65,89v29,11,33,53,25,89","w":244},"|":{"d":"153,20r-69,0r0,-707r69,0r0,707","w":196},"}":{"d":"180,-545v9,-36,-10,-63,-41,-64r-42,0r16,-69r34,0v66,0,124,56,107,131r-46,205v-8,35,6,67,37,68r-13,60v-35,0,-57,23,-67,68r-46,206v-20,87,-71,130,-154,130r-45,0r15,-69r45,0v34,0,56,-20,65,-61r50,-223v9,-47,31,-76,64,-89v-29,-12,-34,-53,-25,-89","w":244},"~":{"d":"454,-667r69,7v-34,161,-91,242,-172,242v-54,0,-82,-45,-83,-92v-2,-36,-4,-92,-35,-92v-38,0,-71,62,-98,185r-69,-8v33,-161,91,-241,172,-241v54,0,83,44,84,92v2,36,2,93,34,93v38,0,71,-62,98,-186","w":458},"\u00a0":{"w":211},"\u00a1":{"d":"87,-282r85,0r-85,466r-121,0xm94,-421v0,-39,35,-73,74,-73v33,0,61,29,61,62v0,39,-35,72,-74,72v-32,0,-61,-29,-61,-61","w":242},"\u00a2":{"d":"146,1v-73,-23,-119,-90,-119,-186v0,-143,97,-301,229,-309r16,-71r74,0r-17,76v44,10,77,32,100,65r-62,65v-12,-21,-31,-36,-57,-44r-73,327v32,-1,60,-14,83,-41r37,72v-38,38,-84,57,-140,57r-19,88r-74,0xm234,-396v-60,25,-106,121,-105,205v0,43,13,74,39,95","w":417},"\u00a3":{"d":"6,-71v68,-35,143,-103,136,-200r-111,0r15,-67r76,0v-19,-44,-29,-81,-29,-111v0,-121,111,-228,230,-228v94,0,174,49,185,131r-98,35v-6,-44,-37,-75,-84,-75v-66,0,-114,76,-114,150v0,36,20,73,28,98r108,0r-14,67r-86,0v-6,66,-52,134,-98,161v15,-5,29,-8,41,-8v32,0,98,32,127,32v29,0,55,-12,77,-35r19,89v-31,30,-68,45,-110,45v-49,0,-139,-44,-181,-44v-27,0,-59,13,-98,38","w":472},"\u00a4":{"d":"461,-136r-34,27r-37,-49v-86,63,-203,58,-277,-15r-79,66r-23,-31r77,-63v-58,-105,-32,-201,49,-281r-37,-49r32,-26r39,48v84,-61,202,-58,276,14r78,-64r25,30r-78,64v58,102,32,199,-49,281xm261,-162v99,0,193,-90,193,-189v0,-89,-66,-153,-155,-153v-99,0,-193,90,-193,189v0,89,66,153,155,153","w":522},"\u00a5":{"d":"265,0r-110,0r26,-119r-186,0r14,-64r186,0r21,-95r-186,0r15,-65r151,0r-101,-324r117,0r76,285r203,-285r128,0r-243,324r146,0r-15,65r-180,0r-21,95r180,0r-14,64r-181,0","w":524},"\u00a6":{"d":"153,20r-69,0r0,-316r69,0r0,316xm153,-371r-69,0r0,-316r69,0r0,316","w":196},"\u00a7":{"d":"274,-606v-42,0,-79,29,-78,69v1,44,61,70,97,85v43,18,98,62,97,123v-1,75,-48,125,-111,146v37,24,56,57,56,100v1,93,-81,164,-179,164v-87,0,-151,-25,-190,-74r57,-61v24,36,72,60,130,62v63,3,114,-74,64,-118v-59,-52,-173,-62,-173,-170v0,-75,55,-124,124,-138v-46,-26,-69,-62,-69,-108v-1,-87,79,-151,170,-151v78,0,136,23,175,68r-55,55v-25,-35,-64,-52,-115,-52xm235,-382v-55,7,-95,34,-95,84v0,31,25,57,76,80v51,-16,77,-46,77,-89v0,-31,-19,-56,-58,-75","w":406},"\u00a8":{"d":"317,-663v28,0,50,22,50,50v0,32,-31,62,-63,62v-28,0,-50,-22,-50,-50v0,-32,31,-62,63,-62xm135,-663v28,0,50,22,50,50v0,33,-31,62,-64,62v-27,0,-50,-23,-50,-50v0,-32,32,-62,64,-62","w":278},"\u00a9":{"d":"408,-679v185,0,346,160,346,345v0,186,-161,345,-346,345v-185,0,-344,-160,-344,-345v0,-186,158,-345,344,-345xm408,-22v166,0,313,-146,313,-312v0,-166,-147,-312,-313,-312v-166,0,-311,146,-311,312v0,166,145,312,311,312xm241,-308v0,84,64,150,151,150v43,0,81,-16,114,-48r22,31v-43,35,-88,53,-137,53v-111,0,-191,-77,-191,-185v0,-126,112,-240,234,-240v72,0,125,27,158,81r-34,24v-25,-46,-66,-69,-125,-69v-99,0,-192,97,-192,203","w":778},"\u00aa":{"d":"153,-446v0,41,19,69,57,69v24,0,46,-14,66,-43r29,-131v-10,-25,-30,-38,-60,-38v-54,-1,-92,84,-92,143xm76,-439v0,-94,62,-209,152,-209v41,0,70,16,88,49r9,-41r74,0r-70,314r-74,0r9,-41v-25,33,-54,49,-87,49v-64,-1,-101,-50,-101,-121","w":359},"\u00ab":{"d":"198,-63r-84,0r-85,-180r165,-177r90,0r-169,181xm349,-63r-83,0r-85,-180r165,-177r89,0r-168,181","w":423},"\u00ac":{"d":"460,-462r-56,256r-67,0r42,-191r-317,0r15,-65r383,0","w":445},"\u00ad":{"d":"230,-199r-210,0r18,-86r210,0","w":270},"\u00ae":{"d":"296,-677v115,0,212,97,212,212v0,114,-99,212,-213,212v-114,0,-211,-98,-211,-212v0,-114,98,-212,212,-212xm295,-283v98,0,183,-84,183,-182v0,-99,-84,-182,-183,-182v-99,0,-181,83,-181,182v0,97,84,182,181,182xm404,-522v0,44,-40,83,-80,82r44,97r-39,0r-42,-96r-45,0r-21,96r-33,0r53,-243r92,0v40,-1,71,25,71,64xm315,-469v29,1,55,-22,54,-50v0,-24,-18,-38,-42,-38r-59,0r-20,88r67,0","w":494},"\u00af":{"d":"385,-591r-308,0r13,-59r308,0","w":309},"\u203e":{"d":"385,-591r-308,0r13,-59r308,0","w":309},"\u00b0":{"d":"217,-677v69,0,128,60,128,129v0,68,-60,127,-128,127v-69,0,-128,-58,-128,-127v0,-69,59,-129,128,-129xm216,-479v37,0,72,-32,72,-69v0,-38,-33,-71,-71,-71v-38,0,-70,33,-70,71v0,38,31,69,69,69","w":300},"\u00b1":{"d":"428,-315r-157,0r-39,179r-71,0r40,-179r-157,0r15,-64r156,0r38,-172r71,0r-38,172r156,0xm362,-16r-384,0r14,-65r384,0","w":441},"\u00b2":{"d":"275,-827v71,-1,136,36,135,105v0,36,-16,70,-48,103v-32,33,-88,78,-167,136r165,0r-13,62r-269,0r13,-61v97,-70,161,-120,193,-150v32,-30,48,-57,48,-83v0,-33,-28,-50,-62,-50v-36,0,-67,15,-94,45r-36,-50v37,-38,82,-57,135,-57","w":338},"\u00b3":{"d":"307,-621v37,9,67,39,67,83v0,68,-65,124,-142,124v-67,0,-124,-28,-147,-72r53,-44v19,36,50,54,91,54v41,0,69,-33,69,-72v0,-42,-57,-51,-100,-46r13,-62v6,1,22,1,48,1v41,1,72,-23,72,-62v0,-32,-31,-49,-66,-48v-32,0,-62,13,-90,40r-33,-46v36,-37,79,-56,129,-56v74,-1,137,31,138,99v0,56,-47,103,-102,107","w":338},"\u00b4":{"d":"304,-700r-167,144r-70,0r142,-144r95,0","w":203},"\u00b5":{"d":"286,-62v-39,42,-105,83,-185,72r-38,174r-99,0r148,-667r99,0r-73,330v-12,44,2,79,52,78v47,-1,91,-36,114,-66r76,-342r99,0r-107,483r-99,0","w":486},"\u03bc":{"d":"286,-62v-39,42,-105,83,-185,72r-38,174r-99,0r148,-667r99,0r-73,330v-12,44,2,79,52,78v47,-1,91,-36,114,-66r76,-342r99,0r-107,483r-99,0","w":486},"\u00b6":{"d":"79,-479v0,-97,92,-188,194,-188r209,0r-170,767r-53,0r159,-714r-84,0r-159,714r-53,0r94,-423v-78,1,-137,-73,-137,-156","w":449},"\u00b7":{"d":"188,-250v0,39,-34,72,-73,72v-32,0,-61,-29,-61,-61v0,-39,34,-73,73,-73v33,0,61,29,61,62","w":242},"\u2219":{"d":"188,-250v0,39,-34,72,-73,72v-32,0,-61,-29,-61,-61v0,-39,34,-73,73,-73v33,0,61,29,61,62","w":242},"\u00b8":{"d":"117,102v0,54,-49,91,-105,91v-43,0,-77,-13,-101,-39r30,-41v19,23,43,34,72,34v28,1,49,-16,50,-42v1,-32,-42,-33,-57,-11r-34,-22r49,-83r53,0r-40,64v36,-27,83,4,83,49","w":195},"\u00b9":{"d":"233,-421r-77,0r65,-297r-73,61r-36,-47r142,-117r67,0","w":247},"\u00ba":{"d":"380,-517v0,95,-73,199,-169,199v-81,0,-132,-52,-132,-131v0,-95,73,-199,169,-199v81,0,132,52,132,131xm154,-446v0,40,20,68,59,68v57,0,92,-86,92,-141v0,-40,-21,-68,-60,-68v-56,0,-91,86,-91,141","w":354},"\u00bb":{"d":"75,-420r84,0r85,180r-165,177r-90,0r169,-182xm227,-420r83,0r85,180r-165,177r-89,0r168,-182","w":423},"\u00bc":{"d":"637,-667r-499,667r-56,0r498,-667r57,0xm657,-94r-45,0r-20,94r-77,0r21,-94r-171,0r12,-57r203,-249r100,0r-55,245r45,0xm549,-155r37,-166r-136,166r99,0xm199,-267r-77,0r65,-297r-73,61r-36,-47r142,-117r67,0","w":712},"\u00bd":{"d":"637,-667r-499,667r-56,0r498,-667r57,0xm591,-406v71,-1,136,36,135,105v0,36,-16,70,-48,103v-32,33,-88,78,-167,136r165,0r-13,62r-269,0r13,-61v97,-70,161,-119,193,-149v32,-30,48,-58,48,-84v0,-33,-28,-50,-62,-50v-36,0,-67,15,-94,45r-36,-50v37,-38,82,-57,135,-57xm199,-267r-77,0r65,-297r-73,61r-36,-47r142,-117r67,0","w":747},"\u00be":{"d":"704,-667r-499,667r-56,0r498,-667r57,0xm724,-94r-45,0r-20,94r-77,0r21,-94r-171,0r12,-57r203,-249r100,0r-55,245r45,0xm616,-155r37,-166r-136,166r99,0xm273,-467v37,9,67,39,67,83v0,68,-65,124,-142,124v-67,0,-124,-28,-147,-72r53,-44v19,36,50,54,91,54v41,0,69,-33,69,-72v0,-42,-57,-51,-100,-46r13,-62v6,1,22,1,48,1v41,1,72,-23,72,-62v0,-32,-31,-49,-66,-48v-32,0,-62,13,-90,40r-33,-46v36,-37,79,-56,129,-56v74,-1,137,31,138,99v0,56,-47,103,-102,107","w":780},"\u00bf":{"d":"127,195v-89,0,-171,-51,-171,-134v0,-130,123,-160,186,-231v23,-25,28,-58,11,-88r90,-30v21,38,18,98,-4,136v-35,60,-106,84,-147,136v-13,16,-19,32,-19,51v0,40,33,65,78,64v37,0,70,-13,99,-40r39,74v-47,41,-101,62,-162,62xm169,-421v0,-39,35,-72,74,-72v33,0,60,28,60,61v0,39,-34,73,-73,73v-33,0,-61,-29,-61,-62","w":339},"\u00c0":{"d":"444,-728r-68,0r-103,-144r92,0xm481,0r-115,0r-8,-132r-220,0r-66,132r-123,0r347,-667r132,0xm358,-230r-18,-319r-158,319r176,0"},"\u00c1":{"d":"545,-872r-167,144r-70,0r142,-144r95,0xm481,0r-115,0r-8,-132r-220,0r-66,132r-123,0r347,-667r132,0xm358,-230r-18,-319r-158,319r176,0"},"\u00c2":{"d":"503,-728r-58,0r-46,-97r-85,97r-62,0r110,-144r92,0xm481,0r-115,0r-8,-132r-220,0r-66,132r-123,0r347,-667r132,0xm358,-230r-18,-319r-158,319r176,0"},"\u00c3":{"d":"433,-726v-29,1,-50,-20,-57,-40v-6,-17,-18,-41,-39,-41v-22,0,-38,25,-49,75r-55,0v19,-89,56,-134,110,-134v30,-1,49,19,57,40v6,17,19,41,40,41v21,0,38,-25,49,-75r55,0v-19,89,-56,134,-111,134xm481,0r-115,0r-8,-132r-220,0r-66,132r-123,0r347,-667r132,0xm358,-230r-18,-319r-158,319r176,0"},"\u00c4":{"d":"485,-834v28,0,50,22,50,50v0,32,-31,62,-63,62v-28,0,-50,-22,-50,-50v0,-32,31,-62,63,-62xm303,-834v28,0,50,22,50,50v0,33,-31,62,-64,62v-27,0,-50,-23,-50,-50v0,-32,32,-62,64,-62xm481,0r-115,0r-8,-132r-220,0r-66,132r-123,0r347,-667r132,0xm358,-230r-18,-319r-158,319r176,0"},"\u00c5":{"d":"483,-796v0,54,-51,105,-105,105v-49,0,-84,-37,-84,-86v0,-54,50,-104,104,-104v50,0,85,35,85,85xm341,-782v0,25,17,43,42,43v27,0,53,-25,53,-52v0,-25,-17,-43,-42,-43v-27,0,-53,25,-53,52xm481,0r-115,0r-8,-132r-220,0r-66,132r-123,0r347,-667r132,0xm358,-230r-18,-319r-158,319r176,0"},"\u00c6":{"d":"678,0r-365,0r28,-132r-180,0r-88,132r-123,0r464,-667r411,0r-21,97r-255,0r-40,181r248,0r-22,97r-248,0r-43,195r256,0xm363,-230r68,-310r-208,310r140,0","w":774},"\u00c7":{"d":"157,-240v-1,90,46,154,131,154v48,0,91,-27,128,-80r86,49v-61,89,-130,131,-230,129r-25,41v36,-27,83,4,83,49v0,54,-49,91,-105,91v-43,0,-77,-13,-101,-39r30,-41v19,23,43,34,72,34v28,1,49,-16,50,-42v1,-32,-42,-33,-57,-11r-34,-22r39,-66v-110,-21,-182,-112,-181,-244v1,-159,65,-295,156,-374v86,-75,230,-90,315,-17v36,33,62,75,75,126r-104,30v-28,-120,-149,-139,-225,-55v-58,63,-102,174,-103,288","w":549},"\u00c8":{"d":"422,-728r-68,0r-103,-144r92,0xm376,0r-366,0r147,-667r366,0r-22,97r-255,0r-40,181r249,0r-22,97r-248,0r-43,195r255,0","w":473},"\u00c9":{"d":"524,-872r-167,144r-70,0r142,-144r95,0xm376,0r-366,0r147,-667r366,0r-22,97r-255,0r-40,181r249,0r-22,97r-248,0r-43,195r255,0","w":473},"\u00ca":{"d":"480,-728r-58,0r-46,-97r-85,97r-62,0r110,-144r92,0xm376,0r-366,0r147,-667r366,0r-22,97r-255,0r-40,181r249,0r-22,97r-248,0r-43,195r255,0","w":473},"\u00cb":{"d":"464,-834v28,0,50,22,50,50v0,32,-31,62,-63,62v-28,0,-50,-22,-50,-50v0,-32,31,-62,63,-62xm282,-834v28,0,50,22,50,50v0,33,-31,62,-64,62v-27,0,-50,-23,-50,-50v0,-32,32,-62,64,-62xm376,0r-366,0r147,-667r366,0r-22,97r-255,0r-40,181r249,0r-22,97r-248,0r-43,195r255,0","w":473},"\u00cc":{"d":"293,-728r-68,0r-103,-144r92,0xm120,0r-110,0r147,-667r110,0","w":238},"\u00cd":{"d":"396,-872r-167,144r-70,0r142,-144r95,0xm120,0r-110,0r147,-667r110,0","w":238},"\u00ce":{"d":"352,-728r-58,0r-46,-97r-85,97r-62,0r110,-144r92,0xm120,0r-110,0r147,-667r110,0","w":238},"\u00cf":{"d":"336,-834v28,0,50,22,50,50v0,32,-31,62,-63,62v-28,0,-50,-22,-50,-50v0,-32,31,-62,63,-62xm154,-834v28,0,50,22,50,50v0,33,-31,62,-64,62v-27,0,-50,-23,-50,-50v0,-32,32,-62,64,-62xm120,0r-110,0r147,-667r110,0","w":238},"\u00d0":{"d":"376,-667v127,0,224,111,221,249v-3,137,-50,245,-119,320v-52,56,-139,99,-245,98r-199,0r63,-289r-74,0r20,-90r74,0r64,-288r195,0xm483,-414v0,-87,-48,-156,-128,-156r-85,0r-42,191r117,0r-20,90r-117,0r-42,192r86,0v105,0,177,-93,206,-175v17,-47,25,-94,25,-142","w":608},"\u00d1":{"d":"462,-726v-29,1,-49,-20,-56,-40v-6,-17,-19,-41,-40,-41v-22,0,-38,25,-49,75r-55,0v19,-89,56,-134,110,-134v30,-1,50,19,58,40v6,17,18,41,39,41v21,0,38,-25,49,-75r55,0v-19,89,-56,134,-111,134xm476,0r-106,0r-149,-454r-101,454r-110,0r147,-667r112,0r145,441r98,-441r111,0","w":594},"\u00d2":{"d":"483,-728r-68,0r-103,-144r92,0xm371,-678v144,-2,241,105,239,250v-2,157,-61,293,-153,372v-52,45,-110,68,-175,68v-144,2,-241,-105,-239,-250v2,-157,61,-293,153,-372v52,-45,110,-68,175,-68xm157,-240v-1,88,48,154,131,154v38,0,73,-17,106,-52v60,-62,101,-172,102,-287v1,-88,-49,-155,-132,-155v-38,0,-73,17,-106,52v-60,62,-100,173,-101,288","w":615},"\u00d3":{"d":"584,-872r-167,144r-70,0r142,-144r95,0xm371,-678v144,-2,241,105,239,250v-2,157,-61,293,-153,372v-52,45,-110,68,-175,68v-144,2,-241,-105,-239,-250v2,-157,61,-293,153,-372v52,-45,110,-68,175,-68xm157,-240v-1,88,48,154,131,154v38,0,73,-17,106,-52v60,-62,101,-172,102,-287v1,-88,-49,-155,-132,-155v-38,0,-73,17,-106,52v-60,62,-100,173,-101,288","w":615},"\u00d4":{"d":"541,-728r-58,0r-46,-97r-85,97r-62,0r110,-144r92,0xm371,-678v144,-2,241,105,239,250v-2,157,-61,293,-153,372v-52,45,-110,68,-175,68v-144,2,-241,-105,-239,-250v2,-157,61,-293,153,-372v52,-45,110,-68,175,-68xm157,-240v-1,88,48,154,131,154v38,0,73,-17,106,-52v60,-62,101,-172,102,-287v1,-88,-49,-155,-132,-155v-38,0,-73,17,-106,52v-60,62,-100,173,-101,288","w":615},"\u00d5":{"d":"474,-726v-29,1,-49,-20,-56,-40v-6,-17,-19,-41,-40,-41v-22,0,-38,25,-49,75r-55,0v19,-89,56,-134,110,-134v30,-1,50,19,58,40v6,17,18,41,39,41v21,0,38,-25,49,-75r55,0v-19,89,-56,134,-111,134xm371,-678v144,-2,241,105,239,250v-2,157,-61,293,-153,372v-52,45,-110,68,-175,68v-144,2,-241,-105,-239,-250v2,-157,61,-293,153,-372v52,-45,110,-68,175,-68xm157,-240v-1,88,48,154,131,154v38,0,73,-17,106,-52v60,-62,101,-172,102,-287v1,-88,-49,-155,-132,-155v-38,0,-73,17,-106,52v-60,62,-100,173,-101,288","w":615},"\u00d6":{"d":"523,-834v28,0,50,22,50,50v0,32,-31,62,-63,62v-28,0,-50,-22,-50,-50v0,-32,31,-62,63,-62xm341,-834v28,0,50,22,50,50v0,33,-31,62,-64,62v-27,0,-50,-23,-50,-50v0,-32,32,-62,64,-62xm371,-678v144,-2,241,105,239,250v-2,157,-61,293,-153,372v-52,45,-110,68,-175,68v-144,2,-241,-105,-239,-250v2,-157,61,-293,153,-372v52,-45,110,-68,175,-68xm157,-240v-1,88,48,154,131,154v38,0,73,-17,106,-52v60,-62,101,-172,102,-287v1,-88,-49,-155,-132,-155v-38,0,-73,17,-106,52v-60,62,-100,173,-101,288","w":615},"\u00d7":{"d":"329,-166r-95,-122r-153,126r-40,-50r155,-126r-96,-122r52,-42r94,122r154,-126r40,50r-154,126r94,122","w":441},"\u00d8":{"d":"457,-56v-88,83,-241,91,-332,15r-33,41r-75,0r69,-85v-65,-94,-48,-245,-5,-358v44,-115,144,-234,290,-235v59,0,110,17,153,51r32,-40r75,0r-67,83v69,92,52,246,8,361v-25,66,-65,120,-115,167xm288,-86v38,0,73,-17,106,-52v60,-62,101,-172,102,-287v0,-23,-3,-44,-9,-63r-293,362v23,27,55,40,94,40xm258,-528v-67,74,-118,214,-94,346r291,-360v-56,-57,-142,-47,-197,14","w":615},"\u00d9":{"d":"472,-728r-68,0r-103,-144r92,0xm170,-223v-18,85,30,138,107,138v87,0,118,-58,136,-138r98,-444r111,0r-98,442v-35,158,-118,237,-251,237v-142,0,-245,-93,-213,-239r97,-440r111,0","w":593},"\u00da":{"d":"573,-872r-167,144r-70,0r142,-144r95,0xm170,-223v-18,85,30,138,107,138v87,0,118,-58,136,-138r98,-444r111,0r-98,442v-35,158,-118,237,-251,237v-142,0,-245,-93,-213,-239r97,-440r111,0","w":593},"\u00db":{"d":"532,-728r-58,0r-46,-97r-85,97r-62,0r110,-144r92,0xm170,-223v-18,85,30,138,107,138v87,0,118,-58,136,-138r98,-444r111,0r-98,442v-35,158,-118,237,-251,237v-142,0,-245,-93,-213,-239r97,-440r111,0","w":593},"\u00dc":{"d":"513,-834v28,0,50,22,50,50v0,32,-31,62,-63,62v-28,0,-50,-22,-50,-50v0,-32,31,-62,63,-62xm331,-834v28,0,50,22,50,50v0,33,-31,62,-64,62v-27,0,-50,-23,-50,-50v0,-32,32,-62,64,-62xm170,-223v-18,85,30,138,107,138v87,0,118,-58,136,-138r98,-444r111,0r-98,442v-35,158,-118,237,-251,237v-142,0,-245,-93,-213,-239r97,-440r111,0","w":593},"\u00dd":{"d":"541,-872r-167,144r-70,0r142,-144r95,0xm263,0r-110,0r61,-278r-121,-389r117,0r76,285r203,-285r128,0r-292,389","w":524},"\u00de":{"d":"348,-553v95,-2,168,76,166,171v-1,67,-25,120,-58,162v-37,47,-106,82,-190,81r-115,0r-31,139r-110,0r147,-667r110,0r-24,114r105,0xm398,-372v0,-48,-32,-85,-79,-84r-98,0r-48,220r101,0v75,3,124,-64,124,-136","w":515},"\u00df":{"d":"326,-677v86,0,178,51,178,131v0,58,-44,102,-82,121v-31,17,-81,41,-81,81v0,37,58,60,91,74v42,17,90,60,90,120v0,89,-81,162,-178,162v-76,0,-135,-26,-177,-79r55,-63v31,41,71,62,118,62v62,0,111,-73,52,-112v-41,-27,-87,-39,-122,-76v-32,-35,-35,-95,-12,-136v28,-50,88,-66,126,-104v11,-11,16,-23,16,-36v0,-37,-40,-58,-80,-57v-55,0,-89,32,-103,96r-109,493r-99,0r109,-493v22,-102,90,-184,208,-184","w":557},"\u00e0":{"d":"170,12v-95,0,-147,-73,-145,-175v2,-112,42,-212,102,-277v71,-78,209,-74,249,24r14,-67r99,0r-107,483r-99,0r14,-62v-35,49,-78,74,-127,74xm359,-341v-12,-36,-47,-66,-93,-66v-39,0,-72,25,-98,75v-26,50,-39,102,-39,153v-1,61,29,103,86,103v46,0,80,-35,100,-67xm364,-556r-68,0r-103,-144r92,0","w":495},"\u00e1":{"d":"170,12v-95,0,-147,-73,-145,-175v2,-112,42,-212,102,-277v71,-78,209,-74,249,24r14,-67r99,0r-107,483r-99,0r14,-62v-35,49,-78,74,-127,74xm359,-341v-12,-36,-47,-66,-93,-66v-39,0,-72,25,-98,75v-26,50,-39,102,-39,153v-1,61,29,103,86,103v46,0,80,-35,100,-67xm467,-700r-167,144r-70,0r142,-144r95,0","w":495},"\u00e2":{"d":"170,12v-95,0,-147,-73,-145,-175v2,-112,42,-212,102,-277v71,-78,209,-74,249,24r14,-67r99,0r-107,483r-99,0r14,-62v-35,49,-78,74,-127,74xm359,-341v-12,-36,-47,-66,-93,-66v-39,0,-72,25,-98,75v-26,50,-39,102,-39,153v-1,61,29,103,86,103v46,0,80,-35,100,-67xm424,-556r-58,0r-46,-97r-85,97r-62,0r110,-144r92,0","w":495},"\u00e3":{"d":"170,12v-95,0,-147,-73,-145,-175v2,-112,42,-212,102,-277v71,-78,209,-74,249,24r14,-67r99,0r-107,483r-99,0r14,-62v-35,49,-78,74,-127,74xm359,-341v-12,-36,-47,-66,-93,-66v-39,0,-72,25,-98,75v-26,50,-39,102,-39,153v-1,61,29,103,86,103v46,0,80,-35,100,-67xm356,-554v-29,1,-49,-20,-56,-40v-6,-17,-19,-41,-40,-41v-22,0,-38,25,-49,75r-55,0v19,-89,56,-134,110,-134v30,-1,50,19,58,40v6,17,18,41,39,41v21,0,38,-25,49,-75r55,0v-19,89,-56,134,-111,134","w":495},"\u00e4":{"d":"170,12v-95,0,-147,-73,-145,-175v2,-112,42,-212,102,-277v71,-78,209,-74,249,24r14,-67r99,0r-107,483r-99,0r14,-62v-35,49,-78,74,-127,74xm359,-341v-12,-36,-47,-66,-93,-66v-39,0,-72,25,-98,75v-26,50,-39,102,-39,153v-1,61,29,103,86,103v46,0,80,-35,100,-67xm407,-663v28,0,50,22,50,50v0,32,-31,62,-63,62v-28,0,-50,-22,-50,-50v0,-32,31,-62,63,-62xm225,-663v28,0,50,22,50,50v0,33,-31,62,-64,62v-27,0,-50,-23,-50,-50v0,-32,32,-62,64,-62","w":495},"\u00e5":{"d":"170,12v-95,0,-147,-73,-145,-175v2,-112,42,-212,102,-277v71,-78,209,-74,249,24r14,-67r99,0r-107,483r-99,0r14,-62v-35,49,-78,74,-127,74xm359,-341v-12,-36,-47,-66,-93,-66v-39,0,-72,25,-98,75v-26,50,-39,102,-39,153v-1,61,29,103,86,103v46,0,80,-35,100,-67xm409,-648v0,54,-51,105,-105,105v-49,0,-84,-37,-84,-86v0,-54,50,-104,104,-104v50,0,85,35,85,85xm267,-634v0,25,17,43,42,43v27,0,53,-25,53,-52v0,-25,-17,-43,-42,-43v-27,0,-53,25,-53,52","w":495},"\u00e6":{"d":"432,-209v-16,82,33,140,113,138v39,0,75,-15,106,-44r34,70v-42,38,-88,57,-138,57v-76,0,-124,-33,-145,-99r-19,87r-100,0r14,-62v-35,49,-78,74,-127,74v-95,0,-148,-73,-145,-175v4,-128,49,-242,128,-300v74,-56,191,-38,223,47r15,-67r99,0r-15,65v40,-51,85,-77,134,-77v101,1,145,71,144,180v0,35,-5,70,-14,106r-307,0xm359,-341v-12,-36,-47,-66,-93,-66v-39,0,-72,25,-98,75v-26,50,-39,102,-39,153v-1,61,29,103,86,103v39,0,72,-22,101,-67xm659,-280v16,-69,-15,-134,-86,-134v-68,0,-118,73,-129,134r215,0","w":779},"\u00e7":{"d":"270,102v0,54,-49,91,-105,91v-43,0,-77,-13,-101,-39r30,-41v19,23,43,34,72,34v28,1,49,-16,50,-42v1,-32,-42,-33,-57,-11r-34,-22r39,-66v-84,-18,-138,-89,-137,-191v1,-113,51,-207,119,-263v82,-67,232,-61,283,24r-62,65v-18,-32,-47,-48,-86,-48v-92,0,-152,122,-152,216v0,70,39,115,105,115v33,0,62,-14,86,-41r37,72v-40,39,-85,58,-145,57r-25,41v36,-27,83,4,83,49","w":417},"\u00e8":{"d":"126,-209v-16,82,32,142,113,140v41,0,77,-15,108,-44r34,66v-43,39,-95,59,-154,59v-122,1,-201,-74,-200,-196v2,-109,48,-204,115,-260v40,-33,83,-51,132,-51v110,-1,177,75,176,187v0,30,-5,63,-14,99r-310,0xm356,-280v17,-71,-19,-134,-90,-134v-68,0,-118,73,-127,134r217,0xm380,-556r-68,0r-103,-144r92,0","w":476},"\u00e9":{"d":"126,-209v-16,82,32,142,113,140v41,0,77,-15,108,-44r34,66v-43,39,-95,59,-154,59v-122,1,-201,-74,-200,-196v2,-109,48,-204,115,-260v40,-33,83,-51,132,-51v110,-1,177,75,176,187v0,30,-5,63,-14,99r-310,0xm356,-280v17,-71,-19,-134,-90,-134v-68,0,-118,73,-127,134r217,0xm483,-700r-167,144r-70,0r142,-144r95,0","w":476},"\u00ea":{"d":"126,-209v-16,82,32,142,113,140v41,0,77,-15,108,-44r34,66v-43,39,-95,59,-154,59v-122,1,-201,-74,-200,-196v2,-109,48,-204,115,-260v40,-33,83,-51,132,-51v110,-1,177,75,176,187v0,30,-5,63,-14,99r-310,0xm356,-280v17,-71,-19,-134,-90,-134v-68,0,-118,73,-127,134r217,0xm438,-556r-58,0r-46,-97r-85,97r-62,0r110,-144r92,0","w":476},"\u00eb":{"d":"126,-209v-16,82,32,142,113,140v41,0,77,-15,108,-44r34,66v-43,39,-95,59,-154,59v-122,1,-201,-74,-200,-196v2,-109,48,-204,115,-260v40,-33,83,-51,132,-51v110,-1,177,75,176,187v0,30,-5,63,-14,99r-310,0xm356,-280v17,-71,-19,-134,-90,-134v-68,0,-118,73,-127,134r217,0xm420,-663v28,0,50,22,50,50v0,32,-31,62,-63,62v-28,0,-50,-22,-50,-50v0,-32,31,-62,63,-62xm238,-663v28,0,50,22,50,50v0,33,-31,62,-64,62v-27,0,-50,-23,-50,-50v0,-32,32,-62,64,-62","w":476},"\u00ec":{"d":"244,-556r-68,0r-103,-144r92,0xm104,0r-99,0r107,-483r99,0","w":217},"\u00ed":{"d":"347,-700r-167,144r-70,0r142,-144r95,0xm104,0r-99,0r107,-483r99,0","w":217},"\u00ee":{"d":"304,-556r-58,0r-46,-97r-85,97r-62,0r110,-144r92,0xm104,0r-99,0r107,-483r99,0","w":217},"\u00ef":{"d":"287,-663v28,0,50,22,50,50v0,32,-31,62,-63,62v-28,0,-50,-22,-50,-50v0,-32,31,-62,63,-62xm105,-663v28,0,50,22,50,50v0,33,-31,62,-64,62v-27,0,-50,-23,-50,-50v0,-32,32,-62,64,-62xm104,0r-99,0r107,-483r99,0","w":217},"\u00f0":{"d":"25,-176v0,-132,93,-297,221,-294v66,2,110,39,127,92v-8,-51,-28,-106,-59,-165r-137,41r-11,-50r122,-36v-14,-21,-30,-42,-47,-63r84,-52v23,28,45,56,64,85r90,-27r11,49r-74,22v99,167,54,420,-58,526v-41,39,-87,60,-140,60v-117,2,-193,-73,-193,-188xm128,-180v0,65,31,103,92,104v78,2,137,-125,135,-206v-1,-54,-35,-101,-94,-101v-78,0,-133,123,-133,203","w":490},"\u00f1":{"d":"342,-495v80,0,130,53,112,135r-79,360r-100,0r73,-329v13,-45,-6,-78,-58,-78v-35,0,-72,23,-109,68r-75,339r-99,0r107,-483r99,0r-14,64v44,-51,92,-76,143,-76xm373,-554v-29,1,-50,-20,-57,-40v-6,-17,-18,-41,-39,-41v-22,0,-38,25,-49,75r-55,0v19,-89,56,-134,110,-134v30,-1,49,19,57,40v6,17,19,41,40,41v21,0,38,-25,49,-75r55,0v-19,89,-56,134,-111,134","w":486},"\u00f2":{"d":"273,-495v118,-1,189,76,188,194v0,78,-23,150,-69,215v-46,65,-106,98,-177,98v-118,1,-190,-76,-189,-194v0,-78,23,-150,70,-215v47,-65,106,-98,177,-98xm129,-183v-1,65,29,107,90,107v63,0,106,-72,123,-127v11,-34,17,-66,17,-97v1,-65,-29,-107,-90,-107v-63,0,-106,72,-123,127v-11,34,-17,66,-17,97xm381,-556r-68,0r-103,-144r92,0","w":490},"\u00f3":{"d":"273,-495v118,-1,189,76,188,194v0,78,-23,150,-69,215v-46,65,-106,98,-177,98v-118,1,-190,-76,-189,-194v0,-78,23,-150,70,-215v47,-65,106,-98,177,-98xm129,-183v-1,65,29,107,90,107v63,0,106,-72,123,-127v11,-34,17,-66,17,-97v1,-65,-29,-107,-90,-107v-63,0,-106,72,-123,127v-11,34,-17,66,-17,97xm483,-700r-167,144r-70,0r142,-144r95,0","w":490},"\u00f4":{"d":"273,-495v118,-1,189,76,188,194v0,78,-23,150,-69,215v-46,65,-106,98,-177,98v-118,1,-190,-76,-189,-194v0,-78,23,-150,70,-215v47,-65,106,-98,177,-98xm129,-183v-1,65,29,107,90,107v63,0,106,-72,123,-127v11,-34,17,-66,17,-97v1,-65,-29,-107,-90,-107v-63,0,-106,72,-123,127v-11,34,-17,66,-17,97xm440,-556r-58,0r-46,-97r-85,97r-62,0r110,-144r92,0","w":490},"\u00f5":{"d":"273,-495v118,-1,189,76,188,194v0,78,-23,150,-69,215v-46,65,-106,98,-177,98v-118,1,-190,-76,-189,-194v0,-78,23,-150,70,-215v47,-65,106,-98,177,-98xm129,-183v-1,65,29,107,90,107v63,0,106,-72,123,-127v11,-34,17,-66,17,-97v1,-65,-29,-107,-90,-107v-63,0,-106,72,-123,127v-11,34,-17,66,-17,97xm373,-554v-29,1,-50,-20,-57,-40v-6,-17,-18,-41,-39,-41v-22,0,-38,25,-49,75r-55,0v19,-89,56,-134,110,-134v30,-1,49,19,57,40v6,17,19,41,40,41v21,0,38,-25,49,-75r55,0v-19,89,-56,134,-111,134","w":490},"\u00f6":{"d":"273,-495v118,-1,189,76,188,194v0,78,-23,150,-69,215v-46,65,-106,98,-177,98v-118,1,-190,-76,-189,-194v0,-78,23,-150,70,-215v47,-65,106,-98,177,-98xm129,-183v-1,65,29,107,90,107v63,0,106,-72,123,-127v11,-34,17,-66,17,-97v1,-65,-29,-107,-90,-107v-63,0,-106,72,-123,127v-11,34,-17,66,-17,97xm423,-663v28,0,50,22,50,50v0,32,-31,62,-63,62v-28,0,-50,-22,-50,-50v0,-32,31,-62,63,-62xm241,-663v28,0,50,22,50,50v0,33,-31,62,-64,62v-27,0,-50,-23,-50,-50v0,-32,32,-62,64,-62","w":490},"\u00f7":{"d":"427,-305r-385,0r15,-65r384,0xm258,-175v0,31,-27,57,-58,57v-26,0,-48,-23,-48,-49v0,-30,27,-56,58,-56v26,0,48,22,48,48xm331,-505v0,31,-27,57,-58,57v-25,0,-48,-22,-48,-48v0,-31,27,-57,58,-57v26,0,48,22,48,48","w":443},"\u00f8":{"d":"55,0r-65,0r63,-69v-18,-31,-27,-69,-27,-113v0,-78,23,-150,70,-215v47,-65,106,-98,177,-98v54,0,97,14,129,43r29,-31r65,0r-63,69v19,31,28,69,28,113v0,78,-23,150,-69,215v-46,65,-106,98,-177,98v-55,0,-98,-15,-131,-44xm219,-76v63,-2,106,-72,123,-127v13,-45,22,-82,14,-127r-205,225v15,19,37,29,68,29xm196,-369v-42,50,-74,131,-65,215r205,-225v-38,-41,-102,-35,-140,10","w":490},"\u00f9":{"d":"145,12v-80,0,-130,-54,-112,-135r79,-360r99,0r-73,328v-10,47,5,79,59,79v37,0,73,-22,108,-67r75,-340r99,0r-107,483r-99,0r15,-64v-45,51,-93,76,-143,76xm380,-556r-68,0r-103,-144r92,0","w":486},"\u00fa":{"d":"145,12v-80,0,-130,-54,-112,-135r79,-360r99,0r-73,328v-10,47,5,79,59,79v37,0,73,-22,108,-67r75,-340r99,0r-107,483r-99,0r15,-64v-45,51,-93,76,-143,76xm482,-700r-167,144r-70,0r142,-144r95,0","w":486},"\u00fb":{"d":"145,12v-80,0,-130,-54,-112,-135r79,-360r99,0r-73,328v-10,47,5,79,59,79v37,0,73,-22,108,-67r75,-340r99,0r-107,483r-99,0r15,-64v-45,51,-93,76,-143,76xm438,-556r-58,0r-46,-97r-85,97r-62,0r110,-144r92,0","w":486},"\u00fc":{"d":"145,12v-80,0,-130,-54,-112,-135r79,-360r99,0r-73,328v-10,47,5,79,59,79v37,0,73,-22,108,-67r75,-340r99,0r-107,483r-99,0r15,-64v-45,51,-93,76,-143,76xm423,-663v28,0,50,22,50,50v0,32,-31,62,-63,62v-28,0,-50,-22,-50,-50v0,-32,31,-62,63,-62xm241,-663v28,0,50,22,50,50v0,33,-31,62,-64,62v-27,0,-50,-23,-50,-50v0,-32,32,-62,64,-62","w":486},"\u00fd":{"d":"-51,184r32,-84v38,15,69,5,91,-33r35,-61r-53,-489r103,0r28,363r190,-363r109,0r-320,573v-37,64,-66,106,-148,106v-27,0,-49,-4,-67,-12xm454,-700r-167,144r-70,0r142,-144r95,0","w":432},"\u00fe":{"d":"325,-495v96,1,145,72,144,175v-2,112,-42,211,-102,276v-71,77,-209,75,-248,-23r-56,251r-99,0r188,-851r99,0r-54,246v36,-49,79,-74,128,-74xm135,-142v13,35,47,66,93,66v64,0,105,-74,122,-130v10,-34,16,-67,16,-98v1,-61,-29,-103,-86,-103v-39,0,-72,22,-101,67","w":494},"\u00ff":{"d":"-51,184r32,-84v38,15,69,5,91,-33r35,-61r-53,-489r103,0r28,363r190,-363r109,0r-320,573v-37,64,-66,106,-148,106v-27,0,-49,-4,-67,-12xm394,-663v28,0,50,22,50,50v0,32,-31,62,-63,62v-28,0,-50,-22,-50,-50v0,-32,31,-62,63,-62xm212,-663v28,0,50,22,50,50v0,33,-31,62,-64,62v-27,0,-50,-23,-50,-50v0,-32,32,-62,64,-62","w":432},"\u0152":{"d":"246,12v-127,0,-206,-114,-204,-250v3,-153,67,-292,157,-370v52,-45,108,-69,169,-69v80,0,132,33,156,100r20,-90r366,0r-22,97r-255,0r-40,181r248,0r-21,97r-249,0r-43,195r256,0r-21,97r-366,0r15,-72v-41,56,-97,84,-166,84xm157,-240v-1,86,44,155,126,154v74,-1,127,-55,157,-112r56,-253v-9,-75,-50,-127,-127,-128v-40,0,-77,20,-111,57v-59,64,-99,172,-101,282","w":858},"\u0153":{"d":"593,-495v109,0,176,73,174,187v0,31,-5,64,-14,99r-306,0v-16,81,31,139,111,139v40,0,75,-14,106,-43r34,66v-43,39,-93,59,-152,59v-83,0,-146,-47,-162,-109v-43,59,-80,108,-171,109v-118,2,-188,-75,-187,-194v1,-113,48,-209,116,-265v39,-31,81,-48,129,-48v78,-2,134,50,152,108v47,-72,103,-108,170,-108xm674,-280v16,-71,-16,-133,-88,-133v-70,0,-116,73,-126,133r214,0xm146,-282v-28,84,-29,206,72,206v39,0,72,-24,98,-74v26,-50,39,-100,39,-150v1,-65,-30,-107,-89,-107v-62,0,-102,71,-120,125","w":793},"\u0178":{"d":"480,-834v28,0,50,22,50,50v0,32,-31,62,-63,62v-28,0,-50,-22,-50,-50v0,-32,31,-62,63,-62xm298,-834v28,0,50,22,50,50v0,33,-31,62,-64,62v-27,0,-50,-23,-50,-50v0,-32,32,-62,64,-62xm263,0r-110,0r61,-278r-121,-389r117,0r76,285r203,-285r128,0r-292,389","w":524},"\u02c6":{"d":"320,-556r-58,0r-46,-97r-85,97r-62,0r110,-144r92,0","w":251},"\u02dc":{"d":"270,-554v-29,1,-49,-20,-56,-40v-6,-17,-19,-41,-40,-41v-22,0,-38,25,-49,75r-55,0v19,-89,56,-134,110,-134v30,-1,50,19,58,40v6,17,18,41,39,41v21,0,38,-25,49,-75r55,0v-19,89,-56,134,-111,134","w":283},"\u2013":{"d":"486,-199r-466,0r18,-86r467,0","w":527},"\u2014":{"d":"696,-199r-676,0r18,-86r677,0","w":737},"\u2018":{"d":"168,-429v-38,0,-65,-28,-64,-69v2,-79,69,-151,130,-179r37,39v-34,16,-77,49,-90,84v34,-6,60,20,60,54v0,37,-37,72,-73,71","w":243},"\u2019":{"d":"208,-677v37,0,65,29,64,69v-2,79,-69,151,-130,180r-37,-40v34,-16,77,-49,90,-84v-34,6,-60,-19,-60,-53v0,-39,35,-72,73,-72","w":243},"\u201a":{"d":"85,-123v38,0,66,28,65,69v-2,79,-70,151,-131,179r-37,-39v34,-16,77,-49,90,-84v-36,3,-59,-20,-60,-54v-1,-37,37,-72,73,-71","w":243},"\u201c":{"d":"351,-429v-39,-1,-66,-28,-65,-69v2,-79,69,-151,130,-179r38,39v-35,16,-77,50,-91,84v35,-6,61,20,61,54v0,37,-37,72,-73,71xm171,-429v-38,-1,-65,-28,-64,-69v2,-79,69,-151,130,-179r37,39v-34,16,-77,49,-90,84v34,-6,60,20,60,54v0,38,-36,72,-73,71","w":423},"\u201d":{"d":"208,-677v37,0,65,29,64,69v-2,79,-69,151,-130,180r-37,-40v34,-16,77,-49,90,-84v-34,6,-60,-19,-60,-53v0,-39,35,-72,73,-72xm387,-677v38,0,66,29,65,69v-2,79,-69,151,-130,180r-38,-40v35,-16,77,-50,91,-84v-34,6,-61,-19,-61,-53v0,-37,37,-72,73,-72","w":423},"\u201e":{"d":"85,-123v38,0,66,28,65,69v-2,79,-70,151,-131,179r-37,-39v34,-16,77,-49,90,-84v-36,3,-59,-20,-60,-54v-1,-37,37,-72,73,-71xm265,-123v38,1,65,28,64,69v-2,79,-69,151,-130,179r-38,-39v35,-15,77,-50,91,-84v-37,3,-60,-19,-61,-54v-1,-38,37,-72,74,-71","w":423},"\u2022":{"d":"191,-355v56,0,102,46,102,102v0,65,-61,123,-126,123v-56,0,-102,-45,-102,-102v0,-65,61,-123,126,-123","w":358},"\u2026":{"d":"146,-62v0,39,-34,73,-73,73v-33,0,-61,-29,-61,-62v0,-39,34,-72,73,-72v34,0,61,27,61,61xm388,-62v0,39,-34,73,-73,73v-33,0,-61,-29,-61,-62v0,-39,34,-72,73,-72v34,0,61,27,61,61xm630,-62v0,39,-34,73,-73,73v-33,0,-61,-29,-61,-62v0,-39,34,-72,73,-72v33,0,61,28,61,61","w":726},"\u2039":{"d":"198,-63r-84,0r-85,-180r165,-177r90,0r-169,181","w":272},"\u203a":{"d":"75,-420r84,0r85,180r-165,177r-90,0r169,-182","w":272},"\u20ac":{"d":"178,-231v1,85,48,145,131,145v48,0,91,-27,128,-80r86,49v-57,86,-131,129,-220,129v-143,1,-239,-99,-239,-243r-46,0r14,-65r35,0v2,-23,6,-48,13,-77r-31,0r15,-64r36,0v27,-71,68,-128,118,-174v84,-78,233,-92,318,-18v36,33,61,75,74,126r-104,30v-25,-111,-134,-139,-212,-68v-28,26,-53,61,-73,104r196,0r-15,64r-205,0v-6,22,-11,48,-16,77r204,0r-14,65r-193,0","w":567},"\u2122":{"d":"424,-447r-28,0r40,-182r-105,182r-8,0r-25,-182r-40,182r-28,0r48,-220r43,0r20,158r88,-158r43,0xm237,-641r-52,0r-43,194r-28,0r43,-194r-52,0r5,-26r132,0","w":414}}});
