/*!
 * The following copyright notice may not be removed under any circumstances.
 * 
 * Copyright:
 * Copyright (c) Mark Simonson, 2005. All rights reserved.
 * 
 * Description:
 * This is a protected webfont and is intended for CSS @font-face use ONLY.
 * Reverse engineering this font is strictly prohibited.
 */
Cufon.registerFont({"w":581,"face":{"font-family":"","font-weight":600,"font-stretch":"normal","units-per-em":"1000","panose-1":"2 0 5 6 3 0 0 2 0 4","ascent":"790","descent":"-210","x-height":"12","bbox":"-186 -897 1139 199","underline-thickness":"20","underline-position":"-113","unicode-range":"U+0020-U+2122"},"glyphs":{" ":{"w":258},"!":{"d":"159,-205r-91,0r83,-462r128,0xm152,-65v0,41,-36,76,-77,76v-34,0,-63,-30,-63,-65v0,-40,36,-75,76,-75v35,0,64,30,64,64","w":244},"\"":{"d":"197,-677v38,0,61,39,45,80r-80,206r-47,0v8,-133,12,-205,13,-217v2,-38,30,-70,69,-69xm364,-677v38,0,61,39,45,80r-80,206r-47,0v8,-133,12,-205,13,-217v0,-38,31,-70,69,-69","w":380},"#":{"d":"268,0r-80,0r98,-175r-102,0r-97,175r-80,0r97,-175r-100,0r37,-69r102,0r99,-179r-102,0r36,-69r105,0r96,-175r80,0r-96,175r101,0r96,-175r80,0r-97,175r101,0r-35,69r-104,0r-100,179r105,0r-36,69r-107,0xm323,-244r100,-179r-101,0r-99,179r100,0","w":607},"$":{"d":"557,-210v0,134,-115,231,-266,222r-19,88r-80,0r21,-97v-92,-18,-158,-56,-198,-114r74,-85v33,47,83,78,148,95r42,-193v-50,-20,-78,-32,-118,-62v-34,-25,-56,-60,-56,-114v0,-123,120,-216,260,-208r20,-90r80,0r-22,100v71,15,127,48,168,97r-75,84v-29,-35,-68,-61,-117,-76r-39,174v52,20,79,33,120,63v34,26,57,62,57,116xm314,-92v67,2,119,-39,119,-96v0,-44,-40,-58,-80,-77xm342,-575v-57,-3,-112,35,-113,85v0,26,26,50,78,72","w":605},"%":{"d":"142,0r-67,0r573,-667r68,0xm701,-182v0,106,-81,194,-182,194v-83,0,-155,-55,-155,-137v0,-107,80,-194,182,-194v83,0,155,54,155,137xm441,-132v0,44,36,77,81,77v59,0,102,-57,102,-120v0,-45,-36,-78,-81,-78v-59,0,-102,58,-102,121xm422,-540v0,105,-82,194,-182,194v-83,0,-156,-55,-156,-137v0,-106,81,-194,182,-194v83,0,156,54,156,137xm162,-490v0,44,35,77,80,77v59,0,102,-57,102,-120v0,-45,-35,-78,-80,-78v-59,0,-102,58,-102,121","w":747},"&":{"d":"379,-677v86,0,166,44,163,128v-3,76,-37,116,-92,145v-47,26,-64,30,-119,51v21,43,75,136,96,170v39,-43,72,-88,98,-133r76,48v-44,64,-86,116,-127,156v24,36,51,73,81,112r-128,0v-18,-23,-29,-38,-34,-45v-57,38,-115,57,-174,57v-118,0,-210,-55,-209,-172v0,-59,18,-105,52,-138v34,-33,81,-62,141,-85v-13,-40,-19,-77,-19,-110v-3,-102,92,-184,195,-184xm126,-173v0,63,48,101,109,101v35,0,72,-14,111,-41v-58,-90,-76,-119,-115,-199v-70,34,-105,80,-105,139xm382,-600v-51,1,-92,49,-92,107v0,21,4,46,13,74v47,-17,83,-34,107,-51v24,-17,36,-40,36,-69v1,-38,-27,-61,-64,-61","w":645},"'":{"d":"197,-677v38,0,61,39,45,80r-80,206r-47,0v8,-133,12,-205,13,-217v2,-38,30,-70,69,-69","w":214},"(":{"d":"172,156r-75,43v-99,-169,-94,-419,-3,-609v49,-102,113,-194,197,-275r54,55v-141,175,-211,362,-211,561v0,69,13,144,38,225","w":276},")":{"d":"103,-642r76,-43v98,167,92,421,1,609v-49,101,-112,194,-196,275r-54,-55v141,-176,211,-363,211,-562v0,-69,-13,-143,-38,-224","w":277},"*":{"d":"230,-376r-57,0r31,-115r-107,49r-16,-50r110,-40r-88,-60r38,-44r80,69r20,-110r56,0r-31,115r107,-50r17,51r-109,39r86,61r-38,44r-80,-69","w":347},"+":{"d":"486,-304r-185,0r-46,208r-74,0r46,-208r-185,0r15,-67r185,0r44,-201r74,0r-44,201r185,0","w":502},",":{"d":"88,-129v39,1,68,29,67,71v-2,81,-71,156,-134,185r-39,-41v47,-23,78,-51,92,-84v-39,3,-62,-21,-63,-57v-1,-39,39,-75,77,-74","w":245},"-":{"d":"260,-197r-240,0r19,-90r240,0","w":300},".":{"d":"152,-65v0,41,-36,76,-77,76v-34,0,-63,-30,-63,-65v0,-40,36,-75,76,-75v35,0,64,30,64,64","w":246},"\/":{"d":"21,20r-81,0r393,-707r82,0","w":315},"0":{"d":"375,-677v150,0,232,107,230,264v-1,154,-62,288,-153,362v-51,41,-107,63,-170,63v-149,0,-234,-109,-232,-265v2,-154,63,-287,155,-361v51,-41,107,-63,170,-63xm190,-394v-37,119,-42,305,102,302v90,-2,148,-100,172,-180v37,-119,43,-304,-101,-301v-91,2,-148,100,-173,179","w":617},"1":{"d":"255,0r-117,0r114,-516r-134,114r-52,-71r234,-194r102,0","w":380},"2":{"d":"341,-677v126,-1,246,63,244,185v0,65,-33,130,-99,192v-66,62,-159,128,-280,197r296,0r-23,103r-483,0r24,-111r154,-91v93,-62,211,-126,268,-217v14,-23,21,-44,21,-65v-1,-62,-62,-91,-130,-90v-65,0,-122,21,-169,62r-51,-84v49,-47,137,-81,228,-81","w":595},"3":{"d":"518,-194v0,122,-121,206,-250,206v-122,0,-237,-56,-277,-139r81,-69v32,60,110,103,195,104v78,1,135,-41,135,-113v0,-61,-58,-85,-133,-84v-35,0,-60,1,-73,2r24,-106v7,1,37,1,92,1v75,0,143,-25,143,-95v0,-60,-69,-87,-141,-87v-63,0,-118,20,-165,59r-44,-79v59,-55,132,-83,220,-83v133,-1,248,52,250,171v2,92,-96,161,-181,168v68,16,124,62,124,144","w":574},"4":{"d":"409,0r-117,0r33,-151r-318,0r24,-104r358,-412r167,0r-91,413r89,0r-23,103r-89,0xm348,-254r68,-308r-271,308r203,0","w":580},"5":{"d":"557,-236v0,140,-121,248,-268,248v-122,0,-210,-44,-263,-131r84,-72v37,66,98,99,182,99v78,0,143,-56,143,-131v0,-70,-62,-106,-136,-105v-47,0,-91,14,-130,43r-75,-32r76,-350r437,0r-22,103r-320,0r-41,184v36,-29,81,-44,136,-44v111,-1,197,73,197,188","w":600},"6":{"d":"562,-245v0,138,-128,257,-269,257v-156,0,-248,-96,-247,-253v1,-147,52,-262,125,-341v48,-53,125,-95,221,-95v93,0,164,31,213,94r-74,82v-29,-48,-78,-72,-147,-72v-124,0,-183,117,-211,224v36,-38,109,-77,181,-77v114,0,208,70,208,181xm160,-227v-1,80,54,135,134,135v78,0,147,-63,146,-138v-1,-66,-65,-102,-137,-101v-52,0,-99,21,-142,64v-1,5,-1,19,-1,40","w":601},"7":{"d":"198,0r-135,0r375,-564r-340,0r22,-103r481,0r-18,81","w":532},"8":{"d":"541,-179v1,120,-133,191,-261,191v-131,0,-258,-52,-258,-175v0,-108,90,-171,192,-193v-53,-23,-107,-68,-108,-137v-1,-86,67,-143,134,-165v147,-49,364,-2,364,149v0,102,-84,160,-180,176v78,39,117,90,117,154xm223,-480v1,46,64,81,107,90v74,-5,148,-31,148,-98v0,-55,-66,-85,-128,-85v-63,0,-128,34,-127,93xm146,-185v0,132,278,119,278,-6v-1,-55,-67,-90,-116,-102v-77,5,-162,37,-162,108","w":596},"9":{"d":"78,-421v0,-138,127,-257,268,-257v156,0,248,96,247,253v-1,116,-37,218,-87,293v-50,77,-139,143,-258,143v-93,0,-165,-32,-214,-95r74,-81v31,48,80,72,147,72v124,0,184,-119,211,-225v-35,38,-109,77,-181,77v-114,0,-207,-69,-207,-180xm478,-400v16,-101,-38,-174,-133,-174v-79,0,-146,62,-145,138v1,66,65,101,137,100v53,0,100,-21,141,-64","w":601},":":{"d":"152,-65v0,41,-36,76,-77,76v-34,0,-63,-30,-63,-65v0,-40,36,-75,76,-75v35,0,64,30,64,64xm231,-426v0,40,-36,75,-76,75v-35,0,-64,-30,-64,-64v0,-41,36,-76,77,-76v34,0,63,30,63,65","w":237},";":{"d":"88,-129v39,1,68,29,67,71v-2,81,-71,156,-134,185r-39,-41v47,-23,78,-51,92,-84v-39,3,-62,-21,-63,-57v-1,-39,39,-75,77,-74xm231,-426v0,40,-36,75,-76,75v-35,0,-64,-30,-64,-64v0,-41,36,-76,77,-76v34,0,63,30,63,65","w":245},"<":{"d":"438,-90r-398,-207r17,-76r490,-207r-19,84r-400,165r327,164","w":502},"=":{"d":"506,-396r-444,0r15,-67r444,0xm464,-205r-444,0r15,-68r444,0","w":502},">":{"d":"484,-297r-490,207r19,-84r402,-164r-329,-165r17,-77r398,207","w":502},"?":{"d":"289,-677v106,0,207,50,207,147v0,104,-82,144,-152,180v-37,19,-82,43,-84,91v0,13,4,24,13,33r-95,30v-26,-41,-25,-103,3,-142v40,-57,121,-71,168,-120v15,-14,22,-31,22,-49v-2,-48,-44,-68,-99,-67v-51,0,-96,18,-135,55r-50,-80v59,-52,126,-78,202,-78xm254,-65v0,40,-36,76,-76,76v-35,0,-64,-30,-64,-65v0,-41,36,-75,77,-75v34,0,63,30,63,64","w":459},"@":{"d":"93,-246v0,157,125,280,284,280v65,0,126,-19,183,-56r20,29v-65,42,-135,63,-208,63v-176,0,-317,-140,-317,-314v0,-206,194,-394,397,-394v180,0,315,137,315,311v0,131,-77,239,-187,242v-55,2,-91,-35,-95,-84v-30,44,-84,83,-150,84v-95,1,-155,-70,-155,-166v0,-124,111,-248,230,-248v59,0,102,24,127,72r11,-57r94,0r-54,256v-8,35,5,71,39,70v24,0,47,-14,69,-42v22,-28,32,-71,32,-128v2,-161,-116,-273,-279,-273v-184,0,-356,173,-356,355xm278,-258v0,56,35,98,91,97v49,0,92,-25,127,-76r26,-126v-12,-30,-45,-60,-90,-60v-85,0,-154,81,-154,165","w":783},"A":{"d":"618,0r-127,0r-21,-129r-306,0r-77,129r-140,0r410,-667r146,0xm460,-232r-50,-318r-190,318r240,0","w":673},"B":{"d":"588,-199v-2,119,-93,199,-230,199r-341,0r147,-667r304,0v99,-3,177,64,177,157v0,88,-74,169,-153,176v53,13,97,71,96,135xm519,-491v1,-42,-38,-73,-82,-73r-178,0r-38,172r191,0v68,2,106,-39,107,-99xm470,-209v0,-48,-37,-80,-87,-80r-185,0r-41,186r194,0v68,2,119,-44,119,-106","w":649},"C":{"d":"633,-106v-58,71,-150,115,-262,118v-179,3,-320,-119,-320,-296v0,-220,173,-394,383,-394v145,0,241,74,286,175r-112,40v-27,-68,-92,-110,-180,-111v-141,-2,-254,133,-254,283v0,117,84,199,203,199v64,0,120,-26,167,-77","w":682},"D":{"d":"407,-667v152,-3,288,128,284,285v-3,109,-42,193,-99,258v-65,75,-185,124,-328,124r-247,0r147,-667r243,0xm570,-374v0,-106,-80,-190,-184,-190r-127,0r-102,461r128,0v161,5,285,-118,285,-271","w":710},"E":{"d":"474,0r-457,0r147,-667r457,0r-22,103r-340,0r-38,172r333,0r-23,103r-333,0r-41,186r340,0","w":577},"F":{"d":"134,0r-117,0r147,-667r457,0r-22,103r-340,0r-38,172r333,0r-23,103r-333,0","w":563},"G":{"d":"174,-291v0,116,84,199,203,199v56,0,107,-20,152,-59r23,-105r-200,0r23,-103r316,0r-56,253v-71,79,-159,118,-264,118v-179,0,-320,-119,-320,-296v0,-221,174,-394,393,-394v130,0,226,69,269,157r-106,46v-25,-57,-98,-99,-179,-99v-140,0,-254,135,-254,283","w":717},"H":{"d":"598,0r-117,0r64,-292r-347,0r-64,292r-117,0r147,-667r117,0r-60,272r347,0r60,-272r117,0","w":723},"I":{"d":"134,0r-117,0r147,-667r117,0","w":259},"J":{"d":"162,12v-80,0,-153,-31,-188,-79r66,-87v25,41,63,62,115,62v76,-1,118,-54,132,-121r100,-454r117,0r-101,455v-33,149,-114,224,-241,224","w":482},"K":{"d":"561,0r-138,0r-164,-286r-78,73r-47,213r-117,0r147,-667r117,0r-68,308r323,-308r151,0r-340,314","w":621},"L":{"d":"420,0r-411,0r147,-667r117,0r-124,564r294,0","w":506},"M":{"d":"710,0r-117,0r114,-515r-318,515r-50,0r-91,-515r-114,515r-117,0r147,-667r161,0r80,458r283,-458r169,0","w":835},"N":{"d":"595,0r-113,0r-241,-483r-107,483r-117,0r147,-667r120,0r237,468r104,-468r117,0","w":720},"O":{"d":"753,-383v0,213,-171,395,-382,395v-179,0,-320,-117,-320,-296v0,-214,171,-394,383,-394v178,0,319,116,319,295xm174,-291v0,119,87,199,203,199v143,0,253,-134,253,-283v0,-120,-86,-199,-204,-199v-143,0,-252,134,-252,283","w":765},"P":{"d":"450,-667v127,-3,216,128,166,259v-36,94,-119,158,-252,158r-175,0r-55,250r-117,0r147,-667r286,0xm509,-476v1,-51,-43,-88,-95,-88r-155,0r-47,211r159,0v78,2,138,-49,138,-123","w":609},"Q":{"d":"753,-383v-2,140,-67,252,-151,317r37,55r-93,48r-35,-52v-220,87,-460,-41,-460,-269v0,-214,171,-394,383,-394v178,0,322,116,319,295xm174,-291v0,144,134,233,278,187r-67,-102r94,-47r62,95v59,-56,89,-128,89,-217v0,-120,-86,-199,-204,-199v-143,0,-252,134,-252,283","w":765},"R":{"d":"631,-485v0,122,-90,217,-202,228r105,257r-130,0r-93,-249r-122,0r-55,249r-117,0r147,-667r268,0v105,-2,199,75,199,182xm509,-474v0,-51,-47,-90,-97,-90r-153,0r-47,212r160,0v78,2,137,-48,137,-122","w":629},"S":{"d":"549,-210v0,130,-112,222,-254,222v-122,0,-238,-51,-288,-123r74,-85v42,59,126,102,223,104v68,1,119,-39,121,-96v0,-20,-11,-37,-34,-52v-77,-52,-200,-66,-260,-138v-22,-26,-34,-57,-34,-92v0,-120,118,-208,251,-208v108,0,205,44,255,107r-75,84v-39,-52,-114,-84,-197,-88v-77,-4,-155,85,-76,133v80,48,201,66,260,140v22,27,34,57,34,92","w":594},"T":{"d":"293,0r-117,0r125,-564r-202,0r22,-103r521,0r-22,103r-202,0","w":577},"U":{"d":"194,-266v-21,106,51,176,154,175v117,-1,164,-72,187,-175r88,-401r119,0r-89,403v-38,163,-114,274,-305,276v-179,2,-312,-99,-273,-276r89,-403r119,0","w":720},"V":{"d":"356,0r-146,0r-115,-667r127,0r83,539r321,-539r139,0","w":673},"W":{"d":"652,0r-125,0r-21,-493r-238,493r-125,0r-43,-667r127,0r17,513r251,-513r93,0r25,513r243,-513r134,0","w":903},"X":{"d":"604,0r-133,0r-135,-257r-239,257r-148,0r329,-350r-166,-317r132,0r124,240r219,-240r149,0r-309,331","w":661},"Y":{"d":"324,0r-117,0r61,-277r-173,-390r127,0r120,285r246,-285r141,0r-344,390","w":637},"Z":{"d":"491,0r-501,0r21,-95r438,-469r-334,0r23,-103r493,0r-21,94r-438,470r341,0","w":589},"[":{"d":"150,190r-203,0r193,-868r203,0r-16,72r-125,0r-161,724r126,0","w":265},"\\":{"d":"178,20r-80,-707r78,0r80,707r-78,0","w":315},"]":{"d":"124,190r-203,0r16,-72r126,0r160,-724r-125,0r16,-72r203,0","w":265},"^":{"d":"437,-333r-76,0r-61,-261r-177,261r-85,0r236,-334r77,0","w":437},"_":{"d":"488,112r-570,0r17,-72r569,0","w":564},"`":{"d":"309,-556r-75,0r-133,-144r100,0","w":240},"\u02cb":{"d":"309,-556r-75,0r-133,-144r100,0","w":240},"a":{"d":"32,-188v0,-151,102,-307,254,-307v72,0,125,27,160,81r15,-69r105,0r-107,483r-105,0r15,-64v-43,51,-93,76,-152,76v-114,0,-185,-81,-185,-200xm429,-337v-21,-37,-69,-65,-127,-65v-94,0,-160,97,-160,193v0,74,48,129,119,128v49,0,92,-23,127,-69"},"b":{"d":"363,-495v115,0,187,79,185,199v-1,115,-47,208,-118,262v-40,30,-85,46,-136,46v-72,0,-131,-34,-160,-81r-15,69r-105,0r147,-667r105,0r-54,248v41,-51,92,-76,151,-76xm151,-147v21,37,69,66,127,66v94,0,160,-98,160,-194v0,-74,-47,-128,-119,-127v-55,0,-101,33,-126,68"},"c":{"d":"141,-211v0,79,56,131,133,130v45,0,82,-18,111,-53r57,70v-48,51,-107,76,-178,76v-134,0,-231,-86,-231,-218v0,-154,126,-289,278,-289v89,0,152,31,189,93r-79,60v-23,-40,-59,-60,-110,-60v-101,0,-170,90,-170,191","w":498},"d":{"d":"32,-188v0,-151,102,-307,254,-307v72,0,125,27,160,81r56,-253r105,0r-148,667r-105,0r15,-64v-43,51,-93,76,-152,76v-114,0,-185,-81,-185,-200xm429,-337v-21,-37,-69,-65,-127,-65v-94,0,-160,97,-160,193v0,74,48,129,119,128v49,0,92,-23,127,-69"},"e":{"d":"140,-207v-8,81,60,133,145,133v53,0,96,-14,129,-41r34,74v-51,35,-108,53,-171,53v-142,2,-244,-80,-244,-216v0,-154,122,-291,276,-291v152,0,248,130,204,288r-373,0xm428,-282v7,-79,-46,-127,-126,-127v-75,0,-142,62,-151,127r277,0","w":557},"f":{"d":"145,0r-105,0r86,-392r-80,0r21,-91r79,0r6,-28v27,-111,84,-166,172,-166v51,0,92,15,122,45r-54,63v-25,-27,-82,-30,-108,-3v-16,17,-27,56,-33,89r99,0r-21,91r-98,0","w":309},"g":{"d":"283,-495v69,2,131,37,162,81r16,-69r105,0r-102,458v-33,147,-117,221,-252,221v-101,0,-176,-28,-226,-83r63,-70v32,45,86,67,161,67v79,0,128,-45,148,-135r12,-53v-41,51,-92,77,-155,77v-112,-1,-183,-75,-183,-197v0,-150,101,-300,251,-297xm142,-217v0,73,48,124,120,123v53,-1,99,-33,126,-65r39,-175v-22,-39,-73,-68,-132,-68v-91,0,-153,91,-153,185"},"h":{"d":"376,-495v99,0,165,61,143,162r-73,333r-105,0r67,-304v15,-62,-13,-99,-86,-98v-42,0,-85,22,-128,65r-74,337r-105,0r147,-667r105,0r-56,249v54,-51,109,-77,165,-77","w":568},"i":{"d":"267,-616v0,41,-37,74,-74,74v-32,0,-59,-25,-59,-56v0,-41,37,-74,74,-74v32,0,59,25,59,56xm119,0r-105,0r107,-483r105,0","w":241},"j":{"d":"54,153v-50,58,-192,54,-240,2r46,-75v16,20,38,30,65,30v43,0,70,-27,83,-82r113,-511r105,0r-113,511v-12,55,-33,95,-59,125xm267,-616v0,41,-37,74,-74,74v-32,0,-59,-25,-59,-56v0,-41,37,-74,74,-74v32,0,59,25,59,56","w":241},"k":{"d":"466,0r-126,0r-106,-203r-86,73r-29,130r-105,0r147,-667r105,0r-91,410r260,-226r134,0r-249,219","w":527},"l":{"d":"119,0r-105,0r147,-667r105,0","w":241},"m":{"d":"657,-495v88,-1,149,64,128,162r-73,333r-105,0r68,-308v15,-56,-21,-95,-72,-94v-39,0,-77,22,-113,65r-75,337r-105,0r68,-308v16,-54,-17,-94,-72,-94v-38,0,-75,22,-112,65r-75,337r-105,0r107,-483r105,0r-15,65v48,-51,98,-77,149,-77v66,0,129,46,132,96v53,-64,108,-96,165,-96","w":834},"n":{"d":"376,-495v99,0,165,61,143,162r-73,333r-105,0r67,-303v15,-64,-12,-99,-86,-99v-43,0,-86,22,-128,65r-75,337r-105,0r107,-483r105,0r-15,65v54,-51,109,-77,165,-77","w":568},"o":{"d":"539,-278v0,150,-123,290,-275,290v-138,0,-231,-86,-231,-218v0,-150,123,-289,275,-289v138,0,231,85,231,217xm142,-210v0,79,48,129,126,129v93,0,162,-98,162,-192v0,-79,-48,-129,-126,-129v-93,0,-162,96,-162,192","w":574},"p":{"d":"363,-495v115,0,187,79,185,199v-1,115,-47,208,-118,262v-40,30,-85,46,-136,46v-72,0,-131,-34,-160,-81r-56,253r-105,0r148,-667r105,0r-14,64v41,-51,92,-76,151,-76xm151,-147v21,37,69,66,127,66v94,0,160,-98,160,-194v0,-74,-47,-128,-119,-127v-55,0,-101,33,-126,68","w":579},"q":{"d":"32,-188v0,-151,102,-307,254,-307v72,0,125,27,160,81r15,-69r105,0r-148,667r-105,0r56,-248v-43,51,-93,76,-152,76v-114,0,-185,-81,-185,-200xm429,-337v-21,-37,-69,-65,-127,-65v-94,0,-160,97,-160,193v0,74,48,129,119,128v49,0,92,-23,127,-69","w":579},"r":{"d":"119,0r-105,0r107,-483r105,0r-15,67v47,-53,106,-79,175,-79r-24,106v-72,-19,-140,20,-171,62","w":347},"s":{"d":"415,-153v0,101,-89,165,-201,165v-93,0,-166,-29,-218,-87r62,-72v28,37,99,75,165,75v64,0,123,-65,63,-102v-77,-47,-225,-46,-225,-164v0,-94,86,-157,192,-157v82,0,157,34,197,78r-57,70v-21,-34,-87,-65,-143,-65v-45,0,-83,19,-84,57v0,15,13,29,39,41v79,36,210,52,210,161","w":472},"t":{"d":"188,12v-86,2,-147,-41,-127,-129r61,-275r-80,0r21,-91r80,0r29,-132r105,0r-29,132r98,0r-21,91r-98,0r-55,249v-8,38,7,63,46,62v15,0,29,-4,40,-13r6,84v-20,15,-45,22,-76,22","w":319},"u":{"d":"190,12v-99,0,-166,-60,-143,-162r74,-333r105,0r-67,302v-20,68,22,100,85,100v43,0,86,-22,129,-66r74,-336r105,0r-107,483r-105,0r15,-66v-55,52,-110,78,-165,78","w":567},"v":{"d":"254,0r-113,0r-90,-483r109,0r60,362r222,-362r116,0","w":503},"w":{"d":"546,0r-110,0r-35,-354r-190,354r-110,0r-43,-483r106,0r24,351r193,-351r92,0r37,351r180,-351r113,0","w":755},"x":{"d":"438,0r-114,0r-86,-178r-165,178r-122,0r232,-248r-114,-235r114,0r78,163r151,-163r122,0r-220,235","w":497},"y":{"d":"-47,185r35,-92v12,5,28,8,49,8v50,1,79,-63,103,-98r-89,-486r109,0r60,362r222,-362r116,0r-360,570v-42,65,-81,109,-171,109v-29,0,-53,-4,-74,-11","w":503},"z":{"d":"376,0r-384,0r18,-80r303,-312r-234,0r21,-91r379,0r-17,76r-308,315r241,0","w":476},"{":{"d":"70,41v-10,44,15,77,55,77r54,0r-16,72r-47,0v-77,0,-143,-63,-124,-148r42,-187v8,-35,-6,-67,-37,-68r14,-62v35,0,57,-23,67,-68r42,-186v23,-99,81,-149,175,-149r61,0r-16,72r-61,0v-43,0,-71,25,-82,76r-45,205v-11,49,-33,78,-65,89v29,12,34,53,25,89","w":277},"|":{"d":"163,20r-72,0r0,-707r72,0r0,707","w":214},"}":{"d":"206,-529v10,-44,-15,-77,-55,-77r-54,0r16,-72r47,0v76,-1,142,63,123,148r-41,187v-8,34,6,67,37,68r-14,62v-35,0,-57,23,-67,68r-42,186v-23,99,-81,149,-175,149r-61,0r16,-72r61,0v43,0,71,-25,82,-76r45,-205v11,-49,33,-78,65,-89v-29,-12,-34,-53,-25,-89","w":277},"~":{"d":"501,-667r71,8v-36,161,-97,242,-184,242v-50,0,-81,-27,-90,-64v-9,-33,-10,-73,-23,-99v-6,-12,-16,-19,-29,-19v-21,0,-42,17,-62,52v-20,35,-35,78,-46,131r-72,-9v35,-161,97,-241,185,-241v41,-1,72,20,83,48v9,25,18,59,21,88v3,24,12,47,37,47v21,0,42,-18,62,-53v20,-35,36,-79,47,-131","w":507},"\u00a0":{"w":258},"\u00a1":{"d":"84,-279r91,0r-83,463r-129,0xm91,-419v0,-41,36,-75,77,-75v34,0,63,30,63,64v0,40,-36,76,-76,76v-35,0,-64,-30,-64,-65","w":244},"\u00a2":{"d":"190,3v-92,-23,-157,-98,-157,-209v0,-152,121,-288,268,-289r16,-70r78,0r-17,77v54,13,95,42,122,86r-79,60v-15,-25,-37,-43,-64,-52r-70,313v38,-4,71,-22,98,-53r57,70v-47,50,-106,75,-176,76r-19,88r-78,0xm280,-399v-81,13,-140,96,-139,188v0,58,24,97,71,118","w":498},"\u00a3":{"d":"9,-76v74,-33,158,-94,151,-193r-133,0r15,-69r94,0v-18,-35,-42,-70,-42,-123v-2,-121,126,-216,254,-216v104,0,199,48,222,127r-105,45v-9,-46,-57,-76,-112,-76v-73,0,-133,57,-133,132v0,44,27,82,39,111r144,0r-15,69r-117,0v-3,62,-57,125,-100,149v15,-5,31,-8,46,-8v37,0,115,37,150,37v31,0,59,-13,86,-38r26,93v-33,33,-73,49,-120,49v-52,0,-169,-45,-215,-45v-33,0,-70,13,-113,39","w":536},"\u00a4":{"d":"461,-136r-34,27r-37,-49v-86,63,-203,58,-277,-15r-79,66r-23,-31r77,-63v-58,-105,-32,-201,49,-281r-37,-49r32,-26r39,48v84,-61,202,-58,276,14r78,-64r25,30r-78,64v58,102,32,199,-49,281xm261,-162v99,0,193,-90,193,-189v0,-89,-66,-153,-155,-153v-99,0,-193,90,-193,189v0,89,66,153,155,153","w":522},"\u00a5":{"d":"326,0r-117,0r26,-118r-241,0r16,-68r240,0r20,-91r-240,0r15,-68r195,0r-143,-322r127,0r120,285r246,-285r141,0r-284,322r190,0r-15,68r-235,0r-20,91r235,0r-15,68r-235,0","w":637},"\u00a6":{"d":"163,20r-72,0r0,-316r72,0r0,316xm163,-371r-72,0r0,-316r72,0r0,316","w":214},"\u00a7":{"d":"298,-603v-49,-1,-92,24,-92,66v0,41,51,56,88,69v71,25,160,48,160,140v0,74,-56,126,-120,145v43,23,65,57,65,101v0,96,-92,163,-197,163v-99,0,-176,-28,-229,-83r61,-63v31,41,97,72,167,72v68,0,128,-73,67,-115v-74,-51,-220,-49,-220,-170v0,-78,61,-124,135,-140v-53,-23,-80,-59,-80,-107v1,-92,88,-152,190,-152v91,0,160,25,206,74r-57,57v-27,-34,-85,-56,-144,-57xm256,-217v49,-12,89,-39,89,-88v0,-34,-26,-60,-79,-77v-60,8,-112,31,-112,84v0,19,8,34,25,46v17,12,42,24,77,35","w":477},"\u00a8":{"d":"335,-667v29,0,52,23,52,52v0,34,-33,65,-66,65v-30,0,-52,-23,-52,-52v0,-34,33,-65,66,-65xm126,-667v29,0,52,23,52,52v0,34,-33,65,-66,65v-29,0,-52,-23,-52,-52v0,-34,33,-65,66,-65","w":285},"\u00a9":{"d":"408,-679v185,0,346,160,346,345v0,186,-161,345,-346,345v-185,0,-344,-160,-344,-345v0,-186,158,-345,344,-345xm408,-23v167,0,312,-145,312,-311v0,-167,-145,-311,-312,-311v-166,0,-310,144,-310,311v0,165,145,311,310,311xm242,-308v0,83,64,149,150,149v44,0,82,-16,114,-48r23,31v-42,36,-88,54,-137,54v-111,0,-192,-77,-192,-185v0,-126,112,-240,234,-240v72,0,125,27,158,81r-34,24v-25,-45,-66,-68,-125,-68v-98,0,-191,97,-191,202","w":778},"\u00aa":{"d":"162,-460v0,50,29,80,76,80v30,0,57,-13,81,-40r29,-131v-17,-24,-43,-36,-79,-36v-61,-1,-107,63,-107,127xm82,-452v0,-101,72,-198,169,-196v49,0,85,16,108,49r9,-41r77,0r-69,314r-78,0r9,-42v-29,33,-62,50,-100,50v-74,0,-125,-54,-125,-134","w":412},"\u00ab":{"d":"245,-63r-96,0r-120,-180r200,-177r104,0r-204,182xm415,-63r-96,0r-120,-180r200,-177r104,0r-204,182","w":490},"\u00ac":{"d":"521,-463r-57,258r-70,0r42,-191r-374,0r15,-67r444,0","w":511},"\u00ad":{"d":"260,-197r-240,0r19,-90r240,0","w":300},"\u00ae":{"d":"296,-677v115,0,212,97,212,212v0,114,-99,212,-213,212v-114,0,-211,-98,-211,-212v0,-114,98,-212,212,-212xm295,-284v98,0,183,-84,183,-181v0,-99,-84,-182,-183,-182v-98,0,-180,84,-180,182v0,97,83,181,180,181xm404,-522v0,42,-40,83,-80,82r44,97r-39,0r-42,-96r-45,0r-21,96r-33,0r53,-243r93,0v38,-1,70,26,70,64xm315,-469v30,1,54,-21,54,-50v0,-25,-14,-38,-42,-38r-59,0r-19,88r66,0","w":494},"\u00af":{"d":"439,-591r-362,0r14,-62r362,0","w":363},"\u203e":{"d":"439,-591r-362,0r14,-62r362,0","w":363},"\u00b0":{"d":"218,-677v69,0,130,60,130,130v0,69,-61,129,-130,129v-70,0,-129,-60,-129,-129v0,-70,59,-130,129,-130xm217,-479v37,0,71,-31,71,-68v0,-37,-33,-70,-70,-70v-37,0,-69,33,-69,70v0,38,30,68,68,68","w":302},"\u00b1":{"d":"491,-325r-185,0r-46,207r-74,0r46,-207r-185,0r15,-68r185,0r44,-200r74,0r-44,200r185,0xm419,0r-444,0r14,-68r445,0","w":502},"\u00b2":{"d":"298,-827v80,-1,156,37,155,113v0,37,-19,73,-58,108v-39,35,-97,75,-175,120r186,0r-14,65r-305,0r14,-64v104,-61,175,-105,213,-135v38,-30,56,-59,56,-88v0,-37,-36,-54,-75,-54v-45,0,-83,15,-112,44r-34,-53v39,-37,89,-56,149,-56","w":394},"\u00b3":{"d":"342,-621v40,10,77,39,77,87v-1,70,-72,120,-153,120v-75,0,-141,-28,-171,-73r51,-49v26,38,65,57,117,57v44,0,76,-25,76,-65v0,-47,-74,-54,-126,-49r14,-64v9,1,30,1,63,1v44,0,81,-16,81,-55v0,-36,-45,-51,-85,-51v-40,0,-75,13,-106,39r-28,-51v39,-35,86,-53,141,-53v83,-1,160,29,160,104v0,60,-50,99,-111,102","w":394},"\u00b4":{"d":"341,-700r-197,144r-77,0r172,-144r102,0","w":240},"\u00b5":{"d":"155,-161v-7,57,24,82,79,81v49,0,95,-21,138,-64r75,-339r105,0r-107,483r-105,0r14,-64v-72,60,-141,89,-237,70r-39,178r-105,0r148,-667r105,0","w":567},"\u03bc":{"d":"155,-161v-7,57,24,82,79,81v49,0,95,-21,138,-64r75,-339r105,0r-107,483r-105,0r14,-64v-72,60,-141,89,-237,70r-39,178r-105,0r148,-667r105,0","w":567},"\u00b6":{"d":"79,-479v0,-97,92,-188,194,-188r212,0r-170,767r-55,0r159,-712r-83,0r-159,712r-55,0r94,-423v-78,1,-137,-73,-137,-156","w":449},"\u00b7":{"d":"193,-251v0,41,-36,76,-77,76v-34,0,-63,-30,-63,-65v0,-40,36,-75,76,-75v35,0,64,30,64,64","w":246},"\u2219":{"d":"193,-251v0,41,-36,76,-77,76v-34,0,-63,-30,-63,-65v0,-40,36,-75,76,-75v35,0,64,30,64,64","w":246},"\u00b8":{"d":"136,103v0,57,-51,91,-110,91v-50,0,-88,-13,-115,-40r31,-43v23,23,52,35,85,35v31,1,52,-13,54,-40v2,-32,-51,-33,-64,-11r-36,-23r49,-83r55,0r-39,64v38,-28,90,2,90,50","w":214},"\u00b9":{"d":"243,-421r-81,0r64,-293r-79,66r-37,-50r151,-123r70,0","w":264},"\u00ba":{"d":"427,-504v0,101,-87,186,-186,186v-92,0,-157,-57,-157,-145v0,-100,87,-185,186,-185v91,0,157,57,157,144xm164,-461v0,47,31,80,78,80v64,0,106,-61,106,-124v0,-47,-32,-79,-79,-79v-64,0,-105,60,-105,123","w":405},"\u00bb":{"d":"77,-420r96,0r120,180r-200,177r-104,0r204,-182xm247,-420r96,0r120,180r-200,177r-104,0r204,-182","w":490},"\u00bc":{"d":"712,-667r-574,667r-67,0r574,-667r67,0xm743,-92r-54,0r-20,92r-80,0r20,-92r-197,0r13,-57r220,-251r112,0r-54,244r54,0xm623,-156r38,-171r-154,171r116,0xm209,-267r-81,0r64,-293r-79,66r-37,-50r151,-123r70,0","w":806},"\u00bd":{"d":"712,-667r-574,667r-67,0r574,-667r67,0xm653,-406v80,-1,156,37,155,113v0,37,-19,74,-58,109v-39,35,-97,74,-175,119r186,0r-14,65r-305,0r14,-64v104,-61,174,-106,212,-136v38,-30,57,-58,57,-87v0,-37,-36,-54,-75,-54v-45,0,-83,15,-112,44r-34,-53v39,-37,89,-56,149,-56xm209,-267r-81,0r64,-293r-79,66r-37,-50r151,-123r70,0","w":841},"\u00be":{"d":"809,-667r-574,667r-67,0r574,-667r67,0xm839,-92r-54,0r-20,92r-80,0r20,-92r-197,0r13,-57r220,-251r112,0r-54,244r54,0xm719,-156r38,-171r-154,171r116,0xm308,-467v40,10,77,39,77,87v-1,70,-72,120,-153,120v-75,0,-141,-28,-171,-73r51,-49v26,38,65,57,117,57v44,0,76,-25,76,-65v0,-47,-74,-54,-126,-49r14,-64v9,1,30,1,63,1v44,0,81,-16,81,-55v0,-36,-45,-51,-85,-51v-40,0,-75,13,-106,39r-28,-51v39,-35,86,-53,141,-53v83,-1,160,29,160,104v0,60,-50,99,-111,102","w":903},"\u00bf":{"d":"169,195v-106,0,-208,-50,-208,-147v0,-104,82,-146,153,-182v38,-19,82,-42,84,-90v0,-13,-5,-24,-14,-33r95,-30v27,42,26,101,-2,141v-40,58,-121,74,-169,122v-15,14,-22,30,-22,48v1,47,45,69,99,68v51,0,96,-18,135,-55r51,80v-59,52,-126,78,-202,78xm203,-418v0,-41,36,-76,77,-76v34,0,63,30,63,65v0,40,-36,75,-76,75v-35,0,-64,-30,-64,-64","w":396},"\u00c0":{"d":"520,-728r-75,0r-133,-144r100,0xm618,0r-127,0r-21,-129r-306,0r-77,129r-140,0r410,-667r146,0xm460,-232r-50,-318r-190,318r240,0","w":673},"\u00c1":{"d":"642,-872r-197,144r-77,0r172,-144r102,0xm618,0r-127,0r-21,-129r-306,0r-77,129r-140,0r410,-667r146,0xm460,-232r-50,-318r-190,318r240,0","w":673},"\u00c2":{"d":"588,-728r-64,0r-57,-97r-95,97r-69,0r125,-144r96,0xm618,0r-127,0r-21,-129r-306,0r-77,129r-140,0r410,-667r146,0xm460,-232r-50,-318r-190,318r240,0","w":673},"\u00c3":{"d":"515,-726v-43,0,-64,-35,-84,-58v-10,-13,-22,-20,-35,-20v-24,0,-41,24,-52,72r-59,0v19,-89,58,-134,118,-134v31,-1,58,20,69,39v10,17,27,39,51,39v24,0,42,-24,53,-72r58,0v-19,89,-58,134,-119,134xm618,0r-127,0r-21,-129r-306,0r-77,129r-140,0r410,-667r146,0xm460,-232r-50,-318r-190,318r240,0","w":673},"\u00c4":{"d":"568,-839v29,0,52,23,52,52v0,34,-33,65,-66,65v-29,0,-52,-23,-52,-52v0,-34,33,-65,66,-65xm359,-839v29,0,52,23,52,52v0,34,-33,65,-66,65v-30,0,-52,-23,-52,-52v0,-34,33,-65,66,-65xm618,0r-127,0r-21,-129r-306,0r-77,129r-140,0r410,-667r146,0xm460,-232r-50,-318r-190,318r240,0","w":673},"\u00c5":{"d":"560,-804v0,59,-53,112,-112,112v-54,0,-93,-39,-93,-93v0,-59,53,-112,112,-112v54,0,93,39,93,93xm406,-790v0,26,20,47,46,47v30,0,57,-26,57,-56v0,-28,-18,-47,-46,-47v-30,0,-57,26,-57,56xm618,0r-127,0r-21,-129r-306,0r-77,129r-140,0r410,-667r146,0xm460,-232r-50,-318r-190,318r240,0","w":673},"\u00c6":{"d":"858,0r-457,0r28,-129r-242,0r-105,129r-138,0r557,-667r504,0r-22,103r-340,0r-38,172r333,0r-23,103r-333,0r-41,186r340,0xm452,-232r69,-311r-256,311r187,0","w":960},"\u00c7":{"d":"633,-106v-62,74,-158,122,-282,117r-25,42v38,-28,90,2,90,50v0,57,-51,91,-110,91v-50,0,-88,-13,-115,-40r31,-43v23,23,52,35,85,35v31,1,52,-13,54,-40v2,-32,-51,-33,-64,-11r-36,-23r39,-67v-140,-23,-249,-130,-249,-289v0,-220,173,-394,383,-394v145,0,241,74,286,175r-112,40v-27,-68,-92,-110,-180,-111v-141,-2,-254,133,-254,283v0,117,84,199,203,199v64,0,120,-26,167,-77","w":682},"\u00c8":{"d":"482,-728r-75,0r-133,-144r100,0xm474,0r-457,0r147,-667r457,0r-22,103r-340,0r-38,172r333,0r-23,103r-333,0r-41,186r340,0","w":577},"\u00c9":{"d":"604,-872r-197,144r-77,0r172,-144r102,0xm474,0r-457,0r147,-667r457,0r-22,103r-340,0r-38,172r333,0r-23,103r-333,0r-41,186r340,0","w":577},"\u00ca":{"d":"549,-728r-64,0r-57,-97r-95,97r-69,0r125,-144r96,0xm474,0r-457,0r147,-667r457,0r-22,103r-340,0r-38,172r333,0r-23,103r-333,0r-41,186r340,0","w":577},"\u00cb":{"d":"531,-839v29,0,52,23,52,52v0,34,-33,65,-66,65v-30,0,-52,-23,-52,-52v0,-34,33,-65,66,-65xm322,-839v29,0,52,23,52,52v0,34,-33,65,-66,65v-29,0,-52,-23,-52,-52v0,-34,33,-65,66,-65xm474,0r-457,0r147,-667r457,0r-22,103r-340,0r-38,172r333,0r-23,103r-333,0r-41,186r340,0","w":577},"\u00cc":{"d":"311,-728r-75,0r-133,-144r100,0xm134,0r-117,0r147,-667r117,0","w":259},"\u00cd":{"d":"436,-872r-197,144r-77,0r172,-144r102,0xm134,0r-117,0r147,-667r117,0","w":259},"\u00ce":{"d":"379,-728r-64,0r-57,-97r-95,97r-69,0r125,-144r96,0xm134,0r-117,0r147,-667r117,0","w":259},"\u00cf":{"d":"360,-838v29,0,52,23,52,52v0,34,-33,65,-66,65v-29,0,-52,-22,-52,-52v0,-34,33,-65,66,-65xm151,-838v29,0,52,23,52,52v0,34,-33,65,-66,65v-30,0,-52,-22,-52,-52v0,-34,33,-65,66,-65xm134,0r-117,0r147,-667r117,0","w":259},"\u00d0":{"d":"433,-667v152,-3,288,128,284,285v-3,109,-42,193,-99,258v-65,75,-185,124,-328,124r-247,0r63,-287r-87,0r21,-94r87,0r63,-286r243,0xm596,-374v0,-106,-80,-190,-184,-190r-127,0r-41,183r158,0r-21,94r-158,0r-40,184r131,0v160,4,282,-117,282,-271","w":736},"\u00d1":{"d":"536,-726v-43,0,-64,-35,-84,-58v-10,-13,-22,-20,-35,-20v-24,0,-41,24,-52,72r-59,0v19,-89,58,-134,118,-134v31,-1,57,20,68,39v10,17,28,39,52,39v24,0,42,-24,53,-72r58,0v-19,89,-58,134,-119,134xm595,0r-113,0r-241,-483r-107,483r-117,0r147,-667r120,0r237,468r104,-468r117,0","w":720},"\u00d2":{"d":"568,-728r-75,0r-133,-144r100,0xm753,-383v0,213,-171,395,-382,395v-179,0,-320,-117,-320,-296v0,-214,171,-394,383,-394v178,0,319,116,319,295xm174,-291v0,119,87,199,203,199v143,0,253,-134,253,-283v0,-120,-86,-199,-204,-199v-143,0,-252,134,-252,283","w":765},"\u00d3":{"d":"688,-872r-197,144r-77,0r172,-144r102,0xm753,-383v0,213,-171,395,-382,395v-179,0,-320,-117,-320,-296v0,-214,171,-394,383,-394v178,0,319,116,319,295xm174,-291v0,119,87,199,203,199v143,0,253,-134,253,-283v0,-120,-86,-199,-204,-199v-143,0,-252,134,-252,283","w":765},"\u00d4":{"d":"635,-728r-64,0r-57,-97r-95,97r-69,0r125,-144r96,0xm753,-383v0,213,-171,395,-382,395v-179,0,-320,-117,-320,-296v0,-214,171,-394,383,-394v178,0,319,116,319,295xm174,-291v0,119,87,199,203,199v143,0,253,-134,253,-283v0,-120,-86,-199,-204,-199v-143,0,-252,134,-252,283","w":765},"\u00d5":{"d":"561,-726v-43,0,-64,-35,-84,-58v-10,-13,-22,-20,-35,-20v-24,0,-41,24,-52,72r-59,0v19,-89,58,-134,118,-134v31,-1,58,20,69,39v10,17,27,39,51,39v24,0,42,-24,53,-72r58,0v-19,89,-58,134,-119,134xm753,-383v0,213,-171,395,-382,395v-179,0,-320,-117,-320,-296v0,-214,171,-394,383,-394v178,0,319,116,319,295xm174,-291v0,119,87,199,203,199v143,0,253,-134,253,-283v0,-120,-86,-199,-204,-199v-143,0,-252,134,-252,283","w":765},"\u00d6":{"d":"614,-839v29,0,52,23,52,52v0,34,-33,65,-66,65v-29,0,-52,-23,-52,-52v0,-34,33,-65,66,-65xm405,-839v29,0,52,23,52,52v0,34,-33,65,-66,65v-30,0,-52,-23,-52,-52v0,-34,33,-65,66,-65xm753,-383v0,213,-171,395,-382,395v-179,0,-320,-117,-320,-296v0,-214,171,-394,383,-394v178,0,319,116,319,295xm174,-291v0,119,87,199,203,199v143,0,253,-134,253,-283v0,-120,-86,-199,-204,-199v-143,0,-252,134,-252,283","w":765},"\u00d7":{"d":"375,-144r-110,-142r-178,146r-43,-52r180,-147r-111,-142r54,-43r110,142r179,-146r41,51r-178,147r109,142","w":502},"\u00d8":{"d":"753,-383v0,213,-171,395,-382,395v-79,0,-147,-20,-202,-59r-44,47r-87,0r84,-89v-47,-51,-71,-116,-71,-195v0,-214,171,-394,383,-394v74,0,138,18,193,54r41,-43r87,0r-79,83v51,53,77,120,77,201xm377,-92v143,2,253,-134,253,-283v0,-48,-12,-88,-36,-121r-345,365v34,26,77,39,128,39xm426,-574v-143,-2,-252,134,-252,283v0,44,10,82,31,114r343,-363v-35,-23,-76,-34,-122,-34","w":765},"\u00d9":{"d":"544,-728r-75,0r-133,-144r100,0xm194,-266v-21,106,51,176,154,175v117,-1,164,-72,187,-175r88,-401r119,0r-89,403v-38,163,-114,274,-305,276v-179,2,-312,-99,-273,-276r89,-403r119,0","w":720},"\u00da":{"d":"665,-872r-197,144r-77,0r172,-144r102,0xm194,-266v-21,106,51,176,154,175v117,-1,164,-72,187,-175r88,-401r119,0r-89,403v-38,163,-114,274,-305,276v-179,2,-312,-99,-273,-276r89,-403r119,0","w":720},"\u00db":{"d":"615,-728r-64,0r-57,-97r-95,97r-69,0r125,-144r96,0xm194,-266v-21,106,51,176,154,175v117,-1,164,-72,187,-175r88,-401r119,0r-89,403v-38,163,-114,274,-305,276v-179,2,-312,-99,-273,-276r89,-403r119,0","w":720},"\u00dc":{"d":"592,-839v29,0,52,23,52,52v0,34,-33,65,-66,65v-29,0,-52,-23,-52,-52v0,-34,33,-65,66,-65xm383,-839v29,0,52,23,52,52v0,34,-33,65,-66,65v-30,0,-52,-23,-52,-52v0,-34,33,-65,66,-65xm194,-266v-21,106,51,176,154,175v117,-1,164,-72,187,-175r88,-401r119,0r-89,403v-38,163,-114,274,-305,276v-179,2,-312,-99,-273,-276r89,-403r119,0","w":720},"\u00dd":{"d":"626,-872r-197,144r-77,0r172,-144r102,0xm324,0r-117,0r61,-277r-173,-390r127,0r120,285r246,-285r141,0r-344,390","w":637},"\u00de":{"d":"425,-555v98,-3,185,83,181,180v-6,152,-106,238,-267,238r-175,0r-30,137r-117,0r147,-667r117,0r-24,112r168,0xm484,-364v1,-50,-44,-88,-95,-88r-155,0r-47,212r159,0v80,3,137,-52,138,-124","w":609},"\u00df":{"d":"347,-677v89,0,196,49,196,131v-1,105,-107,117,-165,166v-25,22,-28,53,4,70v74,41,206,45,206,158v0,95,-91,166,-196,164v-103,-2,-157,-32,-210,-90r61,-66v38,47,89,71,152,71v62,0,123,-64,65,-101v-70,-44,-205,-42,-205,-152v0,-105,99,-124,159,-168v12,-10,18,-21,18,-33v-4,-65,-122,-72,-164,-31v-19,19,-34,42,-41,73r-107,485r-105,0r107,-485v22,-107,98,-192,225,-192","w":623},"\u00e0":{"d":"32,-188v0,-151,102,-307,254,-307v72,0,125,27,160,81r15,-69r105,0r-107,483r-105,0r15,-64v-43,51,-93,76,-152,76v-114,0,-185,-81,-185,-200xm429,-337v-21,-37,-69,-65,-127,-65v-94,0,-160,97,-160,193v0,74,48,129,119,128v49,0,92,-23,127,-69xm415,-556r-75,0r-133,-144r100,0"},"\u00e1":{"d":"32,-188v0,-151,102,-307,254,-307v72,0,125,27,160,81r15,-69r105,0r-107,483r-105,0r15,-64v-43,51,-93,76,-152,76v-114,0,-185,-81,-185,-200xm429,-337v-21,-37,-69,-65,-127,-65v-94,0,-160,97,-160,193v0,74,48,129,119,128v49,0,92,-23,127,-69xm537,-700r-197,144r-77,0r172,-144r102,0"},"\u00e2":{"d":"32,-188v0,-151,102,-307,254,-307v72,0,125,27,160,81r15,-69r105,0r-107,483r-105,0r15,-64v-43,51,-93,76,-152,76v-114,0,-185,-81,-185,-200xm429,-337v-21,-37,-69,-65,-127,-65v-94,0,-160,97,-160,193v0,74,48,129,119,128v49,0,92,-23,127,-69xm485,-556r-64,0r-57,-97r-95,97r-69,0r125,-144r96,0"},"\u00e3":{"d":"32,-188v0,-151,102,-307,254,-307v72,0,125,27,160,81r15,-69r105,0r-107,483r-105,0r15,-64v-43,51,-93,76,-152,76v-114,0,-185,-81,-185,-200xm429,-337v-21,-37,-69,-65,-127,-65v-94,0,-160,97,-160,193v0,74,48,129,119,128v49,0,92,-23,127,-69xm410,-554v-43,0,-64,-35,-84,-58v-10,-13,-22,-20,-35,-20v-24,0,-41,24,-52,72r-59,0v19,-89,58,-134,118,-134v31,-1,57,20,68,39v10,17,28,39,52,39v24,0,42,-24,53,-72r58,0v-19,89,-58,134,-119,134"},"\u00e4":{"d":"32,-188v0,-151,102,-307,254,-307v72,0,125,27,160,81r15,-69r105,0r-107,483r-105,0r15,-64v-43,51,-93,76,-152,76v-114,0,-185,-81,-185,-200xm429,-337v-21,-37,-69,-65,-127,-65v-94,0,-160,97,-160,193v0,74,48,129,119,128v49,0,92,-23,127,-69xm465,-667v29,0,52,23,52,52v0,34,-33,65,-66,65v-30,0,-52,-23,-52,-52v0,-34,33,-65,66,-65xm256,-667v29,0,52,23,52,52v0,34,-33,65,-66,65v-29,0,-52,-23,-52,-52v0,-34,33,-65,66,-65"},"\u00e5":{"d":"32,-188v0,-151,102,-307,254,-307v72,0,125,27,160,81r15,-69r105,0r-107,483r-105,0r15,-64v-43,51,-93,76,-152,76v-114,0,-185,-81,-185,-200xm429,-337v-21,-37,-69,-65,-127,-65v-94,0,-160,97,-160,193v0,74,48,129,119,128v49,0,92,-23,127,-69xm464,-655v0,59,-53,112,-112,112v-54,0,-93,-39,-93,-93v0,-59,53,-112,112,-112v54,0,93,39,93,93xm310,-641v0,26,20,47,46,47v30,0,57,-26,57,-56v0,-28,-18,-47,-46,-47v-30,0,-57,26,-57,56"},"\u00e6":{"d":"510,-207v-9,81,60,131,145,131v51,0,93,-14,126,-41r34,76v-107,83,-291,71,-335,-54r-21,95r-105,0r15,-64v-43,51,-93,76,-152,76v-114,0,-185,-81,-185,-200v0,-151,102,-307,254,-307v72,0,125,27,160,81r15,-69r105,0r-15,67v46,-53,99,-79,158,-79v120,0,182,82,181,206v0,30,-3,57,-10,82r-370,0xm429,-337v-21,-37,-69,-65,-127,-65v-94,0,-160,97,-160,193v0,74,48,129,119,128v49,0,92,-23,127,-69xm795,-282v7,-79,-43,-127,-123,-127v-75,0,-142,62,-151,127r274,0","w":924},"\u00e7":{"d":"321,103v0,57,-51,91,-110,91v-50,0,-88,-13,-115,-40r31,-43v23,23,52,35,85,35v31,1,52,-13,54,-40v2,-32,-51,-33,-64,-11r-36,-23r38,-66v-100,-18,-171,-97,-171,-212v0,-154,126,-289,278,-289v89,0,152,31,189,93r-79,60v-23,-40,-59,-60,-110,-60v-101,0,-170,90,-170,191v0,79,56,131,133,130v45,0,82,-18,111,-53r57,70v-51,52,-109,77,-186,76r-25,41v38,-28,90,2,90,50","w":498},"\u00e8":{"d":"140,-207v-8,81,60,133,145,133v53,0,96,-14,129,-41r34,74v-51,35,-108,53,-171,53v-142,2,-244,-80,-244,-216v0,-154,122,-291,276,-291v152,0,248,130,204,288r-373,0xm428,-282v7,-79,-46,-127,-126,-127v-75,0,-142,62,-151,127r277,0xm428,-556r-75,0r-133,-144r100,0","w":557},"\u00e9":{"d":"140,-207v-8,81,60,133,145,133v53,0,96,-14,129,-41r34,74v-51,35,-108,53,-171,53v-142,2,-244,-80,-244,-216v0,-154,122,-291,276,-291v152,0,248,130,204,288r-373,0xm428,-282v7,-79,-46,-127,-126,-127v-75,0,-142,62,-151,127r277,0xm551,-700r-197,144r-77,0r172,-144r102,0","w":557},"\u00ea":{"d":"140,-207v-8,81,60,133,145,133v53,0,96,-14,129,-41r34,74v-51,35,-108,53,-171,53v-142,2,-244,-80,-244,-216v0,-154,122,-291,276,-291v152,0,248,130,204,288r-373,0xm428,-282v7,-79,-46,-127,-126,-127v-75,0,-142,62,-151,127r277,0xm497,-556r-64,0r-57,-97r-95,97r-69,0r125,-144r96,0","w":557},"\u00eb":{"d":"140,-207v-8,81,60,133,145,133v53,0,96,-14,129,-41r34,74v-51,35,-108,53,-171,53v-142,2,-244,-80,-244,-216v0,-154,122,-291,276,-291v152,0,248,130,204,288r-373,0xm428,-282v7,-79,-46,-127,-126,-127v-75,0,-142,62,-151,127r277,0xm477,-667v29,0,52,23,52,52v0,34,-33,65,-66,65v-30,0,-52,-23,-52,-52v0,-34,33,-65,66,-65xm268,-667v29,0,52,23,52,52v0,34,-33,65,-66,65v-29,0,-52,-23,-52,-52v0,-34,33,-65,66,-65","w":557},"\u00ec":{"d":"264,-556r-75,0r-133,-144r100,0xm119,0r-105,0r107,-483r105,0","w":241},"\u00ed":{"d":"387,-700r-197,144r-77,0r172,-144r102,0xm119,0r-105,0r107,-483r105,0","w":241},"\u00ee":{"d":"332,-556r-64,0r-57,-97r-95,97r-69,0r125,-144r96,0xm119,0r-105,0r107,-483r105,0","w":241},"\u00ef":{"d":"313,-667v29,0,52,23,52,52v0,34,-33,65,-66,65v-30,0,-52,-23,-52,-52v0,-34,33,-65,66,-65xm104,-667v29,0,52,23,52,52v0,34,-33,65,-66,65v-29,0,-52,-23,-52,-52v0,-34,33,-65,66,-65xm119,0r-105,0r107,-483r105,0","w":241},"\u00f0":{"d":"31,-197v0,-142,108,-274,246,-271v83,1,140,43,166,107v-16,-58,-56,-119,-120,-183r-159,48r-11,-52r125,-37v-16,-15,-35,-30,-58,-47r74,-78v38,29,72,59,102,90r114,-34r11,51r-86,26v73,88,109,179,109,272v0,169,-110,317,-277,317v-133,0,-236,-81,-236,-209xm140,-204v0,76,51,123,129,123v89,0,159,-84,157,-175v-1,-70,-54,-120,-131,-120v-87,0,-155,82,-155,172","w":574},"\u00f1":{"d":"381,-495v99,0,165,61,143,162r-73,333r-105,0r67,-303v15,-64,-12,-99,-86,-99v-43,0,-86,22,-128,65r-75,337r-105,0r107,-483r105,0r-15,65v54,-51,109,-77,165,-77xm424,-554v-43,0,-64,-35,-84,-58v-10,-13,-22,-20,-35,-20v-24,0,-41,24,-52,72r-59,0v19,-89,58,-134,118,-134v31,-1,57,20,68,39v10,17,28,39,52,39v24,0,42,-24,53,-72r58,0v-19,89,-58,134,-119,134","w":568},"\u00f2":{"d":"539,-278v0,150,-123,290,-275,290v-138,0,-231,-86,-231,-218v0,-150,123,-289,275,-289v138,0,231,85,231,217xm142,-210v0,79,48,129,126,129v93,0,162,-98,162,-192v0,-79,-48,-129,-126,-129v-93,0,-162,96,-162,192xm431,-556r-75,0r-133,-144r100,0","w":574},"\u00f3":{"d":"539,-278v0,150,-123,290,-275,290v-138,0,-231,-86,-231,-218v0,-150,123,-289,275,-289v138,0,231,85,231,217xm142,-210v0,79,48,129,126,129v93,0,162,-98,162,-192v0,-79,-48,-129,-126,-129v-93,0,-162,96,-162,192xm553,-700r-197,144r-77,0r172,-144r102,0","w":574},"\u00f4":{"d":"539,-278v0,150,-123,290,-275,290v-138,0,-231,-86,-231,-218v0,-150,123,-289,275,-289v138,0,231,85,231,217xm142,-210v0,79,48,129,126,129v93,0,162,-98,162,-192v0,-79,-48,-129,-126,-129v-93,0,-162,96,-162,192xm500,-556r-64,0r-57,-97r-95,97r-69,0r125,-144r96,0","w":574},"\u00f5":{"d":"539,-278v0,150,-123,290,-275,290v-138,0,-231,-86,-231,-218v0,-150,123,-289,275,-289v138,0,231,85,231,217xm142,-210v0,79,48,129,126,129v93,0,162,-98,162,-192v0,-79,-48,-129,-126,-129v-93,0,-162,96,-162,192xm427,-554v-43,0,-64,-35,-84,-58v-10,-13,-22,-20,-35,-20v-24,0,-41,24,-52,72r-59,0v19,-89,58,-134,118,-134v31,-1,58,20,69,39v10,17,27,39,51,39v24,0,42,-24,53,-72r58,0v-19,89,-58,134,-119,134","w":574},"\u00f6":{"d":"539,-278v0,150,-123,290,-275,290v-138,0,-231,-86,-231,-218v0,-150,123,-289,275,-289v138,0,231,85,231,217xm142,-210v0,79,48,129,126,129v93,0,162,-98,162,-192v0,-79,-48,-129,-126,-129v-93,0,-162,96,-162,192xm479,-667v29,0,52,23,52,52v0,34,-33,65,-66,65v-30,0,-52,-23,-52,-52v0,-34,33,-65,66,-65xm270,-667v29,0,52,23,52,52v0,34,-33,65,-66,65v-29,0,-52,-23,-52,-52v0,-34,33,-65,66,-65","w":574},"\u00f7":{"d":"495,-304r-453,0r15,-67r453,0xm289,-156v0,31,-28,58,-59,58v-27,0,-50,-23,-50,-50v0,-32,28,-58,60,-58v26,0,49,23,49,50xm371,-524v0,31,-29,58,-60,58v-26,0,-49,-23,-49,-50v0,-31,28,-58,59,-58v27,0,50,23,50,50","w":511},"\u00f8":{"d":"498,-411v118,175,-36,423,-234,423v-64,0,-117,-16,-158,-49r-39,37r-73,0r78,-74v-26,-36,-39,-80,-39,-132v0,-150,123,-289,275,-289v62,0,114,16,155,48r37,-36r73,0xm268,-81v112,2,194,-138,150,-254r-236,226v22,19,51,28,86,28xm304,-402v-111,-1,-191,134,-152,251r235,-224v-22,-18,-50,-27,-83,-27","w":574},"\u00f9":{"d":"190,12v-99,0,-166,-60,-143,-162r74,-333r105,0r-67,302v-20,68,22,100,85,100v43,0,86,-22,129,-66r74,-336r105,0r-107,483r-105,0r15,-66v-55,52,-110,78,-165,78xm430,-556r-75,0r-133,-144r100,0","w":567},"\u00fa":{"d":"190,12v-99,0,-166,-60,-143,-162r74,-333r105,0r-67,302v-20,68,22,100,85,100v43,0,86,-22,129,-66r74,-336r105,0r-107,483r-105,0r15,-66v-55,52,-110,78,-165,78xm551,-700r-197,144r-77,0r172,-144r102,0","w":567},"\u00fb":{"d":"190,12v-99,0,-166,-60,-143,-162r74,-333r105,0r-67,302v-20,68,22,100,85,100v43,0,86,-22,129,-66r74,-336r105,0r-107,483r-105,0r15,-66v-55,52,-110,78,-165,78xm496,-556r-64,0r-57,-97r-95,97r-69,0r125,-144r96,0","w":567},"\u00fc":{"d":"190,12v-99,0,-166,-60,-143,-162r74,-333r105,0r-67,302v-20,68,22,100,85,100v43,0,86,-22,129,-66r74,-336r105,0r-107,483r-105,0r15,-66v-55,52,-110,78,-165,78xm479,-667v29,0,52,23,52,52v0,34,-33,65,-66,65v-30,0,-52,-23,-52,-52v0,-34,33,-65,66,-65xm270,-667v29,0,52,23,52,52v0,34,-33,65,-66,65v-29,0,-52,-23,-52,-52v0,-34,33,-65,66,-65","w":567},"\u00fd":{"d":"-47,185r35,-92v12,5,28,8,49,8v50,1,79,-63,103,-98r-89,-486r109,0r60,362r222,-362r116,0r-360,570v-42,65,-81,109,-171,109v-29,0,-53,-4,-74,-11xm518,-700r-197,144r-77,0r172,-144r102,0","w":503},"\u00fe":{"d":"363,-495v115,0,187,79,185,199v-1,115,-47,208,-118,262v-40,30,-85,46,-136,46v-72,0,-131,-34,-160,-81r-56,253r-105,0r188,-851r105,0r-54,248v41,-51,92,-76,151,-76xm151,-147v21,37,69,66,127,66v94,0,160,-98,160,-194v0,-74,-47,-128,-119,-127v-55,0,-101,33,-126,68","w":579},"\u00ff":{"d":"-47,185r35,-92v12,5,28,8,49,8v50,1,79,-63,103,-98r-89,-486r109,0r60,362r222,-362r116,0r-360,570v-42,65,-81,109,-171,109v-29,0,-53,-4,-74,-11xm444,-667v29,0,52,23,52,52v0,34,-33,65,-66,65v-29,0,-52,-23,-52,-52v0,-34,33,-65,66,-65xm235,-667v29,0,52,23,52,52v0,34,-33,65,-66,65v-30,0,-52,-23,-52,-52v0,-34,33,-65,66,-65","w":503},"\u0152":{"d":"331,12v-160,0,-284,-132,-280,-296v4,-186,98,-307,233,-364v46,-19,94,-29,144,-29v112,0,188,44,227,131r27,-121r457,0r-23,103r-340,0r-38,172r333,0r-23,103r-333,0r-41,186r340,0r-22,103r-457,0r18,-87v-54,66,-128,99,-222,99xm174,-291v0,117,82,200,196,199v96,-1,171,-54,211,-120r47,-210v-19,-91,-89,-150,-195,-151v-147,-2,-259,131,-259,282","w":1093},"\u0153":{"d":"630,-484v149,-47,282,50,282,202v0,25,-3,50,-10,75r-369,0v-9,81,59,133,143,133v51,0,93,-14,127,-41r34,74v-48,35,-104,53,-169,53v-95,0,-177,-57,-201,-120v-46,58,-100,120,-205,120v-134,2,-229,-84,-229,-218v0,-149,120,-289,273,-289v93,0,165,58,189,120v36,-47,73,-89,135,-109xm817,-282v7,-78,-45,-127,-124,-127v-74,0,-141,66,-149,127r273,0xm266,-81v93,0,160,-96,160,-192v0,-82,-48,-128,-124,-129v-91,-2,-160,96,-160,192v0,79,45,129,124,129","w":945},"\u0178":{"d":"552,-839v29,0,52,23,52,52v0,34,-33,65,-66,65v-29,0,-52,-23,-52,-52v0,-34,33,-65,66,-65xm343,-839v29,0,52,23,52,52v0,34,-33,65,-66,65v-30,0,-52,-23,-52,-52v0,-34,33,-65,66,-65xm324,0r-117,0r61,-277r-173,-390r127,0r120,285r246,-285r141,0r-344,390","w":637},"\u02c6":{"d":"354,-556r-64,0r-57,-97r-95,97r-69,0r125,-144r96,0","w":285},"\u02dc":{"d":"300,-554v-43,0,-64,-35,-84,-58v-10,-13,-22,-20,-35,-20v-24,0,-41,24,-52,72r-59,0v19,-89,58,-134,118,-134v31,-1,57,20,68,39v10,17,28,39,52,39v24,0,42,-24,53,-72r58,0v-19,89,-58,134,-119,134","w":321},"\u2013":{"d":"553,-197r-533,0r19,-90r533,0","w":593},"\u2014":{"d":"793,-197r-773,0r19,-90r773,0","w":833},"\u2018":{"d":"166,-422v-39,-1,-68,-30,-67,-72v2,-81,71,-155,133,-184r39,41v-47,23,-78,51,-92,84v38,-3,62,20,63,56v1,39,-37,76,-76,75","w":245},"\u2019":{"d":"209,-677v40,1,68,28,67,71v-1,80,-71,156,-133,184r-39,-41v47,-23,78,-51,92,-84v-36,6,-63,-21,-63,-56v0,-39,37,-75,76,-74","w":245},"\u201a":{"d":"88,-129v39,1,68,29,67,71v-2,81,-71,156,-134,185r-39,-41v47,-23,78,-51,92,-84v-39,3,-62,-21,-63,-57v-1,-39,39,-75,77,-74","w":245},"\u201c":{"d":"354,-422v-39,-1,-68,-30,-67,-72v2,-81,71,-155,134,-184r39,41v-47,23,-78,51,-92,84v38,-3,63,20,63,56v0,39,-39,76,-77,75xm170,-422v-39,-1,-68,-30,-67,-72v2,-81,71,-155,133,-184r39,41v-47,23,-78,51,-92,84v38,-3,62,20,63,56v1,39,-37,76,-76,75","w":430},"\u201d":{"d":"209,-677v40,1,68,28,67,71v-1,80,-71,156,-133,184r-39,-41v47,-23,78,-51,92,-84v-36,6,-63,-21,-63,-56v0,-39,37,-75,76,-74xm394,-677v39,1,68,29,67,71v-2,81,-71,155,-134,184r-39,-41v47,-23,78,-51,92,-84v-36,6,-63,-21,-63,-56v0,-39,39,-75,77,-74","w":430},"\u201e":{"d":"88,-129v39,1,68,29,67,71v-2,81,-71,156,-134,185r-39,-41v47,-23,78,-51,92,-84v-39,3,-62,-21,-63,-57v-1,-39,39,-75,77,-74xm272,-129v40,1,68,28,67,71v-2,81,-70,156,-133,185r-39,-41v47,-23,78,-51,92,-84v-39,3,-62,-21,-63,-57v-1,-39,37,-75,76,-74","w":430},"\u2022":{"d":"192,-356v57,0,102,45,102,102v0,66,-61,125,-127,125v-57,0,-103,-46,-103,-103v0,-66,62,-124,128,-124","w":358},"\u2026":{"d":"152,-65v0,41,-36,76,-77,76v-34,0,-63,-30,-63,-65v0,-40,36,-75,76,-75v35,0,64,30,64,64xm397,-65v0,41,-36,76,-77,76v-34,0,-63,-30,-63,-65v0,-40,36,-75,76,-75v35,0,64,30,64,64xm642,-65v0,41,-36,76,-77,76v-34,0,-63,-30,-63,-65v0,-40,36,-75,76,-75v35,0,64,30,64,64","w":735},"\u2039":{"d":"245,-63r-96,0r-120,-180r200,-177r104,0r-204,182","w":320},"\u203a":{"d":"77,-420r96,0r120,180r-200,177r-104,0r204,-182","w":320},"\u20ac":{"d":"659,-106v-58,71,-150,116,-262,118v-164,2,-295,-99,-316,-242r-59,0r15,-68r40,0v1,-23,3,-48,8,-73r-32,0r16,-68r36,0v50,-133,185,-238,355,-239v145,-1,241,74,286,175r-112,40v-27,-68,-92,-111,-180,-111v-101,0,-179,63,-218,135r281,0r-15,68r-292,0v-7,25,-10,50,-10,73r286,0r-15,68r-263,0v22,82,93,138,195,138v64,0,120,-26,167,-77","w":703},"\u2122":{"d":"464,-447r-28,0r40,-182r-115,182r-8,0r-35,-182r-40,182r-28,0r48,-220r43,0r29,160r99,-160r43,0xm257,-641r-62,0r-43,194r-28,0r43,-194r-62,0r5,-26r152,0","w":454}}});
