/*!
 * The following copyright notice may not be removed under any circumstances.
 * 
 * Copyright:
 * Copyright (c) Mark Simonson, 2005. All rights reserved.
 * 
 * Description:
 * This is a protected webfont and is intended for CSS @font-face use ONLY.
 * Reverse engineering this font is strictly prohibited.
 */
Cufon.registerFont({"w":280,"face":{"font-family":"","font-weight":900,"font-stretch":"normal","units-per-em":"1000","panose-1":"2 0 5 6 3 0 0 2 0 4","ascent":"790","descent":"-210","x-height":"12","bbox":"-106 -917 1032 200.023","underline-thickness":"20","underline-position":"-113","unicode-range":"U+0020-U+2122"},"glyphs":{" ":{"w":255},"!":{"d":"222,-248r-162,0r-27,-419r214,0xm247,-95v0,56,-50,106,-106,106v-56,0,-106,-50,-106,-106v0,-57,50,-107,106,-107v56,0,106,50,106,107"},"\"":{"d":"126,-677v49,0,93,43,92,92v0,15,-18,97,-55,246r-74,0v-37,-149,-55,-231,-55,-246v-1,-49,43,-92,92,-92xm344,-677v49,0,92,43,91,92v0,15,-18,97,-55,246r-73,0v-37,-149,-55,-231,-55,-246v-1,-49,43,-92,92,-92","w":469},"#":{"d":"377,0r-127,0r53,-158r-79,0r-52,158r-127,0r53,-158r-86,0r35,-109r88,0r43,-132r-87,0r34,-108r90,0r53,-160r127,0r-53,160r78,0r53,-160r127,0r-54,160r88,0r-33,108r-91,0r-44,132r91,0r-34,109r-94,0xm339,-267r44,-132r-78,0r-43,132r77,0","w":646},"$":{"d":"616,-220v-1,138,-95,212,-226,228r0,92r-128,0r0,-92v-99,-9,-180,-43,-244,-102r105,-150v60,57,132,86,215,86v49,0,74,-12,74,-36v0,-11,-12,-20,-38,-26v-61,-15,-141,-26,-202,-48v-70,-26,-134,-91,-132,-188v3,-121,100,-205,222,-217r0,-95r128,0r0,96v82,11,152,41,210,88r-108,143v-58,-44,-123,-66,-196,-66v-34,0,-51,10,-51,30v0,11,13,19,38,26v60,16,140,29,202,51v69,25,132,86,131,180","w":635},"%":{"d":"378,-508v0,97,-78,167,-180,167v-101,0,-178,-71,-178,-167v0,-97,77,-169,178,-169v102,0,180,71,180,169xm228,0r-97,0r426,-667r98,0xm764,-155v0,96,-78,167,-179,167v-101,0,-178,-71,-178,-167v0,-97,77,-169,178,-169v101,0,179,72,179,169xm142,-508v0,39,20,60,56,61v36,0,58,-22,58,-61v0,-40,-21,-63,-58,-63v-36,1,-56,24,-56,63xm643,-155v1,-40,-21,-63,-58,-63v-38,0,-57,21,-57,63v0,41,19,61,57,61v39,0,58,-20,58,-61","w":784},"&":{"d":"328,-677v99,0,201,56,199,151v0,46,-13,82,-41,108v-28,26,-67,50,-117,71v14,20,28,36,38,49r36,46v22,-35,38,-70,49,-106r139,66v-29,59,-60,110,-95,151r128,141r-222,0v-5,-5,-15,-16,-31,-33v-53,30,-108,45,-166,45v-131,1,-233,-70,-233,-201v0,-80,47,-142,140,-187v-25,-49,-37,-95,-37,-136v1,-101,101,-165,213,-165xm220,-263v-43,48,-12,139,52,137v16,0,32,-3,47,-10v-21,-24,-37,-44,-50,-61v-16,-20,-32,-42,-49,-66xm337,-552v-26,0,-47,19,-46,45v0,19,6,41,19,66v44,-21,66,-46,66,-74v0,-21,-17,-38,-39,-37","w":652},"'":{"d":"126,-677v49,0,93,43,92,92v0,15,-18,97,-55,246r-74,0v-37,-149,-55,-231,-55,-246v-1,-49,43,-92,92,-92","w":252},"(":{"d":"230,-243v0,154,34,249,98,353r-114,89v-97,-81,-177,-272,-177,-442v0,-170,80,-362,177,-442r114,87v-64,107,-98,199,-98,355","w":346},")":{"d":"116,-243v0,154,-34,249,-98,353r114,89v97,-81,177,-272,177,-442v0,-170,-80,-362,-177,-442r-114,87v64,107,98,199,98,355","w":347},"*":{"d":"222,-343r-81,0r4,-105r-88,56r-40,-70r92,-48r-92,-48r40,-70r88,56r-4,-105r81,0r-5,105r88,-56r41,70r-93,48r93,48r-41,70r-88,-56","w":363},"+":{"d":"481,-285r-168,0r0,193r-116,0r0,-193r-168,0r0,-105r168,0r0,-185r116,0r0,185r168,0r0,105","w":510},",":{"d":"138,-202v67,0,116,56,116,129v0,88,-42,161,-125,220r-73,-59v31,-13,81,-62,91,-96v-61,18,-113,-29,-113,-89v0,-55,49,-105,104,-105","w":281},"-":{"d":"270,-167r-240,0r0,-150r240,0r0,150","w":300},".":{"d":"248,-95v0,56,-52,107,-107,107v-56,0,-107,-52,-107,-107v0,-56,52,-107,107,-107v56,0,107,52,107,107","w":283},"\/":{"d":"125,20r-125,0r237,-707r125,0","w":362},"0":{"d":"314,-677v190,0,297,157,296,344v-1,135,-48,234,-132,295v-88,64,-240,64,-328,0v-84,-61,-131,-160,-132,-295v-1,-187,106,-344,296,-344xm314,-166v62,0,93,-56,93,-167v0,-111,-31,-166,-93,-166v-62,0,-93,55,-93,166v0,111,31,167,93,167","w":628},"1":{"d":"429,0r-202,0r0,-410r-113,112r-114,-119r255,-250r174,0r0,667","w":483},"2":{"d":"294,-677v157,-4,285,86,286,230v0,47,-16,91,-47,132v-31,41,-86,88,-164,139r217,0r0,176r-545,0r0,-157r183,-130v54,-40,115,-83,144,-125v6,-9,7,-22,7,-35v0,-34,-39,-53,-77,-52v-63,0,-121,23,-176,69r-110,-134v61,-69,164,-111,282,-113","w":613},"3":{"d":"432,-344v77,8,158,69,158,156v0,59,-28,106,-80,144v-86,64,-267,72,-380,28v-50,-19,-89,-45,-118,-76r99,-138v51,47,171,84,253,51v30,-13,33,-44,4,-59v-19,-10,-161,-9,-179,-7r0,-179v9,1,41,1,97,1v61,0,92,-11,92,-33v0,-29,-33,-43,-99,-43v-62,0,-116,19,-163,58r-95,-126v67,-73,160,-110,280,-110v90,0,159,17,207,50v48,33,71,78,71,135v-1,78,-72,139,-147,148","w":617},"4":{"d":"541,0r-202,0r0,-107r-321,0r0,-155r243,-405r280,0r0,384r77,0r0,176r-77,0r0,107xm339,-283r0,-210r-126,210r126,0","w":636},"5":{"d":"608,-230v-3,158,-127,242,-297,242v-117,0,-210,-31,-279,-94r108,-142v47,39,103,58,169,58v51,1,94,-16,94,-55v0,-39,-39,-56,-88,-55v-50,0,-91,15,-124,46r-139,-32r0,-405r510,0r0,176r-308,0r0,94v35,-34,82,-51,139,-51v119,-2,217,94,215,218","w":626},"6":{"d":"613,-228v0,146,-126,240,-277,240v-208,0,-318,-140,-318,-344v0,-215,139,-346,350,-345v82,0,151,19,208,58r-85,156v-85,-66,-272,-42,-269,82v35,-45,87,-68,155,-68v127,-1,236,89,236,221xm221,-251v5,52,41,85,102,85v41,0,83,-20,85,-54v1,-41,-51,-58,-93,-58v-39,0,-71,9,-94,27","w":625},"7":{"d":"341,0r-221,0r211,-491r-313,0r0,-176r545,0r0,140","w":575},"8":{"d":"484,-344v66,27,127,84,128,166v1,94,-77,150,-154,172v-83,25,-203,25,-286,0v-77,-22,-155,-78,-154,-172v1,-82,61,-140,127,-166v-77,-32,-116,-83,-116,-154v-1,-89,78,-142,151,-162v80,-22,190,-22,270,0v73,20,151,73,151,162v0,71,-39,122,-117,154xm315,-513v-41,0,-79,12,-81,45v4,26,50,41,81,46v32,-5,76,-19,80,-46v-2,-32,-40,-45,-80,-45xm223,-201v2,36,47,49,92,49v44,0,92,-13,92,-49v0,-31,-57,-47,-92,-52v-36,5,-88,21,-92,52","w":630},"9":{"d":"607,-334v0,215,-139,346,-350,345v-82,0,-151,-19,-208,-58r85,-156v34,24,75,36,123,36v77,1,147,-45,146,-118v-35,45,-87,68,-155,68v-127,1,-236,-89,-236,-221v0,-146,126,-240,277,-240v208,0,318,140,318,344xm217,-446v-1,41,51,58,93,58v39,0,71,-9,94,-27v-5,-53,-41,-85,-103,-85v-40,0,-83,20,-84,54","w":625},":":{"d":"248,-383v0,56,-52,107,-107,107v-56,0,-107,-52,-107,-107v0,-56,52,-107,107,-107v56,0,107,52,107,107xm248,-95v0,56,-52,107,-107,107v-56,0,-107,-52,-107,-107v0,-56,52,-107,107,-107v56,0,107,52,107,107","w":266},";":{"d":"248,-384v0,57,-51,108,-107,108v-56,0,-107,-52,-107,-108v0,-56,50,-106,107,-106v57,0,107,50,107,106xm138,-208v67,0,116,56,116,129v0,88,-42,161,-125,220r-73,-59v31,-13,81,-62,91,-96v-61,18,-113,-29,-113,-89v0,-55,49,-105,104,-105","w":281},"<":{"d":"481,-90r-452,-180r0,-130r452,-180r0,125r-334,121r334,119r0,125","w":510},"=":{"d":"481,-373r-452,0r0,-105r452,0r0,105xm481,-190r-452,0r0,-105r452,0r0,105","w":510},">":{"d":"481,-270r-452,180r0,-125r334,-119r-334,-121r0,-125r452,180r0,130","w":510},"?":{"d":"222,-677v120,-2,218,52,220,161v0,79,-46,119,-92,152v-22,16,-50,36,-50,67v0,16,4,28,11,37r-158,36v-29,-38,-36,-115,-9,-161v21,-35,47,-50,76,-70v28,-20,23,-45,-21,-44v-31,0,-60,14,-87,42r-112,-129v48,-54,130,-90,222,-91xm335,-95v0,56,-50,107,-107,107v-57,0,-107,-51,-107,-107v0,-56,50,-107,107,-107v57,0,107,51,107,107","w":450},"@":{"d":"80,-247v0,153,123,274,277,274v62,0,122,-18,179,-54r24,34v-65,42,-135,63,-208,63v-176,0,-317,-140,-317,-314v0,-202,195,-394,397,-394v217,0,375,197,293,410v-25,63,-71,103,-127,128v-25,10,-50,15,-74,15v-59,0,-94,-25,-105,-73v-34,49,-77,73,-129,73v-98,2,-157,-76,-157,-174v0,-119,102,-238,217,-238v56,0,97,19,122,56r9,-44r158,0r-46,217v-7,29,-3,68,25,65v53,-5,79,-71,79,-140v0,-156,-109,-251,-269,-251v-180,0,-348,167,-348,347xm295,-273v0,38,25,65,63,64v28,0,53,-14,74,-41r19,-95v-13,-19,-32,-28,-58,-28v-56,-2,-99,47,-98,100","w":783},"A":{"d":"728,0r-229,0r-24,-78r-240,0r-24,78r-229,0r246,-667r254,0xm421,-254r-66,-215r-66,215r132,0","w":710},"B":{"d":"670,-181v-1,106,-80,181,-197,181r-419,0r0,-667r405,0v114,-5,195,72,198,170v1,81,-49,139,-114,153v72,9,129,80,127,163xm452,-461v0,-22,-19,-38,-40,-38r-156,0r0,78r156,0v21,0,40,-18,40,-40xm465,-210v0,-25,-21,-44,-47,-43r-162,0r0,85r162,0v28,0,47,-16,47,-42","w":697},"C":{"d":"385,-166v61,0,115,-49,129,-97r174,80v-24,54,-55,93,-100,130v-46,39,-119,65,-203,65v-204,0,-367,-143,-367,-345v0,-203,162,-345,367,-345v160,0,254,87,303,194r-174,81v-15,-49,-68,-97,-129,-97v-94,0,-162,74,-162,167v0,93,68,167,162,167","w":697},"D":{"d":"718,-334v0,208,-157,334,-365,334r-299,0r0,-667r298,0v210,-2,366,124,366,333xm513,-334v0,-96,-60,-159,-160,-157r-97,0r0,315r96,0v93,3,162,-69,161,-158","w":736},"E":{"d":"560,0r-506,0r0,-667r506,0r0,176r-304,0r0,66r297,0r0,176r-297,0r0,73r304,0r0,176","w":596},"F":{"d":"256,0r-202,0r0,-667r506,0r0,176r-304,0r0,66r297,0r0,176r-297,0r0,249","w":592},"G":{"d":"385,-166v36,0,84,-15,104,-30r0,-24r-124,0r0,-176r325,0r0,273v-81,90,-183,135,-305,135v-203,0,-367,-140,-367,-345v0,-205,164,-345,367,-345v147,0,245,78,293,174r-170,87v-19,-41,-64,-83,-123,-83v-94,0,-162,74,-162,167v0,93,68,167,162,167","w":726},"H":{"d":"697,0r-202,0r0,-255r-239,0r0,255r-202,0r0,-667r202,0r0,236r239,0r0,-236r202,0r0,667","w":751},"I":{"d":"256,0r-202,0r0,-667r202,0r0,667","w":310},"J":{"d":"444,-238v2,164,-97,250,-258,250v-77,0,-139,-18,-186,-54r82,-154v29,20,58,30,86,30v44,0,75,-30,74,-75r0,-426r202,0r0,429","w":498},"K":{"d":"689,0r-246,0r-150,-235r-37,50r0,185r-202,0r0,-667r202,0r0,250r175,-250r247,0r-252,310","w":671},"L":{"d":"509,0r-455,0r0,-667r202,0r0,491r253,0r0,176","w":536},"M":{"d":"846,0r-202,0r0,-401r-149,401r-90,0r-149,-401r0,401r-202,0r0,-667r279,0r117,320r117,-320r279,0r0,667","w":900},"N":{"d":"696,0r-194,0r-246,-338r0,338r-202,0r0,-667r208,0r232,316r0,-316r202,0r0,667","w":750},"O":{"d":"748,-333v0,201,-164,345,-365,345v-202,0,-365,-144,-365,-345v0,-201,164,-345,365,-345v202,0,365,144,365,345xm223,-333v0,92,67,167,160,167v93,0,160,-75,160,-167v0,-92,-67,-167,-160,-167v-93,0,-160,75,-160,167","w":766},"P":{"d":"650,-438v0,133,-98,228,-240,228r-154,0r0,210r-202,0r0,-667r356,0v143,-4,240,94,240,229xm445,-438v1,-35,-26,-53,-61,-53r-128,0r0,105r128,0v34,0,61,-18,61,-52","w":662},"Q":{"d":"383,-678v202,0,365,144,365,345v0,89,-28,164,-83,226r36,45r-140,112r-47,-58v-253,80,-496,-80,-496,-325v0,-201,164,-345,365,-345xm223,-333v0,94,68,172,166,167r-46,-58r140,-112r50,64v38,-114,-36,-228,-150,-228v-93,0,-160,75,-160,167","w":766},"R":{"d":"650,-438v0,102,-55,169,-120,202r121,236r-230,0r-92,-210r-73,0r0,210r-202,0r0,-667r356,0v143,-4,240,94,240,229xm445,-439v0,-34,-31,-52,-66,-52r-123,0r0,105r123,0v36,0,66,-18,66,-53","w":678},"S":{"d":"601,-220v-1,156,-122,232,-288,232v-128,0,-231,-35,-310,-106r105,-150v60,57,132,86,215,86v49,0,74,-12,74,-36v0,-11,-13,-20,-39,-26v-61,-15,-141,-26,-202,-48v-70,-26,-133,-91,-131,-188v2,-134,124,-221,277,-221v113,0,207,31,283,93r-108,143v-58,-44,-123,-66,-196,-66v-34,0,-51,10,-51,30v0,11,13,19,38,26v60,16,140,29,202,51v69,25,132,86,131,180","w":613},"T":{"d":"399,0r-202,0r0,-491r-179,0r0,-176r559,0r0,176r-178,0r0,491","w":595},"U":{"d":"713,-275v-2,185,-127,287,-329,287v-201,0,-330,-101,-330,-286r0,-393r205,0r0,386v0,70,50,115,125,115v74,0,124,-46,124,-115r0,-386r205,0r0,392","w":767},"V":{"d":"482,0r-254,0r-246,-667r229,0r144,449r144,-449r229,0","w":710},"W":{"d":"775,0r-212,0r-86,-378r-86,378r-212,0r-191,-667r226,0r86,408r101,-408r152,0r101,408r85,-408r227,0","w":954},"X":{"d":"702,0r-238,0r-122,-204r-122,204r-238,0r223,-342r-208,-325r237,0r108,190r106,-190r239,0r-208,324","w":684},"Y":{"d":"434,0r-202,0r0,-265r-250,-402r227,0r124,225r122,-225r227,0r-248,402r0,265","w":664},"Z":{"d":"564,0r-528,0r0,-160r254,-331r-254,0r0,-176r521,0r0,159r-255,332r262,0r0,176","w":600},"[":{"d":"299,190r-245,0r0,-868r245,0r0,114r-120,0r0,640r120,0r0,114","w":317},"\\":{"d":"237,20r-237,-707r125,0r237,707r-125,0","w":362},"]":{"d":"263,190r-245,0r0,-114r120,0r0,-640r-120,0r0,-114r245,0r0,868","w":317},"^":{"d":"431,-333r-126,0r-80,-215r-79,215r-127,0r143,-334r129,0","w":450},"_":{"d":"567,154r-570,0r0,-114r570,0r0,114","w":564},"`":{"d":"275,-556r-120,0r-155,-144r155,0","w":275},"\u02cb":{"d":"275,-556r-120,0r-155,-144r155,0","w":275},"a":{"d":"272,-495v143,1,237,57,237,203r0,292r-180,0r0,-46v-25,34,-87,58,-146,58v-85,0,-170,-64,-166,-159v4,-99,65,-155,166,-154v69,0,118,18,146,53r0,-50v-2,-41,-41,-60,-90,-60v-48,0,-93,16,-134,47r-61,-111v61,-49,137,-73,228,-73xm258,-105v35,0,59,-9,71,-26r0,-27v-12,-17,-36,-26,-71,-26v-42,0,-63,13,-63,40v0,26,21,39,63,39","w":559},"b":{"d":"395,-242v0,-54,-38,-94,-90,-94v-32,0,-57,11,-75,33r0,124v17,21,42,32,75,32v52,0,90,-40,90,-95xm579,-242v0,146,-81,252,-213,254v-53,0,-99,-21,-136,-63r0,51r-180,0r0,-667r180,0r0,235v35,-42,80,-63,136,-63v131,1,213,110,213,253","w":596},"c":{"d":"493,-79v-35,51,-113,91,-205,91v-151,0,-271,-103,-271,-254v0,-150,120,-253,271,-253v93,0,170,40,205,91r-116,109v-18,-27,-45,-41,-81,-41v-54,0,-95,37,-95,94v0,57,41,95,95,95v35,0,62,-14,81,-42","w":502},"d":{"d":"17,-242v0,-143,82,-252,213,-253v56,0,101,21,136,63r0,-235r180,0r0,667r-180,0r0,-51v-37,42,-83,63,-136,63v-132,-1,-213,-108,-213,-254xm201,-242v0,55,38,95,90,95v32,0,57,-11,75,-33r0,-124v-17,-21,-42,-32,-75,-32v-52,0,-90,40,-90,94","w":596},"e":{"d":"492,-48v-42,37,-128,60,-206,60v-151,0,-269,-101,-269,-254v0,-143,116,-253,263,-253v149,0,255,115,251,272r0,37r-328,0v12,35,53,62,104,61v32,0,94,-17,111,-34xm360,-300v-9,-39,-36,-58,-80,-58v-42,0,-68,19,-79,58r159,0","w":543},"f":{"d":"357,-525v-22,-31,-91,-23,-90,20r0,22r98,0r0,156r-98,0r0,327r-180,0r0,-327r-80,0r0,-156r80,0v-9,-120,74,-193,184,-194v68,0,118,17,151,52","w":371},"g":{"d":"545,-52v-2,176,-118,247,-292,248v-86,0,-159,-24,-220,-72r76,-128v35,35,83,53,144,53v61,0,115,-31,112,-101r0,-26v-38,43,-83,65,-136,65v-133,-1,-212,-96,-212,-241v0,-143,80,-240,212,-241v55,0,101,21,136,63r0,-51r180,0r0,431xm201,-254v0,55,37,82,90,82v28,0,61,-14,74,-31r0,-102v-13,-17,-46,-31,-74,-31v-53,0,-90,27,-90,82","w":595},"h":{"d":"397,-495v101,0,160,56,161,150r0,345r-180,0r0,-269v0,-45,-23,-67,-70,-67v-29,0,-54,13,-77,38r0,298r-180,0r0,-667r180,0r0,239v39,-45,95,-67,166,-67","w":608},"i":{"d":"241,-619v0,55,-47,101,-101,101v-55,0,-101,-47,-101,-101v0,-55,47,-101,101,-101v55,0,101,47,101,101xm230,0r-180,0r0,-483r180,0r0,483"},"j":{"d":"241,-619v0,55,-47,101,-101,101v-55,0,-101,-47,-101,-101v0,-55,47,-101,101,-101v55,0,101,47,101,101xm230,-21v0,130,-68,219,-201,217v-71,0,-90,-7,-135,-33r43,-133v17,13,37,19,60,19v35,0,53,-23,53,-70r0,-462r180,0r0,462"},"k":{"d":"569,0r-221,0r-83,-156r-35,47r0,109r-180,0r0,-667r180,0r0,356r111,-172r217,0r-166,220","w":557},"l":{"d":"230,0r-180,0r0,-667r180,0r0,667"},"m":{"d":"698,-495v93,0,149,49,149,145r0,350r-180,0r0,-282v0,-33,-19,-55,-55,-54v-27,0,-52,13,-74,38r0,298r-180,0r0,-282v0,-36,-18,-54,-55,-54v-27,0,-51,13,-73,38r0,298r-180,0r0,-483r180,0r0,55v26,-33,96,-67,160,-67v72,0,118,28,139,85v29,-44,95,-86,169,-85","w":897},"n":{"d":"396,-495v101,0,160,58,161,152r0,343r-180,0r0,-267v0,-46,-23,-69,-70,-69v-29,0,-54,13,-77,38r0,298r-180,0r0,-483r180,0r0,55v39,-45,95,-67,166,-67","w":607},"o":{"d":"560,-242v0,145,-117,254,-272,254v-155,0,-271,-108,-271,-254v0,-146,116,-253,271,-253v155,0,272,107,272,253xm202,-242v0,54,32,95,86,95v55,0,88,-40,87,-95v0,-54,-33,-94,-87,-94v-53,0,-86,41,-86,94","w":577},"p":{"d":"578,-242v0,147,-78,252,-212,254v-54,0,-99,-21,-136,-63r0,235r-180,0r0,-667r180,0r0,51v35,-42,81,-63,136,-63v133,1,212,107,212,253xm230,-180v11,16,48,33,74,33v52,0,90,-40,90,-95v0,-54,-38,-94,-90,-94v-28,0,-61,15,-74,33r0,123","w":595},"q":{"d":"201,-242v0,55,38,95,90,95v26,0,63,-17,74,-33r0,-123v-13,-18,-46,-33,-74,-33v-52,0,-90,40,-90,94xm17,-242v0,-147,78,-251,212,-253v55,0,101,21,136,63r0,-51r180,0r0,667r-180,0r0,-235v-37,42,-82,63,-136,63v-134,-1,-212,-107,-212,-254","w":595},"r":{"d":"230,0r-180,0r0,-483r180,0r0,53v26,-32,92,-67,148,-67r0,172v-10,-3,-24,-5,-41,-5v-53,0,-88,11,-107,34r0,296","w":390},"s":{"d":"475,-154v-2,108,-106,166,-229,166v-88,0,-189,-32,-237,-74r72,-121v31,27,119,61,174,61v52,0,67,-29,20,-38v-45,-8,-104,-16,-149,-31v-53,-18,-99,-68,-97,-141v2,-103,98,-163,216,-163v77,0,146,21,209,62r-66,117v-31,-25,-87,-51,-142,-50v-30,0,-45,7,-45,21v0,7,9,12,28,15v85,16,173,22,218,84v18,25,28,55,28,92","w":490},"t":{"d":"267,-192v0,24,16,46,40,45v18,0,30,-3,36,-9r32,136v-24,21,-65,32,-122,32v-105,0,-166,-49,-166,-152r0,-187r-80,0r0,-156r80,0r0,-132r180,0r0,132r98,0r0,156r-98,0r0,135","w":382},"u":{"d":"210,12v-100,0,-159,-57,-160,-150r0,-345r180,0r0,268v0,45,23,68,70,68v28,0,53,-13,76,-38r0,-298r180,0r0,483r-180,0r0,-54v-40,44,-95,66,-166,66","w":606},"v":{"d":"363,0r-191,0r-187,-483r190,0r92,276r93,-276r190,0","w":535},"w":{"d":"677,0r-196,0r-79,-270r-78,270r-196,0r-140,-483r185,0r64,266r85,-266r161,0r84,266r64,-266r186,0","w":805},"x":{"d":"533,0r-197,0r-75,-128r-77,128r-196,0r158,-248r-148,-235r197,0r65,113r65,-113r197,0r-148,235","w":521},"y":{"d":"45,188r25,-160v24,16,97,9,101,-10r4,-10r-190,-491r190,0r92,276r93,-276r190,0r-210,543v-38,100,-100,136,-225,136v-29,0,-52,-3,-70,-8","w":535},"z":{"d":"453,0r-420,0r0,-132r170,-195r-170,0r0,-156r416,0r0,126r-174,201r178,0r0,156","w":486},"{":{"d":"179,5v-1,39,24,71,60,71r60,0r0,114r-60,0v-102,1,-185,-77,-185,-184r0,-139v0,-36,-17,-64,-52,-64r0,-94v35,0,52,-28,52,-64r0,-138v-4,-107,83,-186,185,-185r60,0r0,114r-60,0v-36,0,-60,31,-60,70r0,159v0,47,-15,78,-46,91v31,13,46,44,46,91r0,158","w":316},"|":{"d":"168,20r-114,0r0,-707r114,0r0,707","w":222},"}":{"d":"262,6v4,107,-83,185,-185,184r-60,0r0,-114r60,0v35,0,60,-32,60,-71r0,-158v0,-47,15,-78,46,-91v-31,-13,-46,-44,-46,-91r0,-159v1,-39,-23,-70,-60,-70r-60,0r0,-114r60,0v102,-1,185,78,185,185r0,138v0,36,17,64,52,64r0,94v-35,0,-52,28,-52,64r0,139","w":316},"~":{"d":"377,-667r116,14v-6,71,-13,115,-35,169v-20,49,-59,82,-124,83v-72,1,-101,-49,-116,-105v-6,-23,-12,-53,-33,-57v-21,0,-35,54,-42,162r-118,-13v6,-69,15,-117,37,-170v20,-48,59,-82,123,-83v72,0,102,49,117,105v6,23,12,54,32,58v22,0,36,-54,43,-163","w":518},"\u00a0":{"w":255},"\u00a1":{"d":"33,184r25,-419r162,0r27,419r-214,0xm139,-282v-56,0,-106,-50,-106,-107v0,-56,50,-106,106,-106v56,0,106,50,106,106v0,57,-50,107,-106,107"},"\u00a2":{"d":"201,-242v0,57,41,95,95,95v35,0,62,-14,81,-42r116,110v-29,43,-75,71,-138,84r0,95r-126,0r0,-93v-118,-20,-212,-114,-212,-249v0,-134,95,-228,212,-248r0,-75r126,0r0,77v64,13,110,41,138,84r-116,109v-18,-27,-45,-41,-81,-41v-54,0,-95,37,-95,94","w":502},"\u00a3":{"d":"409,12v-46,0,-150,-41,-183,-42v-33,0,-71,12,-114,37r-66,-132v57,-31,85,-63,85,-96v0,-13,-3,-30,-9,-49r-96,0r0,-109r38,0v-38,-69,-25,-145,20,-201v48,-60,124,-97,219,-97v136,0,215,40,263,130r-160,92v-14,-40,-40,-60,-77,-60v-36,0,-66,25,-66,59v0,18,7,44,22,77r134,0r0,109r-109,0v-3,34,-26,72,-51,85v12,-4,26,-6,43,-6v33,0,85,25,114,25v35,0,60,-11,76,-33r77,159v-32,35,-85,52,-160,52","w":581},"\u00a4":{"d":"486,-137r-29,29r-56,-57v-76,68,-204,68,-280,0r-57,57r-28,-29r56,-56v-67,-81,-67,-201,0,-280r-56,-57r28,-28r57,56v76,-67,203,-67,280,0r56,-56r29,28r-56,57v67,79,67,200,0,280xm261,-162v92,0,171,-79,171,-171v0,-92,-79,-171,-171,-171v-92,0,-171,79,-171,171v0,92,79,171,171,171","w":522},"\u00a5":{"d":"434,0r-202,0r0,-107r-207,0r0,-105r207,0r0,-53r-207,0r0,-105r141,0r-184,-297r227,0r124,225r122,-225r227,0r-183,297r142,0r0,105r-207,0r0,53r207,0r0,105r-207,0r0,107","w":664},"\u00a6":{"d":"168,20r-114,0r0,-316r114,0r0,316xm168,-371r-114,0r0,-316r114,0r0,316","w":222},"\u00a7":{"d":"29,-524v0,-96,109,-153,215,-153v89,0,159,22,209,65r-65,105v-40,-32,-85,-48,-135,-48v-56,0,-71,37,-24,51v44,13,103,19,149,35v52,18,98,62,97,133v-1,58,-34,106,-75,128v50,25,75,66,75,123v0,111,-110,166,-229,166v-91,0,-169,-27,-234,-80r69,-112v35,31,103,68,165,70v63,2,76,-38,29,-55v-43,-16,-103,-24,-149,-40v-53,-19,-97,-64,-97,-137v0,-57,44,-102,80,-121v-53,-25,-80,-68,-80,-130xm298,-298v0,-28,-18,-46,-54,-53v-29,5,-43,21,-43,48v0,29,21,47,63,54v23,-9,34,-26,34,-49","w":500},"\u00a8":{"d":"267,-707v49,0,90,41,90,89v0,48,-41,89,-90,89v-48,0,-89,-41,-89,-89v0,-48,41,-89,89,-89xm51,-707v48,0,89,40,89,89v0,49,-41,89,-89,89v-48,0,-89,-40,-89,-89v0,-49,41,-89,89,-89","w":318},"\u00a9":{"d":"389,-679v186,0,345,160,345,345v0,186,-160,345,-345,345v-185,0,-345,-161,-345,-345v0,-186,160,-345,345,-345xm389,-31v162,0,303,-141,303,-303v0,-162,-141,-303,-303,-303v-162,0,-303,141,-303,303v0,161,141,303,303,303xm244,-335v0,88,68,165,153,163v47,0,85,-20,114,-59r38,36v-40,47,-91,70,-152,70v-114,0,-208,-94,-208,-210v0,-116,94,-208,208,-208v61,0,111,23,150,68r-37,37v-29,-39,-66,-58,-113,-58v-87,-1,-153,72,-153,161","w":778},"\u00aa":{"d":"225,-488v5,-45,-14,-68,-57,-67v-31,0,-60,12,-86,36r-44,-82v42,-31,93,-47,153,-47v107,0,161,46,161,139r0,183r-127,0r0,-29v-19,25,-51,37,-96,37v-57,0,-109,-41,-109,-103v0,-63,51,-100,109,-100v45,0,77,11,96,33xm183,-395v21,0,35,-6,42,-19r0,-15v-7,-12,-21,-18,-42,-18v-25,0,-38,9,-38,26v0,17,13,26,38,26","w":392},"\u00ab":{"d":"585,-63r-160,0r-160,-180r160,-177r160,0r-160,177xm350,-63r-160,0r-160,-180r160,-177r160,0r-160,177","w":615},"\u00ac":{"d":"481,-478r0,288r-108,0r0,-183r-344,0r0,-105r452,0","w":527},"\u00ad":{"d":"270,-167r-240,0r0,-150r240,0r0,150","w":300},"\u00ae":{"d":"247,-677v116,0,212,96,212,212v0,114,-98,212,-212,212v-114,0,-212,-98,-212,-212v0,-114,98,-212,212,-212xm247,-288v95,0,177,-82,177,-177v0,-96,-81,-177,-177,-177v-96,0,-177,81,-177,177v0,95,82,177,177,177xm346,-512v0,39,-34,70,-62,72r65,97r-45,0r-63,-96r-39,0r0,96r-37,0r0,-243r99,0v41,-1,82,32,82,74xm264,-471v22,0,44,-18,44,-41v0,-24,-21,-43,-44,-43r-62,0r0,84r62,0","w":494},"\u00af":{"d":"363,-591r-363,0r0,-97r363,0r0,97","w":363},"\u203e":{"d":"363,-591r-363,0r0,-97r363,0r0,97","w":363},"\u00b0":{"d":"165,-677v79,0,149,69,149,149v0,80,-69,148,-149,148v-80,0,-148,-68,-148,-148v0,-80,69,-149,148,-149xm165,-471v31,0,59,-26,59,-57v0,-31,-28,-59,-59,-59v-31,0,-57,28,-57,59v0,31,26,57,57,57","w":331},"\u00b1":{"d":"481,-328r-168,0r0,193r-116,0r0,-193r-168,0r0,-105r168,0r0,-185r116,0r0,185r168,0r0,105xm481,0r-452,0r0,-105r452,0r0,105","w":510},"\u00b2":{"d":"197,-827v99,0,177,42,179,131v0,26,-10,51,-30,76v-20,25,-59,56,-114,95r148,0r0,104r-338,0r0,-95r138,-99v0,0,47,-37,54,-45v23,-29,6,-63,-40,-63v-41,0,-87,26,-106,48r-66,-84v43,-45,102,-68,175,-68","w":407},"\u00b3":{"d":"287,-627v47,3,98,41,96,93v-2,80,-89,120,-181,120v-79,0,-139,-21,-179,-62r62,-87v24,26,70,45,112,45v37,0,55,-9,55,-26v0,-32,-32,-28,-73,-28v-29,0,-45,0,-49,1r0,-102v6,1,22,1,48,1v39,0,67,2,67,-26v0,-17,-19,-25,-57,-25v-40,0,-74,13,-102,39r-58,-77v42,-44,100,-66,175,-66v96,-1,173,31,173,111v0,47,-43,83,-89,89","w":407},"\u00b4":{"d":"275,-700r-155,144r-120,0r120,-144r155,0","w":275},"\u00b5":{"d":"230,184r-180,0r0,-667r180,0r0,268v0,45,23,68,70,68v28,0,53,-13,76,-38r0,-298r180,0r0,483r-180,0r0,-54v-35,40,-84,62,-146,66r0,172","w":606},"\u03bc":{"d":"230,184r-180,0r0,-667r180,0r0,268v0,45,23,68,70,68v28,0,53,-13,76,-38r0,-298r180,0r0,483r-180,0r0,-54v-35,40,-84,62,-146,66r0,172","w":606},"\u00b6":{"d":"27,-495v0,-92,80,-172,172,-172r228,0r0,767r-80,0r0,-687r-68,0r0,687r-80,0r0,-423v-92,3,-172,-80,-172,-172","w":449},"\u00b7":{"d":"141,-351v56,0,106,50,106,107v0,56,-50,106,-106,106v-56,0,-106,-50,-106,-106v0,-57,50,-107,106,-107","w":283},"\u2219":{"d":"141,-351v56,0,106,50,106,107v0,56,-50,106,-106,106v-56,0,-106,-50,-106,-106v0,-57,50,-107,106,-107","w":283},"\u00b8":{"d":"237,111v0,58,-57,90,-118,89v-51,0,-91,-11,-119,-34r31,-64v29,20,56,30,83,30v28,0,42,-8,42,-24v1,-23,-38,-21,-47,-5r-59,-34r30,-80r80,0r-25,58v47,-27,102,11,102,64","w":237},"\u00b9":{"d":"276,-421r-132,0r0,-233r-70,69r-74,-78r163,-158r113,0r0,400","w":336},"\u00ba":{"d":"385,-483v0,95,-80,165,-183,165v-102,0,-182,-71,-182,-165v0,-94,81,-165,182,-165v104,0,183,70,183,165xm202,-418v35,0,53,-22,53,-65v0,-42,-18,-63,-53,-63v-34,0,-51,21,-51,63v0,43,17,65,51,65","w":405},"\u00bb":{"d":"350,-243r-160,180r-160,0r160,-180r-160,-177r160,0xm585,-243r-160,180r-160,0r160,-180r-160,-177r160,0","w":615},"\u00bc":{"d":"692,-667r-427,667r-97,0r426,-667r98,0xm884,-71r-47,0r0,71r-131,0r0,-71r-197,0r0,-87r143,-242r185,0r0,227r47,0r0,102xm706,-173r0,-118r-68,118r68,0xm276,-267r-132,0r0,-233r-70,69r-74,-78r163,-158r113,0r0,400","w":897},"\u00bd":{"d":"692,-667r-427,667r-97,0r426,-667r98,0xm717,-406v99,0,177,42,179,131v0,26,-10,51,-30,76v-20,25,-59,56,-114,95r148,0r0,104r-338,0r0,-95r138,-99v0,0,47,-36,54,-44v23,-29,6,-64,-40,-64v-41,0,-87,26,-106,48r-66,-84v43,-45,102,-68,175,-68xm276,-267r-132,0r0,-233r-70,69r-74,-78r163,-158r113,0r0,400","w":927},"\u00be":{"d":"759,-667r-427,667r-97,0r426,-667r98,0xm951,-71r-47,0r0,71r-131,0r0,-71r-197,0r0,-87r143,-242r185,0r0,227r47,0r0,102xm773,-173r0,-118r-68,118r68,0xm287,-473v47,3,98,41,96,93v-2,80,-89,120,-181,120v-79,0,-139,-21,-179,-62r62,-87v24,26,70,45,112,45v37,0,55,-9,55,-26v0,-32,-32,-28,-73,-28v-29,0,-45,0,-49,1r0,-102v6,1,22,1,48,1v39,0,67,2,67,-26v0,-17,-19,-25,-57,-25v-40,0,-74,13,-102,39r-58,-77v42,-44,100,-66,175,-66v96,-1,173,31,173,111v0,47,-43,83,-89,89","w":964},"\u00bf":{"d":"228,194v-120,2,-218,-52,-220,-161v0,-79,46,-120,92,-153v22,-16,50,-35,50,-66v0,-16,-4,-28,-11,-37r158,-36v29,38,36,115,9,161v-21,35,-47,50,-76,70v-28,20,-23,45,21,44v31,0,60,-14,87,-42r112,129v-48,54,-130,90,-222,91xm115,-388v0,-57,50,-107,107,-107v57,0,107,50,107,107v0,57,-50,107,-107,107v-57,0,-107,-50,-107,-107","w":401},"\u00c0":{"d":"454,-728r-120,0r-155,-144r155,0xm728,0r-229,0r-24,-78r-240,0r-24,78r-229,0r246,-667r254,0xm421,-254r-66,-215r-66,215r132,0","w":710},"\u00c1":{"d":"534,-872r-155,144r-120,0r120,-144r155,0xm728,0r-229,0r-24,-78r-240,0r-24,78r-229,0r246,-667r254,0xm421,-254r-66,-215r-66,215r132,0","w":710},"\u00c2":{"d":"524,-728r-105,0r-64,-73r-61,73r-105,0r88,-144r156,0xm728,0r-229,0r-24,-78r-240,0r-24,78r-229,0r246,-667r254,0xm421,-254r-66,-215r-66,215r132,0","w":710},"\u00c3":{"d":"408,-726v-23,0,-46,-8,-68,-22v-22,-14,-36,-21,-42,-21v-16,0,-24,12,-24,37r-89,0v0,-89,39,-134,118,-134v23,0,46,8,68,22v22,14,36,21,42,21v16,0,24,-12,24,-37r89,0v0,89,-39,134,-118,134xm728,0r-229,0r-24,-78r-240,0r-24,78r-229,0r246,-667r254,0xm421,-254r-66,-215r-66,215r132,0","w":710},"\u00c4":{"d":"463,-884v49,0,90,41,90,89v0,48,-41,89,-90,89v-48,0,-89,-41,-89,-89v0,-48,41,-89,89,-89xm247,-884v48,0,89,41,89,89v0,48,-41,89,-89,89v-48,0,-89,-41,-89,-89v0,-48,41,-89,89,-89xm728,0r-229,0r-24,-78r-240,0r-24,78r-229,0r246,-667r254,0xm421,-254r-66,-215r-66,215r132,0","w":710},"\u00c5":{"d":"466,-805v0,60,-50,112,-110,112v-60,0,-112,-52,-112,-112v0,-60,52,-112,112,-112v60,0,110,52,110,112xm321,-805v0,18,17,35,35,35v18,0,34,-17,34,-35v0,-18,-16,-35,-34,-35v-18,0,-35,17,-35,35xm728,0r-229,0r-24,-78r-240,0r-24,78r-229,0r246,-667r254,0xm421,-254r-66,-215r-66,215r132,0","w":710},"\u00c6":{"d":"959,0r-506,0r0,-78r-207,0r-41,78r-230,0r395,-667r589,0r0,176r-304,0r0,66r297,0r0,176r-297,0r0,73r304,0r0,176xm453,-254r0,-215r-113,215r113,0","w":989},"\u00c7":{"d":"497,107v0,58,-57,90,-118,89v-51,0,-91,-11,-119,-34r31,-64v29,20,56,30,83,30v28,0,42,-8,42,-24v1,-23,-38,-21,-47,-5r-59,-34r21,-57v-175,-17,-313,-152,-313,-341v0,-203,162,-345,367,-345v160,0,254,87,303,194r-174,81v-15,-49,-68,-97,-129,-97v-94,0,-162,74,-162,167v0,93,68,167,162,167v61,0,115,-49,129,-97r174,80v-45,101,-137,189,-280,194r-13,32v47,-27,102,11,102,64","w":697},"\u00c8":{"d":"406,-728r-120,0r-155,-144r155,0xm560,0r-506,0r0,-667r506,0r0,176r-304,0r0,66r297,0r0,176r-297,0r0,73r304,0r0,176","w":596},"\u00c9":{"d":"485,-872r-155,144r-120,0r120,-144r155,0xm560,0r-506,0r0,-667r506,0r0,176r-304,0r0,66r297,0r0,176r-297,0r0,73r304,0r0,176","w":596},"\u00ca":{"d":"475,-728r-105,0r-64,-73r-61,73r-105,0r88,-144r156,0xm560,0r-506,0r0,-667r506,0r0,176r-304,0r0,66r297,0r0,176r-297,0r0,73r304,0r0,176","w":596},"\u00cb":{"d":"418,-884v49,0,90,41,90,89v0,48,-41,89,-90,89v-48,0,-89,-41,-89,-89v0,-48,41,-89,89,-89xm202,-884v49,0,89,41,89,89v0,48,-40,89,-89,89v-49,0,-89,-41,-89,-89v0,-48,40,-89,89,-89xm560,0r-506,0r0,-667r506,0r0,176r-304,0r0,66r297,0r0,176r-297,0r0,73r304,0r0,176","w":596},"\u00cc":{"d":"251,-728r-120,0r-155,-144r155,0xm256,0r-202,0r0,-667r202,0r0,667","w":310},"\u00cd":{"d":"336,-872r-155,144r-120,0r120,-144r155,0xm256,0r-202,0r0,-667r202,0r0,667","w":310},"\u00ce":{"d":"321,-728r-105,0r-64,-73r-61,73r-105,0r88,-144r156,0xm256,0r-202,0r0,-667r202,0r0,667","w":310},"\u00cf":{"d":"263,-883v49,0,90,41,90,89v0,48,-41,89,-90,89v-48,0,-89,-41,-89,-89v0,-48,41,-89,89,-89xm47,-883v48,0,89,40,89,89v0,49,-41,89,-89,89v-48,0,-89,-40,-89,-89v0,-49,41,-89,89,-89xm256,0r-202,0r0,-667r202,0r0,667","w":310},"\u00d0":{"d":"739,-334v0,208,-157,334,-365,334r-299,0r0,-254r-68,0r0,-159r68,0r0,-254r298,0v210,-2,366,124,366,333xm534,-334v0,-96,-60,-159,-160,-157r-97,0r0,78r129,0r0,159r-129,0r0,78r96,0v93,3,162,-69,161,-158","w":757},"\u00d1":{"d":"426,-726v-23,0,-46,-8,-68,-22v-22,-14,-36,-21,-42,-21v-16,0,-24,12,-24,37r-89,0v0,-89,39,-134,118,-134v23,0,46,8,68,22v22,14,36,21,42,21v16,0,24,-12,24,-37r89,0v0,89,-39,134,-118,134xm696,0r-194,0r-246,-338r0,338r-202,0r0,-667r208,0r232,316r0,-316r202,0r0,667","w":750},"\u00d2":{"d":"483,-728r-120,0r-155,-144r155,0xm748,-333v0,201,-164,345,-365,345v-202,0,-365,-144,-365,-345v0,-201,164,-345,365,-345v202,0,365,144,365,345xm223,-333v0,92,67,167,160,167v93,0,160,-75,160,-167v0,-92,-67,-167,-160,-167v-93,0,-160,75,-160,167","w":766},"\u00d3":{"d":"562,-872r-155,144r-120,0r120,-144r155,0xm748,-333v0,201,-164,345,-365,345v-202,0,-365,-144,-365,-345v0,-201,164,-345,365,-345v202,0,365,144,365,345xm223,-333v0,92,67,167,160,167v93,0,160,-75,160,-167v0,-92,-67,-167,-160,-167v-93,0,-160,75,-160,167","w":766},"\u00d4":{"d":"554,-728r-105,0r-64,-73r-61,73r-105,0r88,-144r156,0xm748,-333v0,201,-164,345,-365,345v-202,0,-365,-144,-365,-345v0,-201,164,-345,365,-345v202,0,365,144,365,345xm223,-333v0,92,67,167,160,167v93,0,160,-75,160,-167v0,-92,-67,-167,-160,-167v-93,0,-160,75,-160,167","w":766},"\u00d5":{"d":"436,-726v-23,0,-46,-8,-68,-22v-22,-14,-36,-21,-42,-21v-16,0,-24,12,-24,37r-89,0v0,-89,39,-134,118,-134v23,0,46,8,68,22v22,14,36,21,42,21v16,0,24,-12,24,-37r89,0v0,89,-39,134,-118,134xm748,-333v0,201,-164,345,-365,345v-202,0,-365,-144,-365,-345v0,-201,164,-345,365,-345v202,0,365,144,365,345xm223,-333v0,92,67,167,160,167v93,0,160,-75,160,-167v0,-92,-67,-167,-160,-167v-93,0,-160,75,-160,167","w":766},"\u00d6":{"d":"494,-884v49,0,90,41,90,89v0,48,-41,89,-90,89v-48,0,-89,-41,-89,-89v0,-48,41,-89,89,-89xm278,-884v49,0,89,41,89,89v0,48,-40,89,-89,89v-49,0,-89,-41,-89,-89v0,-48,40,-89,89,-89xm748,-333v0,201,-164,345,-365,345v-202,0,-365,-144,-365,-345v0,-201,164,-345,365,-345v202,0,365,144,365,345xm223,-333v0,92,67,167,160,167v93,0,160,-75,160,-167v0,-92,-67,-167,-160,-167v-93,0,-160,75,-160,167","w":766},"\u00d7":{"d":"389,-126r-134,-134r-133,134r-75,-74r134,-134r-134,-134r75,-74r133,134r134,-134r74,74r-133,134r133,134","w":510},"\u00d8":{"d":"748,-333v0,201,-164,345,-365,345v-73,0,-139,-16,-196,-49r-31,37r-138,0r87,-102v-58,-62,-87,-139,-87,-231v0,-201,164,-345,365,-345v62,0,121,13,178,40r25,-29r138,0r-76,90v67,65,100,146,100,244xm383,-166v93,2,162,-75,160,-167v0,-34,-8,-65,-25,-92r-207,243v23,11,47,16,72,16xm436,-491v-141,-48,-257,93,-198,233","w":766},"\u00d9":{"d":"484,-728r-120,0r-155,-144r155,0xm713,-275v-2,185,-127,287,-329,287v-201,0,-330,-101,-330,-286r0,-393r205,0r0,386v0,70,50,115,125,115v74,0,124,-46,124,-115r0,-386r205,0r0,392","w":767},"\u00da":{"d":"564,-872r-155,144r-120,0r120,-144r155,0xm713,-275v-2,185,-127,287,-329,287v-201,0,-330,-101,-330,-286r0,-393r205,0r0,386v0,70,50,115,125,115v74,0,124,-46,124,-115r0,-386r205,0r0,392","w":767},"\u00db":{"d":"559,-728r-105,0r-64,-73r-61,73r-105,0r88,-144r156,0xm713,-275v-2,185,-127,287,-329,287v-201,0,-330,-101,-330,-286r0,-393r205,0r0,386v0,70,50,115,125,115v74,0,124,-46,124,-115r0,-386r205,0r0,392","w":767},"\u00dc":{"d":"495,-884v49,0,90,41,90,89v0,48,-41,89,-90,89v-48,0,-89,-41,-89,-89v0,-48,41,-89,89,-89xm279,-884v48,0,89,41,89,89v0,48,-41,89,-89,89v-48,0,-89,-41,-89,-89v0,-48,41,-89,89,-89xm713,-275v-2,185,-127,287,-329,287v-201,0,-330,-101,-330,-286r0,-393r205,0r0,386v0,70,50,115,125,115v74,0,124,-46,124,-115r0,-386r205,0r0,392","w":767},"\u00dd":{"d":"512,-872r-155,144r-120,0r120,-144r155,0xm434,0r-202,0r0,-265r-250,-402r227,0r124,225r122,-225r227,0r-248,402r0,265","w":664},"\u00de":{"d":"650,-341v0,135,-97,227,-240,227r-154,0r0,114r-202,0r0,-667r202,0r0,96r154,0v143,-4,240,96,240,230xm445,-342v0,-34,-27,-53,-61,-53r-128,0r0,105r128,0v34,0,61,-18,61,-52","w":662},"\u00df":{"d":"318,-677v112,0,237,58,237,163v0,50,-29,96,-57,116v-20,15,-52,34,-56,58v0,5,6,9,18,12v31,8,66,10,99,20v68,21,117,65,117,154v1,106,-103,166,-216,166v-81,0,-150,-24,-207,-72r69,-123v22,30,87,61,138,61v47,0,61,-27,20,-38v-68,-18,-150,-27,-186,-84v-24,-39,-32,-105,-8,-150v18,-34,42,-51,68,-72v32,-26,11,-52,-40,-52v-47,0,-83,22,-83,67r0,451r-180,0r0,-451v1,-136,117,-226,267,-226","w":688},"\u00e0":{"d":"272,-495v143,1,237,57,237,203r0,292r-180,0r0,-46v-25,34,-87,58,-146,58v-85,0,-170,-64,-166,-159v4,-99,65,-155,166,-154v69,0,118,18,146,53r0,-50v-2,-41,-41,-60,-90,-60v-48,0,-93,16,-134,47r-61,-111v61,-49,137,-73,228,-73xm258,-105v35,0,59,-9,71,-26r0,-27v-12,-17,-36,-26,-71,-26v-42,0,-63,13,-63,40v0,26,21,39,63,39xm371,-556r-120,0r-155,-144r155,0","w":559},"\u00e1":{"d":"272,-495v143,1,237,57,237,203r0,292r-180,0r0,-46v-25,34,-87,58,-146,58v-85,0,-170,-64,-166,-159v4,-99,65,-155,166,-154v69,0,118,18,146,53r0,-50v-2,-41,-41,-60,-90,-60v-48,0,-93,16,-134,47r-61,-111v61,-49,137,-73,228,-73xm258,-105v35,0,59,-9,71,-26r0,-27v-12,-17,-36,-26,-71,-26v-42,0,-63,13,-63,40v0,26,21,39,63,39xm458,-700r-155,144r-120,0r120,-144r155,0","w":559},"\u00e2":{"d":"272,-495v143,1,237,57,237,203r0,292r-180,0r0,-46v-25,34,-87,58,-146,58v-85,0,-170,-64,-166,-159v4,-99,65,-155,166,-154v69,0,118,18,146,53r0,-50v-2,-41,-41,-60,-90,-60v-48,0,-93,16,-134,47r-61,-111v61,-49,137,-73,228,-73xm258,-105v35,0,59,-9,71,-26r0,-27v-12,-17,-36,-26,-71,-26v-42,0,-63,13,-63,40v0,26,21,39,63,39xm446,-556r-105,0r-64,-73r-61,73r-105,0r88,-144r156,0","w":559},"\u00e3":{"d":"272,-495v143,1,237,57,237,203r0,292r-180,0r0,-46v-25,34,-87,58,-146,58v-85,0,-170,-64,-166,-159v4,-99,65,-155,166,-154v69,0,118,18,146,53r0,-50v-2,-41,-41,-60,-90,-60v-48,0,-93,16,-134,47r-61,-111v61,-49,137,-73,228,-73xm258,-105v35,0,59,-9,71,-26r0,-27v-12,-17,-36,-26,-71,-26v-42,0,-63,13,-63,40v0,26,21,39,63,39xm328,-554v-23,0,-46,-8,-68,-22v-22,-14,-36,-21,-42,-21v-16,0,-24,12,-24,37r-89,0v0,-89,39,-134,118,-134v23,0,46,8,68,22v22,14,36,21,42,21v16,0,24,-12,24,-37r89,0v0,89,-39,134,-118,134","w":559},"\u00e4":{"d":"272,-495v143,1,237,57,237,203r0,292r-180,0r0,-46v-25,34,-87,58,-146,58v-85,0,-170,-64,-166,-159v4,-99,65,-155,166,-154v69,0,118,18,146,53r0,-50v-2,-41,-41,-60,-90,-60v-48,0,-93,16,-134,47r-61,-111v61,-49,137,-73,228,-73xm258,-105v35,0,59,-9,71,-26r0,-27v-12,-17,-36,-26,-71,-26v-42,0,-63,13,-63,40v0,26,21,39,63,39xm381,-707v49,0,90,41,90,89v0,48,-41,89,-90,89v-48,0,-89,-41,-89,-89v0,-48,41,-89,89,-89xm165,-707v48,0,89,40,89,89v0,49,-41,89,-89,89v-48,0,-89,-40,-89,-89v0,-49,41,-89,89,-89","w":559},"\u00e5":{"d":"272,-495v143,1,237,57,237,203r0,292r-180,0r0,-46v-25,34,-87,58,-146,58v-85,0,-170,-64,-166,-159v4,-99,65,-155,166,-154v69,0,118,18,146,53r0,-50v-2,-41,-41,-60,-90,-60v-48,0,-93,16,-134,47r-61,-111v61,-49,137,-73,228,-73xm258,-105v35,0,59,-9,71,-26r0,-27v-12,-17,-36,-26,-71,-26v-42,0,-63,13,-63,40v0,26,21,39,63,39xm387,-646v0,60,-50,112,-110,112v-60,0,-112,-52,-112,-112v0,-60,52,-112,112,-112v60,0,110,52,110,112xm242,-646v0,18,17,35,35,35v18,0,34,-17,34,-35v0,-18,-16,-35,-34,-35v-18,0,-35,17,-35,35","w":559},"\u00e6":{"d":"598,-495v142,0,246,119,241,272r0,37r-328,0v26,70,157,73,211,23r78,115v-42,37,-128,60,-206,60v-81,0,-159,-30,-199,-75v-41,42,-117,75,-196,75v-97,0,-182,-55,-182,-156v0,-100,71,-157,166,-157v59,0,119,20,146,52r0,-49v-2,-41,-42,-59,-90,-59v-49,0,-94,16,-134,47r-61,-112v61,-49,137,-73,228,-73v72,0,127,17,166,52v39,-35,92,-52,160,-52xm509,-300r159,0v-9,-39,-36,-58,-80,-58v-43,0,-69,19,-79,58xm258,-184v-31,0,-63,11,-63,40v0,26,21,39,63,39v37,0,62,-9,75,-28v-3,-7,-4,-15,-4,-24v-13,-18,-36,-27,-71,-27","w":851},"\u00e7":{"d":"411,109v0,58,-57,90,-118,89v-51,0,-91,-11,-119,-34r31,-64v29,20,56,30,83,30v28,0,42,-8,42,-24v1,-23,-38,-21,-47,-5r-59,-34r21,-58v-128,-13,-228,-111,-228,-251v0,-150,120,-253,271,-253v93,0,170,40,205,91r-116,109v-18,-27,-45,-41,-81,-41v-54,0,-95,37,-95,94v0,57,41,95,95,95v35,0,62,-14,81,-42r116,110v-31,45,-95,82,-169,89r-15,35v47,-27,102,11,102,64","w":502},"\u00e8":{"d":"492,-48v-42,37,-128,60,-206,60v-151,0,-269,-101,-269,-254v0,-143,116,-253,263,-253v149,0,255,115,251,272r0,37r-328,0v12,35,53,62,104,61v32,0,94,-17,111,-34xm360,-300v-9,-39,-36,-58,-80,-58v-42,0,-68,19,-79,58r159,0xm377,-556r-120,0r-155,-144r155,0","w":543},"\u00e9":{"d":"492,-48v-42,37,-128,60,-206,60v-151,0,-269,-101,-269,-254v0,-143,116,-253,263,-253v149,0,255,115,251,272r0,37r-328,0v12,35,53,62,104,61v32,0,94,-17,111,-34xm360,-300v-9,-39,-36,-58,-80,-58v-42,0,-68,19,-79,58r159,0xm460,-700r-155,144r-120,0r120,-144r155,0","w":543},"\u00ea":{"d":"492,-48v-42,37,-128,60,-206,60v-151,0,-269,-101,-269,-254v0,-143,116,-253,263,-253v149,0,255,115,251,272r0,37r-328,0v12,35,53,62,104,61v32,0,94,-17,111,-34xm360,-300v-9,-39,-36,-58,-80,-58v-42,0,-68,19,-79,58r159,0xm448,-556r-105,0r-64,-73r-61,73r-105,0r88,-144r156,0","w":543},"\u00eb":{"d":"492,-48v-42,37,-128,60,-206,60v-151,0,-269,-101,-269,-254v0,-143,116,-253,263,-253v149,0,255,115,251,272r0,37r-328,0v12,35,53,62,104,61v32,0,94,-17,111,-34xm360,-300v-9,-39,-36,-58,-80,-58v-42,0,-68,19,-79,58r159,0xm389,-707v49,0,90,41,90,89v0,48,-41,89,-90,89v-48,0,-89,-41,-89,-89v0,-48,41,-89,89,-89xm173,-707v48,0,89,40,89,89v0,49,-41,89,-89,89v-48,0,-89,-40,-89,-89v0,-49,41,-89,89,-89","w":543},"\u00ec":{"d":"237,-556r-120,0r-155,-144r155,0xm230,0r-180,0r0,-483r180,0r0,483"},"\u00ed":{"d":"318,-700r-155,144r-120,0r120,-144r155,0xm230,0r-180,0r0,-483r180,0r0,483"},"\u00ee":{"d":"308,-556r-105,0r-64,-73r-61,73r-105,0r88,-144r156,0xm230,0r-180,0r0,-483r180,0r0,483"},"\u00ef":{"d":"248,-707v49,0,90,41,90,89v0,48,-41,89,-90,89v-48,0,-89,-41,-89,-89v0,-48,41,-89,89,-89xm32,-707v50,0,89,39,89,89v0,50,-39,89,-89,89v-50,0,-89,-39,-89,-89v0,-50,39,-89,89,-89xm230,0r-180,0r0,-483r180,0r0,483"},"\u00f0":{"d":"17,-215v0,-125,89,-227,208,-226v71,0,125,32,162,96v-15,-45,-66,-99,-154,-161r-149,66r-32,-78r97,-42r-47,-28r96,-143v47,28,91,58,134,90r99,-43r33,75r-61,27v105,97,157,205,157,324v1,165,-105,270,-272,270v-151,0,-271,-84,-271,-227xm202,-215v0,45,38,68,86,68v50,0,87,-23,87,-68v0,-45,-38,-68,-87,-68v-49,0,-86,23,-86,68","w":577},"\u00f1":{"d":"406,-495v101,0,160,58,161,152r0,343r-180,0r0,-267v0,-46,-23,-69,-70,-69v-29,0,-54,13,-77,38r0,298r-180,0r0,-483r180,0r0,55v39,-45,95,-67,166,-67xm357,-554v-23,0,-46,-8,-68,-22v-22,-14,-36,-21,-42,-21v-16,0,-24,12,-24,37r-89,0v0,-89,39,-134,118,-134v23,0,46,8,68,22v22,14,36,21,42,21v16,0,24,-12,24,-37r89,0v0,89,-39,134,-118,134","w":607},"\u00f2":{"d":"560,-242v0,145,-117,254,-272,254v-155,0,-271,-108,-271,-254v0,-146,116,-253,271,-253v155,0,272,107,272,253xm202,-242v0,54,32,95,86,95v55,0,88,-40,87,-95v0,-54,-33,-94,-87,-94v-53,0,-86,41,-86,94xm386,-556r-120,0r-155,-144r155,0","w":577},"\u00f3":{"d":"560,-242v0,145,-117,254,-272,254v-155,0,-271,-108,-271,-254v0,-146,116,-253,271,-253v155,0,272,107,272,253xm202,-242v0,54,32,95,86,95v55,0,88,-40,87,-95v0,-54,-33,-94,-87,-94v-53,0,-86,41,-86,94xm466,-700r-155,144r-120,0r120,-144r155,0","w":577},"\u00f4":{"d":"560,-242v0,145,-117,254,-272,254v-155,0,-271,-108,-271,-254v0,-146,116,-253,271,-253v155,0,272,107,272,253xm202,-242v0,54,32,95,86,95v55,0,88,-40,87,-95v0,-54,-33,-94,-87,-94v-53,0,-86,41,-86,94xm457,-556r-105,0r-64,-73r-61,73r-105,0r88,-144r156,0","w":577},"\u00f5":{"d":"560,-242v0,145,-117,254,-272,254v-155,0,-271,-108,-271,-254v0,-146,116,-253,271,-253v155,0,272,107,272,253xm202,-242v0,54,32,95,86,95v55,0,88,-40,87,-95v0,-54,-33,-94,-87,-94v-53,0,-86,41,-86,94xm341,-554v-23,0,-46,-8,-68,-22v-22,-14,-36,-21,-42,-21v-16,0,-24,12,-24,37r-89,0v0,-89,39,-134,118,-134v23,0,46,8,68,22v22,14,36,21,42,21v16,0,24,-12,24,-37r89,0v0,89,-39,134,-118,134","w":577},"\u00f6":{"d":"560,-242v0,145,-117,254,-272,254v-155,0,-271,-108,-271,-254v0,-146,116,-253,271,-253v155,0,272,107,272,253xm202,-242v0,54,32,95,86,95v55,0,88,-40,87,-95v0,-54,-33,-94,-87,-94v-53,0,-86,41,-86,94xm396,-707v49,0,90,41,90,89v0,48,-41,89,-90,89v-48,0,-89,-41,-89,-89v0,-48,41,-89,89,-89xm180,-707v50,0,89,39,89,89v0,50,-39,89,-89,89v-50,0,-89,-39,-89,-89v0,-50,39,-89,89,-89","w":577},"\u00f7":{"d":"255,-580v41,0,76,34,76,75v0,41,-35,77,-76,77v-41,0,-76,-36,-76,-77v0,-41,35,-75,76,-75xm482,-285r-453,0r0,-105r453,0r0,105xm255,-246v41,0,76,35,76,76v0,41,-35,76,-76,76v-41,0,-76,-35,-76,-76v0,-41,35,-76,76,-76","w":511},"\u00f8":{"d":"560,-242v1,145,-117,254,-272,254v-56,0,-105,-12,-147,-36r-22,24r-102,0r64,-71v-43,-47,-64,-104,-64,-171v-1,-146,116,-253,271,-253v55,0,103,12,146,35r21,-23r105,0r-65,71v43,47,65,104,65,170xm257,-152v78,25,137,-42,113,-123xm317,-332v-77,-22,-132,43,-111,123","w":577},"\u00f9":{"d":"210,12v-100,0,-159,-57,-160,-150r0,-345r180,0r0,268v0,45,23,68,70,68v28,0,53,-13,76,-38r0,-298r180,0r0,483r-180,0r0,-54v-40,44,-95,66,-166,66xm402,-556r-120,0r-155,-144r155,0","w":606},"\u00fa":{"d":"210,12v-100,0,-159,-57,-160,-150r0,-345r180,0r0,268v0,45,23,68,70,68v28,0,53,-13,76,-38r0,-298r180,0r0,483r-180,0r0,-54v-40,44,-95,66,-166,66xm482,-700r-155,144r-120,0r120,-144r155,0","w":606},"\u00fb":{"d":"210,12v-100,0,-159,-57,-160,-150r0,-345r180,0r0,268v0,45,23,68,70,68v28,0,53,-13,76,-38r0,-298r180,0r0,483r-180,0r0,-54v-40,44,-95,66,-166,66xm473,-556r-105,0r-64,-73r-61,73r-105,0r88,-144r156,0","w":606},"\u00fc":{"d":"210,12v-100,0,-159,-57,-160,-150r0,-345r180,0r0,268v0,45,23,68,70,68v28,0,53,-13,76,-38r0,-298r180,0r0,483r-180,0r0,-54v-40,44,-95,66,-166,66xm413,-707v49,0,90,41,90,89v0,48,-41,89,-90,89v-48,0,-89,-41,-89,-89v0,-48,41,-89,89,-89xm197,-707v48,0,89,40,89,89v0,49,-41,89,-89,89v-48,0,-89,-40,-89,-89v0,-49,41,-89,89,-89","w":606},"\u00fd":{"d":"45,188r25,-160v24,16,97,9,101,-10r4,-10r-190,-491r190,0r92,276r93,-276r190,0r-210,543v-38,100,-100,136,-225,136v-29,0,-52,-3,-70,-8xm445,-700r-155,144r-120,0r120,-144r155,0","w":535},"\u00fe":{"d":"578,-242v0,147,-78,252,-212,254v-54,0,-99,-21,-136,-63r0,235r-180,0r0,-851r180,0r0,235v35,-42,81,-63,136,-63v133,1,212,107,212,253xm230,-180v11,16,48,33,74,33v52,0,90,-40,90,-95v0,-54,-38,-94,-90,-94v-28,0,-61,15,-74,33r0,123","w":595},"\u00ff":{"d":"45,188r25,-160v24,16,97,9,101,-10r4,-10r-190,-491r190,0r92,276r93,-276r190,0r-210,543v-38,100,-100,136,-225,136v-29,0,-52,-3,-70,-8xm375,-707v49,0,90,41,90,89v0,48,-41,89,-90,89v-48,0,-89,-41,-89,-89v0,-48,41,-89,89,-89xm159,-707v48,0,89,40,89,89v0,49,-41,89,-89,89v-48,0,-89,-40,-89,-89v0,-49,41,-89,89,-89","w":535},"\u0152":{"d":"18,-333v0,-199,146,-344,342,-344v71,0,126,15,166,46r0,-36r506,0r0,176r-304,0r0,66r297,0r0,176r-297,0r0,73r304,0r0,176r-506,0r0,-36v-41,32,-96,48,-166,48v-196,0,-342,-147,-342,-345xm391,-166v61,0,112,-30,135,-71r0,-193v-27,-46,-72,-69,-135,-69v-99,0,-168,70,-168,166v0,96,69,167,168,167","w":1062},"\u0153":{"d":"638,-495v149,-1,255,115,251,272r0,37r-328,0v20,41,56,62,109,62v41,0,75,-11,102,-34r78,110v-35,33,-119,59,-180,60v-105,0,-150,-27,-205,-76v-51,51,-110,76,-177,76v-155,0,-271,-108,-271,-254v0,-146,116,-253,271,-253v63,0,123,26,178,77v49,-51,106,-77,172,-77xm559,-300r159,0v-9,-39,-36,-59,-80,-59v-43,0,-69,20,-79,59xm288,-146v53,0,87,-39,87,-96v0,-58,-34,-94,-87,-94v-53,0,-86,38,-86,94v0,57,33,96,86,96","w":901},"\u0178":{"d":"441,-884v49,0,90,41,90,89v0,48,-41,89,-90,89v-48,0,-89,-41,-89,-89v0,-48,41,-89,89,-89xm225,-884v48,0,89,41,89,89v0,48,-41,89,-89,89v-48,0,-89,-41,-89,-89v0,-48,41,-89,89,-89xm434,0r-202,0r0,-265r-250,-402r227,0r124,225r122,-225r227,0r-248,402r0,265","w":664},"\u02c6":{"d":"335,-556r-105,0r-64,-73r-61,73r-105,0r88,-144r156,0","w":335},"\u02dc":{"d":"223,-554v-23,0,-46,-8,-68,-22v-22,-14,-36,-21,-42,-21v-16,0,-24,12,-24,37r-89,0v0,-89,39,-134,118,-134v23,0,46,8,68,22v22,14,36,21,42,21v16,0,24,-12,24,-37r89,0v0,89,-39,134,-118,134","w":341},"\u2013":{"d":"563,-167r-533,0r0,-150r533,0r0,150","w":593},"\u2014":{"d":"803,-167r-773,0r0,-150r773,0r0,150","w":833},"\u2018":{"d":"146,-329v-67,0,-116,-56,-116,-129v0,-88,42,-161,125,-220r73,59v-31,13,-81,62,-91,96v61,-18,113,29,113,89v0,55,-49,105,-104,105","w":281},"\u2019":{"d":"138,-677v67,0,116,56,116,129v0,88,-42,161,-125,220r-73,-59v31,-13,81,-62,91,-96v-61,18,-113,-29,-113,-89v0,-55,49,-105,104,-105","w":281},"\u201a":{"d":"138,-202v67,0,116,56,116,129v0,88,-42,161,-125,220r-73,-59v31,-13,81,-62,91,-96v-61,18,-113,-29,-113,-89v0,-55,49,-105,104,-105","w":281},"\u201c":{"d":"142,-329v-67,0,-116,-56,-116,-129v0,-88,42,-161,125,-220r73,59v-31,13,-81,62,-91,96v61,-18,113,29,113,89v0,55,-49,105,-104,105xm389,-329v-67,0,-116,-56,-116,-129v0,-88,42,-161,125,-220r73,59v-31,13,-81,62,-91,96v61,-18,113,29,113,89v0,55,-49,105,-104,105","w":528},"\u201d":{"d":"385,-677v67,0,116,56,116,129v0,88,-42,161,-125,220r-73,-59v31,-13,81,-62,91,-96v-61,18,-113,-29,-113,-89v0,-55,49,-105,104,-105xm138,-677v67,0,116,56,116,129v0,88,-42,161,-125,220r-73,-59v31,-13,81,-62,91,-96v-61,18,-113,-29,-113,-89v0,-55,49,-105,104,-105","w":528},"\u201e":{"d":"138,-202v67,0,116,56,116,129v0,88,-42,161,-125,220r-73,-59v31,-13,81,-62,91,-96v-61,18,-113,-29,-113,-89v0,-55,49,-105,104,-105xm385,-202v67,0,116,56,116,129v0,88,-42,161,-125,220r-73,-59v31,-13,81,-62,91,-96v-61,18,-113,-29,-113,-89v0,-55,49,-105,104,-105","w":528},"\u2022":{"d":"180,-372v70,0,130,60,130,130v0,69,-60,129,-130,129v-70,0,-130,-60,-130,-129v0,-70,60,-130,130,-130","w":358},"\u2026":{"d":"141,-202v56,0,106,50,106,107v0,56,-50,106,-106,106v-56,0,-106,-50,-106,-106v0,-57,50,-107,106,-107xm423,-202v56,0,106,50,106,107v0,56,-50,106,-106,106v-56,0,-106,-50,-106,-106v0,-57,50,-107,106,-107xm705,-202v56,0,106,50,106,107v0,56,-50,106,-106,106v-56,0,-106,-50,-106,-106v0,-57,50,-107,106,-107","w":846},"\u2039":{"d":"350,-63r-160,0r-160,-180r160,-177r160,0r-160,177","w":380},"\u203a":{"d":"350,-243r-160,180r-160,0r160,-180r-160,-177r160,0","w":380},"\u20ac":{"d":"410,-166v61,1,115,-49,129,-97r174,80v-24,54,-55,93,-100,130v-46,39,-119,65,-203,65v-171,1,-308,-96,-349,-230r-49,0r0,-95r31,0r1,-43r-32,0r0,-95r50,0v43,-132,178,-227,348,-227v160,0,254,87,303,194r-174,81v-15,-49,-68,-98,-129,-97v-48,0,-87,16,-118,49r178,0r0,95r-221,0v-1,8,-1,35,0,43r221,0r0,95r-181,0v31,35,72,52,121,52","w":722},"\u2122":{"d":"419,-447r-28,0r0,-182r-75,182r-8,0r-75,-182r0,182r-28,0r0,-220r43,0r64,160r64,-160r43,0r0,220xm169,-641r-62,0r0,194r-28,0r0,-194r-62,0r0,-26r152,0r0,26","w":454}}});
