/*!
 * The following copyright notice may not be removed under any circumstances.
 * 
 * Copyright:
 * Copyright (c) Mark Simonson, 2005. All rights reserved.
 * 
 * Description:
 * This is a protected webfont and is intended for CSS @font-face use ONLY.
 * Reverse engineering this font is strictly prohibited.
 */
Cufon.registerFont({"w":586,"face":{"font-family":"","font-weight":700,"font-stretch":"normal","units-per-em":"1000","panose-1":"2 0 5 6 3 0 0 2 0 4","ascent":"790","descent":"-210","x-height":"12","bbox":"-187 -903 1134 199","underline-thickness":"20","underline-position":"-113","unicode-range":"U+0020-U+2122"},"glyphs":{" ":{"w":257},"!":{"d":"178,-218r-113,0r79,-449r153,0xm171,-76v0,47,-43,88,-89,88v-40,0,-74,-35,-74,-75v0,-47,43,-88,89,-88v40,0,74,35,74,75","w":255},"\"":{"d":"201,-677v44,0,73,46,54,92r-86,210r-56,0v5,-135,8,-209,9,-222v0,-43,35,-80,79,-80xm384,-677v43,0,71,49,53,92r-86,210r-56,0v5,-135,8,-209,9,-222v0,-43,36,-80,80,-80","w":406},"#":{"d":"285,0r-95,0r95,-170r-95,0r-94,170r-94,0r95,-170r-97,0r44,-81r98,0r91,-165r-97,0r42,-80r100,0r94,-171r94,0r-94,171r94,0r94,-171r95,0r-95,171r97,0r-42,80r-100,0r-92,165r101,0r-43,81r-103,0xm329,-251r92,-165r-94,0r-91,165r93,0","w":618},"$":{"d":"574,-217v-1,137,-118,237,-271,229r-19,88r-94,0r22,-98v-92,-19,-160,-57,-203,-115r88,-105v34,45,82,76,143,93r34,-156v-51,-19,-80,-33,-119,-62v-34,-25,-57,-62,-57,-117v0,-127,121,-224,265,-217r20,-91r94,0r-23,102v71,17,128,49,171,97r-89,102v-27,-32,-64,-55,-111,-70r-31,140v70,26,132,52,165,113v11,19,15,42,15,67xm331,-114v51,0,90,-31,92,-75v0,-21,-21,-41,-62,-59xm335,-552v-43,0,-87,26,-87,66v0,19,20,38,60,56","w":614},"%":{"d":"151,0r-75,0r573,-667r76,0xm715,-182v0,106,-83,194,-185,194v-85,0,-160,-54,-160,-139v0,-107,83,-194,185,-194v84,0,160,56,160,139xm461,-135v0,40,31,70,72,69v54,0,91,-50,91,-108v0,-39,-32,-68,-72,-68v-53,0,-91,50,-91,107xm427,-539v0,107,-83,194,-185,194v-85,0,-160,-54,-160,-138v0,-107,83,-194,185,-194v84,0,160,55,160,138xm172,-491v0,39,33,68,73,68v53,0,91,-50,91,-107v0,-40,-32,-70,-72,-69v-53,0,-92,50,-92,108","w":758},"&":{"d":"556,-542v-5,128,-107,156,-207,193v9,19,22,41,37,68v24,44,39,71,46,81v37,-40,67,-81,90,-122r91,57v-43,61,-85,111,-127,151r81,114r-152,0v-10,-12,-19,-24,-28,-37v-55,33,-111,49,-166,49v-123,0,-217,-55,-216,-176v0,-59,17,-105,51,-138v34,-33,81,-61,140,-83v-11,-37,-17,-72,-17,-105v-2,-105,95,-187,203,-187v92,0,177,46,174,135xm145,-179v0,56,42,91,97,91v28,0,58,-10,90,-29v-41,-56,-83,-141,-104,-184v-55,31,-83,71,-83,122xm387,-585v-45,1,-83,42,-80,94v0,20,4,42,11,65v41,-14,71,-29,92,-44v21,-15,32,-35,32,-60v1,-35,-22,-55,-55,-55","w":647},"'":{"d":"201,-677v44,0,73,46,54,92r-86,210r-56,0v5,-135,8,-209,9,-222v0,-43,35,-80,79,-80","w":225},"(":{"d":"195,146r-92,53v-53,-81,-80,-183,-80,-306v0,-243,129,-450,274,-578r66,68v-137,165,-206,347,-206,545v0,69,13,142,38,218","w":297},")":{"d":"101,-632r92,-53v53,81,80,183,80,306v0,243,-129,450,-274,578r-66,-68v137,-165,206,-347,206,-545v0,-69,-13,-142,-38,-218","w":298},"*":{"d":"234,-366r-65,0r31,-114r-106,48r-18,-57r108,-38r-86,-60r43,-50r79,68r19,-108r64,0r-31,113r106,-48r19,58r-107,38r85,60r-44,50r-79,-68","w":351},"+":{"d":"487,-298r-180,0r-45,203r-86,0r45,-203r-180,0r17,-79r180,0r43,-196r87,0r-43,196r180,0","w":504},",":{"d":"97,-151v45,1,79,34,77,82v-2,88,-78,170,-147,200r-45,-47v51,-24,83,-52,98,-84v-45,3,-72,-22,-72,-65v0,-45,45,-87,89,-86","w":255},"-":{"d":"258,-188r-240,0r23,-108r240,0","w":300},".":{"d":"171,-76v0,47,-43,88,-89,88v-40,0,-74,-35,-74,-75v0,-47,43,-88,89,-88v40,0,74,35,74,75","w":257},"\/":{"d":"35,20r-95,0r393,-707r96,0","w":329},"0":{"d":"375,-677v152,0,242,108,240,268v-2,157,-65,289,-159,361v-52,40,-109,60,-172,60v-152,0,-243,-109,-241,-269v2,-156,65,-289,159,-360v52,-39,110,-60,173,-60xm187,-250v0,80,32,137,110,136v81,-1,134,-93,155,-166v32,-107,39,-271,-91,-271v-51,0,-93,33,-125,97v-32,64,-49,132,-49,204","w":620},"1":{"d":"291,0r-142,0r106,-484r-135,113r-63,-85r257,-211r124,0","w":411},"2":{"d":"341,-677v132,-2,260,67,258,194v0,62,-29,122,-89,180v-60,58,-147,117,-260,178r272,0r-27,125r-502,0r29,-132r154,-89v89,-60,200,-112,255,-196v13,-19,19,-38,19,-57v-1,-54,-59,-79,-120,-78v-63,0,-119,20,-166,60r-60,-102v52,-48,142,-83,237,-83","w":600},"3":{"d":"537,-192v2,123,-127,204,-258,204v-126,0,-247,-55,-292,-139r95,-86v33,56,113,98,196,99v68,1,118,-31,118,-92v0,-47,-41,-70,-122,-70v-40,0,-67,1,-80,2r28,-128v7,1,39,1,94,1v87,0,130,-26,130,-77v0,-54,-65,-74,-132,-73v-62,0,-116,18,-162,54r-51,-97v61,-55,136,-83,227,-83v81,0,144,15,192,46v48,31,72,73,72,128v0,90,-97,156,-180,165v83,21,125,69,125,146","w":587},"4":{"d":"432,0r-142,0r30,-138r-319,0r28,-124r346,-405r204,0r-89,404r85,0r-27,125r-86,0xm347,-263r62,-278r-242,278r180,0","w":597},"5":{"d":"573,-239v0,144,-125,251,-277,251v-127,0,-220,-43,-278,-129r101,-89v38,61,98,92,179,92v70,0,126,-44,126,-109v0,-109,-180,-109,-248,-49r-92,-37r79,-358r458,0r-27,125r-316,0r-35,157v36,-29,80,-43,133,-43v112,-1,197,74,197,189","w":608},"6":{"d":"578,-247v0,142,-133,259,-277,259v-162,0,-263,-96,-262,-258v2,-163,65,-291,165,-368v119,-91,324,-82,417,27r-88,101v-51,-76,-192,-89,-261,-18v-38,39,-62,86,-79,143v35,-37,103,-70,173,-70v115,0,212,70,212,184xm178,-232v-1,70,53,118,123,118v68,0,129,-50,128,-115v0,-58,-64,-89,-128,-88v-45,0,-85,17,-122,50v-1,5,-1,17,-1,35","w":608},"7":{"d":"225,0r-163,0r357,-542r-329,0r27,-125r501,0r-22,99","w":545},"8":{"d":"559,-180v2,124,-141,192,-274,192v-76,0,-140,-16,-192,-46v-52,-30,-78,-74,-78,-133v0,-105,86,-168,185,-191v-51,-22,-100,-68,-101,-134v-1,-88,70,-146,139,-167v100,-31,226,-20,306,27v51,30,77,71,77,126v-2,98,-82,158,-173,175v56,29,110,76,111,151xm241,-475v0,39,58,68,96,76v64,-4,131,-24,131,-80v0,-95,-227,-97,-227,4xm166,-193v0,58,61,79,126,79v55,0,125,-30,124,-81v-1,-47,-62,-75,-106,-86v-68,3,-144,28,-144,88","w":606},"9":{"d":"69,-419v0,-140,133,-259,276,-259v162,0,265,96,262,258v-3,186,-78,325,-205,394v-46,25,-97,37,-153,37v-94,0,-168,-30,-223,-90r87,-101v53,76,192,90,261,18v37,-38,64,-85,79,-143v-35,37,-103,70,-173,70v-116,0,-211,-70,-211,-184xm468,-434v1,-70,-53,-118,-123,-118v-68,0,-129,50,-128,115v0,58,65,89,129,88v45,0,86,-17,121,-50v1,-5,1,-17,1,-35","w":608},":":{"d":"171,-76v0,47,-43,88,-89,88v-40,0,-74,-35,-74,-75v0,-47,43,-88,89,-88v40,0,74,35,74,75xm245,-416v0,47,-43,88,-89,88v-40,0,-73,-35,-73,-75v0,-47,43,-88,89,-88v40,0,73,35,73,75","w":246},";":{"d":"97,-151v45,1,79,34,77,82v-2,88,-78,170,-147,200r-45,-47v51,-24,83,-52,98,-84v-45,3,-72,-22,-72,-65v0,-45,45,-87,89,-86xm245,-416v0,47,-43,88,-89,88v-40,0,-73,-35,-73,-75v0,-47,43,-88,89,-88v40,0,73,35,73,75","w":255},"<":{"d":"440,-90r-402,-199r21,-92r490,-199r-22,98r-388,152r321,150","w":504},"=":{"d":"507,-389r-446,0r17,-79r446,0xm466,-201r-447,0r18,-78r446,0","w":504},">":{"d":"485,-289r-491,199r22,-98r389,-150r-322,-152r20,-90r402,199","w":504},"?":{"d":"286,-677v107,0,211,50,211,148v0,102,-76,143,-144,178v-36,19,-77,41,-79,87v0,11,4,20,11,28r-116,32v-26,-48,-21,-116,13,-156v38,-45,89,-57,134,-90v54,-39,34,-102,-51,-102v-46,0,-87,16,-122,48r-60,-98v59,-50,127,-75,203,-75xm268,-76v0,47,-41,88,-88,88v-40,0,-74,-35,-74,-75v0,-47,43,-88,89,-88v40,0,73,35,73,75","w":456},"@":{"d":"95,-246v0,155,124,278,282,278v63,0,124,-18,182,-55r21,30v-65,42,-135,63,-208,63v-176,0,-320,-140,-317,-314v2,-155,95,-279,203,-340v62,-35,126,-54,194,-54v180,0,317,133,315,306v0,77,-21,138,-62,182v-41,44,-87,65,-136,65v-56,1,-91,-33,-98,-80v-29,42,-81,79,-144,80v-95,2,-155,-73,-155,-168v0,-123,108,-245,226,-245v59,0,100,22,125,67r11,-53r113,0r-51,244v-9,35,1,69,34,69v23,0,44,-13,64,-41v20,-28,30,-68,30,-120v2,-159,-113,-267,-276,-267v-182,0,-353,171,-353,353xm289,-263v0,51,31,89,82,88v43,0,80,-22,111,-66r25,-116v-12,-26,-41,-51,-81,-51v-75,0,-137,71,-137,145","w":783},"A":{"d":"634,0r-154,0r-17,-113r-286,0r-66,113r-169,0r404,-667r178,0xm452,-238r-41,-287r-167,287r208,0","w":684},"B":{"d":"608,-199v0,119,-94,199,-232,199r-364,0r147,-667r324,0v103,-3,179,66,181,160v1,86,-74,169,-152,174v56,13,96,69,96,134xm512,-482v1,-34,-32,-60,-67,-60r-171,0r-31,140r179,0v58,2,89,-29,90,-80xm466,-212v0,-40,-32,-66,-73,-65r-178,0r-33,152r184,0v57,2,100,-35,100,-87","w":663},"C":{"d":"647,-117v-58,79,-156,126,-275,129v-181,3,-328,-120,-328,-299v0,-220,175,-391,388,-391v153,0,254,80,296,189r-136,46v-22,-65,-84,-108,-167,-109v-130,-1,-232,120,-232,256v0,106,78,185,187,182v65,-1,126,-36,157,-77","w":687},"D":{"d":"417,-667v154,-2,293,127,289,286v-4,138,-61,233,-144,297v-66,51,-170,85,-288,84r-262,0r147,-667r258,0xm559,-371v0,-95,-73,-171,-168,-171r-117,0r-92,417r118,0v148,4,259,-106,259,-246","w":718},"E":{"d":"484,0r-472,0r147,-667r472,0r-28,125r-329,0r-31,140r322,0r-27,125r-323,0r-33,152r329,0","w":583},"F":{"d":"154,0r-142,0r147,-667r472,0r-28,125r-329,0r-31,140r322,0r-27,125r-323,0","w":571},"G":{"d":"193,-296v0,105,78,182,187,182v50,0,94,-17,133,-51r18,-80r-177,0r28,-125r319,0r-58,259v-69,82,-160,123,-271,123v-180,0,-328,-119,-328,-299v0,-222,177,-391,401,-391v134,0,233,74,275,165r-130,56v-20,-54,-91,-95,-165,-95v-127,0,-232,122,-232,256","w":720},"H":{"d":"612,0r-143,0r62,-281r-315,0r-62,281r-142,0r147,-667r142,0r-57,262r314,0r58,-262r143,0","w":731},"I":{"d":"154,0r-142,0r147,-667r142,0","w":274},"J":{"d":"328,-44v-84,85,-293,67,-357,-19r77,-107v33,60,132,76,184,28v20,-19,34,-46,41,-79r98,-446r143,0r-99,448v-17,79,-48,136,-87,175","w":486},"K":{"d":"583,0r-167,0r-146,-273r-70,68r-46,205r-142,0r147,-667r142,0r-63,286r291,-286r183,0r-334,313","w":636},"L":{"d":"431,0r-425,0r147,-667r143,0r-120,542r282,0","w":515},"M":{"d":"735,0r-143,0r106,-481r-294,481r-62,0r-82,-481r-106,481r-142,0r147,-667r194,0r70,417r254,-417r205,0","w":855},"N":{"d":"609,0r-137,0r-220,-442r-98,442r-142,0r147,-667r146,0r214,425r95,-425r142,0","w":729},"O":{"d":"760,-380v0,213,-175,392,-388,392v-182,0,-328,-118,-328,-299v0,-213,175,-391,388,-391v181,0,328,119,328,298xm193,-296v0,109,79,182,187,182v130,0,231,-122,231,-256v0,-109,-80,-182,-188,-182v-130,0,-230,122,-230,256","w":765},"P":{"d":"464,-667v123,-1,218,116,178,249v-33,110,-122,180,-268,180r-167,0r-53,238r-142,0r147,-667r305,0xm502,-467v0,-45,-36,-75,-83,-75r-145,0r-40,179r149,0v66,2,119,-42,119,-104","w":625},"Q":{"d":"760,-380v-2,139,-66,248,-150,312r34,54r-114,55r-32,-49v-228,73,-454,-56,-454,-279v0,-213,175,-391,388,-391v181,0,330,119,328,298xm193,-296v0,124,103,204,235,177r-57,-92r114,-55r53,84v49,-50,73,-113,73,-188v0,-109,-80,-182,-188,-182v-130,0,-230,122,-230,256","w":765},"R":{"d":"650,-479v0,120,-86,215,-190,232r93,247r-158,0r-79,-237r-110,0r-52,237r-142,0r147,-667r285,0v109,-2,206,78,206,188xm502,-465v1,-43,-42,-77,-85,-77r-143,0r-40,180r149,0v68,1,118,-39,119,-103","w":643},"S":{"d":"564,-217v0,134,-117,229,-263,229v-128,0,-247,-52,-302,-125r88,-105v42,58,129,104,225,104v57,0,101,-29,101,-75v0,-33,-36,-48,-65,-61v-19,-8,-40,-15,-63,-24v-91,-34,-197,-66,-197,-186v0,-125,120,-220,261,-217v113,3,212,45,266,108r-89,102v-41,-49,-118,-84,-199,-85v-44,-2,-89,27,-89,66v0,15,12,29,34,42v105,59,292,69,292,227","w":600},"T":{"d":"309,0r-143,0r120,-542r-195,0r27,-125r532,0r-27,125r-195,0","w":582},"U":{"d":"216,-270v-20,93,46,157,140,157v92,0,150,-52,173,-157r87,-397r145,0r-89,400v-38,166,-119,278,-316,279v-170,1,-288,-78,-290,-233v0,-13,2,-28,5,-46r88,-400r144,0","w":734},"V":{"d":"377,0r-178,0r-110,-667r154,0r72,512r297,-512r169,0","w":684},"W":{"d":"673,0r-151,0r-16,-458r-217,458r-151,0r-44,-667r156,0r10,482r233,-482r111,0r20,482r223,-482r163,0","w":918},"X":{"d":"617,0r-161,0r-121,-237r-214,237r-178,0r322,-351r-160,-316r161,0r109,221r195,-221r179,0r-303,333","w":668},"Y":{"d":"340,0r-142,0r60,-273r-169,-394r154,0r106,267r224,-267r169,0r-341,394","w":645},"Z":{"d":"496,0r-508,0r25,-115r401,-427r-306,0r27,-125r501,0r-24,114r-403,428r315,0","w":592},"[":{"d":"166,190r-216,0r193,-868r216,0r-19,85r-124,0r-155,698r124,0","w":280},"\\":{"d":"178,20r-80,-707r92,0r80,707r-92,0","w":329},"]":{"d":"136,190r-214,0r18,-85r124,0r155,-698r-124,0r19,-85r215,0","w":280},"^":{"d":"441,-333r-89,0r-53,-247r-162,247r-99,0r230,-334r93,0","w":441},"_":{"d":"485,125r-569,0r19,-85r569,0","w":564},"`":{"d":"320,-556r-89,0r-130,-144r117,0","w":251},"\u02cb":{"d":"320,-556r-89,0r-130,-144r117,0","w":251},"a":{"d":"210,12v-114,0,-186,-81,-184,-200v2,-113,47,-205,117,-260v86,-68,237,-63,292,29r13,-64r128,0r-107,483r-128,0r14,-60v-41,48,-89,72,-145,72xm159,-214v0,65,44,114,107,113v43,0,80,-19,111,-58r37,-167v-24,-37,-62,-56,-113,-56v-82,0,-142,83,-142,168"},"b":{"d":"375,-495v114,0,185,81,183,200v-2,113,-47,205,-116,260v-85,68,-238,63,-292,-29r-14,64r-127,0r147,-667r127,0r-54,244v41,-48,89,-72,146,-72xm425,-269v0,-65,-44,-114,-107,-113v-43,0,-79,19,-110,58r-38,167v24,37,62,56,113,56v84,0,142,-82,142,-168"},"c":{"d":"157,-215v0,70,53,115,121,114v40,0,74,-16,101,-48r69,84v-47,51,-108,77,-183,77v-138,0,-237,-86,-237,-220v0,-155,127,-287,281,-287v93,0,158,32,196,95r-95,73v-21,-37,-55,-55,-101,-55v-89,0,-152,79,-152,167","w":499},"d":{"d":"210,12v-114,0,-186,-81,-184,-200v2,-113,47,-205,117,-260v86,-68,237,-63,292,29r54,-248r128,0r-148,667r-128,0r14,-60v-41,48,-89,72,-145,72xm159,-214v0,65,44,114,107,113v43,0,80,-19,111,-58r37,-167v-24,-37,-62,-56,-113,-56v-82,0,-142,83,-142,168"},"e":{"d":"155,-188v3,55,64,96,133,96v51,0,91,-12,122,-35r39,89v-49,33,-106,50,-171,50v-145,2,-250,-78,-250,-217v0,-155,123,-290,279,-290v126,0,220,86,217,215v0,28,-3,55,-10,80r-359,0r0,12xm410,-288v6,-64,-44,-103,-111,-103v-65,0,-121,49,-130,103r241,0","w":553},"f":{"d":"165,0r-127,0r82,-372r-80,0r25,-111r79,0v22,-120,87,-194,185,-194v58,0,103,16,134,48r-64,75v-22,-23,-75,-26,-98,-2v-13,14,-24,45,-30,73r99,0r-25,111r-98,0","w":327},"g":{"d":"277,-495v66,2,126,34,156,76r15,-64r127,0r-100,451v-33,133,-104,228,-263,228v-103,0,-181,-28,-234,-84r75,-84v28,40,90,64,157,64v75,0,120,-41,137,-124r10,-46v-39,49,-88,74,-148,74v-112,-1,-182,-74,-182,-196v0,-148,101,-299,250,-295xm159,-225v0,65,45,109,110,108v42,0,78,-19,109,-56r34,-150v-25,-39,-64,-59,-118,-59v-80,0,-135,75,-135,157","w":585},"h":{"d":"390,-495v100,0,169,60,146,163r-73,332r-127,0r64,-293v15,-57,-11,-90,-79,-89v-37,0,-75,19,-113,57r-71,325r-128,0r147,-667r128,0r-55,246v52,-49,106,-74,161,-74","w":580},"i":{"d":"284,-621v0,48,-42,86,-86,86v-37,0,-68,-29,-68,-65v0,-48,41,-86,85,-86v38,0,69,29,69,65xm136,0r-127,0r107,-483r127,0","w":253},"j":{"d":"-53,196v-61,0,-106,-14,-134,-41r53,-90v15,18,35,27,62,27v39,0,65,-26,77,-79r111,-496r127,0r-110,496v-24,105,-68,183,-186,183xm284,-621v0,48,-42,86,-86,86v-37,0,-68,-29,-68,-65v0,-48,41,-86,85,-86v38,0,69,29,69,65","w":253},"k":{"d":"481,0r-154,0r-89,-189r-75,65r-27,124r-127,0r147,-667r127,0r-87,391r225,-207r161,0r-240,219","w":536},"l":{"d":"136,0r-127,0r147,-667r127,0","w":253},"m":{"d":"676,-495v89,-1,155,65,133,163r-73,332r-128,0r66,-296v14,-52,-19,-86,-66,-86v-35,0,-68,19,-100,56r-72,326r-128,0r66,-296v15,-54,-16,-86,-67,-86v-33,0,-66,19,-99,56r-72,326r-127,0r107,-483r127,0r-14,62v47,-49,96,-74,147,-74v68,0,131,46,136,95v52,-63,107,-95,164,-95","w":853},"n":{"d":"390,-495v100,0,169,60,146,163r-73,332r-128,0r65,-293v15,-58,-11,-89,-79,-89v-37,0,-74,19,-113,56r-72,326r-127,0r107,-483r127,0r-14,62v52,-49,106,-74,161,-74","w":579},"o":{"d":"546,-275v0,152,-125,287,-280,287v-143,0,-237,-85,-239,-220v-2,-151,125,-287,279,-287v143,0,240,85,240,220xm158,-214v0,69,43,113,113,113v83,0,143,-83,143,-168v0,-70,-43,-113,-112,-113v-83,0,-144,84,-144,168","w":575},"p":{"d":"375,-495v114,0,185,81,183,200v-2,113,-47,205,-116,260v-85,68,-238,63,-292,-29r-55,248r-127,0r148,-667r127,0r-14,60v41,-48,89,-72,146,-72xm425,-269v0,-65,-44,-114,-107,-113v-43,0,-79,19,-110,58r-38,167v24,37,62,56,113,56v84,0,142,-82,142,-168","w":583},"q":{"d":"210,12v-114,0,-186,-81,-184,-200v2,-113,47,-205,117,-260v86,-68,237,-63,292,29r13,-64r128,0r-148,667r-128,0r55,-244v-41,48,-89,72,-145,72xm159,-214v0,65,44,114,107,113v43,0,80,-19,111,-58r37,-167v-24,-37,-62,-56,-113,-56v-82,0,-142,83,-142,168","w":583},"r":{"d":"136,0r-127,0r107,-483r127,0r-14,63v45,-50,102,-75,171,-75r-28,126v-72,-17,-121,3,-166,52","w":360},"s":{"d":"428,-157v0,104,-94,171,-209,169v-95,-2,-179,-35,-227,-87r71,-89v29,36,104,76,169,76v53,0,100,-53,44,-80v-81,-40,-220,-47,-220,-164v0,-97,89,-163,199,-163v85,0,162,33,205,78r-66,85v-23,-30,-87,-63,-142,-63v-53,0,-99,48,-44,73v83,38,220,47,220,165","w":477},"t":{"d":"203,12v-93,3,-161,-44,-140,-138r54,-246r-80,0r25,-111r80,0r29,-132r127,0r-29,132r98,0r-25,111r-98,0r-47,212v-5,35,8,61,46,59v15,0,27,-3,35,-10r4,102v-19,14,-46,21,-79,21","w":338},"u":{"d":"188,12v-100,0,-168,-62,-146,-163r73,-332r127,0r-64,292v-17,59,21,91,78,90v38,0,76,-19,114,-57r72,-325r127,0r-107,483r-127,0r14,-62v-52,49,-106,74,-161,74","w":579},"v":{"d":"271,0r-137,0r-87,-483r132,0r51,336r202,-336r140,0","w":513},"w":{"d":"569,0r-136,0r-30,-329r-174,329r-136,0r-40,-483r128,0r18,325r178,-325r113,0r33,325r163,-325r137,0","w":770},"x":{"d":"450,0r-137,0r-75,-163r-147,163r-145,0r226,-248r-109,-235r138,0r66,148r133,-148r146,0r-214,235","w":504},"y":{"d":"-48,184r42,-110v10,5,26,7,49,7v48,0,69,-48,90,-79r-86,-485r132,0r51,336r202,-336r140,0r-352,562v-46,73,-86,117,-187,117v-31,0,-58,-4,-81,-12","w":513},"z":{"d":"383,0r-395,0r21,-95r275,-277r-213,0r24,-111r391,0r-21,91r-279,281r220,0","w":479},"{":{"d":"86,30v-10,43,16,75,54,75r54,0r-20,85r-45,0v-83,1,-156,-67,-135,-159r39,-172v7,-35,-5,-67,-38,-67r16,-72v35,0,58,-22,67,-67r38,-171v24,-107,88,-160,191,-160r60,0r-18,85r-61,0v-42,0,-69,25,-80,74r-43,195v-12,50,-34,80,-65,89v29,14,34,53,25,90","w":288},"|":{"d":"171,20r-85,0r0,-707r85,0r0,707","w":216},"}":{"d":"201,-518v10,-43,-15,-75,-53,-75r-54,0r19,-85r45,0v83,-1,155,67,135,159r-38,172v-8,35,6,66,37,67r-16,72v-35,0,-58,22,-67,67r-38,171v-21,97,-82,158,-190,160r-61,0r19,-85r60,0v42,0,69,-25,80,-74r44,-195v11,-49,32,-79,65,-90v-29,-12,-33,-53,-25,-89","w":288},"~":{"d":"491,-667r84,10v-35,163,-98,245,-189,245v-60,0,-95,-40,-99,-88v-3,-34,-6,-88,-38,-88v-19,0,-38,17,-57,52v-19,35,-33,77,-42,124r-85,-10v35,-163,98,-244,189,-244v50,0,84,25,94,62v9,31,9,71,20,97v5,12,13,18,24,18v19,0,38,-17,57,-53v19,-36,33,-78,42,-125","w":510},"\u00a0":{"w":257},"\u00a1":{"d":"76,-265r112,0r-78,449r-154,0xm83,-407v0,-47,43,-88,89,-88v40,0,73,35,73,75v0,47,-43,88,-89,88v-40,0,-73,-35,-73,-75","w":255},"\u00a2":{"d":"186,2v-92,-24,-157,-99,-158,-210v-2,-152,121,-285,268,-287r16,-70r92,0r-18,80v53,14,93,42,119,85r-95,73v-12,-19,-29,-34,-50,-44r-59,268v31,-6,57,-21,78,-46r69,84v-45,49,-102,74,-173,77r-19,88r-92,0xm270,-377v-65,15,-114,84,-113,162v0,46,18,79,55,99","w":499},"\u00a3":{"d":"12,-90v68,-31,143,-89,138,-179r-122,0r18,-81r79,0v-22,-45,-33,-82,-33,-110v-2,-124,131,-217,262,-217v111,0,210,50,235,134r-128,53v-8,-43,-50,-71,-101,-71v-63,0,-114,52,-114,116v0,39,18,67,29,95r142,0r-19,81r-113,0v-7,52,-54,110,-93,130v16,-5,31,-8,45,-8v36,0,109,33,143,33v31,0,58,-12,81,-36r31,113v-32,33,-73,50,-123,50v-49,0,-178,-44,-219,-44v-32,0,-69,13,-112,38","w":550},"\u00a4":{"d":"461,-136r-34,27r-37,-49v-86,63,-203,58,-277,-15r-79,66r-23,-31r77,-63v-58,-105,-32,-201,49,-281r-37,-49r32,-26r39,48v84,-61,202,-58,276,14r78,-64r25,30r-78,64v58,102,32,199,-49,281xm261,-162v99,0,193,-90,193,-189v0,-89,-66,-153,-155,-153v-99,0,-193,90,-193,189v0,89,66,153,155,153","w":522},"\u00a5":{"d":"341,0r-142,0r25,-115r-230,0r18,-78r229,0r18,-80r-229,0r17,-79r178,0r-135,-315r154,0r106,267r224,-267r169,0r-273,315r177,0r-18,79r-227,0r-18,80r227,0r-17,78r-228,0","w":645},"\u00a6":{"d":"171,20r-85,0r0,-316r85,0r0,316xm171,-371r-85,0r0,-316r85,0r0,316","w":216},"\u00a7":{"d":"302,-588v-42,-1,-79,18,-79,54v0,37,50,50,86,62v71,24,158,48,158,139v0,74,-54,129,-116,148v41,23,61,56,61,99v0,100,-96,167,-205,167v-103,0,-183,-28,-239,-84r71,-75v33,39,99,69,167,70v41,1,78,-22,79,-59v0,-17,-13,-32,-38,-45v-55,-30,-120,-35,-166,-78v-24,-23,-38,-50,-38,-83v2,-79,56,-123,128,-141v-49,-23,-73,-58,-73,-106v0,-97,93,-157,198,-157v93,0,164,24,213,73r-66,70v-27,-33,-84,-54,-141,-54xm258,-226v43,-10,77,-35,77,-78v0,-31,-23,-54,-69,-68v-52,6,-95,28,-95,75v0,46,43,54,87,71","w":484},"\u00a8":{"d":"342,-679v34,0,61,26,61,60v0,39,-38,76,-77,76v-34,0,-60,-27,-60,-60v0,-38,38,-76,76,-76xm131,-679v34,0,60,26,60,60v0,39,-37,76,-76,76v-32,0,-60,-28,-60,-60v0,-38,38,-76,76,-76","w":295},"\u00a9":{"d":"408,-679v185,0,346,160,346,345v0,186,-161,345,-346,345v-185,0,-344,-160,-344,-345v0,-186,158,-345,344,-345xm408,-25v164,0,310,-145,310,-309v0,-165,-145,-309,-310,-309v-165,0,-308,145,-308,309v0,165,143,309,308,309xm247,-308v0,80,62,145,146,145v43,0,81,-16,114,-48r24,34v-43,36,-89,54,-138,54v-111,0,-192,-76,-192,-184v0,-127,111,-238,233,-238v74,0,127,27,160,80r-38,27v-25,-45,-66,-67,-124,-67v-96,-2,-185,94,-185,197","w":778},"\u00aa":{"d":"173,-462v0,45,25,71,68,71v25,0,49,-11,70,-34r27,-122v-15,-19,-38,-28,-69,-28v-55,-1,-96,56,-96,113xm77,-451v0,-102,72,-199,169,-197v47,0,82,15,104,46r8,-38r93,0r-70,314r-93,0r8,-39v-27,31,-58,47,-94,47v-73,0,-125,-54,-125,-133","w":414},"\u00ab":{"d":"263,-63r-114,0r-120,-180r200,-177r122,0r-204,182xm452,-63r-113,0r-120,-180r200,-177r121,0r-204,182","w":527},"\u00ac":{"d":"524,-468r-58,267r-82,0r42,-188r-365,0r17,-79r446,0","w":515},"\u00ad":{"d":"258,-188r-240,0r23,-108r240,0","w":300},"\u00ae":{"d":"296,-677v115,0,212,97,212,212v0,114,-99,212,-213,212v-114,0,-211,-98,-211,-212v0,-114,98,-212,212,-212xm295,-285v97,0,181,-84,181,-180v0,-97,-84,-180,-181,-180v-98,0,-179,82,-179,180v0,97,82,180,179,180xm405,-522v0,42,-40,83,-80,82r44,97r-40,0r-42,-96r-44,0r-21,96r-34,0r53,-243r93,0v39,-1,71,26,71,64xm314,-470v30,1,55,-20,55,-49v0,-25,-14,-37,-43,-37r-57,0r-19,86r64,0","w":494},"\u00af":{"d":"439,-591r-362,0r16,-73r362,0","w":363},"\u203e":{"d":"439,-591r-362,0r16,-73r362,0","w":363},"\u00b0":{"d":"221,-677v73,0,135,63,135,136v0,72,-63,134,-135,134v-73,0,-135,-61,-135,-134v0,-73,62,-136,135,-136xm220,-476v35,0,67,-30,67,-65v0,-36,-31,-67,-66,-67v-37,0,-65,31,-65,67v0,35,29,65,64,65","w":311},"\u00b1":{"d":"493,-326r-180,0r-45,203r-87,0r46,-203r-180,0r17,-79r180,0r44,-196r86,0r-43,196r179,0xm421,0r-446,0r17,-79r446,0","w":504},"\u00b2":{"d":"297,-827v85,-1,162,38,163,116v0,35,-18,69,-53,102v-35,33,-90,70,-164,111r173,0r-16,77r-315,0r17,-74v103,-60,172,-104,207,-131v35,-27,52,-52,52,-76v0,-33,-31,-48,-67,-48v-45,0,-82,14,-112,43r-40,-64v41,-37,93,-56,155,-56","w":398},"\u00b3":{"d":"350,-620v41,10,79,39,78,87v-1,71,-75,119,-158,119v-77,0,-149,-27,-179,-73r60,-59v26,37,64,55,115,55v38,1,65,-19,66,-53v0,-29,-30,-43,-89,-43v-18,0,-29,0,-33,1r16,-76v16,1,38,2,65,2v48,0,72,-16,72,-47v-1,-32,-42,-43,-79,-43v-41,0,-75,12,-104,36r-33,-60v41,-35,89,-53,146,-53v87,-1,168,30,168,106v0,59,-49,98,-111,101","w":398},"\u00b4":{"d":"352,-700r-194,144r-91,0r166,-144r119,0","w":251},"\u00b5":{"d":"95,184r-127,0r148,-667r127,0r-65,293v-14,54,7,90,69,90v44,0,85,-19,122,-56r73,-327r127,0r-107,483r-127,0r12,-61v-63,54,-126,80,-214,71","w":579},"\u03bc":{"d":"95,184r-127,0r148,-667r127,0r-65,293v-14,54,7,90,69,90v44,0,85,-19,122,-56r73,-327r127,0r-107,483r-127,0r12,-61v-63,54,-126,80,-214,71","w":579},"\u00b6":{"d":"79,-479v0,-97,92,-188,194,-188r223,0r-170,767r-63,0r157,-705r-79,0r-156,705r-63,0r94,-423v-78,1,-137,-73,-137,-156","w":449},"\u00b7":{"d":"209,-252v0,46,-42,88,-88,88v-40,0,-74,-35,-74,-75v0,-47,43,-87,89,-87v40,0,73,34,73,74","w":257},"\u2219":{"d":"209,-252v0,46,-42,88,-88,88v-40,0,-74,-35,-74,-75v0,-47,43,-87,89,-87v40,0,73,34,73,74","w":257},"\u00b8":{"d":"143,103v0,57,-53,92,-113,92v-52,0,-92,-14,-119,-41r35,-47v25,23,54,35,85,35v26,0,48,-11,49,-35v1,-30,-46,-30,-59,-10r-40,-26r48,-82r63,0r-39,62v38,-27,90,3,90,52","w":221},"\u00b9":{"d":"265,-421r-97,0r60,-273r-80,66r-44,-59r166,-134r83,0","w":286},"\u00ba":{"d":"431,-502v0,100,-90,184,-189,184v-94,0,-163,-56,-163,-146v0,-100,92,-184,190,-184v93,0,162,57,162,146xm174,-461v0,42,28,69,70,69v57,0,93,-56,93,-111v0,-42,-28,-69,-70,-69v-57,0,-93,56,-93,111","w":405},"\u00bb":{"d":"77,-420r114,0r120,180r-200,177r-122,0r204,-182xm267,-420r113,0r120,180r-200,177r-121,0r204,-182","w":527},"\u00bc":{"d":"734,-667r-574,667r-76,0r573,-667r77,0xm774,-86r-53,0r-18,86r-96,0r19,-86r-197,0r15,-65r213,-249r134,0r-53,239r52,0xm643,-161r34,-154r-135,154r101,0xm231,-267r-97,0r60,-273r-80,66r-44,-59r166,-134r83,0","w":833},"\u00bd":{"d":"734,-667r-574,667r-76,0r573,-667r77,0xm673,-406v85,-1,162,38,163,116v0,35,-18,69,-53,102v-35,33,-90,70,-164,111r173,0r-16,77r-315,0r17,-74v103,-60,172,-103,207,-130v35,-27,52,-53,52,-77v0,-33,-31,-48,-67,-48v-45,0,-82,14,-112,43r-40,-64v41,-37,93,-56,155,-56xm231,-267r-97,0r60,-273r-80,66r-44,-59r166,-134r83,0","w":867},"\u00be":{"d":"822,-667r-574,667r-76,0r573,-667r77,0xm861,-86r-53,0r-18,86r-96,0r19,-86r-197,0r15,-65r213,-249r134,0r-53,239r52,0xm730,-161r34,-154r-135,154r101,0xm316,-466v41,10,79,39,78,87v-1,71,-75,119,-158,119v-77,0,-149,-27,-179,-73r60,-59v26,37,64,55,115,55v38,1,65,-19,66,-53v0,-29,-30,-43,-89,-43v-18,0,-29,0,-33,1r16,-76v16,1,38,2,65,2v48,0,72,-16,72,-47v-1,-32,-42,-43,-79,-43v-41,0,-75,12,-104,36r-33,-60v41,-35,89,-53,146,-53v87,-1,168,30,168,106v0,59,-49,98,-111,101","w":921},"\u00bf":{"d":"169,195v-107,0,-212,-50,-212,-148v0,-102,77,-144,145,-179v35,-18,76,-42,78,-86v0,-11,-4,-21,-11,-29r117,-31v22,39,20,103,-4,141v-35,56,-108,72,-154,114v-13,12,-20,25,-20,40v1,39,36,53,82,53v45,0,86,-16,121,-48r61,98v-59,50,-127,75,-203,75xm186,-406v0,-47,43,-88,89,-88v40,0,73,35,73,75v0,47,-41,88,-88,88v-40,0,-74,-35,-74,-75","w":398},"\u00c0":{"d":"532,-728r-89,0r-130,-144r117,0xm634,0r-154,0r-17,-113r-286,0r-66,113r-169,0r404,-667r178,0xm452,-238r-41,-287r-167,287r208,0","w":684},"\u00c1":{"d":"651,-872r-194,144r-91,0r166,-144r119,0xm634,0r-154,0r-17,-113r-286,0r-66,113r-169,0r404,-667r178,0xm452,-238r-41,-287r-167,287r208,0","w":684},"\u00c2":{"d":"601,-728r-76,0r-54,-89r-90,89r-80,0r124,-144r114,0xm634,0r-154,0r-17,-113r-286,0r-66,113r-169,0r404,-667r178,0xm452,-238r-41,-287r-167,287r208,0","w":684},"\u00c3":{"d":"642,-860v-17,77,-41,131,-122,134v-31,1,-57,-17,-69,-34v-10,-14,-28,-34,-51,-34v-21,0,-36,21,-45,62r-68,0v16,-77,41,-131,121,-134v41,-1,65,30,86,50v37,33,67,15,80,-44r68,0xm634,0r-154,0r-17,-113r-286,0r-66,113r-169,0r404,-667r178,0xm452,-238r-41,-287r-167,287r208,0","w":684},"\u00c4":{"d":"575,-852v34,0,61,26,61,60v0,39,-38,76,-77,76v-33,0,-60,-26,-60,-60v0,-38,38,-76,76,-76xm364,-852v34,0,60,26,60,60v0,39,-37,76,-76,76v-34,0,-60,-26,-60,-60v0,-38,38,-76,76,-76xm634,0r-154,0r-17,-113r-286,0r-66,113r-169,0r404,-667r178,0xm452,-238r-41,-287r-167,287r208,0","w":684},"\u00c5":{"d":"569,-807v0,60,-55,115,-115,115v-56,0,-96,-40,-96,-96v0,-60,55,-115,115,-115v56,0,96,40,96,96xm417,-794v0,25,17,43,42,43v26,0,51,-24,51,-50v0,-25,-17,-43,-42,-43v-26,0,-51,24,-51,50xm634,0r-154,0r-17,-113r-286,0r-66,113r-169,0r404,-667r178,0xm452,-238r-41,-287r-167,287r208,0","w":684},"\u00c6":{"d":"872,0r-472,0r25,-113r-230,0r-91,113r-167,0r553,-667r529,0r-27,125r-330,0r-30,140r322,0r-28,125r-322,0r-34,152r330,0xm453,-238r61,-280r-224,280r163,0","w":968},"\u00c7":{"d":"647,-117v-62,82,-164,133,-295,128r-25,40v38,-27,90,3,90,52v0,57,-53,92,-113,92v-52,0,-92,-14,-119,-41r35,-47v25,23,54,35,85,35v26,0,48,-11,49,-35v1,-30,-46,-30,-59,-10r-40,-26r39,-67v-138,-26,-250,-132,-250,-291v0,-220,175,-391,388,-391v153,0,254,80,296,189r-136,46v-22,-65,-84,-108,-167,-109v-130,-1,-232,120,-232,256v0,106,78,185,187,182v65,-1,126,-36,157,-77","w":687},"\u00c8":{"d":"492,-728r-89,0r-130,-144r117,0xm484,0r-472,0r147,-667r472,0r-28,125r-329,0r-31,140r322,0r-27,125r-323,0r-33,152r329,0","w":583},"\u00c9":{"d":"610,-872r-194,144r-91,0r166,-144r119,0xm484,0r-472,0r147,-667r472,0r-28,125r-329,0r-31,140r322,0r-27,125r-323,0r-33,152r329,0","w":583},"\u00ca":{"d":"559,-728r-76,0r-54,-89r-90,89r-80,0r124,-144r114,0xm484,0r-472,0r147,-667r472,0r-28,125r-329,0r-31,140r322,0r-27,125r-323,0r-33,152r329,0","w":583},"\u00cb":{"d":"536,-852v34,0,61,26,61,60v0,39,-38,76,-77,76v-34,0,-60,-26,-60,-60v0,-38,38,-76,76,-76xm325,-852v34,0,60,26,60,60v0,39,-37,76,-76,76v-33,0,-60,-26,-60,-60v0,-38,38,-76,76,-76xm484,0r-472,0r147,-667r472,0r-28,125r-329,0r-31,140r322,0r-27,125r-323,0r-33,152r329,0","w":583},"\u00cc":{"d":"326,-728r-89,0r-130,-144r117,0xm154,0r-142,0r147,-667r142,0","w":274},"\u00cd":{"d":"448,-872r-194,144r-91,0r166,-144r119,0xm154,0r-142,0r147,-667r142,0","w":274},"\u00ce":{"d":"394,-728r-76,0r-54,-89r-90,89r-80,0r124,-144r114,0xm154,0r-142,0r147,-667r142,0","w":274},"\u00cf":{"d":"370,-852v34,0,61,26,61,60v0,39,-38,76,-77,76v-34,0,-60,-26,-60,-60v0,-38,38,-76,76,-76xm159,-852v34,0,60,26,60,60v0,39,-37,76,-76,76v-33,0,-60,-26,-60,-60v0,-38,38,-76,76,-76xm154,0r-142,0r147,-667r142,0","w":274},"\u00d0":{"d":"442,-667v154,-2,293,127,289,286v-4,138,-61,233,-144,297v-66,51,-170,85,-288,84r-262,0r61,-277r-82,0r25,-114r82,0r61,-276r258,0xm584,-371v0,-95,-73,-171,-168,-171r-117,0r-34,151r149,0r-26,114r-148,0r-33,152r120,0v147,3,257,-105,257,-246","w":742},"\u00d1":{"d":"663,-860v-17,77,-41,131,-122,134v-31,1,-57,-17,-69,-34v-10,-14,-28,-34,-51,-34v-21,0,-36,21,-45,62r-68,0v16,-77,41,-132,121,-134v49,-1,65,36,93,56v37,27,59,5,73,-50r68,0xm609,0r-137,0r-220,-442r-98,442r-142,0r147,-667r146,0r214,425r95,-425r142,0","w":729},"\u00d2":{"d":"575,-728r-89,0r-130,-144r117,0xm760,-380v0,213,-175,392,-388,392v-182,0,-328,-118,-328,-299v0,-213,175,-391,388,-391v181,0,328,119,328,298xm193,-296v0,109,79,182,187,182v130,0,231,-122,231,-256v0,-109,-80,-182,-188,-182v-130,0,-230,122,-230,256","w":765},"\u00d3":{"d":"692,-872r-194,144r-91,0r166,-144r119,0xm760,-380v0,213,-175,392,-388,392v-182,0,-328,-118,-328,-299v0,-213,175,-391,388,-391v181,0,328,119,328,298xm193,-296v0,109,79,182,187,182v130,0,231,-122,231,-256v0,-109,-80,-182,-188,-182v-130,0,-230,122,-230,256","w":765},"\u00d4":{"d":"642,-728r-76,0r-54,-89r-90,89r-80,0r124,-144r114,0xm760,-380v0,213,-175,392,-388,392v-182,0,-328,-118,-328,-299v0,-213,175,-391,388,-391v181,0,328,119,328,298xm193,-296v0,109,79,182,187,182v130,0,231,-122,231,-256v0,-109,-80,-182,-188,-182v-130,0,-230,122,-230,256","w":765},"\u00d5":{"d":"683,-860v-17,77,-41,131,-122,134v-31,1,-57,-17,-69,-34v-10,-14,-28,-34,-51,-34v-21,0,-36,21,-45,62r-68,0v16,-77,41,-132,121,-134v49,-1,65,36,93,56v37,27,59,5,73,-50r68,0xm760,-380v0,213,-175,392,-388,392v-182,0,-328,-118,-328,-299v0,-213,175,-391,388,-391v181,0,328,119,328,298xm193,-296v0,109,79,182,187,182v130,0,231,-122,231,-256v0,-109,-80,-182,-188,-182v-130,0,-230,122,-230,256","w":765},"\u00d6":{"d":"617,-852v34,0,61,26,61,60v0,39,-38,76,-77,76v-33,0,-60,-26,-60,-60v0,-38,38,-76,76,-76xm406,-852v34,0,60,26,60,60v0,39,-37,76,-76,76v-34,0,-60,-26,-60,-60v0,-38,38,-76,76,-76xm760,-380v0,213,-175,392,-388,392v-182,0,-328,-118,-328,-299v0,-213,175,-391,388,-391v181,0,328,119,328,298xm193,-296v0,109,79,182,187,182v130,0,231,-122,231,-256v0,-109,-80,-182,-188,-182v-130,0,-230,122,-230,256","w":765},"\u00d7":{"d":"372,-140r-107,-138r-175,143r-49,-60r176,-144r-108,-139r63,-51r107,139r175,-143r49,60r-175,144r106,139","w":504},"\u00d8":{"d":"760,-380v0,213,-175,392,-388,392v-81,0,-150,-20,-207,-60r-47,48r-103,0r95,-97v-44,-51,-66,-115,-66,-190v0,-213,175,-391,388,-391v76,0,142,18,197,54r42,-43r102,0r-88,89v50,53,75,119,75,198xm380,-114v130,3,231,-122,231,-256v0,-39,-10,-73,-29,-103r-318,324v31,23,70,35,116,35xm423,-552v-130,-3,-230,122,-230,256v0,35,7,66,22,93r315,-320v-31,-19,-66,-29,-107,-29","w":765},"\u00d9":{"d":"559,-728r-89,0r-130,-144r117,0xm216,-270v-20,93,46,157,140,157v92,0,150,-52,173,-157r87,-397r145,0r-89,400v-38,166,-119,278,-316,279v-170,1,-288,-78,-290,-233v0,-13,2,-28,5,-46r88,-400r144,0","w":734},"\u00da":{"d":"677,-872r-194,144r-91,0r166,-144r119,0xm216,-270v-20,93,46,157,140,157v92,0,150,-52,173,-157r87,-397r145,0r-89,400v-38,166,-119,278,-316,279v-170,1,-288,-78,-290,-233v0,-13,2,-28,5,-46r88,-400r144,0","w":734},"\u00db":{"d":"630,-728r-76,0r-54,-89r-90,89r-80,0r124,-144r114,0xm216,-270v-20,93,46,157,140,157v92,0,150,-52,173,-157r87,-397r145,0r-89,400v-38,166,-119,278,-316,279v-170,1,-288,-78,-290,-233v0,-13,2,-28,5,-46r88,-400r144,0","w":734},"\u00dc":{"d":"602,-852v34,0,61,26,61,60v0,39,-38,76,-77,76v-34,0,-60,-26,-60,-60v0,-38,38,-76,76,-76xm391,-852v34,0,60,26,60,60v0,39,-37,76,-76,76v-33,0,-60,-26,-60,-60v0,-38,38,-76,76,-76xm216,-270v-20,93,46,157,140,157v92,0,150,-52,173,-157r87,-397r145,0r-89,400v-38,166,-119,278,-316,279v-170,1,-288,-78,-290,-233v0,-13,2,-28,5,-46r88,-400r144,0","w":734},"\u00dd":{"d":"634,-872r-194,144r-91,0r166,-144r119,0xm340,0r-142,0r60,-273r-169,-394r154,0r106,267r224,-267r169,0r-341,394","w":645},"\u00de":{"d":"441,-559v102,-3,187,84,185,184v-1,69,-26,121,-62,163v-42,49,-120,83,-213,82r-168,0r-29,130r-142,0r147,-667r142,0r-23,108r163,0xm478,-360v1,-44,-37,-75,-83,-75r-145,0r-39,180r148,0v67,2,119,-44,119,-105","w":625},"\u00df":{"d":"353,-677v95,0,212,51,212,139v-1,78,-59,114,-113,140v-33,16,-93,59,-38,86v75,37,195,46,196,156v1,98,-97,170,-204,168v-103,-2,-160,-32,-214,-89r71,-81v39,45,88,68,147,68v52,0,103,-52,50,-80v-72,-37,-196,-41,-196,-148v0,-79,56,-115,108,-143v25,-13,58,-26,58,-54v0,-34,-42,-50,-83,-49v-57,0,-93,29,-106,89r-104,475r-128,0r105,-475v24,-113,103,-202,239,-202","w":643},"\u00e0":{"d":"210,12v-114,0,-186,-81,-184,-200v2,-113,47,-205,117,-260v86,-68,237,-63,292,29r13,-64r128,0r-107,483r-128,0r14,-60v-41,48,-89,72,-145,72xm159,-214v0,65,44,114,107,113v43,0,80,-19,111,-58r37,-167v-24,-37,-62,-56,-113,-56v-82,0,-142,83,-142,168xm422,-556r-89,0r-130,-144r117,0"},"\u00e1":{"d":"210,12v-114,0,-186,-81,-184,-200v2,-113,47,-205,117,-260v86,-68,237,-63,292,29r13,-64r128,0r-107,483r-128,0r14,-60v-41,48,-89,72,-145,72xm159,-214v0,65,44,114,107,113v43,0,80,-19,111,-58r37,-167v-24,-37,-62,-56,-113,-56v-82,0,-142,83,-142,168xm541,-700r-194,144r-91,0r166,-144r119,0"},"\u00e2":{"d":"210,12v-114,0,-186,-81,-184,-200v2,-113,47,-205,117,-260v86,-68,237,-63,292,29r13,-64r128,0r-107,483r-128,0r14,-60v-41,48,-89,72,-145,72xm159,-214v0,65,44,114,107,113v43,0,80,-19,111,-58r37,-167v-24,-37,-62,-56,-113,-56v-82,0,-142,83,-142,168xm492,-556r-76,0r-54,-89r-90,89r-80,0r124,-144r114,0"},"\u00e3":{"d":"210,12v-114,0,-186,-81,-184,-200v2,-113,47,-205,117,-260v86,-68,237,-63,292,29r13,-64r128,0r-107,483r-128,0r14,-60v-41,48,-89,72,-145,72xm159,-214v0,65,44,114,107,113v43,0,80,-19,111,-58r37,-167v-24,-37,-62,-56,-113,-56v-82,0,-142,83,-142,168xm532,-688v-17,77,-41,131,-122,134v-31,1,-57,-17,-69,-34v-10,-14,-28,-34,-51,-34v-21,0,-36,21,-45,62r-68,0v16,-77,41,-131,121,-134v41,-1,65,30,86,50v37,33,67,15,80,-44r68,0"},"\u00e4":{"d":"210,12v-114,0,-186,-81,-184,-200v2,-113,47,-205,117,-260v86,-68,237,-63,292,29r13,-64r128,0r-107,483r-128,0r14,-60v-41,48,-89,72,-145,72xm159,-214v0,65,44,114,107,113v43,0,80,-19,111,-58r37,-167v-24,-37,-62,-56,-113,-56v-82,0,-142,83,-142,168xm467,-679v34,0,61,26,61,60v0,39,-38,76,-77,76v-32,0,-60,-28,-60,-60v0,-38,38,-76,76,-76xm256,-679v34,0,60,26,60,60v0,39,-37,76,-76,76v-34,0,-60,-27,-60,-60v0,-38,38,-76,76,-76"},"\u00e5":{"d":"210,12v-114,0,-186,-81,-184,-200v2,-113,47,-205,117,-260v86,-68,237,-63,292,29r13,-64r128,0r-107,483r-128,0r14,-60v-41,48,-89,72,-145,72xm159,-214v0,65,44,114,107,113v43,0,80,-19,111,-58r37,-167v-24,-37,-62,-56,-113,-56v-82,0,-142,83,-142,168xm466,-655v0,61,-54,115,-115,115v-56,0,-96,-40,-96,-96v0,-59,56,-115,115,-115v56,0,96,40,96,96xm314,-642v0,25,17,43,42,43v26,0,51,-24,51,-50v0,-25,-17,-43,-42,-43v-26,0,-51,24,-51,50"},"\u00e6":{"d":"517,-188v3,55,65,94,134,94v47,0,87,-12,120,-36r39,92v-99,74,-276,70,-324,-41r-17,79r-128,0r14,-60v-41,48,-89,72,-145,72v-115,0,-186,-80,-184,-200v1,-114,45,-206,116,-260v40,-31,86,-47,138,-47v69,0,127,31,154,76r14,-64r128,0r-13,56v43,-45,92,-68,146,-68v120,1,177,79,176,206v0,34,-3,64,-10,89r-357,0xm159,-214v0,65,44,114,107,113v43,0,80,-19,111,-58r37,-167v-24,-37,-62,-56,-113,-56v-82,0,-142,83,-142,168xm771,-288v6,-65,-41,-103,-109,-103v-65,0,-121,49,-131,103r240,0","w":914},"\u00e7":{"d":"324,103v0,57,-53,92,-113,92v-52,0,-92,-14,-119,-41r35,-47v25,23,54,35,85,35v26,0,48,-11,49,-35v1,-30,-46,-30,-59,-10r-40,-26r38,-66v-100,-20,-172,-97,-172,-213v0,-155,127,-287,281,-287v93,0,158,32,196,95r-95,73v-21,-37,-55,-55,-101,-55v-89,0,-152,79,-152,167v0,70,53,115,121,114v40,0,74,-16,101,-48r69,84v-50,53,-110,78,-190,77r-24,39v37,-27,90,3,90,52","w":499},"\u00e8":{"d":"155,-188v3,55,64,96,133,96v51,0,91,-12,122,-35r39,89v-49,33,-106,50,-171,50v-145,2,-250,-78,-250,-217v0,-155,123,-290,279,-290v126,0,220,86,217,215v0,28,-3,55,-10,80r-359,0r0,12xm410,-288v6,-64,-44,-103,-111,-103v-65,0,-121,49,-130,103r241,0xm434,-556r-89,0r-130,-144r117,0","w":553},"\u00e9":{"d":"155,-188v3,55,64,96,133,96v51,0,91,-12,122,-35r39,89v-49,33,-106,50,-171,50v-145,2,-250,-78,-250,-217v0,-155,123,-290,279,-290v126,0,220,86,217,215v0,28,-3,55,-10,80r-359,0r0,12xm410,-288v6,-64,-44,-103,-111,-103v-65,0,-121,49,-130,103r241,0xm555,-700r-194,144r-91,0r166,-144r119,0","w":553},"\u00ea":{"d":"155,-188v3,55,64,96,133,96v51,0,91,-12,122,-35r39,89v-49,33,-106,50,-171,50v-145,2,-250,-78,-250,-217v0,-155,123,-290,279,-290v126,0,220,86,217,215v0,28,-3,55,-10,80r-359,0r0,12xm410,-288v6,-64,-44,-103,-111,-103v-65,0,-121,49,-130,103r241,0xm503,-556r-76,0r-54,-89r-90,89r-80,0r124,-144r114,0","w":553},"\u00eb":{"d":"155,-188v3,55,64,96,133,96v51,0,91,-12,122,-35r39,89v-49,33,-106,50,-171,50v-145,2,-250,-78,-250,-217v0,-155,123,-290,279,-290v126,0,220,86,217,215v0,28,-3,55,-10,80r-359,0r0,12xm410,-288v6,-64,-44,-103,-111,-103v-65,0,-121,49,-130,103r241,0xm478,-679v34,0,61,26,61,60v0,39,-38,76,-77,76v-34,0,-60,-27,-60,-60v0,-38,38,-76,76,-76xm267,-679v34,0,60,26,60,60v0,39,-37,76,-76,76v-32,0,-60,-28,-60,-60v0,-38,38,-76,76,-76","w":553},"\u00ec":{"d":"277,-556r-89,0r-130,-144r117,0xm136,0r-127,0r107,-483r127,0","w":253},"\u00ed":{"d":"397,-700r-194,144r-91,0r166,-144r119,0xm136,0r-127,0r107,-483r127,0","w":253},"\u00ee":{"d":"346,-556r-76,0r-54,-89r-90,89r-80,0r124,-144r114,0xm136,0r-127,0r107,-483r127,0","w":253},"\u00ef":{"d":"321,-679v34,0,61,26,61,60v0,39,-38,76,-77,76v-32,0,-60,-28,-60,-60v0,-38,38,-76,76,-76xm110,-679v34,0,60,26,60,60v0,39,-37,76,-76,76v-34,0,-60,-27,-60,-60v0,-38,38,-76,76,-76xm136,0r-127,0r107,-483r127,0","w":253},"\u00f0":{"d":"25,-198v0,-139,107,-262,243,-262v80,0,135,36,164,109v-13,-55,-52,-115,-118,-181r-161,47r-12,-59r121,-36r-54,-43r90,-93v43,33,78,65,107,94r110,-33r13,59r-79,24v69,86,103,175,103,266v0,172,-112,318,-283,318v-138,0,-244,-79,-244,-210xm156,-205v0,67,45,104,115,104v78,0,140,-66,138,-145v-1,-61,-50,-102,-119,-102v-76,0,-134,66,-134,143","w":575},"\u00f1":{"d":"397,-495v100,0,169,60,146,163r-73,332r-128,0r65,-293v15,-58,-11,-89,-79,-89v-37,0,-74,19,-113,56r-72,326r-127,0r107,-483r127,0r-14,62v52,-49,106,-74,161,-74xm552,-688v-17,77,-41,131,-122,134v-31,1,-57,-17,-69,-34v-10,-14,-28,-34,-51,-34v-21,0,-36,21,-45,62r-68,0v16,-77,41,-131,121,-134v41,-1,65,30,86,50v37,33,67,15,80,-44r68,0","w":579},"\u00f2":{"d":"546,-275v0,152,-125,287,-280,287v-143,0,-237,-85,-239,-220v-2,-151,125,-287,279,-287v143,0,240,85,240,220xm158,-214v0,69,43,113,113,113v83,0,143,-83,143,-168v0,-70,-43,-113,-112,-113v-83,0,-144,84,-144,168xm439,-556r-89,0r-130,-144r117,0","w":575},"\u00f3":{"d":"546,-275v0,152,-125,287,-280,287v-143,0,-237,-85,-239,-220v-2,-151,125,-287,279,-287v143,0,240,85,240,220xm158,-214v0,69,43,113,113,113v83,0,143,-83,143,-168v0,-70,-43,-113,-112,-113v-83,0,-144,84,-144,168xm558,-700r-194,144r-91,0r166,-144r119,0","w":575},"\u00f4":{"d":"546,-275v0,152,-125,287,-280,287v-143,0,-237,-85,-239,-220v-2,-151,125,-287,279,-287v143,0,240,85,240,220xm158,-214v0,69,43,113,113,113v83,0,143,-83,143,-168v0,-70,-43,-113,-112,-113v-83,0,-144,84,-144,168xm507,-556r-76,0r-54,-89r-90,89r-80,0r124,-144r114,0","w":575},"\u00f5":{"d":"546,-275v0,152,-125,287,-280,287v-143,0,-237,-85,-239,-220v-2,-151,125,-287,279,-287v143,0,240,85,240,220xm158,-214v0,69,43,113,113,113v83,0,143,-83,143,-168v0,-70,-43,-113,-112,-113v-83,0,-144,84,-144,168xm549,-688v-17,77,-41,131,-122,134v-31,1,-57,-17,-69,-34v-10,-14,-28,-34,-51,-34v-21,0,-36,21,-45,62r-68,0v16,-77,41,-132,121,-134v49,-1,65,36,93,56v37,27,59,5,73,-50r68,0","w":575},"\u00f6":{"d":"546,-275v0,152,-125,287,-280,287v-143,0,-237,-85,-239,-220v-2,-151,125,-287,279,-287v143,0,240,85,240,220xm158,-214v0,69,43,113,113,113v83,0,143,-83,143,-168v0,-70,-43,-113,-112,-113v-83,0,-144,84,-144,168xm482,-679v34,0,61,26,61,60v0,39,-38,76,-77,76v-34,0,-60,-27,-60,-60v0,-38,38,-76,76,-76xm271,-679v34,0,60,26,60,60v0,39,-37,76,-76,76v-32,0,-60,-28,-60,-60v0,-38,38,-76,76,-76","w":575},"\u00f7":{"d":"494,-298r-453,0r17,-79r453,0xm297,-162v0,35,-32,66,-67,66v-30,0,-55,-26,-55,-56v0,-35,31,-66,66,-66v30,0,56,26,56,56xm376,-520v0,35,-32,66,-67,66v-29,0,-55,-27,-55,-56v0,-35,31,-66,66,-66v30,0,56,26,56,56","w":511},"\u00f8":{"d":"546,-275v0,152,-125,287,-280,287v-66,0,-120,-16,-161,-48r-38,36r-83,0r82,-76v-26,-36,-39,-80,-39,-132v0,-151,125,-287,279,-287v64,0,117,15,158,46r37,-34r85,0r-81,75v27,37,41,81,41,133xm271,-101v97,1,167,-112,135,-215r-208,194v19,14,43,21,73,21xm302,-382v-96,-1,-167,111,-137,213r207,-193v-19,-13,-42,-20,-70,-20","w":575},"\u00f9":{"d":"188,12v-100,0,-168,-62,-146,-163r73,-332r127,0r-64,292v-17,59,21,91,78,90v38,0,76,-19,114,-57r72,-325r127,0r-107,483r-127,0r14,-62v-52,49,-106,74,-161,74xm442,-556r-89,0r-130,-144r117,0","w":579},"\u00fa":{"d":"188,12v-100,0,-168,-62,-146,-163r73,-332r127,0r-64,292v-17,59,21,91,78,90v38,0,76,-19,114,-57r72,-325r127,0r-107,483r-127,0r14,-62v-52,49,-106,74,-161,74xm561,-700r-194,144r-91,0r166,-144r119,0","w":579},"\u00fb":{"d":"188,12v-100,0,-168,-62,-146,-163r73,-332r127,0r-64,292v-17,59,21,91,78,90v38,0,76,-19,114,-57r72,-325r127,0r-107,483r-127,0r14,-62v-52,49,-106,74,-161,74xm510,-556r-76,0r-54,-89r-90,89r-80,0r124,-144r114,0","w":579},"\u00fc":{"d":"188,12v-100,0,-168,-62,-146,-163r73,-332r127,0r-64,292v-17,59,21,91,78,90v38,0,76,-19,114,-57r72,-325r127,0r-107,483r-127,0r14,-62v-52,49,-106,74,-161,74xm487,-679v34,0,61,26,61,60v0,39,-38,76,-77,76v-32,0,-60,-28,-60,-60v0,-38,38,-76,76,-76xm276,-679v34,0,60,26,60,60v0,39,-37,76,-76,76v-34,0,-60,-27,-60,-60v0,-38,38,-76,76,-76","w":579},"\u00fd":{"d":"-48,184r42,-110v10,5,26,7,49,7v48,0,69,-48,90,-79r-86,-485r132,0r51,336r202,-336r140,0r-352,562v-46,73,-86,117,-187,117v-31,0,-58,-4,-81,-12xm527,-700r-194,144r-91,0r166,-144r119,0","w":513},"\u00fe":{"d":"375,-495v114,0,185,81,183,200v-2,113,-47,205,-116,260v-85,68,-238,63,-292,-29r-55,248r-127,0r188,-851r127,0r-54,244v41,-48,89,-72,146,-72xm425,-269v0,-65,-44,-114,-107,-113v-43,0,-79,19,-110,58r-38,167v24,37,62,56,113,56v84,0,142,-82,142,-168","w":583},"\u00ff":{"d":"-48,184r42,-110v10,5,26,7,49,7v48,0,69,-48,90,-79r-86,-485r132,0r51,336r202,-336r140,0r-352,562v-46,73,-86,117,-187,117v-31,0,-58,-4,-81,-12xm451,-679v34,0,61,26,61,60v0,39,-38,76,-77,76v-32,0,-60,-28,-60,-60v0,-38,38,-76,76,-76xm240,-679v34,0,60,26,60,60v0,39,-37,76,-76,76v-34,0,-60,-27,-60,-60v0,-38,38,-76,76,-76","w":513},"\u0152":{"d":"324,12v-159,0,-280,-135,-280,-299v0,-158,85,-284,191,-342v57,-32,120,-48,187,-48v104,0,177,38,218,114r23,-104r471,0r-27,125r-329,0r-31,140r322,0r-28,125r-322,0r-33,152r329,0r-28,125r-471,0r16,-76v-51,59,-121,88,-208,88xm193,-296v0,106,75,183,180,182v86,-1,155,-48,191,-105r44,-201v-19,-78,-84,-130,-177,-131v-136,-2,-238,118,-238,255","w":1084},"\u0153":{"d":"602,-476v148,-64,302,36,302,196v0,28,-3,55,-10,80r-354,0v-8,67,59,108,130,108v49,0,89,-12,120,-35r39,89v-47,33,-104,50,-169,50v-91,0,-170,-50,-198,-107v-43,45,-49,59,-109,87v-28,13,-58,20,-89,20v-139,1,-237,-82,-237,-220v0,-149,122,-287,277,-287v88,0,159,52,187,107v39,-43,54,-63,111,-88xm791,-288v3,-67,-40,-103,-109,-103v-64,0,-120,52,-129,103r238,0xm269,-101v82,0,141,-83,141,-168v0,-71,-44,-113,-110,-113v-81,-1,-142,82,-142,168v0,70,42,113,111,113","w":931},"\u0178":{"d":"557,-852v34,0,61,26,61,60v0,39,-38,76,-77,76v-33,0,-60,-26,-60,-60v0,-38,38,-76,76,-76xm346,-852v34,0,60,26,60,60v0,39,-37,76,-76,76v-34,0,-60,-26,-60,-60v0,-38,38,-76,76,-76xm340,0r-142,0r60,-273r-169,-394r154,0r106,267r224,-267r169,0r-341,394","w":645},"\u02c6":{"d":"369,-556r-76,0r-54,-89r-90,89r-80,0r124,-144r114,0","w":300},"\u02dc":{"d":"425,-688v-17,77,-41,131,-122,134v-31,1,-57,-17,-69,-34v-10,-14,-28,-34,-51,-34v-21,0,-36,21,-45,62r-68,0v16,-77,41,-132,121,-134v49,-1,65,36,93,56v37,27,59,5,73,-50r68,0","w":327},"\u2013":{"d":"551,-188r-533,0r23,-108r533,0","w":593},"\u2014":{"d":"791,-188r-773,0r23,-108r773,0","w":833},"\u2018":{"d":"168,-396v-44,0,-79,-34,-77,-81v2,-89,78,-169,147,-201r45,48v-37,17,-83,48,-98,84v42,-6,72,22,72,64v0,45,-45,86,-89,86","w":255},"\u2019":{"d":"213,-677v46,1,80,33,78,82v-2,88,-78,168,-147,200r-45,-48v49,-23,82,-51,98,-84v-42,6,-73,-22,-73,-64v0,-45,45,-87,89,-86","w":255},"\u201a":{"d":"97,-151v45,1,79,34,77,82v-2,88,-78,170,-147,200r-45,-47v51,-24,83,-52,98,-84v-45,3,-72,-22,-72,-65v0,-45,45,-87,89,-86","w":255},"\u201c":{"d":"373,-396v-44,0,-79,-34,-77,-81v2,-89,78,-169,147,-201r45,48v-36,17,-83,49,-98,84v41,-6,72,22,72,64v0,45,-45,86,-89,86xm170,-396v-44,0,-80,-34,-78,-81v2,-89,78,-169,147,-201r46,48v-37,17,-83,48,-98,84v41,-6,72,22,72,64v0,45,-45,86,-89,86","w":459},"\u201d":{"d":"213,-677v46,1,80,33,78,82v-2,88,-78,168,-147,200r-45,-48v49,-23,82,-51,98,-84v-42,6,-73,-22,-73,-64v0,-45,45,-87,89,-86xm416,-677v46,1,80,33,78,82v-2,88,-78,168,-147,200r-45,-48v36,-17,83,-49,98,-84v-42,6,-72,-22,-72,-64v0,-45,44,-87,88,-86","w":459},"\u201e":{"d":"97,-151v45,1,79,34,77,82v-2,88,-78,170,-147,200r-45,-47v51,-24,83,-52,98,-84v-45,3,-72,-22,-72,-65v0,-45,45,-87,89,-86xm300,-151v45,1,79,34,77,82v-2,89,-76,169,-146,200r-46,-47v51,-24,83,-52,98,-84v-44,3,-72,-23,-72,-65v0,-45,45,-87,89,-86","w":459},"\u2022":{"d":"192,-361v60,0,107,47,107,107v0,69,-64,130,-133,130v-60,0,-107,-47,-107,-107v0,-69,64,-130,133,-130","w":358},"\u2026":{"d":"171,-76v0,47,-43,88,-89,88v-40,0,-74,-35,-74,-75v0,-47,43,-88,89,-88v40,0,74,35,74,75xm427,-76v0,47,-43,88,-89,88v-40,0,-74,-35,-74,-75v0,-47,43,-88,89,-88v40,0,74,35,74,75xm683,-76v0,47,-43,88,-89,88v-40,0,-73,-35,-73,-75v0,-47,41,-88,88,-88v40,0,74,35,74,75","w":768},"\u2039":{"d":"263,-63r-114,0r-120,-180r200,-177r122,0r-204,182","w":338},"\u203a":{"d":"77,-420r114,0r120,180r-200,177r-122,0r204,-182","w":338},"\u20ac":{"d":"675,-117v-58,79,-156,127,-275,129v-164,3,-297,-98,-322,-237r-61,0r17,-79r38,0v1,-23,4,-43,7,-61r-31,0r18,-79r36,0v52,-131,186,-232,358,-234v153,-1,254,80,296,189r-136,46v-22,-65,-84,-109,-167,-109v-88,0,-153,50,-191,108r255,0r-18,79r-270,0v-5,27,-8,47,-8,61r265,0r-18,79r-235,0v25,65,87,111,175,111v65,-1,126,-36,157,-77","w":709},"\u2122":{"d":"464,-447r-28,0r40,-182r-115,182r-8,0r-35,-182r-40,182r-28,0r48,-220r43,0r29,160r99,-160r43,0xm257,-641r-62,0r-43,194r-28,0r43,-194r-62,0r5,-26r152,0","w":454}}});
