/*!
 * The following copyright notice may not be removed under any circumstances.
 * 
 * Copyright:
 * Copyright (c) Mark Simonson, 2005. All rights reserved.
 * 
 * Description:
 * This is a protected webfont and is intended for CSS @font-face use ONLY.
 * Reverse engineering this font is strictly prohibited.
 */
Cufon.registerFont({"w":572,"face":{"font-family":"","font-weight":400,"font-stretch":"normal","units-per-em":"1000","panose-1":"2 0 5 6 3 0 0 2 0 4","ascent":"790","descent":"-210","x-height":"12","bbox":"-183 -889 1144 199","underline-thickness":"20","underline-position":"-113","unicode-range":"U+0020-U+2122"},"glyphs":{" ":{"w":259},"!":{"d":"133,-187r-62,0r90,-480r94,0xm126,-49v0,33,-28,59,-60,59v-28,0,-50,-23,-50,-51v0,-31,28,-59,60,-59v27,0,50,24,50,51","w":230},"\"":{"d":"230,-635v0,8,-4,16,-5,23r-72,200r-37,0r20,-210v2,-30,23,-55,54,-55v23,0,41,19,40,42xm300,-662v25,-28,80,-14,77,27v0,5,-2,13,-6,23r-71,200r-37,0r20,-210v1,-16,8,-29,17,-40","w":344},"#":{"d":"246,0r-61,0r101,-181r-111,0r-100,181r-62,0r101,-181r-106,0r28,-53r108,0r110,-199r-108,0r27,-52r111,0r99,-182r62,0r-100,182r110,0r100,-182r61,0r-101,182r107,0r-26,52r-109,0r-112,199r111,0r-28,53r-112,0xm314,-234r111,-199r-110,0r-110,199r109,0","w":591},"$":{"d":"534,-199v0,126,-115,224,-260,210r-19,89r-61,0r21,-95v-90,-17,-155,-54,-194,-113r57,-59v35,50,86,83,153,98r54,-241v-51,-21,-75,-32,-116,-62v-34,-25,-55,-58,-55,-111v0,-116,121,-207,253,-194r20,-91r61,0r-22,98v74,16,129,49,165,98r-56,58v-29,-39,-71,-66,-126,-81r-48,218v51,23,76,34,117,65v33,26,56,60,56,113xm291,-62v90,6,154,-49,154,-124v0,-61,-51,-75,-104,-101xm350,-604v-76,-5,-145,43,-147,109v0,21,9,39,26,53v17,14,43,28,76,42","w":593},"%":{"d":"129,0r-55,0r573,-667r56,0xm683,-182v0,106,-79,194,-178,194v-81,0,-150,-55,-150,-135v0,-106,79,-194,178,-194v81,0,150,55,150,135xm415,-128v0,50,40,89,91,89v67,0,117,-66,117,-138v0,-50,-41,-89,-92,-89v-66,0,-116,67,-116,138xm414,-542v0,106,-78,194,-178,194v-80,0,-149,-55,-149,-135v0,-106,79,-194,178,-194v81,0,149,55,149,135xm147,-488v0,50,40,89,91,89v67,0,117,-66,117,-138v0,-50,-41,-89,-92,-89v-66,0,-116,67,-116,138","w":732},"&":{"d":"374,-677v80,0,148,42,148,119v0,45,-22,86,-44,109v-40,41,-113,69,-171,91v31,68,78,142,114,198v44,-48,80,-97,107,-147r57,35v-45,69,-88,124,-128,165r81,107r-95,0v-17,-21,-31,-39,-43,-56v-60,45,-121,68,-183,68v-111,1,-202,-58,-201,-167v3,-137,97,-182,196,-225v-15,-44,-23,-83,-23,-116v0,-96,89,-181,185,-181xm100,-165v-2,72,56,115,126,115v43,0,89,-19,138,-58v-64,-92,-83,-126,-130,-220v-73,35,-131,69,-134,163xm376,-619v-59,1,-109,56,-109,123v0,25,6,54,18,88v51,-19,75,-28,115,-54v30,-20,49,-45,50,-88v1,-42,-32,-69,-74,-69","w":642},"'":{"d":"230,-635v0,8,-4,16,-5,23r-72,200r-37,0r20,-210v2,-30,23,-55,54,-55v23,0,41,19,40,42","w":199},"(":{"d":"141,169r-53,30v-87,-174,-80,-412,4,-599v46,-101,107,-197,190,-285r39,38v-145,189,-217,383,-217,584v0,70,12,147,37,232","w":248},")":{"d":"106,-655r53,-30v87,174,81,412,-3,599v-46,101,-108,197,-191,285r-39,-38v145,-189,217,-383,217,-584v0,-70,-12,-147,-37,-232","w":248},"*":{"d":"224,-389r-46,0r32,-117r-110,50r-14,-40r114,-41r-90,-62r31,-36r82,71r19,-113r47,0r-32,117r110,-51r13,41r-112,41r89,62r-31,36r-83,-71","w":340},"+":{"d":"484,-311r-191,0r-48,213r-57,0r47,-213r-191,0r11,-52r192,0r45,-207r58,0r-46,207r192,0","w":499},",":{"d":"75,-100v32,0,54,24,53,58v-1,71,-62,137,-115,163r-31,-33v45,-23,73,-51,84,-84v-31,3,-51,-17,-51,-45v-1,-31,29,-59,60,-59","w":230},"-":{"d":"262,-209r-240,0r14,-66r240,0","w":300},".":{"d":"126,-49v0,33,-28,59,-60,59v-28,0,-50,-23,-50,-51v0,-31,28,-59,60,-59v27,0,50,24,50,51","w":231},"\/":{"d":"2,20r-62,0r393,-707r63,0","w":296},"0":{"d":"374,-677v145,0,218,107,217,259v-1,153,-59,287,-147,364v-50,44,-104,66,-166,66v-145,0,-221,-109,-219,-260v1,-152,59,-286,148,-363v50,-43,105,-66,167,-66xm169,-406v-45,136,-46,346,116,344v102,-2,167,-111,195,-199v44,-134,48,-346,-115,-342v-102,3,-167,109,-196,197","w":612},"1":{"d":"207,0r-83,0r123,-558r-132,114r-38,-51r204,-172r73,0","w":339},"2":{"d":"340,-677v119,-1,231,58,227,175v-4,99,-60,161,-127,220v-95,84,-175,135,-293,208r327,0r-16,74r-458,0r18,-82r152,-95v99,-68,226,-144,285,-245v16,-26,24,-51,24,-76v0,-71,-67,-106,-144,-105v-67,0,-124,22,-171,65r-39,-59v46,-45,128,-80,215,-80","w":588},"3":{"d":"492,-195v0,120,-112,207,-240,207v-114,0,-222,-59,-255,-139r60,-47v29,64,106,111,194,112v91,1,160,-55,159,-140v-1,-71,-67,-104,-148,-103v-35,0,-57,0,-64,1r18,-76v7,1,37,1,90,1v84,0,161,-37,160,-118v-2,-69,-73,-106,-152,-106v-64,0,-120,22,-169,65r-35,-56v57,-55,127,-83,210,-83v124,-1,229,54,231,168v2,95,-94,165,-181,171v66,15,122,64,122,143","w":557},"4":{"d":"378,0r-83,0r37,-169r-317,0r17,-76r375,-422r118,0r-94,425r94,0r-16,73r-94,0xm348,-242r77,-348r-311,348r234,0","w":558},"5":{"d":"536,-231v0,136,-116,243,-257,243v-116,0,-197,-44,-244,-133r63,-50v35,73,96,109,185,109v90,0,166,-72,166,-160v0,-82,-65,-128,-150,-127v-50,0,-96,16,-139,48r-54,-27r74,-339r408,0r-16,74r-325,0r-49,220v37,-30,84,-45,140,-45v111,-1,198,72,198,187","w":590},"6":{"d":"540,-242v0,135,-120,254,-257,254v-148,0,-229,-95,-228,-246v1,-111,34,-213,79,-291v45,-80,132,-151,249,-152v92,0,159,33,201,100r-56,56v-39,-89,-181,-109,-260,-43v-68,56,-98,133,-122,232v36,-40,117,-86,192,-86v113,0,202,66,202,176xm135,-219v-1,93,56,157,149,157v92,0,170,-79,170,-169v0,-76,-67,-118,-149,-118v-62,0,-118,28,-168,83v-1,11,-2,26,-2,47","w":591},"7":{"d":"161,0r-96,0r398,-593r-355,0r16,-74r455,0r-13,57","w":515},"8":{"d":"517,-178v2,116,-123,190,-245,190v-126,0,-242,-53,-242,-170v0,-112,96,-174,202,-195v-57,-24,-114,-68,-116,-141v-3,-119,120,-183,237,-183v112,0,229,57,228,164v-1,105,-89,163,-189,177v60,29,124,76,125,158xm199,-486v0,56,72,98,121,108v88,-5,172,-40,172,-122v0,-63,-74,-102,-144,-102v-76,0,-149,43,-149,116xm118,-173v-1,76,76,111,156,111v78,0,160,-48,160,-124v0,-64,-75,-108,-129,-121v-92,4,-186,49,-187,134","w":582},"9":{"d":"89,-424v0,-135,120,-254,258,-254v148,0,229,95,228,246v-1,112,-34,213,-79,291v-45,80,-133,151,-250,152v-92,0,-159,-33,-201,-100r56,-56v29,55,79,82,150,82v109,0,162,-83,197,-161v15,-34,25,-71,36,-110v-37,41,-116,86,-192,86v-112,0,-203,-67,-203,-176xm493,-400v16,-116,-38,-204,-148,-204v-92,0,-169,79,-169,169v0,76,67,118,148,118v62,0,118,-28,169,-83","w":591},":":{"d":"126,-49v0,33,-28,59,-60,59v-28,0,-50,-23,-50,-51v0,-31,28,-59,60,-59v27,0,50,24,50,51xm212,-440v0,32,-28,60,-60,60v-27,0,-50,-24,-50,-51v0,-33,28,-59,60,-59v27,0,50,23,50,50","w":225},";":{"d":"75,-100v32,0,54,24,53,58v-1,71,-62,137,-115,163r-31,-33v45,-23,73,-51,84,-84v-31,3,-51,-17,-51,-45v-1,-31,29,-59,60,-59xm212,-440v0,32,-28,60,-60,60v-27,0,-50,-24,-50,-51v0,-33,28,-59,60,-59v27,0,50,23,50,50","w":230},"<":{"d":"435,-90r-393,-218r13,-53r489,-219r-15,66r-417,183r336,181","w":499},"=":{"d":"505,-404r-441,0r12,-53r441,0xm462,-211r-441,0r12,-53r441,0","w":499},">":{"d":"483,-308r-489,218r15,-66r418,-181r-337,-183r13,-60r392,219","w":499},"?":{"d":"292,-677v104,0,201,51,201,146v0,107,-90,147,-164,184v-39,20,-86,47,-89,96v0,15,6,28,17,39r-67,27v-31,-39,-30,-103,2,-141v48,-58,138,-75,188,-130v16,-17,24,-38,24,-61v-1,-59,-56,-86,-122,-86v-59,0,-110,21,-153,64r-38,-56v59,-55,126,-82,201,-82xm235,-49v0,33,-29,59,-61,59v-28,0,-50,-23,-50,-51v0,-31,29,-59,61,-59v27,0,50,24,50,51","w":462},"@":{"d":"89,-246v0,159,126,283,287,283v65,0,127,-19,186,-56r18,26v-65,42,-135,63,-208,63v-176,0,-317,-140,-317,-314v0,-206,193,-394,397,-394v180,0,315,140,315,317v0,126,-67,233,-173,236v-53,1,-92,-36,-91,-88v-31,45,-90,87,-159,88v-92,1,-153,-69,-153,-163v0,-127,114,-251,235,-251v62,0,109,35,128,78r13,-62r68,0r-57,271v-9,39,10,73,45,73v25,0,49,-15,73,-45v24,-30,36,-76,36,-137v3,-163,-119,-283,-283,-283v-185,0,-360,175,-360,358xm263,-252v0,64,38,112,102,111v57,0,107,-30,148,-90r29,-139v-13,-37,-51,-73,-103,-73v-96,0,-176,96,-176,191","w":783},"A":{"d":"595,0r-90,0r-27,-149r-332,0r-92,149r-99,0r416,-667r103,0xm470,-222r-62,-360r-221,360r283,0","w":658},"B":{"d":"561,-198v-2,118,-94,198,-228,198r-309,0r147,-667r277,0v94,-2,170,62,170,153v0,90,-73,172,-154,179v53,12,98,73,97,137xm528,-502v1,-53,-47,-91,-101,-91r-189,0r-48,215r207,0v84,3,129,-50,131,-124xm476,-204v0,-60,-45,-100,-107,-100r-195,0r-51,230r208,0v83,3,144,-55,145,-130","w":629},"C":{"d":"148,-284v0,132,91,222,225,222v66,0,126,-26,179,-77r62,47v-67,69,-149,104,-246,104v-174,0,-311,-119,-308,-292v4,-188,100,-312,235,-370v98,-42,224,-36,307,14v47,28,82,66,106,115r-80,31v-33,-70,-102,-113,-197,-114v-75,0,-141,30,-198,90v-57,60,-85,137,-85,230","w":676},"D":{"d":"394,-667v152,-3,281,129,277,285v-3,109,-43,194,-101,258v-65,73,-181,124,-319,124r-227,0r147,-667r223,0xm584,-378v0,-120,-88,-215,-206,-215r-140,0r-115,519r142,0v181,6,319,-132,319,-304","w":700},"E":{"d":"461,0r-437,0r147,-667r437,0r-16,74r-354,0r-48,215r348,0r-17,74r-347,0r-51,230r354,0","w":569},"F":{"d":"107,0r-83,0r147,-667r437,0r-16,74r-354,0r-48,215r348,0r-17,74r-347,0","w":551},"G":{"d":"148,-284v0,132,92,222,225,222v63,0,122,-24,176,-71r30,-136r-230,0r16,-74r313,0r-54,244v-72,74,-157,111,-256,111v-177,0,-308,-118,-308,-292v0,-218,169,-398,381,-398v125,0,218,63,263,146r-75,34v-31,-63,-107,-106,-198,-106v-156,0,-283,153,-283,320","w":713},"H":{"d":"580,0r-83,0r67,-306r-390,0r-67,306r-83,0r147,-667r83,0r-63,287r390,0r63,-287r83,0","w":712},"I":{"d":"107,0r-83,0r147,-667r83,0","w":239},"J":{"d":"158,12v-80,0,-149,-32,-180,-84r50,-60v26,47,68,70,126,70v88,-1,133,-62,151,-140r102,-465r83,0r-103,466v-31,142,-108,213,-229,213","w":475},"K":{"d":"531,0r-98,0r-190,-304r-87,80r-49,224r-83,0r147,-667r83,0r-75,337r365,-337r109,0r-348,316","w":601},"L":{"d":"406,0r-393,0r147,-667r83,0r-131,593r310,0","w":493},"M":{"d":"677,0r-83,0r124,-561r-350,561r-34,0r-103,-561r-124,561r-83,0r147,-667r116,0r93,514r321,-514r123,0","w":809},"N":{"d":"576,0r-80,0r-270,-537r-119,537r-83,0r147,-667r85,0r267,526r117,-526r83,0","w":708},"O":{"d":"743,-387v0,214,-166,399,-375,399v-175,0,-308,-115,-308,-292v0,-213,167,-398,375,-398v175,0,308,114,308,291xm148,-284v0,134,95,222,225,222v159,0,282,-151,282,-320v0,-134,-95,-222,-225,-222v-160,0,-282,151,-282,320","w":765},"P":{"d":"430,-667v95,-3,175,80,175,172v0,59,-21,112,-64,159v-43,47,-107,71,-192,71r-184,0r-58,265r-83,0r147,-667r259,0xm518,-488v1,-57,-52,-105,-111,-105r-169,0r-57,254r174,0v95,3,162,-61,163,-149","w":587},"Q":{"d":"743,-387v-2,143,-67,257,-152,323r41,58r-66,37r-39,-55v-50,24,-103,36,-159,36v-175,2,-308,-115,-308,-292v0,-213,167,-398,375,-398v175,0,310,114,308,291xm148,-284v0,134,95,223,225,222v38,0,75,-8,110,-25r-79,-112r66,-36r76,107v73,-64,109,-149,109,-254v0,-134,-95,-222,-225,-222v-160,0,-282,151,-282,320","w":765},"R":{"d":"605,-493v0,127,-95,218,-217,224r120,269r-92,0r-112,-265r-139,0r-58,265r-83,0r147,-667r245,0v99,-1,189,71,189,174xm518,-486v1,-60,-56,-107,-114,-107r-166,0r-57,255r176,0v94,3,160,-61,161,-148","w":609},"S":{"d":"529,-199v-1,121,-108,211,-243,211v-115,0,-225,-51,-270,-120r57,-59v42,61,122,103,220,105v85,2,147,-52,147,-124v0,-83,-100,-96,-166,-127v-76,-36,-163,-66,-165,-170v-2,-112,115,-195,237,-195v103,0,197,44,240,106r-56,58v-38,-53,-110,-86,-194,-90v-94,-5,-191,103,-104,167v76,57,202,71,263,146v22,27,34,57,34,92","w":586},"T":{"d":"272,0r-83,0r131,-593r-211,0r16,-74r506,0r-16,74r-212,0","w":570},"U":{"d":"165,-261v-25,123,54,200,171,199v131,-1,179,-82,206,-199r90,-406r84,0r-90,407v-19,88,-51,155,-96,202v-45,47,-110,70,-194,70v-169,0,-293,-101,-255,-271r90,-408r84,0","w":701},"V":{"d":"327,0r-103,0r-122,-667r91,0r98,576r352,-576r99,0","w":658},"W":{"d":"624,0r-90,0r-28,-538r-266,538r-90,0r-43,-667r90,0r25,556r275,-556r70,0r30,556r270,-556r95,0","w":883},"X":{"d":"586,0r-95,0r-154,-282r-272,282r-107,0r337,-348r-175,-319r95,0r143,265r251,-265r109,0r-318,330","w":652},"Y":{"d":"301,0r-83,0r62,-282r-178,-385r91,0r139,310r275,-310r103,0r-347,385","w":626},"Z":{"d":"483,0r-489,0r15,-69r485,-524r-369,0r16,-74r482,0r-15,69r-487,524r378,0","w":585},"[":{"d":"129,190r-185,0r192,-868r186,0r-12,55r-128,0r-168,758r128,0","w":243},"\\":{"d":"178,20r-80,-707r59,0r80,707r-59,0","w":296},"]":{"d":"107,190r-186,0r13,-55r127,0r168,-758r-128,0r12,-55r187,0","w":243},"^":{"d":"432,-333r-59,0r-73,-279r-197,279r-65,0r243,-334r57,0","w":432},"_":{"d":"491,95r-569,0r13,-55r569,0","w":564},"`":{"d":"295,-556r-57,0r-137,-144r78,0","w":226},"\u02cb":{"d":"295,-556r-57,0r-137,-144r78,0","w":226},"a":{"d":"40,-187v0,-155,101,-308,253,-308v77,0,139,37,168,88r17,-76r75,0r-107,483r-75,0r15,-69v-43,54,-96,81,-159,81v-114,1,-187,-80,-187,-199xm449,-350v-24,-44,-79,-78,-146,-78v-109,0,-184,115,-184,227v0,86,52,147,135,146v64,0,118,-42,148,-82","w":575},"b":{"d":"534,-296v0,155,-101,308,-253,308v-77,0,-139,-37,-168,-88r-17,76r-75,0r147,-667r75,0r-55,253v43,-54,96,-81,159,-81v115,-1,187,80,187,199xm125,-133v24,44,79,78,146,78v109,0,184,-115,184,-227v0,-86,-52,-147,-135,-146v-64,0,-118,42,-148,82","w":575},"c":{"d":"118,-205v0,93,62,150,151,150v49,0,90,-19,123,-58r42,51v-48,49,-105,74,-172,74v-130,1,-222,-85,-222,-216v0,-153,122,-291,272,-291v85,0,145,30,181,90r-57,43v-25,-44,-66,-66,-122,-66v-117,0,-196,107,-196,223","w":496},"d":{"d":"40,-187v0,-155,101,-308,253,-308v77,0,139,37,168,88r58,-260r75,0r-148,667r-75,0r15,-69v-43,54,-96,81,-159,81v-114,1,-187,-80,-187,-199xm449,-350v-24,-44,-79,-78,-146,-78v-109,0,-184,115,-184,227v0,86,52,147,135,146v64,0,118,-42,148,-82","w":575},"e":{"d":"119,-217v-14,101,60,167,162,167v54,0,100,-16,139,-48r26,53v-51,38,-107,57,-170,57v-138,0,-236,-81,-236,-214v0,-154,121,-293,272,-293v147,0,237,124,200,278r-393,0xm451,-273v9,-97,-51,-160,-146,-160v-89,0,-167,81,-179,160r325,0","w":563},"f":{"d":"117,0r-75,0r92,-417r-80,0r15,-66r80,0r8,-37v24,-105,77,-157,159,-157v44,0,80,14,107,41r-40,46v-15,-17,-35,-25,-61,-25v-46,0,-76,32,-90,95r-8,37r98,0r-15,66r-98,0","w":284},"g":{"d":"291,-495v70,1,139,42,169,88r17,-76r76,0r-105,467v-31,141,-110,212,-236,212v-99,0,-171,-27,-216,-82r47,-51v33,47,88,71,167,71v85,0,140,-50,163,-150r14,-61v-43,54,-97,81,-164,81v-114,-1,-184,-77,-184,-199v0,-152,101,-303,252,-300xm118,-207v0,86,51,146,135,145v62,-1,117,-40,148,-78r46,-208v-24,-46,-83,-80,-150,-80v-107,0,-179,112,-179,221","w":575},"h":{"d":"358,-495v97,0,160,60,138,160r-73,335r-75,0r70,-318v18,-69,-14,-111,-95,-110v-50,0,-100,25,-149,76r-77,352r-75,0r147,-667r74,0r-56,254v56,-55,113,-82,171,-82","w":552},"i":{"d":"243,-609v0,31,-29,57,-57,57v-25,0,-46,-20,-46,-44v0,-31,29,-57,57,-57v24,-1,46,20,46,44xm96,0r-75,0r107,-483r75,0","w":225},"j":{"d":"32,158v-47,53,-176,48,-215,-4r37,-53v17,22,40,33,68,33v47,0,76,-29,89,-87r117,-530r75,0r-117,530v-11,49,-31,85,-54,111xm243,-609v0,31,-29,57,-57,57v-25,0,-46,-20,-46,-44v0,-31,29,-57,57,-57v24,-1,46,20,46,44","w":225},"k":{"d":"446,0r-90,0r-128,-220r-101,82r-31,138r-75,0r147,-667r75,0r-96,436r306,-252r99,0r-263,219","w":514},"l":{"d":"96,0r-75,0r147,-667r75,0","w":225},"m":{"d":"631,-495v70,0,129,46,127,119v0,7,-1,21,-5,41r-74,335r-75,0r72,-324v15,-61,-23,-105,-79,-104v-45,0,-89,25,-132,76r-78,352r-75,0r72,-324v17,-61,-19,-104,-80,-104v-43,0,-86,25,-130,76r-78,352r-75,0r107,-483r75,0r-16,70v47,-55,98,-82,152,-82v65,0,125,46,127,97v51,-65,106,-97,165,-97","w":808},"n":{"d":"358,-495v97,0,160,60,138,160r-74,335r-74,0r70,-317v18,-73,-14,-110,-95,-111v-51,0,-101,25,-149,76r-78,352r-75,0r107,-483r75,0r-16,70v56,-55,113,-82,171,-82","w":552},"o":{"d":"530,-281v0,151,-119,293,-269,293v-132,0,-221,-85,-221,-215v0,-150,119,-292,269,-292v132,0,221,85,221,214xm119,-205v0,90,54,150,144,150v108,0,188,-114,188,-223v0,-90,-54,-150,-144,-150v-108,0,-188,114,-188,223"},"p":{"d":"534,-296v0,155,-101,308,-253,308v-77,0,-139,-37,-168,-88r-58,260r-75,0r148,-667r75,0r-15,69v43,-54,96,-81,159,-81v115,-1,187,80,187,199xm125,-133v24,44,79,78,146,78v109,0,184,-115,184,-227v0,-86,-52,-147,-135,-146v-64,0,-118,42,-148,82"},"q":{"d":"40,-187v0,-155,101,-308,253,-308v77,0,139,37,168,88r17,-76r75,0r-148,667r-75,0r56,-253v-43,54,-96,81,-159,81v-114,1,-187,-80,-187,-199xm449,-350v-24,-44,-79,-78,-146,-78v-109,0,-184,115,-184,227v0,86,52,147,135,146v64,0,118,-42,148,-82"},"r":{"d":"96,0r-75,0r107,-483r75,0r-17,73v47,-52,90,-83,180,-84r-17,78v-76,-19,-146,30,-178,75","w":330},"s":{"d":"397,-147v0,95,-84,159,-190,159v-90,0,-158,-29,-204,-86r48,-51v26,40,93,76,160,76v59,0,111,-33,111,-85v0,-43,-52,-61,-90,-76v-69,-27,-164,-48,-164,-136v0,-91,81,-149,183,-149v78,0,152,35,185,79r-44,49v-21,-37,-86,-67,-145,-67v-55,0,-104,26,-104,74v0,40,52,58,89,72v71,26,165,50,165,141","w":465},"t":{"d":"167,12v-85,1,-125,-41,-108,-116r70,-313r-80,0r15,-66r80,0r29,-132r74,0r-29,132r99,0r-15,66r-98,0r-67,298v-5,36,7,64,47,64v17,0,33,-5,46,-16r8,60v-20,15,-44,23,-71,23","w":294},"u":{"d":"193,12v-98,0,-162,-58,-139,-160r74,-335r75,0r-70,317v-18,71,14,111,95,111v51,0,100,-25,148,-76r78,-352r75,0r-107,483r-75,0r16,-70v-56,55,-113,82,-170,82","w":551},"v":{"d":"232,0r-82,0r-94,-483r79,0r72,396r249,-396r84,0","w":490},"w":{"d":"515,0r-76,0r-40,-388r-212,388r-75,0r-47,-483r76,0r31,385r213,-385r65,0r41,385r203,-385r82,0","w":734},"x":{"d":"421,0r-83,0r-101,-198r-189,198r-90,0r239,-248r-121,-235r82,0r94,184r175,-184r90,0r-228,235","w":487},"y":{"d":"-46,185r26,-67v49,17,88,7,119,-40r49,-75r-92,-486r79,0r72,396r249,-396r84,0r-372,581v-53,84,-120,117,-214,87","w":490},"z":{"d":"366,0r-368,0r12,-59r342,-358r-262,0r15,-66r364,0r-13,57r-344,360r268,0","w":472},"{":{"d":"49,55v-10,45,14,80,55,80r55,0r-12,55r-48,0v-68,0,-126,-57,-109,-134r46,-206v7,-35,-6,-68,-37,-69r12,-50v35,0,57,-23,67,-69r46,-205v17,-80,66,-133,154,-135r62,0r-13,55v-47,1,-90,-5,-115,21v-14,14,-25,33,-30,58r-48,218v-11,47,-33,77,-65,88v29,12,33,52,25,88","w":261},"|":{"d":"153,20r-55,0r0,-707r55,0r0,707","w":211},"}":{"d":"211,-543v10,-45,-16,-80,-56,-80r-55,0r13,-55r48,0v67,-1,125,58,108,134r-45,206v-7,34,5,68,36,69r-11,50v-35,0,-57,23,-67,69r-46,205v-17,80,-67,133,-155,135r-61,0r12,-55v47,-1,91,5,116,-21v14,-14,25,-33,30,-58r48,-218v10,-47,32,-76,65,-88v-29,-12,-33,-52,-25,-88","w":261},"~":{"d":"513,-667r55,6v-37,159,-96,238,-179,238v-49,0,-78,-29,-87,-67v-9,-35,-10,-77,-26,-104v-7,-13,-19,-19,-34,-19v-24,0,-47,17,-68,51v-21,34,-38,81,-52,140r-54,-7v35,-158,94,-237,178,-237v49,0,78,30,87,68v9,36,9,77,25,104v7,13,19,19,34,19v25,0,48,-18,69,-53v21,-35,39,-81,52,-139","w":503},"\u00a0":{"w":259},"\u00a1":{"d":"95,-296r62,0r-90,480r-94,0xm102,-434v0,-33,28,-59,60,-59v27,0,50,23,50,50v0,32,-28,60,-60,60v-27,0,-50,-24,-50,-51","w":230},"\u00a2":{"d":"196,4v-92,-22,-156,-96,-156,-208v0,-151,120,-292,267,-291r16,-70r59,0r-17,75v57,11,100,39,128,85r-57,43v-18,-31,-47,-52,-86,-62r-82,369v50,0,91,-19,124,-58r42,51v-51,51,-106,76,-181,74r-19,88r-59,0xm292,-426v-103,9,-174,109,-174,221v0,74,37,123,93,141","w":496},"\u00a3":{"d":"344,13v-55,0,-157,-46,-209,-46v-32,0,-70,13,-115,40r-16,-63v48,-19,89,-46,121,-82v38,-44,55,-74,47,-130r-147,0r11,-54r116,0v-20,-38,-56,-80,-56,-140v0,-117,120,-215,243,-215v93,0,187,47,206,119r-75,33v-11,-48,-68,-82,-128,-82v-85,0,-156,65,-156,152v0,55,36,97,52,133r147,0r-12,54r-121,0v4,79,-60,142,-109,174v14,-5,30,-8,47,-8v39,0,123,41,159,41v33,0,64,-13,92,-40r20,67v-35,31,-74,47,-117,47","w":518},"\u00a4":{"d":"461,-136r-34,27r-37,-49v-86,63,-203,58,-277,-15r-79,66r-23,-31r77,-63v-58,-105,-32,-201,49,-281r-37,-49r32,-26r39,48v84,-61,202,-58,276,14r78,-64r25,30r-78,64v58,102,32,199,-49,281xm261,-162v99,0,193,-90,193,-189v0,-89,-66,-153,-155,-153v-99,0,-193,90,-193,189v0,89,66,153,155,153","w":522},"\u00a5":{"d":"304,0r-83,0r27,-122r-253,0r12,-53r252,0r24,-107r-253,0r12,-52r217,0r-154,-333r91,0r139,310r275,-310r103,0r-300,333r211,0r-11,52r-247,0r-24,107r247,0r-12,53r-246,0","w":626},"\u00a6":{"d":"153,20r-55,0r0,-316r55,0r0,316xm153,-371r-55,0r0,-316r55,0r0,316","w":211},"\u00a7":{"d":"292,-621v-56,0,-109,30,-109,80v0,45,50,63,89,78v72,26,164,48,164,141v0,75,-56,125,-124,143v46,25,69,60,69,103v0,91,-86,157,-187,157v-93,0,-165,-27,-215,-81r48,-46v31,42,95,71,166,71v79,0,153,-84,86,-137v-71,-57,-225,-52,-225,-173v0,-78,67,-125,145,-137v-60,-25,-90,-61,-90,-110v1,-86,83,-145,180,-145v87,0,152,25,195,75r-44,41v-31,-40,-81,-60,-148,-60xm252,-204v58,-15,107,-45,107,-102v0,-54,-47,-70,-94,-88v-45,6,-78,18,-101,35v-42,30,-47,85,-6,113v19,13,51,27,94,42","w":468},"\u00a8":{"d":"324,-650v22,0,41,19,41,41v0,26,-25,51,-52,51v-22,0,-41,-19,-41,-41v0,-26,25,-51,52,-51xm118,-650v22,0,41,19,41,41v0,26,-26,51,-52,51v-22,0,-41,-19,-41,-41v0,-26,25,-51,52,-51","w":272},"\u00a9":{"d":"408,-679v185,0,346,160,346,345v0,186,-161,345,-346,345v-185,0,-344,-160,-344,-345v0,-186,158,-345,344,-345xm408,-20v168,0,315,-146,315,-314v0,-169,-147,-314,-315,-314v-168,0,-313,146,-313,314v0,167,146,314,313,314xm235,-308v0,86,66,154,155,154v45,0,84,-16,115,-47r20,28v-41,35,-86,52,-135,52v-112,0,-192,-78,-192,-186v0,-126,114,-241,236,-241v71,0,123,27,156,80r-31,22v-25,-46,-67,-69,-126,-69v-101,0,-198,99,-198,207","w":778},"\u00aa":{"d":"362,-557v-16,-25,-53,-45,-94,-45v-68,0,-121,73,-121,144v0,57,32,93,87,93v35,0,67,-16,96,-49xm87,-452v0,-100,73,-196,170,-196v52,0,90,18,113,54r10,-46r57,0r-69,314r-58,0r10,-46v-30,36,-66,54,-107,54v-75,0,-126,-54,-126,-134","w":410},"\u00ab":{"d":"220,-63r-71,0r-120,-180r200,-177r79,0r-204,182xm364,-63r-71,0r-120,-180r200,-177r79,0r-204,182","w":439},"\u00ac":{"d":"517,-457r-55,246r-55,0r43,-193r-386,0r12,-53r441,0","w":504},"\u00ad":{"d":"262,-209r-240,0r14,-66r240,0","w":300},"\u00ae":{"d":"296,-677v115,0,212,97,212,212v0,114,-99,212,-213,212v-114,0,-211,-98,-211,-212v0,-114,98,-212,212,-212xm295,-282v98,0,184,-85,184,-183v0,-100,-85,-183,-184,-183v-100,0,-182,83,-182,183v0,98,84,183,182,183xm403,-522v0,42,-41,83,-80,82r44,97r-38,0r-42,-96r-46,0r-21,96r-32,0r53,-243r92,0v39,-1,70,25,70,64xm315,-468v30,1,55,-22,54,-51v0,-24,-17,-39,-41,-39r-61,0r-20,90r68,0","w":494},"\u00af":{"d":"439,-591r-362,0r11,-48r362,0","w":363},"\u203e":{"d":"439,-591r-362,0r11,-48r362,0","w":363},"\u00b0":{"d":"213,-677v66,0,123,57,123,122v0,66,-57,122,-123,122v-65,0,-121,-56,-121,-122v0,-65,56,-122,121,-122xm212,-482v40,0,76,-34,76,-73v0,-39,-35,-74,-75,-74v-39,0,-73,35,-73,74v0,40,33,73,72,73","w":290},"\u00b1":{"d":"487,-324r-192,0r-47,213r-57,0r47,-213r-192,0r12,-52r192,0r45,-207r58,0r-46,207r192,0xm416,0r-441,0r11,-53r441,0","w":499},"\u00b2":{"d":"299,-827v74,0,146,35,144,109v0,40,-21,79,-63,116v-42,37,-106,81,-190,132r201,0r-10,49r-292,0r11,-49v104,-63,177,-111,219,-144v42,-33,63,-67,63,-101v0,-42,-41,-63,-85,-63v-46,0,-83,15,-112,46r-28,-39v37,-37,85,-56,142,-56","w":388},"\u00b3":{"d":"330,-621v40,7,78,39,77,86v-1,70,-68,121,-147,121v-73,0,-133,-27,-160,-73r40,-35v26,39,65,59,118,59v51,0,89,-33,89,-80v0,-50,-71,-64,-130,-58r11,-50v19,1,39,2,61,2v51,1,91,-22,92,-68v0,-41,-49,-62,-93,-61v-39,0,-75,14,-108,43r-23,-39v39,-35,84,-53,135,-53v77,-1,149,31,150,102v0,62,-51,100,-112,104","w":388},"\u00b4":{"d":"327,-700r-201,144r-59,0r180,-144r80,0","w":226},"\u00b5":{"d":"362,-68v-55,53,-169,106,-266,66r-41,186r-75,0r148,-667r75,0r-75,337v-8,66,24,94,88,93v62,0,126,-40,159,-75r79,-355r75,0r-107,483r-75,0","w":551},"\u03bc":{"d":"362,-68v-55,53,-169,106,-266,66r-41,186r-75,0r148,-667r75,0r-75,337v-8,66,24,94,88,93v62,0,126,-40,159,-75r79,-355r75,0r-107,483r-75,0","w":551},"\u00b6":{"d":"79,-479v0,-97,92,-188,194,-188r198,0r-170,767r-45,0r161,-722r-89,0r-161,722r-45,0r94,-423v-78,1,-137,-73,-137,-156","w":449},"\u00b7":{"d":"170,-249v0,33,-28,59,-60,59v-27,0,-50,-23,-50,-50v0,-32,28,-60,60,-60v27,0,50,24,50,51","w":231},"\u2219":{"d":"170,-249v0,33,-28,59,-60,59v-27,0,-50,-23,-50,-50v0,-32,28,-60,60,-60v27,0,50,24,50,51","w":231},"\u00b8":{"d":"127,102v0,56,-49,90,-108,89v-45,0,-81,-13,-108,-38r27,-36v22,23,50,35,83,35v35,1,60,-16,61,-47v2,-36,-55,-38,-72,-13r-29,-19r50,-84r45,0r-40,66v35,-27,91,-2,91,47","w":205},"\u00b9":{"d":"214,-421r-60,0r69,-318r-78,66r-29,-38r133,-110r53,0","w":235},"\u00ba":{"d":"421,-505v0,99,-83,187,-182,187v-88,0,-150,-57,-150,-143v0,-99,84,-187,182,-187v88,0,150,57,150,143xm149,-459v0,54,37,93,91,93v72,0,122,-69,122,-140v0,-55,-37,-93,-92,-93v-72,0,-121,68,-121,140","w":405},"\u00bb":{"d":"77,-420r71,0r120,180r-200,177r-79,0r204,-182xm221,-420r71,0r120,180r-200,177r-79,0r204,-182","w":439},"\u00bc":{"d":"683,-667r-574,667r-54,0r573,-667r55,0xm701,-100r-57,0r-22,100r-60,0r22,-100r-196,0r9,-45r230,-255r83,0r-56,251r57,0xm594,-149r44,-194r-179,194r135,0xm180,-267r-60,0r69,-318r-78,66r-29,-38r133,-110r53,0","w":770},"\u00bd":{"d":"683,-667r-574,667r-54,0r573,-667r55,0xm625,-406v74,0,146,35,144,109v0,40,-21,79,-63,116v-42,37,-106,81,-190,132r201,0r-10,49r-292,0r11,-49v104,-63,177,-111,219,-144v42,-33,63,-67,63,-101v0,-42,-41,-63,-85,-63v-46,0,-83,15,-112,46r-28,-39v37,-37,85,-56,142,-56xm180,-267r-60,0r69,-318r-78,66r-29,-38r133,-110r53,0","w":807},"\u00be":{"d":"791,-667r-574,667r-54,0r573,-667r55,0xm810,-100r-57,0r-22,100r-60,0r22,-100r-196,0r9,-45r230,-255r83,0r-56,251r57,0xm703,-149r44,-194r-179,194r135,0xm296,-467v40,7,78,39,77,86v-1,70,-68,121,-147,121v-73,0,-133,-27,-160,-73r40,-35v26,39,65,59,118,59v51,0,89,-33,89,-80v0,-50,-71,-64,-130,-58r11,-50v19,1,39,2,61,2v51,1,91,-22,92,-68v0,-41,-49,-62,-93,-61v-39,0,-75,14,-108,43r-23,-39v39,-35,84,-53,135,-53v77,-1,149,31,150,102v0,62,-51,100,-112,104","w":878},"\u00bf":{"d":"168,194v-104,0,-201,-51,-201,-146v0,-121,108,-156,188,-198v40,-21,92,-75,49,-121r66,-27v32,42,32,101,0,141v-47,59,-140,75,-190,130v-16,17,-24,38,-24,61v1,58,56,87,122,87v58,0,109,-22,154,-65r37,56v-57,55,-124,82,-201,82xm225,-434v0,-33,29,-59,61,-59v27,0,50,24,50,51v0,31,-29,59,-60,59v-28,0,-51,-23,-51,-51","w":394},"\u00c0":{"d":"503,-728r-57,0r-137,-144r78,0xm595,0r-90,0r-27,-149r-332,0r-92,149r-99,0r416,-667r103,0xm470,-222r-62,-360r-221,360r283,0","w":658},"\u00c1":{"d":"629,-872r-201,144r-59,0r180,-144r80,0xm595,0r-90,0r-27,-149r-332,0r-92,149r-99,0r416,-667r103,0xm470,-222r-62,-360r-221,360r283,0","w":658},"\u00c2":{"d":"570,-728r-49,0r-60,-106r-103,106r-53,0r127,-144r72,0xm595,0r-90,0r-27,-149r-332,0r-92,149r-99,0r416,-667r103,0xm470,-222r-62,-360r-221,360r283,0","w":658},"\u00c3":{"d":"507,-726v-33,0,-57,-24,-67,-46v-9,-19,-24,-46,-51,-46v-29,0,-49,29,-62,86r-46,0v18,-89,56,-134,114,-134v33,0,57,24,67,46v9,19,26,46,52,46v28,0,49,-29,62,-86r46,0v-19,89,-58,134,-115,134xm595,0r-90,0r-27,-149r-332,0r-92,149r-99,0r416,-667r103,0xm470,-222r-62,-360r-221,360r283,0","w":658},"\u00c4":{"d":"556,-819v22,0,41,19,41,41v0,26,-25,51,-52,51v-22,0,-41,-19,-41,-41v0,-26,25,-51,52,-51xm350,-819v22,0,41,19,41,41v0,26,-26,51,-52,51v-22,0,-41,-19,-41,-41v0,-26,25,-51,52,-51xm595,0r-90,0r-27,-149r-332,0r-92,149r-99,0r416,-667r103,0xm470,-222r-62,-360r-221,360r283,0","w":658},"\u00c5":{"d":"548,-800v0,57,-51,108,-108,108v-51,0,-89,-38,-89,-89v0,-57,51,-108,108,-108v53,0,89,36,89,89xm391,-785v0,30,22,53,52,53v34,0,65,-30,65,-64v0,-31,-20,-53,-51,-53v-33,0,-66,30,-66,64xm595,0r-90,0r-27,-149r-332,0r-92,149r-99,0r416,-667r103,0xm470,-222r-62,-360r-221,360r283,0","w":658},"\u00c6":{"d":"839,0r-437,0r32,-149r-258,0r-124,149r-99,0r563,-667r470,0r-16,74r-354,0r-48,215r348,0r-17,74r-347,0r-51,230r354,0xm451,-222r78,-354r-297,354r219,0","w":948},"\u00c7":{"d":"148,-284v0,132,91,222,225,222v66,0,126,-26,179,-77r62,47v-72,73,-154,109,-265,103r-26,44v35,-27,91,-2,91,47v0,56,-49,90,-108,89v-45,0,-81,-13,-108,-38r27,-36v22,23,50,35,83,35v35,1,60,-16,61,-47v2,-36,-55,-38,-72,-13r-29,-19r39,-66v-140,-21,-249,-129,-247,-287v3,-188,100,-312,235,-370v98,-42,224,-36,307,14v47,28,82,66,106,115r-80,31v-33,-70,-102,-113,-197,-114v-75,0,-141,30,-198,90v-57,60,-85,137,-85,230","w":676},"\u00c8":{"d":"470,-728r-57,0r-137,-144r78,0xm461,0r-437,0r147,-667r437,0r-16,74r-354,0r-48,215r348,0r-17,74r-347,0r-51,230r354,0","w":569},"\u00c9":{"d":"595,-872r-201,144r-59,0r180,-144r80,0xm461,0r-437,0r147,-667r437,0r-16,74r-354,0r-48,215r348,0r-17,74r-347,0r-51,230r354,0","w":569},"\u00ca":{"d":"535,-728r-49,0r-60,-106r-103,106r-53,0r127,-144r72,0xm461,0r-437,0r147,-667r437,0r-16,74r-354,0r-48,215r348,0r-17,74r-347,0r-51,230r354,0","w":569},"\u00cb":{"d":"522,-819v22,0,41,19,41,41v0,26,-25,51,-52,51v-22,0,-41,-19,-41,-41v0,-26,25,-51,52,-51xm316,-819v22,0,41,19,41,41v0,26,-26,51,-52,51v-22,0,-41,-19,-41,-41v0,-26,25,-51,52,-51xm461,0r-437,0r147,-667r437,0r-16,74r-354,0r-48,215r348,0r-17,74r-347,0r-51,230r354,0","w":569},"\u00cc":{"d":"292,-728r-57,0r-137,-144r78,0xm107,0r-83,0r147,-667r83,0","w":239},"\u00cd":{"d":"420,-872r-201,144r-59,0r180,-144r80,0xm107,0r-83,0r147,-667r83,0","w":239},"\u00ce":{"d":"359,-728r-49,0r-60,-106r-103,106r-53,0r127,-144r72,0xm107,0r-83,0r147,-667r83,0","w":239},"\u00cf":{"d":"345,-819v22,0,41,19,41,41v0,26,-25,51,-52,51v-22,0,-41,-19,-41,-41v0,-26,25,-51,52,-51xm139,-819v22,0,41,19,41,41v0,26,-26,51,-52,51v-22,0,-41,-19,-41,-41v0,-26,25,-51,52,-51xm107,0r-83,0r147,-667r83,0","w":239},"\u00d0":{"d":"422,-667v152,-3,281,129,277,285v-3,109,-43,194,-101,258v-65,73,-181,124,-319,124r-227,0r66,-300r-96,0r16,-68r95,0r66,-299r223,0xm612,-378v0,-120,-88,-215,-206,-215r-140,0r-50,225r169,0r-15,68r-169,0r-50,226r142,0v181,6,319,-132,319,-304","w":728},"\u00d1":{"d":"530,-726v-33,0,-56,-24,-66,-46v-9,-19,-25,-46,-52,-46v-29,0,-49,29,-62,86r-46,0v18,-89,56,-134,114,-134v33,0,56,24,66,46v9,19,27,46,53,46v28,0,49,-29,62,-86r46,0v-19,89,-58,134,-115,134xm576,0r-80,0r-270,-537r-119,537r-83,0r147,-667r85,0r267,526r117,-526r83,0","w":708},"\u00d2":{"d":"559,-728r-57,0r-137,-144r78,0xm743,-387v0,214,-166,399,-375,399v-175,0,-308,-115,-308,-292v0,-213,167,-398,375,-398v175,0,308,114,308,291xm148,-284v0,134,95,222,225,222v159,0,282,-151,282,-320v0,-134,-95,-222,-225,-222v-160,0,-282,151,-282,320","w":765},"\u00d3":{"d":"683,-872r-201,144r-59,0r180,-144r80,0xm743,-387v0,214,-166,399,-375,399v-175,0,-308,-115,-308,-292v0,-213,167,-398,375,-398v175,0,308,114,308,291xm148,-284v0,134,95,222,225,222v159,0,282,-151,282,-320v0,-134,-95,-222,-225,-222v-160,0,-282,151,-282,320","w":765},"\u00d4":{"d":"624,-728r-49,0r-60,-106r-103,106r-53,0r127,-144r72,0xm743,-387v0,214,-166,399,-375,399v-175,0,-308,-115,-308,-292v0,-213,167,-398,375,-398v175,0,308,114,308,291xm148,-284v0,134,95,222,225,222v159,0,282,-151,282,-320v0,-134,-95,-222,-225,-222v-160,0,-282,151,-282,320","w":765},"\u00d5":{"d":"560,-726v-33,0,-56,-24,-66,-46v-9,-19,-25,-46,-52,-46v-29,0,-49,29,-62,86r-46,0v18,-89,56,-134,114,-134v33,0,56,24,66,46v9,19,27,46,53,46v28,0,49,-29,62,-86r46,0v-19,89,-58,134,-115,134xm743,-387v0,214,-166,399,-375,399v-175,0,-308,-115,-308,-292v0,-213,167,-398,375,-398v175,0,308,114,308,291xm148,-284v0,134,95,222,225,222v159,0,282,-151,282,-320v0,-134,-95,-222,-225,-222v-160,0,-282,151,-282,320","w":765},"\u00d6":{"d":"608,-819v22,0,41,19,41,41v0,26,-25,51,-52,51v-22,0,-41,-19,-41,-41v0,-26,25,-51,52,-51xm402,-819v22,0,41,19,41,41v0,26,-26,51,-52,51v-22,0,-41,-19,-41,-41v0,-26,25,-51,52,-51xm743,-387v0,214,-166,399,-375,399v-175,0,-308,-115,-308,-292v0,-213,167,-398,375,-398v175,0,308,114,308,291xm148,-284v0,134,95,222,225,222v159,0,282,-151,282,-320v0,-134,-95,-222,-225,-222v-160,0,-282,151,-282,320","w":765},"\u00d7":{"d":"379,-150r-115,-147r-182,150r-34,-40r185,-151r-115,-146r42,-34r114,147r183,-150r32,40r-183,150r114,147","w":499},"\u00d8":{"d":"743,-387v0,214,-166,399,-375,399v-75,0,-139,-19,-194,-57r-40,45r-67,0r69,-78v-51,-53,-76,-120,-76,-202v0,-213,167,-398,375,-398v73,0,136,18,189,54r39,-43r67,0r-67,75v53,52,80,120,80,205xm373,-62v159,2,282,-151,282,-320v0,-59,-16,-108,-49,-146r-377,422v39,29,87,44,144,44xm430,-604v-160,-2,-282,151,-282,320v0,57,15,104,45,143r376,-421v-38,-28,-84,-42,-139,-42","w":765},"\u00d9":{"d":"525,-728r-57,0r-137,-144r78,0xm165,-261v-25,123,54,200,171,199v131,-1,179,-82,206,-199r90,-406r84,0r-90,407v-19,88,-51,155,-96,202v-45,47,-110,70,-194,70v-169,0,-293,-101,-255,-271r90,-408r84,0","w":701},"\u00da":{"d":"649,-872r-201,144r-59,0r180,-144r80,0xm165,-261v-25,123,54,200,171,199v131,-1,179,-82,206,-199r90,-406r84,0r-90,407v-19,88,-51,155,-96,202v-45,47,-110,70,-194,70v-169,0,-293,-101,-255,-271r90,-408r84,0","w":701},"\u00db":{"d":"595,-728r-49,0r-60,-106r-103,106r-53,0r127,-144r72,0xm165,-261v-25,123,54,200,171,199v131,-1,179,-82,206,-199r90,-406r84,0r-90,407v-19,88,-51,155,-96,202v-45,47,-110,70,-194,70v-169,0,-293,-101,-255,-271r90,-408r84,0","w":701},"\u00dc":{"d":"577,-819v22,0,41,19,41,41v0,26,-25,51,-52,51v-22,0,-41,-19,-41,-41v0,-26,25,-51,52,-51xm371,-819v22,0,41,19,41,41v0,26,-26,51,-52,51v-22,0,-41,-19,-41,-41v0,-26,25,-51,52,-51xm165,-261v-25,123,54,200,171,199v131,-1,179,-82,206,-199r90,-406r84,0r-90,407v-19,88,-51,155,-96,202v-45,47,-110,70,-194,70v-169,0,-293,-101,-255,-271r90,-408r84,0","w":701},"\u00dd":{"d":"616,-872r-201,144r-59,0r180,-144r80,0xm301,0r-83,0r62,-282r-178,-385r91,0r139,310r275,-310r103,0r-347,385","w":626},"\u00de":{"d":"403,-548v95,-3,179,79,175,173v-6,146,-100,229,-255,229r-184,0r-32,146r-83,0r147,-667r83,0r-26,119r175,0xm491,-369v1,-58,-53,-105,-111,-105r-169,0r-56,254r174,0v95,3,161,-62,162,-149","w":587},"\u00df":{"d":"338,-677v80,0,176,46,175,121v-2,107,-119,112,-176,164v-27,25,-27,61,5,83v73,49,217,48,217,164v0,91,-84,160,-187,157v-102,-3,-154,-31,-204,-90r47,-47v39,50,92,75,159,75v59,0,110,-35,110,-86v0,-41,-49,-58,-85,-72v-66,-24,-156,-44,-156,-129v0,-108,110,-121,171,-169v13,-11,20,-23,20,-37v1,-42,-53,-68,-98,-67v-69,0,-115,50,-129,111r-110,499r-75,0r110,-499v22,-98,91,-178,206,-178","w":597},"\u00e0":{"d":"40,-187v0,-155,101,-308,253,-308v77,0,139,37,168,88r17,-76r75,0r-107,483r-75,0r15,-69v-43,54,-96,81,-159,81v-114,1,-187,-80,-187,-199xm449,-350v-24,-44,-79,-78,-146,-78v-109,0,-184,115,-184,227v0,86,52,147,135,146v64,0,118,-42,148,-82xm406,-556r-57,0r-137,-144r78,0","w":575},"\u00e1":{"d":"40,-187v0,-155,101,-308,253,-308v77,0,139,37,168,88r17,-76r75,0r-107,483r-75,0r15,-69v-43,54,-96,81,-159,81v-114,1,-187,-80,-187,-199xm449,-350v-24,-44,-79,-78,-146,-78v-109,0,-184,115,-184,227v0,86,52,147,135,146v64,0,118,-42,148,-82xm532,-700r-201,144r-59,0r180,-144r80,0","w":575},"\u00e2":{"d":"40,-187v0,-155,101,-308,253,-308v77,0,139,37,168,88r17,-76r75,0r-107,483r-75,0r15,-69v-43,54,-96,81,-159,81v-114,1,-187,-80,-187,-199xm449,-350v-24,-44,-79,-78,-146,-78v-109,0,-184,115,-184,227v0,86,52,147,135,146v64,0,118,-42,148,-82xm474,-556r-49,0r-60,-106r-103,106r-53,0r127,-144r72,0","w":575},"\u00e3":{"d":"40,-187v0,-155,101,-308,253,-308v77,0,139,37,168,88r17,-76r75,0r-107,483r-75,0r15,-69v-43,54,-96,81,-159,81v-114,1,-187,-80,-187,-199xm449,-350v-24,-44,-79,-78,-146,-78v-109,0,-184,115,-184,227v0,86,52,147,135,146v64,0,118,-42,148,-82xm410,-554v-33,0,-56,-24,-66,-46v-9,-19,-25,-46,-52,-46v-29,0,-49,29,-62,86r-46,0v18,-89,56,-134,114,-134v33,0,56,24,66,46v9,19,27,46,53,46v28,0,49,-29,62,-86r46,0v-19,89,-58,134,-115,134","w":575},"\u00e4":{"d":"40,-187v0,-155,101,-308,253,-308v77,0,139,37,168,88r17,-76r75,0r-107,483r-75,0r15,-69v-43,54,-96,81,-159,81v-114,1,-187,-80,-187,-199xm449,-350v-24,-44,-79,-78,-146,-78v-109,0,-184,115,-184,227v0,86,52,147,135,146v64,0,118,-42,148,-82xm460,-650v22,0,41,19,41,41v0,26,-25,51,-52,51v-22,0,-41,-19,-41,-41v0,-26,25,-51,52,-51xm254,-650v22,0,41,19,41,41v0,26,-26,51,-52,51v-22,0,-41,-19,-41,-41v0,-26,25,-51,52,-51","w":575},"\u00e5":{"d":"40,-187v0,-155,101,-308,253,-308v77,0,139,37,168,88r17,-76r75,0r-107,483r-75,0r15,-69v-43,54,-96,81,-159,81v-114,1,-187,-80,-187,-199xm449,-350v-24,-44,-79,-78,-146,-78v-109,0,-184,115,-184,227v0,86,52,147,135,146v64,0,118,-42,148,-82xm460,-655v0,57,-51,108,-108,108v-51,0,-89,-38,-89,-89v0,-57,51,-108,108,-108v53,0,89,36,89,89xm303,-640v0,30,22,53,52,53v34,0,65,-30,65,-64v0,-31,-20,-53,-51,-53v-33,0,-66,30,-66,64","w":575},"\u00e6":{"d":"498,-217v-10,102,60,165,163,165v51,0,95,-16,134,-47r26,54v-51,38,-104,57,-159,57v-101,1,-167,-51,-191,-127r-25,115r-75,0r16,-69v-43,54,-97,81,-160,81v-114,1,-189,-80,-187,-199v2,-116,48,-211,120,-263v39,-30,84,-45,134,-45v75,0,131,29,168,88r16,-76r75,0r-18,80v49,-61,107,-92,174,-92v146,0,213,132,178,278r-389,0xm449,-350v-23,-44,-79,-78,-146,-78v-109,0,-183,115,-183,227v0,85,52,146,134,146v65,0,119,-41,148,-82xm826,-273v8,-96,-46,-160,-141,-160v-89,0,-167,81,-179,160r320,0","w":939},"\u00e7":{"d":"316,102v0,56,-49,90,-108,89v-45,0,-81,-13,-108,-38r27,-36v22,23,50,35,83,35v35,1,60,-16,61,-47v2,-36,-55,-38,-72,-13r-29,-19r39,-66v-101,-17,-169,-95,-169,-211v0,-153,122,-291,272,-291v85,0,145,30,181,90r-57,43v-25,-44,-66,-66,-122,-66v-117,0,-196,107,-196,223v0,93,62,150,151,150v49,0,90,-19,123,-58r42,51v-52,52,-107,76,-183,74r-26,43v35,-27,91,-2,91,47","w":496},"\u00e8":{"d":"119,-217v-14,101,60,167,162,167v54,0,100,-16,139,-48r26,53v-51,38,-107,57,-170,57v-138,0,-236,-81,-236,-214v0,-154,121,-293,272,-293v147,0,237,124,200,278r-393,0xm451,-273v9,-97,-51,-160,-146,-160v-89,0,-167,81,-179,160r325,0xm421,-556r-57,0r-137,-144r78,0","w":563},"\u00e9":{"d":"119,-217v-14,101,60,167,162,167v54,0,100,-16,139,-48r26,53v-51,38,-107,57,-170,57v-138,0,-236,-81,-236,-214v0,-154,121,-293,272,-293v147,0,237,124,200,278r-393,0xm451,-273v9,-97,-51,-160,-146,-160v-89,0,-167,81,-179,160r325,0xm547,-700r-201,144r-59,0r180,-144r80,0","w":563},"\u00ea":{"d":"119,-217v-14,101,60,167,162,167v54,0,100,-16,139,-48r26,53v-51,38,-107,57,-170,57v-138,0,-236,-81,-236,-214v0,-154,121,-293,272,-293v147,0,237,124,200,278r-393,0xm451,-273v9,-97,-51,-160,-146,-160v-89,0,-167,81,-179,160r325,0xm488,-556r-49,0r-60,-106r-103,106r-53,0r127,-144r72,0","w":563},"\u00eb":{"d":"119,-217v-14,101,60,167,162,167v54,0,100,-16,139,-48r26,53v-51,38,-107,57,-170,57v-138,0,-236,-81,-236,-214v0,-154,121,-293,272,-293v147,0,237,124,200,278r-393,0xm451,-273v9,-97,-51,-160,-146,-160v-89,0,-167,81,-179,160r325,0xm474,-650v22,0,41,19,41,41v0,26,-25,51,-52,51v-22,0,-41,-19,-41,-41v0,-26,25,-51,52,-51xm268,-650v22,0,41,19,41,41v0,26,-26,51,-52,51v-22,0,-41,-19,-41,-41v0,-26,25,-51,52,-51","w":563},"\u00ec":{"d":"247,-556r-57,0r-137,-144r78,0xm96,0r-75,0r107,-483r75,0","w":225},"\u00ed":{"d":"374,-700r-201,144r-59,0r180,-144r80,0xm96,0r-75,0r107,-483r75,0","w":225},"\u00ee":{"d":"315,-556r-49,0r-60,-106r-103,106r-53,0r127,-144r72,0xm96,0r-75,0r107,-483r75,0","w":225},"\u00ef":{"d":"301,-650v22,0,41,19,41,41v0,26,-25,51,-52,51v-22,0,-41,-19,-41,-41v0,-26,25,-51,52,-51xm95,-650v22,0,41,19,41,41v0,26,-26,51,-52,51v-22,0,-41,-19,-41,-41v0,-26,25,-51,52,-51xm96,0r-75,0r107,-483r75,0","w":225},"\u00f0":{"d":"39,-194v0,-181,174,-353,349,-258v31,17,53,44,68,79v-21,-63,-61,-125,-120,-185r-158,47r-9,-41r132,-39v-14,-13,-36,-30,-65,-53r53,-57v38,29,70,57,97,84r117,-35r8,41r-94,28v77,91,116,185,116,280v0,165,-110,315,-269,315v-127,0,-225,-84,-225,-206xm118,-202v0,88,57,147,147,147v104,0,186,-106,183,-215v-2,-81,-58,-142,-148,-142v-103,0,-182,102,-182,210"},"\u00f1":{"d":"361,-495v97,0,160,60,138,160r-74,335r-74,0r70,-317v18,-73,-14,-110,-95,-111v-51,0,-101,25,-149,76r-78,352r-75,0r107,-483r75,0r-16,70v56,-55,113,-82,171,-82xm416,-554v-33,0,-56,-24,-66,-46v-9,-19,-25,-46,-52,-46v-29,0,-49,29,-62,86r-46,0v18,-89,56,-134,114,-134v33,0,56,24,66,46v9,19,27,46,53,46v28,0,49,-29,62,-86r46,0v-19,89,-58,134,-115,134","w":552},"\u00f2":{"d":"530,-281v0,151,-119,293,-269,293v-132,0,-221,-85,-221,-215v0,-150,119,-292,269,-292v132,0,221,85,221,214xm119,-205v0,90,54,150,144,150v108,0,188,-114,188,-223v0,-90,-54,-150,-144,-150v-108,0,-188,114,-188,223xm421,-556r-57,0r-137,-144r78,0"},"\u00f3":{"d":"530,-281v0,151,-119,293,-269,293v-132,0,-221,-85,-221,-215v0,-150,119,-292,269,-292v132,0,221,85,221,214xm119,-205v0,90,54,150,144,150v108,0,188,-114,188,-223v0,-90,-54,-150,-144,-150v-108,0,-188,114,-188,223xm547,-700r-201,144r-59,0r180,-144r80,0"},"\u00f4":{"d":"530,-281v0,151,-119,293,-269,293v-132,0,-221,-85,-221,-215v0,-150,119,-292,269,-292v132,0,221,85,221,214xm119,-205v0,90,54,150,144,150v108,0,188,-114,188,-223v0,-90,-54,-150,-144,-150v-108,0,-188,114,-188,223xm489,-556r-49,0r-60,-106r-103,106r-53,0r127,-144r72,0"},"\u00f5":{"d":"530,-281v0,151,-119,293,-269,293v-132,0,-221,-85,-221,-215v0,-150,119,-292,269,-292v132,0,221,85,221,214xm119,-205v0,90,54,150,144,150v108,0,188,-114,188,-223v0,-90,-54,-150,-144,-150v-108,0,-188,114,-188,223xm426,-554v-33,0,-56,-24,-66,-46v-9,-19,-25,-46,-52,-46v-29,0,-49,29,-62,86r-46,0v18,-89,56,-134,114,-134v33,0,56,24,66,46v9,19,27,46,53,46v28,0,49,-29,62,-86r46,0v-19,89,-58,134,-115,134"},"\u00f6":{"d":"530,-281v0,151,-119,293,-269,293v-132,0,-221,-85,-221,-215v0,-150,119,-292,269,-292v132,0,221,85,221,214xm119,-205v0,90,54,150,144,150v108,0,188,-114,188,-223v0,-90,-54,-150,-144,-150v-108,0,-188,114,-188,223xm474,-650v22,0,41,19,41,41v0,26,-25,51,-52,51v-22,0,-41,-19,-41,-41v0,-26,25,-51,52,-51xm268,-650v22,0,41,19,41,41v0,26,-26,51,-52,51v-22,0,-41,-19,-41,-41v0,-26,25,-51,52,-51"},"\u00f7":{"d":"497,-311r-453,0r11,-52r453,0xm279,-148v0,27,-23,49,-50,49v-22,0,-42,-20,-42,-42v0,-26,24,-49,50,-49v23,0,42,20,42,42xm364,-530v0,27,-24,50,-51,50v-22,0,-41,-20,-41,-43v0,-26,23,-49,50,-49v22,0,42,20,42,42","w":511},"\u00f8":{"d":"530,-281v0,151,-119,293,-269,293v-63,0,-115,-17,-155,-52r-40,40r-58,0r71,-70v-26,-36,-39,-80,-39,-133v0,-150,119,-292,269,-292v61,0,111,16,151,49r37,-37r58,0r-68,67v29,37,43,82,43,135xm263,-55v133,0,232,-176,168,-306r-271,269v25,25,59,37,103,37xm307,-428v-132,-3,-229,169,-171,302r270,-267v-25,-23,-58,-35,-99,-35"},"\u00f9":{"d":"193,12v-98,0,-162,-58,-139,-160r74,-335r75,0r-70,317v-18,71,14,111,95,111v51,0,100,-25,148,-76r78,-352r75,0r-107,483r-75,0r16,-70v-56,55,-113,82,-170,82xm413,-556r-57,0r-137,-144r78,0","w":551},"\u00fa":{"d":"193,12v-98,0,-162,-58,-139,-160r74,-335r75,0r-70,317v-18,71,14,111,95,111v51,0,100,-25,148,-76r78,-352r75,0r-107,483r-75,0r16,-70v-56,55,-113,82,-170,82xm538,-700r-201,144r-59,0r180,-144r80,0","w":551},"\u00fb":{"d":"193,12v-98,0,-162,-58,-139,-160r74,-335r75,0r-70,317v-18,71,14,111,95,111v51,0,100,-25,148,-76r78,-352r75,0r-107,483r-75,0r16,-70v-56,55,-113,82,-170,82xm478,-556r-49,0r-60,-106r-103,106r-53,0r127,-144r72,0","w":551},"\u00fc":{"d":"193,12v-98,0,-162,-58,-139,-160r74,-335r75,0r-70,317v-18,71,14,111,95,111v51,0,100,-25,148,-76r78,-352r75,0r-107,483r-75,0r16,-70v-56,55,-113,82,-170,82xm467,-650v22,0,41,19,41,41v0,26,-25,51,-52,51v-22,0,-41,-19,-41,-41v0,-26,25,-51,52,-51xm261,-650v22,0,41,19,41,41v0,26,-26,51,-52,51v-22,0,-41,-19,-41,-41v0,-26,25,-51,52,-51","w":551},"\u00fd":{"d":"-46,185r26,-67v49,17,88,7,119,-40r49,-75r-92,-486r79,0r72,396r249,-396r84,0r-372,581v-53,84,-120,117,-214,87xm507,-700r-201,144r-59,0r180,-144r80,0","w":490},"\u00fe":{"d":"534,-296v0,155,-101,308,-253,308v-77,0,-139,-37,-168,-88r-58,260r-75,0r188,-851r75,0r-55,253v43,-54,96,-81,159,-81v115,-1,187,80,187,199xm125,-133v24,44,79,78,146,78v109,0,184,-115,184,-227v0,-86,-52,-147,-135,-146v-64,0,-118,42,-148,82"},"\u00ff":{"d":"-46,185r26,-67v49,17,88,7,119,-40r49,-75r-92,-486r79,0r72,396r249,-396r84,0r-372,581v-53,84,-120,117,-214,87xm433,-650v22,0,41,19,41,41v0,26,-25,51,-52,51v-22,0,-41,-19,-41,-41v0,-26,25,-51,52,-51xm227,-650v22,0,41,19,41,41v0,26,-26,51,-52,51v-22,0,-41,-19,-41,-41v0,-26,25,-51,52,-51","w":490},"\u0152":{"d":"60,-280v0,-218,167,-397,376,-397v122,0,202,51,239,154r32,-144r437,0r-16,74r-354,0r-48,215r347,0r-16,74r-348,0r-51,230r355,0r-16,74r-437,0r21,-102v-57,76,-137,114,-240,114v-164,0,-281,-126,-281,-292xm148,-284v0,131,89,223,218,222v109,-1,194,-63,238,-139r49,-223v-16,-108,-97,-179,-217,-179v-162,0,-288,150,-288,319","w":1105},"\u0153":{"d":"714,-495v145,0,238,125,198,278r-389,0v-10,102,59,167,161,167v52,0,97,-16,136,-48r26,53v-47,38,-102,57,-167,57v-102,0,-189,-66,-207,-138v-26,40,-39,55,-74,88v-33,30,-79,50,-139,50v-131,1,-219,-83,-219,-215v0,-149,118,-292,267,-292v98,0,176,68,192,138v59,-92,131,-138,215,-138xm851,-273v12,-93,-50,-160,-143,-160v-88,0,-168,85,-177,160r320,0xm261,-55v107,0,186,-111,186,-223v0,-94,-56,-149,-142,-150v-106,-2,-186,112,-186,223v0,90,52,150,142,150","w":962},"\u0178":{"d":"542,-819v22,0,41,19,41,41v0,26,-25,51,-52,51v-22,0,-41,-19,-41,-41v0,-26,25,-51,52,-51xm336,-819v22,0,41,19,41,41v0,26,-26,51,-52,51v-22,0,-41,-19,-41,-41v0,-26,25,-51,52,-51xm301,0r-83,0r62,-282r-178,-385r91,0r139,310r275,-310r103,0r-347,385","w":626},"\u02c6":{"d":"334,-556r-49,0r-60,-106r-103,106r-53,0r127,-144r72,0","w":265},"\u02dc":{"d":"296,-554v-33,0,-56,-24,-66,-46v-9,-19,-25,-46,-52,-46v-29,0,-49,29,-62,86r-46,0v18,-89,56,-134,114,-134v33,0,56,24,66,46v9,19,27,46,53,46v28,0,49,-29,62,-86r46,0v-19,89,-58,134,-115,134","w":313},"\u2013":{"d":"555,-209r-533,0r14,-66r533,0","w":593},"\u2014":{"d":"795,-209r-773,0r14,-66r773,0","w":833},"\u2018":{"d":"162,-457v-32,0,-54,-24,-53,-58v1,-70,61,-137,115,-162r31,32v-33,16,-72,50,-84,84v31,-3,51,17,51,45v1,31,-29,59,-60,59","w":230},"\u2019":{"d":"203,-677v32,0,54,24,53,58v-1,71,-62,137,-115,163r-31,-33v33,-16,72,-50,84,-84v-31,3,-50,-17,-50,-45v-1,-31,28,-59,59,-59","w":230},"\u201a":{"d":"75,-100v32,0,54,24,53,58v-1,71,-62,137,-115,163r-31,-33v45,-23,73,-51,84,-84v-31,3,-51,-17,-51,-45v-1,-31,29,-59,60,-59","w":230},"\u201c":{"d":"328,-457v-31,0,-54,-25,-53,-58v1,-70,63,-137,116,-162r31,32v-33,16,-72,50,-84,84v31,-3,50,17,50,45v1,31,-29,60,-60,59xm169,-457v-32,0,-54,-24,-53,-58v1,-70,63,-137,116,-162r30,32v-33,16,-72,50,-84,84v31,-3,51,17,51,45v1,31,-29,59,-60,59","w":390},"\u201d":{"d":"203,-677v32,0,54,24,53,58v-1,71,-62,137,-115,163r-31,-33v33,-16,72,-50,84,-84v-31,3,-50,-17,-50,-45v-1,-31,28,-59,59,-59xm363,-677v32,0,54,24,53,58v-1,71,-63,137,-116,163r-30,-33v33,-16,71,-51,84,-84v-31,3,-51,-17,-51,-45v-1,-31,29,-59,60,-59","w":390},"\u201e":{"d":"75,-100v32,0,54,24,53,58v-1,71,-62,137,-115,163r-31,-33v45,-23,73,-51,84,-84v-31,3,-51,-17,-51,-45v-1,-31,29,-59,60,-59xm235,-100v32,0,54,24,53,58v-1,71,-63,137,-116,163r-30,-33v33,-16,71,-49,83,-84v-30,3,-50,-17,-50,-45v-1,-31,29,-59,60,-59","w":390},"\u2022":{"d":"191,-350v53,0,97,44,97,97v0,62,-59,118,-121,118v-53,0,-97,-44,-97,-97v0,-62,59,-118,121,-118","w":358},"\u2026":{"d":"126,-49v0,33,-28,59,-60,59v-28,0,-50,-23,-50,-51v0,-31,28,-59,60,-59v27,0,50,24,50,51xm356,-49v0,33,-28,59,-60,59v-28,0,-50,-23,-50,-51v0,-31,28,-59,60,-59v27,0,50,24,50,51xm587,-49v0,33,-29,59,-61,59v-28,0,-50,-23,-50,-51v0,-31,28,-59,60,-59v28,0,51,23,51,51","w":691},"\u2039":{"d":"220,-63r-71,0r-120,-180r200,-177r79,0r-204,182","w":295},"\u203a":{"d":"77,-420r71,0r120,180r-200,177r-79,0r204,-182","w":295},"\u20ac":{"d":"176,-237v17,104,100,176,221,175v66,0,126,-26,179,-77r62,47v-67,69,-149,104,-246,104v-164,2,-289,-101,-306,-249r-57,0r12,-52r43,0v1,-33,5,-63,10,-90r-34,0r12,-53r38,0v48,-135,181,-245,349,-246v134,-1,228,65,273,157r-80,31v-33,-70,-102,-114,-197,-114v-118,0,-213,81,-252,172r314,0r-12,53r-321,0v-8,28,-12,58,-12,90r313,0r-12,52r-297,0","w":695},"\u2122":{"d":"464,-447r-28,0r40,-182r-115,182r-8,0r-35,-182r-40,182r-28,0r48,-220r43,0r29,160r99,-160r43,0xm257,-641r-62,0r-43,194r-28,0r43,-194r-62,0r5,-26r152,0","w":454}}});
