/*!
 * The following copyright notice may not be removed under any circumstances.
 * 
 * Copyright:
 * Copyright (c) Mark Simonson, 2005. All rights reserved.
 * 
 * Description:
 * This is a protected webfont and is intended for CSS @font-face use ONLY.
 * Reverse engineering this font is strictly prohibited.
 */
Cufon.registerFont({"w":589,"face":{"font-family":"","font-weight":800,"font-stretch":"normal","units-per-em":"1000","panose-1":"2 0 5 6 3 0 0 2 0 4","ascent":"790","descent":"-210","x-height":"12","bbox":"-104 -911 1037 199","underline-thickness":"20","underline-position":"-113","unicode-range":"U+0020-U+2122"},"glyphs":{" ":{"w":256},"!":{"d":"203,-233r-137,0r-24,-434r184,0xm228,-83v0,49,-44,94,-93,94v-49,0,-94,-45,-94,-94v0,-49,45,-93,94,-93v49,0,93,44,93,93","w":267},"\"":{"d":"119,-677v43,0,85,37,81,80v-6,61,-34,174,-48,240r-65,0v-32,-146,-48,-226,-48,-240v-1,-43,37,-80,80,-80xm319,-677v43,0,84,37,80,80v-6,61,-34,174,-48,240r-64,0v-32,-146,-48,-226,-48,-240v-1,-43,36,-80,80,-80","w":438},"#":{"d":"358,0r-111,0r55,-164r-87,0r-54,164r-110,0r55,-164r-92,0r31,-95r93,0r49,-148r-93,0r30,-95r95,0r55,-165r110,0r-55,165r86,0r55,-165r111,0r-56,165r93,0r-29,95r-95,0r-50,148r96,0r-30,95r-98,0xm333,-259r50,-148r-86,0r-49,148r85,0","w":632},"$":{"d":"598,-211v0,132,-93,207,-223,220r0,91r-111,0r0,-91v-97,-9,-177,-44,-240,-103r91,-134v42,42,92,69,149,81r0,-111v-62,-14,-100,-27,-146,-58v-44,-29,-72,-78,-72,-149v0,-118,98,-199,218,-209r0,-94r111,0r0,95v81,11,150,41,207,89r-94,129v-33,-27,-70,-46,-113,-58r0,97v116,27,223,67,223,205xm423,-193v0,-17,-16,-30,-48,-40r0,88v32,-9,48,-25,48,-48xm221,-479v0,16,14,28,43,37r0,-80v-29,5,-43,19,-43,43","w":625},"%":{"d":"372,-509v0,96,-76,166,-176,166v-98,0,-173,-71,-173,-166v0,-96,74,-168,173,-168v101,0,176,71,176,168xm217,0r-87,0r426,-667r88,0xm748,-154v0,95,-76,166,-174,166v-99,0,-174,-70,-174,-166v0,-97,74,-168,174,-168v99,0,174,72,174,168xm129,-509v0,44,25,74,67,74v41,0,69,-30,69,-74v0,-45,-27,-76,-69,-76v-42,0,-67,31,-67,76xm506,-154v0,45,26,74,68,74v42,0,68,-29,68,-74v0,-45,-26,-76,-68,-76v-42,0,-68,31,-68,76","w":771},"&":{"d":"321,-677v95,0,189,55,187,146v0,46,-14,82,-42,108v-28,26,-68,50,-119,73r94,118v23,-37,42,-77,55,-118r121,56v-29,61,-60,113,-94,156r128,138r-192,0r-40,-41v-53,35,-111,53,-174,53v-128,1,-229,-69,-227,-197v2,-106,65,-149,141,-190v-27,-52,-40,-99,-40,-140v0,-97,96,-162,202,-162xm179,-200v0,52,39,94,88,93v23,0,47,-7,72,-21v-34,-40,-55,-65,-62,-74v-13,-16,-33,-42,-60,-78v-25,22,-38,49,-38,80xm329,-569v-33,0,-59,25,-58,58v0,21,8,47,23,78v43,-22,80,-38,83,-89v2,-28,-21,-47,-48,-47","w":649},"'":{"d":"119,-677v43,0,85,37,81,80v-6,61,-34,174,-48,240r-65,0v-32,-146,-48,-226,-48,-240v-1,-43,37,-80,80,-80","w":239},"(":{"d":"204,-243v0,158,36,258,100,366r-97,76v-93,-89,-168,-269,-168,-442v0,-172,75,-354,168,-442r97,74v-64,111,-100,207,-100,368","w":322},")":{"d":"117,-243v0,158,-36,258,-99,366r97,76v93,-89,168,-269,168,-442v0,-172,-75,-354,-168,-442r-97,74v63,111,99,207,99,368","w":322},"*":{"d":"215,-355r-72,0r4,-107r-90,58r-36,-63r95,-49r-95,-49r36,-62r90,57r-4,-107r72,0r-6,107r91,-57r36,62r-95,49r95,49r-36,63r-91,-58","w":357},"+":{"d":"478,-291r-174,0r0,198r-101,0r0,-198r-174,0r0,-92r174,0r0,-191r101,0r0,191r174,0r0,92","w":507},",":{"d":"132,-176v59,1,102,50,102,115v0,82,-38,150,-114,203r-64,-52v30,-15,75,-60,85,-95v-57,15,-101,-26,-101,-79v0,-49,43,-93,92,-92","w":268},"-":{"d":"270,-178r-240,0r0,-129r240,0r0,129","w":300},".":{"d":"229,-83v0,49,-45,94,-94,94v-49,0,-95,-45,-95,-94v0,-48,46,-93,95,-93v49,0,94,44,94,93","w":270},"\/":{"d":"109,20r-109,0r237,-707r109,0","w":346},"0":{"d":"438,-17v-71,39,-181,39,-252,0v-103,-55,-160,-165,-160,-316v0,-133,45,-232,126,-294v85,-65,235,-65,320,0v81,62,126,160,126,294v0,151,-58,262,-160,316xm312,-140v75,0,112,-64,112,-193v0,-128,-37,-192,-112,-192v-75,0,-112,64,-112,192v0,129,37,193,112,193","w":624},"1":{"d":"387,0r-172,0r0,-447r-112,113r-98,-103r233,-230r149,0r0,667","w":447},"2":{"d":"292,-677v147,-3,271,83,270,221v0,51,-19,99,-56,146v-37,47,-98,101,-183,160r244,0r0,150r-523,0r0,-134v148,-107,242,-178,282,-216v40,-38,61,-73,61,-106v0,-45,-45,-70,-92,-69v-67,0,-126,24,-178,73r-95,-114v58,-67,156,-109,270,-111","w":607},"3":{"d":"568,-186v-3,130,-131,198,-276,198v-121,0,-220,-41,-276,-105r87,-117v39,40,111,69,182,70v59,1,112,-17,112,-65v0,-20,-9,-34,-27,-43v-20,-18,-153,-14,-182,-12r0,-153v9,1,39,1,90,1v72,0,108,-17,108,-52v0,-47,-57,-61,-112,-61v-63,0,-118,21,-166,64r-83,-108v65,-72,154,-108,267,-108v84,0,150,16,196,49v46,33,69,78,69,134v1,80,-73,140,-146,150v77,7,159,70,157,158","w":602},"4":{"d":"514,0r-173,0r0,-122r-319,0r0,-134r253,-411r239,0r0,394r81,0r0,151r-81,0r0,122xm341,-273r0,-244r-152,244r152,0","w":616},"5":{"d":"591,-224v0,151,-121,236,-282,236v-113,0,-202,-32,-268,-97r93,-121v47,44,105,66,173,66v60,0,109,-26,109,-77v0,-52,-45,-78,-104,-77v-53,0,-97,17,-132,50r-119,-29r0,-394r484,0r0,150r-312,0r0,129v37,-35,84,-53,143,-53v119,-1,215,92,215,217","w":617},"6":{"d":"595,-222v0,140,-120,234,-266,234v-202,0,-303,-144,-303,-344v0,-206,128,-347,331,-345v80,0,147,21,202,64r-74,132v-36,-29,-79,-44,-128,-44v-87,0,-163,66,-157,160v30,-42,95,-76,164,-76v127,-1,231,87,231,219xm200,-250v6,62,46,110,118,110v53,0,102,-31,103,-76v1,-54,-55,-79,-109,-79v-47,0,-84,15,-112,45","w":617},"7":{"d":"309,0r-189,0r226,-517r-325,0r0,-150r523,0r0,119","w":560},"8":{"d":"456,-344v70,25,136,83,136,168v0,90,-72,147,-146,169v-170,50,-422,6,-420,-169v1,-84,67,-143,135,-168v-83,-31,-124,-83,-124,-155v-1,-87,73,-141,143,-161v77,-23,181,-23,258,0v71,20,144,74,143,161v0,72,-42,124,-125,155xm309,-525v-49,0,-97,14,-97,55v0,37,59,54,97,59v39,-5,96,-22,96,-59v0,-41,-47,-55,-96,-55xm201,-200v0,43,56,60,108,60v52,0,108,-17,108,-60v0,-41,-67,-60,-108,-66v-43,6,-108,24,-108,66","w":618},"9":{"d":"590,-334v0,206,-126,347,-330,345v-80,0,-147,-21,-202,-64r74,-132v36,29,79,44,128,44v92,2,160,-68,156,-160v-28,42,-95,76,-163,76v-127,1,-232,-87,-232,-219v0,-139,121,-234,266,-234v202,0,303,144,303,344xm196,-450v-1,53,55,79,108,79v47,0,84,-15,112,-45v-5,-64,-45,-110,-119,-110v-52,0,-100,31,-101,76","w":617},":":{"d":"229,-396v0,49,-45,94,-94,94v-49,0,-95,-45,-95,-94v0,-49,46,-94,95,-94v49,0,94,45,94,94xm229,-83v0,49,-45,94,-94,94v-49,0,-95,-45,-95,-94v0,-48,46,-93,95,-93v49,0,94,44,94,93","w":256},";":{"d":"229,-397v0,49,-45,95,-94,95v-49,0,-95,-46,-95,-95v0,-49,46,-93,95,-93v49,0,94,44,94,93xm132,-181v59,1,102,50,102,115v0,82,-38,150,-114,203r-64,-52v30,-15,75,-60,85,-95v-57,15,-101,-26,-101,-79v0,-49,43,-93,92,-92","w":268},"<":{"d":"478,-90r-449,-189r0,-111r449,-190r0,109r-344,137r344,135r0,109","w":507},"=":{"d":"478,-381r-449,0r0,-92r449,0r0,92xm478,-195r-449,0r0,-92r449,0r0,92","w":507},">":{"d":"478,-279r-449,189r0,-109r345,-135r-345,-137r0,-109r449,190r0,111","w":507},"?":{"d":"225,-677v117,-2,214,54,214,160v0,82,-52,123,-100,157v-24,17,-53,38,-55,72v0,17,5,30,15,40r-133,34v-31,-35,-39,-101,-16,-148v23,-46,69,-66,102,-98v30,-30,8,-65,-46,-65v-40,0,-75,17,-105,52r-96,-110v47,-55,126,-93,220,-94xm321,-83v0,49,-45,94,-94,94v-49,0,-94,-45,-94,-94v0,-49,45,-93,94,-93v49,0,94,44,94,93","w":453},"@":{"d":"77,-247v0,155,123,276,280,276v63,0,123,-18,180,-54r23,32v-65,42,-135,63,-208,63v-176,0,-317,-140,-317,-314v0,-204,195,-394,397,-394v217,0,373,197,295,413v-22,61,-66,101,-120,125v-24,10,-47,15,-70,15v-58,1,-93,-31,-102,-77v-28,42,-76,75,-136,77v-97,2,-157,-74,-157,-171v0,-121,106,-242,222,-242v56,0,97,21,124,62r9,-48r136,0r-49,230v-6,29,0,67,30,67v22,0,42,-13,60,-39v18,-26,27,-64,27,-112v1,-157,-112,-258,-273,-258v-182,0,-351,168,-351,349xm282,-268v0,46,28,76,73,76v35,0,65,-18,92,-53r22,-106v-15,-27,-38,-40,-70,-40v-66,0,-117,59,-117,123","w":783},"A":{"d":"708,0r-195,0r-33,-96r-263,0r-33,96r-195,0r251,-667r217,0xm433,-246r-84,-251r-85,251r169,0","w":697},"B":{"d":"646,-181v-1,108,-79,181,-196,181r-390,0r0,-667r378,0v114,-4,193,70,195,170v1,79,-50,139,-114,153v70,9,128,82,127,163xm458,-465v0,-32,-26,-52,-59,-52r-167,0r0,104r167,0v34,0,59,-19,59,-52xm471,-207v0,-35,-28,-57,-66,-56r-173,0r0,113r173,0v39,0,66,-20,66,-57","w":680},"C":{"d":"678,-167v-50,98,-142,179,-291,179v-201,0,-361,-145,-361,-345v0,-202,159,-345,361,-345v150,0,240,80,291,178r-148,71v-19,-50,-77,-97,-143,-97v-107,0,-186,86,-186,193v0,106,80,193,186,193v66,0,124,-48,143,-97","w":692},"D":{"d":"701,-334v0,204,-155,334,-360,334r-281,0r0,-667r280,0v207,-3,361,128,361,333xm525,-334v0,-109,-71,-185,-184,-183r-109,0r0,367r108,0v109,3,185,-80,185,-184","w":727},"E":{"d":"549,0r-489,0r0,-667r489,0r0,150r-317,0r0,104r310,0r0,150r-310,0r0,113r317,0r0,150"},"F":{"d":"232,0r-172,0r0,-667r489,0r0,150r-317,0r0,104r310,0r0,150r-310,0r0,263","w":582},"G":{"d":"387,-140v45,0,99,-19,123,-40r0,-52r-150,0r0,-151r322,0r0,265v-78,87,-176,130,-295,130v-200,0,-361,-142,-361,-345v0,-203,161,-345,361,-345v141,0,234,72,285,162r-144,75v-24,-44,-76,-85,-141,-85v-107,0,-186,86,-186,193v0,106,80,193,186,193","w":723},"H":{"d":"681,0r-172,0r0,-268r-277,0r0,268r-172,0r0,-667r172,0r0,249r277,0r0,-249r172,0r0,667","w":741},"I":{"d":"232,0r-172,0r0,-667r172,0r0,667","w":292},"J":{"d":"432,-229v2,157,-93,241,-246,241v-77,0,-138,-20,-183,-60r72,-131v31,26,63,39,96,39v54,1,90,-36,89,-91r0,-436r172,0r0,438","w":492},"K":{"d":"663,0r-211,0r-175,-251r-45,56r0,195r-172,0r0,-667r172,0r0,274r205,-274r212,0r-259,312","w":654},"L":{"d":"497,0r-440,0r0,-667r172,0r0,517r268,0r0,150","w":525},"M":{"d":"817,0r-172,0r0,-441r-168,441r-76,0r-169,-441r0,441r-172,0r0,-667r239,0r140,368r139,-368r239,0r0,667","w":877},"N":{"d":"680,0r-166,0r-282,-386r0,386r-172,0r0,-667r177,0r270,367r0,-367r173,0r0,667","w":740},"O":{"d":"739,-333v0,199,-156,345,-356,345v-200,0,-357,-146,-357,-345v0,-199,157,-345,357,-345v200,0,356,146,356,345xm201,-333v0,107,75,193,182,193v107,0,181,-86,181,-193v0,-107,-74,-193,-181,-193v-107,0,-182,86,-182,193","w":766},"P":{"d":"626,-445v0,129,-96,221,-232,221r-162,0r0,224r-172,0r0,-667r334,0v137,-4,232,92,232,222xm451,-445v0,-45,-37,-73,-83,-72r-136,0r0,143r136,0v46,1,83,-26,83,-71","w":643},"Q":{"d":"383,-678v200,0,356,146,356,345v0,91,-28,168,-84,231r42,51r-119,96r-50,-60v-47,18,-95,27,-145,27v-200,4,-357,-146,-357,-345v0,-199,157,-345,357,-345xm201,-333v0,120,91,214,221,189r-61,-74r119,-96r63,76v62,-131,-18,-288,-160,-288v-107,0,-182,86,-182,193","w":766},"R":{"d":"626,-445v0,104,-60,174,-133,200r136,245r-197,0r-112,-224r-88,0r0,224r-172,0r0,-667r334,0v137,-3,232,91,232,222xm451,-446v0,-45,-37,-72,-83,-71r-136,0r0,143r136,0v46,0,83,-26,83,-72","w":661},"S":{"d":"586,-211v-1,147,-118,223,-278,223v-122,0,-221,-35,-296,-106r91,-134v59,59,130,88,214,88v49,0,92,-13,94,-53v0,-13,-9,-24,-28,-33v-45,-21,-106,-22,-161,-40v-67,-22,-125,-40,-160,-96v-18,-29,-28,-63,-28,-103v2,-130,119,-212,265,-212v109,0,199,31,271,93r-94,129v-55,-47,-120,-70,-195,-70v-76,0,-100,61,-33,81v60,18,142,32,205,54v69,25,135,85,133,179","w":606},"T":{"d":"381,0r-172,0r0,-517r-187,0r0,-150r545,0r0,150r-186,0r0,517"},"U":{"d":"690,-271v-1,182,-120,283,-314,283v-194,0,-316,-102,-316,-282r0,-397r175,0r0,391v0,83,54,136,141,136v86,0,140,-53,140,-136r0,-391r174,0r0,396","w":750},"V":{"d":"457,0r-217,0r-251,-667r195,0r165,481r164,-481r195,0","w":697},"W":{"d":"751,0r-182,0r-101,-418r-101,418r-182,0r-191,-667r193,0r101,445r114,-445r132,0r114,445r100,-445r194,0","w":936},"X":{"d":"686,0r-203,0r-145,-224r-145,224r-203,0r232,-342r-217,-325r203,0r130,209r129,-209r204,0r-217,324","w":676},"Y":{"d":"414,0r-172,0r0,-269r-253,-398r194,0r145,246r143,-246r195,0r-252,398r0,269","w":655},"Z":{"d":"557,0r-518,0r0,-137r284,-380r-284,0r0,-150r511,0r0,136r-285,381r292,0r0,150","w":596},"[":{"d":"281,190r-230,0r0,-868r230,0r0,99r-122,0r0,670r122,0r0,99","w":299},"\\":{"d":"237,20r-237,-707r109,0r237,707r-109,0","w":346},"]":{"d":"248,190r-230,0r0,-99r122,0r0,-670r-122,0r0,-99r230,0r0,868","w":299},"^":{"d":"426,-333r-109,0r-94,-231r-93,231r-111,0r149,-334r111,0","w":445},"_":{"d":"567,139r-570,0r0,-99r570,0r0,99","w":564},"`":{"d":"263,-556r-104,0r-159,-144r136,0","w":263},"\u02cb":{"d":"263,-556r-104,0r-159,-144r136,0","w":263},"a":{"d":"270,-495v135,1,224,56,225,193r0,302r-154,0r0,-48v-29,34,-88,60,-150,60v-86,0,-166,-65,-166,-159v0,-101,74,-155,166,-156v69,0,119,19,150,57r0,-48v-1,-48,-44,-72,-98,-71v-49,0,-94,17,-135,52r-57,-107v59,-50,132,-75,219,-75xm178,-145v0,73,138,69,163,21r0,-43v-26,-47,-163,-51,-163,22","w":551},"b":{"d":"302,-359v-36,0,-77,21,-92,44r0,148v16,23,56,43,92,43v65,0,107,-50,107,-118v0,-67,-43,-117,-107,-117xm566,-242v0,145,-80,253,-213,254v-56,0,-104,-23,-143,-68r0,56r-154,0r0,-667r154,0r0,241v37,-46,84,-69,143,-69v131,0,213,111,213,253","w":591},"c":{"d":"486,-77v-35,51,-107,89,-198,89v-148,0,-263,-106,-263,-254v0,-148,115,-253,263,-253v91,0,163,38,198,89r-100,93v-21,-31,-51,-46,-91,-46v-66,0,-113,48,-113,117v0,69,47,118,113,118v39,0,69,-16,91,-47","w":500},"d":{"d":"25,-242v0,-142,81,-253,213,-253v59,0,106,23,143,69r0,-241r153,0r0,667r-153,0r0,-56v-39,45,-87,68,-143,68v-133,-1,-213,-109,-213,-254xm182,-242v0,66,43,118,106,118v36,0,77,-22,93,-44r0,-148v-17,-23,-57,-43,-93,-43v-64,-1,-106,50,-106,117","w":591},"e":{"d":"490,-52v-43,39,-122,63,-202,64v-149,1,-263,-103,-263,-254v0,-141,112,-253,256,-253v148,0,250,115,247,269r0,35r-344,0v13,48,57,80,121,79v40,0,96,-20,118,-41xm381,-296v-7,-44,-42,-75,-100,-75v-57,0,-91,31,-99,75r199,0","w":548},"f":{"d":"294,-553v-36,1,-55,28,-51,70r98,0r0,133r-98,0r0,350r-154,0r0,-350r-80,0r0,-133r80,0v-5,-117,65,-193,173,-194v60,0,106,15,138,45r-56,96v-13,-11,-29,-17,-50,-17","w":349},"g":{"d":"534,-42v-2,167,-111,237,-277,238v-84,0,-155,-24,-214,-72r67,-108v66,80,278,86,270,-58r0,-37v-39,47,-87,71,-143,71v-133,-1,-212,-99,-212,-244v0,-144,79,-242,212,-243v58,0,106,23,143,69r0,-57r154,0r0,441xm182,-252v0,67,42,108,106,108v36,0,77,-20,92,-43r0,-129v-16,-23,-56,-43,-92,-43v-63,0,-106,41,-106,107","w":590},"h":{"d":"378,-495v102,-1,159,54,160,151r0,344r-154,0r0,-281v0,-52,-27,-78,-80,-78v-37,0,-68,16,-93,47r0,312r-154,0r0,-667r154,0r0,243v41,-47,96,-71,167,-71","w":594},"i":{"d":"222,-615v0,48,-41,89,-89,89v-48,0,-88,-41,-88,-89v0,-48,40,-88,88,-88v48,0,89,40,89,88xm210,0r-154,0r0,-483r154,0r0,483","w":266},"j":{"d":"222,-615v0,48,-41,89,-89,89v-48,0,-88,-41,-88,-89v0,-48,40,-88,88,-88v48,0,89,40,89,88xm210,-4v0,122,-64,202,-187,200v-66,0,-85,-9,-127,-34r39,-112v17,15,38,22,62,22v39,0,59,-25,59,-76r0,-479r154,0r0,479","w":266},"k":{"d":"552,0r-190,0r-106,-171r-46,55r0,116r-154,0r0,-667r154,0r0,377r147,-193r186,0r-178,220","w":546},"l":{"d":"210,0r-154,0r0,-667r154,0r0,667","w":266},"m":{"d":"673,-495v93,1,146,50,145,145r0,350r-153,0r0,-294v0,-43,-21,-65,-64,-65v-35,0,-64,16,-87,47r0,312r-154,0r0,-294v0,-43,-21,-65,-63,-65v-33,0,-62,16,-87,47r0,312r-154,0r0,-483r154,0r0,59v26,-34,95,-71,159,-71v71,0,117,29,137,86v28,-44,95,-86,167,-86","w":875},"n":{"d":"378,-495v101,0,159,57,159,153r0,342r-154,0r0,-279v0,-53,-26,-80,-79,-80v-37,0,-69,16,-94,47r0,312r-154,0r0,-483r154,0r0,59v41,-47,97,-71,168,-71","w":593},"o":{"d":"551,-242v0,144,-112,254,-264,254v-151,0,-262,-111,-262,-254v0,-143,111,-253,262,-253v152,0,264,109,264,253xm183,-242v0,65,39,118,104,118v65,0,106,-52,106,-118v0,-65,-41,-117,-106,-117v-64,0,-104,53,-104,117","w":576},"p":{"d":"565,-242v0,147,-77,253,-212,254v-57,0,-104,-23,-143,-69r0,241r-154,0r0,-667r154,0r0,56v37,-45,85,-68,143,-68v134,1,212,107,212,253xm210,-168v16,23,56,44,92,44v64,0,106,-51,106,-118v0,-67,-43,-117,-106,-117v-36,0,-77,21,-92,44r0,147"},"q":{"d":"181,-242v0,68,42,118,107,118v34,0,77,-21,91,-44r0,-147v-15,-22,-56,-44,-91,-44v-64,-1,-107,50,-107,117xm24,-242v0,-146,79,-252,213,-253v57,0,105,23,142,68r0,-56r154,0r0,667r-154,0r0,-241v-38,46,-85,69,-142,69v-134,-1,-213,-108,-213,-254"},"r":{"d":"361,-348v-52,-14,-129,8,-151,40r0,308r-154,0r0,-483r154,0r0,59v29,-36,90,-72,151,-72r0,148","w":375},"s":{"d":"461,-146v-2,105,-100,158,-219,158v-88,0,-180,-32,-227,-75r64,-110v31,29,112,65,170,65v43,0,65,-11,65,-34v0,-11,-10,-19,-29,-24v-45,-13,-106,-19,-153,-34v-54,-17,-101,-63,-99,-136v2,-99,94,-159,207,-159v76,0,143,21,202,64r-59,109v-28,-28,-87,-54,-142,-53v-29,-1,-58,10,-60,33v0,9,10,16,29,21v78,20,178,25,222,85v18,25,29,53,29,90","w":484},"t":{"d":"242,-173v0,26,16,49,42,49v19,0,32,-4,39,-12r30,116v-23,21,-61,32,-114,32v-97,0,-151,-47,-151,-142r0,-220r-80,0r0,-133r80,0r0,-132r154,0r0,132r98,0r0,133r-98,0r0,177","w":360},"u":{"d":"215,12v-101,0,-158,-56,-159,-151r0,-344r154,0r0,280v0,53,27,79,80,79v37,0,67,-16,92,-47r0,-312r154,0r0,483r-154,0r0,-58v-41,47,-97,70,-167,70","w":592},"v":{"d":"344,0r-164,0r-190,-483r162,0r110,306r109,-306r163,0","w":524},"w":{"d":"650,0r-166,0r-91,-299r-90,299r-166,0r-143,-483r158,0r78,296r95,-296r137,0r95,296r77,-296r159,0","w":787},"x":{"d":"518,0r-169,0r-92,-146r-95,146r-168,0r165,-248r-155,-235r169,0r83,131r82,-131r169,0r-154,235","w":512},"y":{"d":"46,188r22,-137v30,18,93,7,104,-18r11,-26r-193,-490r162,0r110,306r109,-306r163,0r-218,552v-34,90,-92,127,-204,127v-27,0,-49,-3,-66,-8","w":524},"z":{"d":"445,0r-407,0r0,-114r194,-236r-194,0r0,-133r403,0r0,109r-198,241r202,0r0,133","w":483},"{":{"d":"163,18v-1,39,26,73,62,73r60,0r0,99r-60,0v-94,1,-170,-73,-170,-172r0,-155v0,-36,-17,-66,-52,-66r0,-82v35,0,52,-30,52,-66r0,-155v-3,-98,76,-173,170,-172r60,0r0,99r-60,0v-37,0,-62,33,-62,73r0,172v0,47,-15,77,-46,90v31,13,46,43,46,90r0,172","w":302},"|":{"d":"159,20r-99,0r0,-707r99,0r0,707","w":219},"}":{"d":"247,18v3,99,-76,173,-170,172r-60,0r0,-99r60,0v36,0,62,-34,62,-73r0,-172v0,-47,15,-77,46,-90v-31,-13,-46,-43,-46,-90r0,-172v1,-40,-25,-73,-62,-73r-60,0r0,-99r60,0v94,-1,170,74,170,172r0,155v0,36,17,66,52,66r0,82v-35,0,-52,30,-52,66r0,155","w":302},"~":{"d":"388,-667r101,12v-6,70,-14,114,-36,167v-19,47,-57,79,-118,81v-57,1,-97,-43,-108,-85v-5,-21,-11,-40,-19,-58v-8,-18,-17,-26,-28,-26v-25,0,-43,57,-52,170r-102,-12v8,-102,25,-193,94,-234v39,-23,101,-17,132,12v34,32,37,75,56,116v8,18,16,27,27,27v27,0,44,-57,53,-170","w":514},"\u00a0":{"w":256},"\u00a1":{"d":"42,184r22,-434r137,0r25,434r-184,0xm133,-307v-49,0,-93,-45,-93,-94v0,-49,44,-93,93,-93v49,0,93,44,93,93v0,49,-44,94,-93,94","w":267},"\u00a2":{"d":"25,-242v0,-134,92,-230,210,-248r0,-75r109,0r0,75v63,11,111,39,142,84r-100,93v-12,-17,-26,-29,-42,-36r0,214v16,-7,30,-19,42,-36r100,94v-32,45,-79,73,-142,84r0,93r-109,0r0,-93v-119,-18,-210,-114,-210,-249xm182,-242v0,48,18,82,53,103r0,-204v-35,21,-53,54,-53,101","w":500},"\u00a3":{"d":"400,12v-48,0,-145,-43,-182,-43v-32,0,-70,13,-115,38r-57,-115v83,-46,116,-81,86,-161r-108,0r0,-96r53,0v-22,-37,-33,-70,-33,-100v0,-126,129,-212,251,-212v122,0,205,42,248,125r-137,79v-12,-37,-44,-64,-89,-65v-47,-1,-86,31,-85,76v1,41,20,71,35,97r139,0r0,96r-110,0v2,49,-28,89,-60,108v14,-5,30,-8,48,-8v34,0,91,29,122,29v37,0,64,-12,81,-35r67,136v-31,34,-83,51,-154,51","w":565},"\u00a4":{"d":"486,-137r-29,29r-56,-57v-76,68,-204,68,-280,0r-57,57r-28,-29r56,-56v-67,-81,-67,-201,0,-280r-56,-57r28,-28r57,56v76,-67,203,-67,280,0r56,-56r29,28r-56,57v67,79,67,200,0,280xm261,-162v92,0,171,-79,171,-171v0,-92,-79,-171,-171,-171v-92,0,-171,79,-171,171v0,92,79,171,171,171","w":522},"\u00a5":{"d":"414,0r-172,0r0,-111r-218,0r0,-92r218,0r0,-66r-218,0r0,-92r159,0r-194,-306r194,0r145,246r143,-246r195,0r-194,306r160,0r0,92r-218,0r0,66r218,0r0,92r-218,0r0,111","w":655},"\u00a6":{"d":"159,20r-99,0r0,-316r99,0r0,316xm159,-371r-99,0r0,-316r99,0r0,316","w":219},"\u00a7":{"d":"33,-528v1,-95,101,-149,206,-149v85,0,153,22,202,66r-58,91v-38,-35,-83,-52,-136,-52v-66,0,-91,51,-37,70v44,16,104,23,152,39v53,18,100,61,99,132v-1,61,-36,106,-80,128v53,25,80,66,80,123v0,108,-104,161,-219,161v-88,0,-163,-26,-224,-79r61,-97v34,33,100,71,163,71v73,0,97,-52,43,-76v-71,-31,-176,-30,-223,-90v-18,-23,-29,-52,-29,-87v-2,-61,47,-105,89,-123v-59,-25,-89,-68,-89,-128xm310,-300v0,-31,-23,-52,-69,-63v-40,9,-60,29,-60,61v0,31,27,52,82,63v31,-13,47,-33,47,-61","w":492},"\u00a8":{"d":"260,-693v42,0,79,36,79,78v0,43,-36,79,-79,79v-42,0,-78,-37,-78,-79v0,-41,37,-78,78,-78xm46,-693v42,0,79,36,79,78v0,43,-36,79,-79,79v-42,0,-78,-37,-78,-79v0,-41,37,-78,78,-78","w":306},"\u00a9":{"d":"389,-679v186,0,345,160,345,345v0,186,-160,345,-345,345v-185,0,-345,-161,-345,-345v0,-186,160,-345,345,-345xm389,-28v164,0,306,-142,306,-306v0,-165,-141,-306,-306,-306v-164,0,-306,142,-306,306v0,163,143,306,306,306xm238,-335v0,90,70,170,158,168v47,0,86,-20,115,-59r35,33v-39,46,-89,69,-150,69v-115,0,-208,-94,-208,-211v0,-116,94,-209,208,-209v61,0,111,22,149,67r-34,34v-29,-39,-67,-58,-115,-58v-88,-1,-158,75,-158,166","w":778},"\u00aa":{"d":"234,-518v0,-32,-27,-50,-63,-49v-33,0,-63,13,-89,39r-39,-71v41,-33,90,-49,147,-49v102,0,153,44,153,132r0,190r-109,0r0,-31v-21,26,-54,39,-99,39v-58,0,-110,-41,-110,-103v0,-63,52,-101,110,-101v45,0,78,12,99,35r0,-31xm181,-385v25,0,42,-8,53,-24r0,-25v-14,-32,-101,-34,-101,13v0,24,16,36,48,36","w":389},"\u00ab":{"d":"541,-63r-139,0r-160,-180r160,-177r139,0r-160,177xm329,-63r-139,0r-160,-180r160,-177r139,0r-160,177","w":571},"\u00ac":{"d":"478,-473r0,278r-94,0r0,-186r-355,0r0,-92r449,0","w":521},"\u00ad":{"d":"270,-178r-240,0r0,-129r240,0r0,129","w":300},"\u00ae":{"d":"247,-677v116,0,212,96,212,212v0,114,-98,212,-212,212v-114,0,-212,-98,-212,-212v0,-114,98,-212,212,-212xm247,-286v96,0,179,-83,179,-179v0,-97,-83,-179,-179,-179v-96,0,-179,82,-179,179v0,96,83,179,179,179xm345,-512v0,39,-34,70,-62,72r65,97r-44,0r-63,-96r-40,0r0,96r-36,0r0,-243r99,0v41,-1,81,32,81,74xm264,-470v22,0,44,-19,44,-42v0,-24,-21,-44,-44,-44r-63,0r0,86r63,0","w":494},"\u00af":{"d":"363,-591r-363,0r0,-85r363,0r0,85","w":363},"\u203e":{"d":"363,-591r-363,0r0,-85r363,0r0,85","w":363},"\u00b0":{"d":"160,-677v76,0,142,66,142,142v0,77,-65,142,-142,142v-77,0,-141,-65,-141,-142v0,-76,65,-142,141,-142xm160,-474v33,0,63,-28,63,-61v0,-33,-30,-63,-63,-63v-33,0,-61,30,-61,63v0,33,28,61,61,61","w":321},"\u00b1":{"d":"478,-327r-174,0r0,198r-101,0r0,-198r-174,0r0,-92r174,0r0,-190r101,0r0,190r174,0r0,92xm478,0r-449,0r0,-92r449,0r0,92","w":507},"\u00b2":{"d":"197,-827v93,-1,169,42,170,128v0,29,-11,57,-35,85v-24,28,-65,62,-123,103r161,0r0,90r-326,0r0,-83v89,-63,147,-106,172,-128v25,-22,37,-41,37,-58v0,-31,-26,-47,-59,-47v-43,0,-87,25,-107,49r-58,-72v41,-45,97,-67,168,-67","w":402},"\u00b3":{"d":"277,-627v47,3,98,41,96,94v-2,79,-83,119,-173,119v-77,0,-135,-21,-172,-63r54,-74v31,31,68,47,113,47v34,1,65,-10,65,-37v0,-37,-37,-38,-81,-39v-27,0,-43,0,-47,1r0,-88v6,1,21,1,46,1v43,-1,75,-2,75,-36v0,-23,-22,-35,-65,-35v-41,0,-76,14,-104,42r-51,-67v40,-43,96,-65,167,-65v92,-1,166,32,166,110v0,48,-44,84,-89,90","w":402},"\u00b4":{"d":"263,-700r-159,144r-104,0r127,-144r136,0","w":263},"\u00b5":{"d":"210,184r-154,0r0,-667r154,0r0,289v3,47,29,70,80,70v37,0,67,-16,92,-47r0,-312r154,0r0,483r-154,0r0,-58v-43,48,-98,71,-172,70r0,172","w":592},"\u03bc":{"d":"210,184r-154,0r0,-667r154,0r0,289v3,47,29,70,80,70v37,0,67,-16,92,-47r0,-312r154,0r0,483r-154,0r0,-58v-43,48,-98,71,-172,70r0,172","w":592},"\u00b6":{"d":"27,-495v0,-92,80,-172,172,-172r216,0r0,767r-71,0r0,-696r-74,0r0,696r-71,0r0,-423v-92,3,-172,-80,-172,-172","w":449},"\u00b7":{"d":"135,-338v49,0,93,45,93,94v0,49,-44,93,-93,93v-49,0,-94,-44,-94,-93v0,-49,45,-94,94,-94","w":270},"\u2219":{"d":"135,-338v49,0,93,45,93,94v0,49,-44,93,-93,93v-49,0,-94,-44,-94,-93v0,-49,45,-94,94,-94","w":270},"\u00b8":{"d":"229,111v0,56,-56,88,-115,87v-49,0,-87,-11,-114,-33r28,-58v27,20,55,30,82,30v22,0,46,-9,47,-28v1,-28,-42,-27,-54,-9r-52,-30r30,-81r71,0r-25,60v47,-29,102,10,102,62","w":229},"\u00b9":{"d":"251,-421r-114,0r0,-255r-69,69r-64,-68r149,-146r98,0r0,400","w":311},"\u00ba":{"d":"380,-483v0,95,-77,165,-178,165v-100,0,-177,-71,-177,-165v0,-94,77,-165,177,-165v101,0,178,70,178,165xm138,-483v-1,46,21,78,64,78v44,0,66,-32,66,-78v0,-46,-22,-76,-66,-76v-43,0,-64,25,-64,76","w":405},"\u00bb":{"d":"329,-243r-160,180r-139,0r160,-180r-160,-177r139,0xm541,-243r-160,180r-139,0r160,-180r-160,-177r139,0","w":571},"\u00bc":{"d":"667,-667r-428,667r-86,0r426,-667r88,0xm847,-78r-50,0r0,78r-113,0r0,-78r-197,0r0,-77r150,-245r160,0r0,233r50,0r0,89xm684,-167r0,-138r-85,138r85,0xm251,-267r-114,0r0,-255r-69,69r-64,-68r149,-146r98,0r0,400","w":865},"\u00bd":{"d":"667,-667r-428,667r-86,0r426,-667r88,0xm692,-406v93,-1,169,42,170,128v0,29,-12,57,-36,85v-24,28,-64,62,-122,103r161,0r0,90r-326,0r0,-83v89,-63,146,-105,171,-127v25,-22,38,-42,38,-59v0,-31,-26,-47,-59,-47v-42,0,-88,26,-107,49r-58,-72v41,-45,97,-67,168,-67xm251,-267r-114,0r0,-255r-69,69r-64,-68r149,-146r98,0r0,400","w":897},"\u00be":{"d":"744,-667r-428,667r-86,0r426,-667r88,0xm924,-78r-50,0r0,78r-113,0r0,-78r-197,0r0,-77r150,-245r160,0r0,233r50,0r0,89xm761,-167r0,-138r-85,138r85,0xm277,-473v47,3,98,41,96,94v-2,79,-83,119,-173,119v-77,0,-135,-21,-172,-63r54,-74v31,31,68,47,113,47v34,1,65,-10,65,-37v0,-37,-37,-38,-81,-39v-27,0,-43,0,-47,1r0,-88v6,1,21,1,46,1v43,-1,75,-2,75,-36v0,-23,-22,-35,-65,-35v-41,0,-76,14,-104,42r-51,-67v40,-43,96,-65,167,-65v92,-1,166,32,166,110v0,48,-44,84,-89,90","w":942},"\u00bf":{"d":"228,195v-117,2,-213,-54,-214,-160v-1,-82,52,-123,100,-157v24,-17,53,-38,55,-73v0,-17,-5,-30,-15,-40r133,-33v31,34,40,101,17,148v-23,45,-69,65,-102,98v-30,30,-9,64,45,64v39,0,74,-17,105,-51r96,110v-47,55,-126,93,-220,94xm132,-400v0,-49,45,-94,94,-94v49,0,94,45,94,94v0,49,-45,93,-94,93v-49,0,-94,-44,-94,-93","w":399},"\u00c0":{"d":"440,-728r-104,0r-159,-144r136,0xm708,0r-195,0r-33,-96r-263,0r-33,96r-195,0r251,-667r217,0xm433,-246r-84,-251r-85,251r169,0","w":697},"\u00c1":{"d":"523,-872r-159,144r-104,0r127,-144r136,0xm708,0r-195,0r-33,-96r-263,0r-33,96r-195,0r251,-667r217,0xm433,-246r-84,-251r-85,251r169,0","w":697},"\u00c2":{"d":"509,-728r-92,0r-69,-81r-65,81r-92,0r90,-144r135,0xm708,0r-195,0r-33,-96r-263,0r-33,96r-195,0r251,-667r217,0xm433,-246r-84,-251r-85,251r169,0","w":697},"\u00c3":{"d":"403,-726v-38,0,-65,-25,-85,-42v-29,-25,-60,-14,-58,36r-78,0v0,-89,38,-134,113,-134v38,0,65,25,85,42v29,25,60,14,58,-36r78,0v0,89,-38,134,-113,134xm708,0r-195,0r-33,-96r-263,0r-33,96r-195,0r251,-667r217,0xm433,-246r-84,-251r-85,251r169,0","w":697},"\u00c4":{"d":"455,-868v42,0,79,36,79,78v0,43,-36,79,-79,79v-42,0,-78,-37,-78,-79v0,-41,37,-78,78,-78xm241,-868v42,0,79,36,79,78v0,43,-36,79,-79,79v-42,0,-78,-37,-78,-79v0,-41,37,-78,78,-78xm708,0r-195,0r-33,-96r-263,0r-33,96r-195,0r251,-667r217,0xm433,-246r-84,-251r-85,251r169,0","w":697},"\u00c5":{"d":"457,-802v0,57,-50,109,-107,109v-58,0,-109,-52,-109,-109v0,-57,51,-109,109,-109v57,0,107,52,107,109xm309,-802v0,22,19,41,41,41v21,0,40,-19,40,-41v0,-22,-19,-41,-40,-41v-22,0,-41,19,-41,41xm708,0r-195,0r-33,-96r-263,0r-33,96r-195,0r251,-667r217,0xm433,-246r-84,-251r-85,251r169,0","w":697},"\u00c6":{"d":"943,0r-489,0r0,-96r-221,0r-54,96r-196,0r400,-667r560,0r0,150r-317,0r0,104r310,0r0,150r-310,0r0,113r317,0r0,150xm454,-246r0,-251r-141,251r141,0","w":979},"\u00c7":{"d":"496,107v0,56,-56,88,-115,87v-49,0,-87,-11,-114,-33r28,-58v27,20,55,30,82,30v22,0,46,-9,47,-28v1,-28,-42,-27,-54,-9r-52,-30r21,-57v-175,-16,-313,-152,-313,-342v0,-202,159,-345,361,-345v150,0,240,80,291,178r-148,71v-19,-50,-77,-97,-143,-97v-107,0,-186,86,-186,193v0,106,80,193,186,193v66,0,124,-48,143,-97r148,70v-47,97,-135,167,-270,178r-14,34v47,-29,102,10,102,62","w":692},"\u00c8":{"d":"395,-728r-104,0r-159,-144r136,0xm549,0r-489,0r0,-667r489,0r0,150r-317,0r0,104r310,0r0,150r-310,0r0,113r317,0r0,150"},"\u00c9":{"d":"478,-872r-159,144r-104,0r127,-144r136,0xm549,0r-489,0r0,-667r489,0r0,150r-317,0r0,104r310,0r0,150r-310,0r0,113r317,0r0,150"},"\u00ca":{"d":"464,-728r-92,0r-69,-81r-65,81r-92,0r90,-144r135,0xm549,0r-489,0r0,-667r489,0r0,150r-317,0r0,104r310,0r0,150r-310,0r0,113r317,0r0,150"},"\u00cb":{"d":"413,-868v42,0,79,36,79,78v0,43,-36,79,-79,79v-42,0,-78,-37,-78,-79v0,-41,37,-78,78,-78xm199,-868v42,0,79,36,79,78v0,43,-36,79,-79,79v-42,0,-78,-37,-78,-79v0,-41,37,-78,78,-78xm549,0r-489,0r0,-667r489,0r0,150r-317,0r0,104r310,0r0,150r-310,0r0,113r317,0r0,150"},"\u00cc":{"d":"235,-728r-104,0r-159,-144r136,0xm232,0r-172,0r0,-667r172,0r0,667","w":292},"\u00cd":{"d":"322,-872r-159,144r-104,0r127,-144r136,0xm232,0r-172,0r0,-667r172,0r0,667","w":292},"\u00ce":{"d":"304,-728r-92,0r-69,-81r-65,81r-92,0r90,-144r135,0xm232,0r-172,0r0,-667r172,0r0,667","w":292},"\u00cf":{"d":"253,-867v42,0,79,36,79,78v0,43,-36,79,-79,79v-42,0,-78,-37,-78,-79v0,-41,37,-78,78,-78xm39,-867v42,0,79,36,79,78v0,43,-36,79,-79,79v-42,0,-78,-37,-78,-79v0,-41,37,-78,78,-78xm232,0r-172,0r0,-667r172,0r0,667","w":292},"\u00d0":{"d":"724,-334v0,204,-155,334,-360,334r-281,0r0,-265r-75,0r0,-132r75,0r0,-270r280,0v207,-3,361,128,361,333xm548,-334v0,-109,-71,-185,-184,-183r-109,0r0,120r140,0r0,132r-140,0r0,115r108,0v109,3,185,-80,185,-184","w":750},"\u00d1":{"d":"422,-726v-38,0,-66,-25,-86,-42v-29,-25,-59,-14,-57,36r-78,0v0,-89,38,-134,113,-134v38,0,66,25,86,42v29,25,59,14,57,-36r78,0v0,89,-38,134,-113,134xm680,0r-166,0r-282,-386r0,386r-172,0r0,-667r177,0r270,367r0,-367r173,0r0,667","w":740},"\u00d2":{"d":"476,-728r-104,0r-159,-144r136,0xm739,-333v0,199,-156,345,-356,345v-200,0,-357,-146,-357,-345v0,-199,157,-345,357,-345v200,0,356,146,356,345xm201,-333v0,107,75,193,182,193v107,0,181,-86,181,-193v0,-107,-74,-193,-181,-193v-107,0,-182,86,-182,193","w":766},"\u00d3":{"d":"558,-872r-159,144r-104,0r127,-144r136,0xm739,-333v0,199,-156,345,-356,345v-200,0,-357,-146,-357,-345v0,-199,157,-345,357,-345v200,0,356,146,356,345xm201,-333v0,107,75,193,182,193v107,0,181,-86,181,-193v0,-107,-74,-193,-181,-193v-107,0,-182,86,-182,193","w":766},"\u00d4":{"d":"545,-728r-92,0r-69,-81r-65,81r-92,0r90,-144r135,0xm739,-333v0,199,-156,345,-356,345v-200,0,-357,-146,-357,-345v0,-199,157,-345,357,-345v200,0,356,146,356,345xm201,-333v0,107,75,193,182,193v107,0,181,-86,181,-193v0,-107,-74,-193,-181,-193v-107,0,-182,86,-182,193","w":766},"\u00d5":{"d":"437,-726v-38,0,-65,-25,-85,-42v-29,-25,-60,-14,-58,36r-78,0v0,-89,38,-134,113,-134v38,0,65,25,85,42v29,25,60,14,58,-36r78,0v0,89,-38,134,-113,134xm739,-333v0,199,-156,345,-356,345v-200,0,-357,-146,-357,-345v0,-199,157,-345,357,-345v200,0,356,146,356,345xm201,-333v0,107,75,193,182,193v107,0,181,-86,181,-193v0,-107,-74,-193,-181,-193v-107,0,-182,86,-182,193","w":766},"\u00d6":{"d":"492,-868v42,0,79,36,79,78v0,43,-36,79,-79,79v-42,0,-78,-37,-78,-79v0,-41,37,-78,78,-78xm278,-868v42,0,79,36,79,78v0,43,-36,79,-79,79v-42,0,-78,-37,-78,-79v0,-41,37,-78,78,-78xm739,-333v0,199,-156,345,-356,345v-200,0,-357,-146,-357,-345v0,-199,157,-345,357,-345v200,0,356,146,356,345xm201,-333v0,107,75,193,182,193v107,0,181,-86,181,-193v0,-107,-74,-193,-181,-193v-107,0,-182,86,-182,193","w":766},"\u00d7":{"d":"391,-132r-137,-137r-137,137r-66,-64r138,-138r-138,-138r66,-64r137,137r137,-137r65,64r-137,138r137,138","w":507},"\u00d8":{"d":"739,-333v0,199,-156,345,-356,345v-71,0,-134,-16,-190,-48r-29,36r-120,0r75,-93v-62,-63,-93,-143,-93,-240v0,-199,157,-345,357,-345v65,0,123,13,175,40r24,-29r120,0r-67,83v69,65,104,149,104,251xm383,-140v107,2,183,-86,181,-193v0,-45,-12,-85,-35,-119r-235,290v27,15,57,22,89,22xm383,-526v-107,-2,-184,86,-182,193v0,40,9,75,26,106r229,-284v-22,-10,-46,-15,-73,-15","w":766},"\u00d9":{"d":"468,-728r-104,0r-159,-144r136,0xm690,-271v-1,182,-120,283,-314,283v-194,0,-316,-102,-316,-282r0,-397r175,0r0,391v0,83,54,136,141,136v86,0,140,-53,140,-136r0,-391r174,0r0,396","w":750},"\u00da":{"d":"551,-872r-159,144r-104,0r127,-144r136,0xm690,-271v-1,182,-120,283,-314,283v-194,0,-316,-102,-316,-282r0,-397r175,0r0,391v0,83,54,136,141,136v86,0,140,-53,140,-136r0,-391r174,0r0,396","w":750},"\u00db":{"d":"542,-728r-92,0r-69,-81r-65,81r-92,0r90,-144r135,0xm690,-271v-1,182,-120,283,-314,283v-194,0,-316,-102,-316,-282r0,-397r175,0r0,391v0,83,54,136,141,136v86,0,140,-53,140,-136r0,-391r174,0r0,396","w":750},"\u00dc":{"d":"485,-868v42,0,79,36,79,78v0,43,-36,79,-79,79v-42,0,-78,-37,-78,-79v0,-41,37,-78,78,-78xm271,-868v42,0,79,36,79,78v0,43,-36,79,-79,79v-42,0,-78,-37,-78,-79v0,-41,37,-78,78,-78xm690,-271v-1,182,-120,283,-314,283v-194,0,-316,-102,-316,-282r0,-397r175,0r0,391v0,83,54,136,141,136v86,0,140,-53,140,-136r0,-391r174,0r0,396","w":750},"\u00dd":{"d":"504,-872r-159,144r-104,0r127,-144r136,0xm414,0r-172,0r0,-269r-253,-398r194,0r145,246r143,-246r195,0r-252,398r0,269","w":655},"\u00de":{"d":"626,-342v0,130,-94,220,-232,220r-162,0r0,122r-172,0r0,-667r172,0r0,102r162,0v137,-4,232,93,232,223xm451,-343v0,-45,-37,-73,-83,-72r-136,0r0,142r136,0v46,0,83,-25,83,-70","w":643},"\u00df":{"d":"305,-677v126,0,264,82,209,211v-20,46,-67,64,-98,96v-18,19,-18,39,14,47v41,11,93,19,134,35v49,19,89,68,88,139v-1,103,-97,163,-209,161v-98,-1,-146,-31,-202,-79r61,-106v25,32,86,63,141,63v60,0,83,-41,35,-58v-39,-14,-93,-22,-134,-38v-47,-19,-87,-64,-87,-132v0,-46,30,-87,56,-106v19,-15,51,-33,56,-56v0,-30,-35,-41,-67,-41v-52,-1,-91,27,-91,78r0,463r-154,0r0,-463v0,-127,109,-214,248,-214","w":665},"\u00e0":{"d":"270,-495v135,1,224,56,225,193r0,302r-154,0r0,-48v-29,34,-88,60,-150,60v-86,0,-166,-65,-166,-159v0,-101,74,-155,166,-156v69,0,119,19,150,57r0,-48v-1,-48,-44,-72,-98,-71v-49,0,-94,17,-135,52r-57,-107v59,-50,132,-75,219,-75xm178,-145v0,73,138,69,163,21r0,-43v-26,-47,-163,-51,-163,22xm361,-556r-104,0r-159,-144r136,0","w":551},"\u00e1":{"d":"270,-495v135,1,224,56,225,193r0,302r-154,0r0,-48v-29,34,-88,60,-150,60v-86,0,-166,-65,-166,-159v0,-101,74,-155,166,-156v69,0,119,19,150,57r0,-48v-1,-48,-44,-72,-98,-71v-49,0,-94,17,-135,52r-57,-107v59,-50,132,-75,219,-75xm178,-145v0,73,138,69,163,21r0,-43v-26,-47,-163,-51,-163,22xm450,-700r-159,144r-104,0r127,-144r136,0","w":551},"\u00e2":{"d":"270,-495v135,1,224,56,225,193r0,302r-154,0r0,-48v-29,34,-88,60,-150,60v-86,0,-166,-65,-166,-159v0,-101,74,-155,166,-156v69,0,119,19,150,57r0,-48v-1,-48,-44,-72,-98,-71v-49,0,-94,17,-135,52r-57,-107v59,-50,132,-75,219,-75xm178,-145v0,73,138,69,163,21r0,-43v-26,-47,-163,-51,-163,22xm435,-556r-92,0r-69,-81r-65,81r-92,0r90,-144r135,0","w":551},"\u00e3":{"d":"270,-495v135,1,224,56,225,193r0,302r-154,0r0,-48v-29,34,-88,60,-150,60v-86,0,-166,-65,-166,-159v0,-101,74,-155,166,-156v69,0,119,19,150,57r0,-48v-1,-48,-44,-72,-98,-71v-49,0,-94,17,-135,52r-57,-107v59,-50,132,-75,219,-75xm178,-145v0,73,138,69,163,21r0,-43v-26,-47,-163,-51,-163,22xm327,-554v-38,0,-65,-25,-85,-42v-29,-25,-60,-14,-58,36r-78,0v0,-89,38,-134,113,-134v38,0,65,25,85,42v29,25,60,14,58,-36r78,0v0,89,-38,134,-113,134","w":551},"\u00e4":{"d":"270,-495v135,1,224,56,225,193r0,302r-154,0r0,-48v-29,34,-88,60,-150,60v-86,0,-166,-65,-166,-159v0,-101,74,-155,166,-156v69,0,119,19,150,57r0,-48v-1,-48,-44,-72,-98,-71v-49,0,-94,17,-135,52r-57,-107v59,-50,132,-75,219,-75xm178,-145v0,73,138,69,163,21r0,-43v-26,-47,-163,-51,-163,22xm378,-693v42,0,79,36,79,78v0,43,-36,79,-79,79v-42,0,-78,-37,-78,-79v0,-41,37,-78,78,-78xm164,-693v42,0,79,36,79,78v0,43,-36,79,-79,79v-42,0,-78,-37,-78,-79v0,-41,37,-78,78,-78","w":551},"\u00e5":{"d":"270,-495v135,1,224,56,225,193r0,302r-154,0r0,-48v-29,34,-88,60,-150,60v-86,0,-166,-65,-166,-159v0,-101,74,-155,166,-156v69,0,119,19,150,57r0,-48v-1,-48,-44,-72,-98,-71v-49,0,-94,17,-135,52r-57,-107v59,-50,132,-75,219,-75xm178,-145v0,73,138,69,163,21r0,-43v-26,-47,-163,-51,-163,22xm382,-646v0,57,-50,109,-107,109v-58,0,-109,-52,-109,-109v0,-57,51,-109,109,-109v57,0,107,52,107,109xm234,-646v0,22,19,41,41,41v21,0,40,-19,40,-41v0,-22,-19,-41,-40,-41v-22,0,-41,19,-41,41","w":551},"\u00e6":{"d":"602,-495v142,-1,242,119,238,269r0,35r-344,0v13,47,59,76,122,75v38,0,97,-20,117,-40r68,104v-43,39,-123,64,-203,64v-83,0,-158,-34,-199,-81v-40,45,-114,81,-196,81v-96,0,-180,-57,-180,-157v0,-98,72,-158,166,-158v67,0,117,18,150,55r0,-47v-1,-47,-45,-70,-98,-70v-50,0,-95,17,-135,52r-57,-107v59,-50,132,-75,219,-75v77,0,133,22,166,65v40,-43,95,-65,166,-65xm693,-296v-7,-45,-41,-75,-99,-75v-57,0,-92,30,-99,75r198,0xm178,-145v-1,38,38,56,77,56v45,0,76,-14,93,-43v-5,-11,-7,-22,-7,-34v-26,-48,-163,-51,-163,21","w":860},"\u00e7":{"d":"407,109v0,56,-56,88,-115,87v-49,0,-87,-11,-114,-33r28,-58v27,20,55,30,82,30v22,0,46,-9,47,-28v1,-28,-42,-27,-54,-9r-52,-30r21,-58v-126,-12,-225,-115,-225,-252v0,-148,115,-253,263,-253v91,0,163,38,198,89r-100,93v-21,-31,-51,-46,-91,-46v-66,0,-113,48,-113,117v0,69,47,118,113,118v39,0,69,-16,91,-47r100,94v-35,51,-90,80,-166,87r-15,37v47,-29,102,10,102,62","w":500},"\u00e8":{"d":"490,-52v-43,39,-122,63,-202,64v-149,1,-263,-103,-263,-254v0,-141,112,-253,256,-253v148,0,250,115,247,269r0,35r-344,0v13,48,57,80,121,79v40,0,96,-20,118,-41xm381,-296v-7,-44,-42,-75,-100,-75v-57,0,-91,31,-99,75r199,0xm371,-556r-104,0r-159,-144r136,0","w":548},"\u00e9":{"d":"490,-52v-43,39,-122,63,-202,64v-149,1,-263,-103,-263,-254v0,-141,112,-253,256,-253v148,0,250,115,247,269r0,35r-344,0v13,48,57,80,121,79v40,0,96,-20,118,-41xm381,-296v-7,-44,-42,-75,-100,-75v-57,0,-91,31,-99,75r199,0xm457,-700r-159,144r-104,0r127,-144r136,0","w":548},"\u00ea":{"d":"490,-52v-43,39,-122,63,-202,64v-149,1,-263,-103,-263,-254v0,-141,112,-253,256,-253v148,0,250,115,247,269r0,35r-344,0v13,48,57,80,121,79v40,0,96,-20,118,-41xm381,-296v-7,-44,-42,-75,-100,-75v-57,0,-91,31,-99,75r199,0xm441,-556r-92,0r-69,-81r-65,81r-92,0r90,-144r135,0","w":548},"\u00eb":{"d":"490,-52v-43,39,-122,63,-202,64v-149,1,-263,-103,-263,-254v0,-141,112,-253,256,-253v148,0,250,115,247,269r0,35r-344,0v13,48,57,80,121,79v40,0,96,-20,118,-41xm381,-296v-7,-44,-42,-75,-100,-75v-57,0,-91,31,-99,75r199,0xm389,-693v42,0,79,36,79,78v0,43,-36,79,-79,79v-42,0,-78,-37,-78,-79v0,-41,37,-78,78,-78xm175,-693v42,0,79,36,79,78v0,43,-36,79,-79,79v-42,0,-78,-37,-78,-79v0,-41,37,-78,78,-78","w":548},"\u00ec":{"d":"223,-556r-104,0r-159,-144r136,0xm210,0r-154,0r0,-483r154,0r0,483","w":266},"\u00ed":{"d":"307,-700r-159,144r-104,0r127,-144r136,0xm210,0r-154,0r0,-483r154,0r0,483","w":266},"\u00ee":{"d":"293,-556r-92,0r-69,-81r-65,81r-92,0r90,-144r135,0xm210,0r-154,0r0,-483r154,0r0,483","w":266},"\u00ef":{"d":"240,-693v42,0,79,36,79,78v0,43,-36,79,-79,79v-42,0,-78,-37,-78,-79v0,-41,37,-78,78,-78xm26,-693v42,0,79,36,79,78v0,43,-36,79,-79,79v-42,0,-78,-37,-78,-79v0,-41,37,-78,78,-78xm210,0r-154,0r0,-483r154,0r0,483","w":266},"\u00f0":{"d":"25,-220v0,-127,89,-231,211,-230v69,0,123,31,160,94v-19,-49,-70,-103,-155,-164r-148,66r-28,-69r103,-45r-55,-33r83,-122v52,32,95,61,129,86r100,-44r29,66r-67,30v109,99,164,209,164,330v0,160,-103,267,-264,267v-148,0,-262,-90,-262,-232xm183,-220v0,58,44,96,104,96v63,0,106,-38,106,-96v0,-57,-45,-95,-106,-95v-60,0,-104,38,-104,95","w":576},"\u00f1":{"d":"386,-495v101,0,159,57,159,153r0,342r-154,0r0,-279v0,-53,-26,-80,-79,-80v-37,0,-69,16,-94,47r0,312r-154,0r0,-483r154,0r0,59v41,-47,97,-71,168,-71xm352,-554v-38,0,-66,-25,-86,-42v-29,-25,-59,-14,-57,36r-78,0v0,-89,38,-134,113,-134v38,0,66,25,86,42v29,25,59,14,57,-36r78,0v0,89,-38,134,-113,134","w":593},"\u00f2":{"d":"551,-242v0,144,-112,254,-264,254v-151,0,-262,-111,-262,-254v0,-143,111,-253,262,-253v152,0,264,109,264,253xm183,-242v0,65,39,118,104,118v65,0,106,-52,106,-118v0,-65,-41,-117,-106,-117v-64,0,-104,53,-104,117xm378,-556r-104,0r-159,-144r136,0","w":576},"\u00f3":{"d":"551,-242v0,144,-112,254,-264,254v-151,0,-262,-111,-262,-254v0,-143,111,-253,262,-253v152,0,264,109,264,253xm183,-242v0,65,39,118,104,118v65,0,106,-52,106,-118v0,-65,-41,-117,-106,-117v-64,0,-104,53,-104,117xm461,-700r-159,144r-104,0r127,-144r136,0","w":576},"\u00f4":{"d":"551,-242v0,144,-112,254,-264,254v-151,0,-262,-111,-262,-254v0,-143,111,-253,262,-253v152,0,264,109,264,253xm183,-242v0,65,39,118,104,118v65,0,106,-52,106,-118v0,-65,-41,-117,-106,-117v-64,0,-104,53,-104,117xm448,-556r-92,0r-69,-81r-65,81r-92,0r90,-144r135,0","w":576},"\u00f5":{"d":"551,-242v0,144,-112,254,-264,254v-151,0,-262,-111,-262,-254v0,-143,111,-253,262,-253v152,0,264,109,264,253xm183,-242v0,65,39,118,104,118v65,0,106,-52,106,-118v0,-65,-41,-117,-106,-117v-64,0,-104,53,-104,117xm342,-554v-38,0,-66,-25,-86,-42v-29,-25,-59,-14,-57,36r-78,0v0,-89,38,-134,113,-134v38,0,66,25,86,42v29,25,59,14,57,-36r78,0v0,89,-38,134,-113,134","w":576},"\u00f6":{"d":"551,-242v0,144,-112,254,-264,254v-151,0,-262,-111,-262,-254v0,-143,111,-253,262,-253v152,0,264,109,264,253xm183,-242v0,65,39,118,104,118v65,0,106,-52,106,-118v0,-65,-41,-117,-106,-117v-64,0,-104,53,-104,117xm394,-693v42,0,79,36,79,78v0,43,-36,79,-79,79v-42,0,-78,-37,-78,-79v0,-41,37,-78,78,-78xm180,-693v42,0,79,36,79,78v0,43,-36,79,-79,79v-42,0,-78,-37,-78,-79v0,-41,37,-78,78,-78","w":576},"\u00f7":{"d":"255,-578v37,0,69,31,69,68v0,36,-33,69,-69,69v-36,0,-68,-33,-68,-69v0,-37,31,-68,68,-68xm482,-291r-453,0r0,-92r453,0r0,92xm255,-232v36,0,69,32,69,68v0,37,-32,69,-69,69v-37,0,-68,-32,-68,-69v0,-36,32,-68,68,-68","w":511},"\u00f8":{"d":"551,-242v1,144,-112,254,-264,254v-55,0,-104,-13,-145,-38r-23,26r-90,0r60,-69v-43,-47,-64,-104,-64,-173v-1,-143,111,-253,262,-253v54,0,102,12,144,37r22,-25r92,0r-60,68v44,47,66,105,66,173xm287,-124v85,3,128,-94,95,-174r-144,163v15,7,31,11,49,11xm287,-359v-84,-4,-125,94,-94,172r142,-161v-15,-7,-31,-11,-48,-11","w":576},"\u00f9":{"d":"215,12v-101,0,-158,-56,-159,-151r0,-344r154,0r0,280v0,53,27,79,80,79v37,0,67,-16,92,-47r0,-312r154,0r0,483r-154,0r0,-58v-41,47,-97,70,-167,70xm388,-556r-104,0r-159,-144r136,0","w":592},"\u00fa":{"d":"215,12v-101,0,-158,-56,-159,-151r0,-344r154,0r0,280v0,53,27,79,80,79v37,0,67,-16,92,-47r0,-312r154,0r0,483r-154,0r0,-58v-41,47,-97,70,-167,70xm471,-700r-159,144r-104,0r127,-144r136,0","w":592},"\u00fb":{"d":"215,12v-101,0,-158,-56,-159,-151r0,-344r154,0r0,280v0,53,27,79,80,79v37,0,67,-16,92,-47r0,-312r154,0r0,483r-154,0r0,-58v-41,47,-97,70,-167,70xm457,-556r-92,0r-69,-81r-65,81r-92,0r90,-144r135,0","w":592},"\u00fc":{"d":"215,12v-101,0,-158,-56,-159,-151r0,-344r154,0r0,280v0,53,27,79,80,79v37,0,67,-16,92,-47r0,-312r154,0r0,483r-154,0r0,-58v-41,47,-97,70,-167,70xm405,-693v42,0,79,36,79,78v0,43,-36,79,-79,79v-42,0,-78,-37,-78,-79v0,-41,37,-78,78,-78xm191,-693v42,0,79,36,79,78v0,43,-36,79,-79,79v-42,0,-78,-37,-78,-79v0,-41,37,-78,78,-78","w":592},"\u00fd":{"d":"46,188r22,-137v30,18,93,7,104,-18r11,-26r-193,-490r162,0r110,306r109,-306r163,0r-218,552v-35,88,-93,127,-204,127v-27,0,-49,-3,-66,-8xm435,-700r-159,144r-104,0r127,-144r136,0","w":524},"\u00fe":{"d":"565,-242v0,147,-77,253,-212,254v-57,0,-104,-23,-143,-69r0,241r-154,0r0,-851r154,0r0,240v37,-45,85,-68,143,-68v134,1,212,107,212,253xm210,-168v16,23,56,44,92,44v64,0,106,-51,106,-118v0,-67,-43,-117,-106,-117v-36,0,-77,21,-92,44r0,147"},"\u00ff":{"d":"46,188r22,-137v30,18,93,7,104,-18r11,-26r-193,-490r162,0r110,306r109,-306r163,0r-218,552v-35,90,-91,127,-204,127v-27,0,-49,-3,-66,-8xm368,-693v42,0,79,36,79,78v0,43,-36,79,-79,79v-42,0,-78,-37,-78,-79v0,-41,37,-78,78,-78xm154,-693v42,0,79,36,79,78v0,43,-36,79,-79,79v-42,0,-78,-37,-78,-79v0,-41,37,-78,78,-78","w":524},"\u0152":{"d":"364,-677v73,0,147,28,184,67r0,-57r489,0r0,150r-317,0r0,104r310,0r0,150r-310,0r0,113r317,0r0,150r-489,0r0,-57v-37,41,-111,69,-184,69v-195,3,-338,-147,-338,-345v0,-197,144,-347,338,-344xm389,-140v76,-1,133,-40,159,-94r0,-199v-26,-55,-82,-91,-159,-92v-111,-2,-188,83,-188,192v0,110,77,195,188,193","w":1073},"\u0153":{"d":"650,-495v148,-1,249,115,246,269r0,35r-344,0v14,48,58,80,122,79v39,0,97,-20,117,-41r68,101v-43,39,-123,64,-203,64v-94,0,-138,-40,-186,-91v-51,61,-112,91,-183,91v-151,0,-262,-111,-262,-254v0,-143,111,-253,262,-253v69,0,130,31,184,92v49,-61,108,-92,179,-92xm749,-296v-7,-44,-42,-75,-100,-75v-57,0,-91,30,-98,75r198,0xm287,-123v66,1,106,-51,106,-119v0,-68,-40,-117,-106,-117v-63,0,-104,51,-104,117v0,67,40,119,104,119","w":916},"\u0178":{"d":"436,-868v42,0,79,36,79,78v0,43,-36,79,-79,79v-42,0,-78,-37,-78,-79v0,-41,37,-78,78,-78xm222,-868v42,0,79,36,79,78v0,43,-36,79,-79,79v-42,0,-78,-37,-78,-79v0,-41,37,-78,78,-78xm414,0r-172,0r0,-269r-253,-398r194,0r145,246r143,-246r195,0r-252,398r0,269","w":655},"\u02c6":{"d":"318,-556r-92,0r-69,-81r-65,81r-92,0r90,-144r135,0","w":318},"\u02dc":{"d":"221,-554v-38,0,-65,-25,-85,-42v-29,-25,-60,-14,-58,36r-78,0v0,-89,38,-134,113,-134v38,0,65,25,85,42v29,25,60,14,58,-36r78,0v0,89,-38,134,-113,134","w":334},"\u2013":{"d":"563,-178r-533,0r0,-129r533,0r0,129","w":593},"\u2014":{"d":"803,-178r-773,0r0,-129r773,0r0,129","w":833},"\u2018":{"d":"137,-359v-59,-1,-103,-51,-103,-116v0,-81,38,-149,114,-203r64,52v-31,14,-74,61,-84,95v57,-15,100,26,100,79v0,49,-43,94,-91,93","w":268},"\u2019":{"d":"132,-677v60,0,102,51,102,116v0,81,-38,149,-114,202r-64,-51v31,-15,75,-60,85,-96v-53,17,-101,-25,-101,-79v0,-49,43,-92,92,-92","w":268},"\u201a":{"d":"132,-176v59,1,102,50,102,115v0,82,-38,150,-114,203r-64,-52v30,-15,75,-60,85,-95v-57,15,-101,-26,-101,-79v0,-49,43,-93,92,-92","w":268},"\u201c":{"d":"136,-359v-59,-1,-103,-51,-103,-116v0,-81,38,-149,114,-203r64,52v-30,15,-76,60,-84,95v56,-15,100,26,100,79v0,49,-43,94,-91,93xm361,-359v-59,-1,-103,-51,-103,-116v0,-81,38,-149,114,-203r64,52v-31,14,-74,61,-84,95v57,-15,100,26,100,79v0,49,-43,94,-91,93","w":494},"\u201d":{"d":"357,-677v60,0,103,51,103,116v0,81,-38,149,-114,202r-64,-51v31,-15,74,-60,84,-96v-53,17,-100,-25,-100,-79v0,-49,43,-92,91,-92xm132,-677v60,0,102,51,102,116v0,81,-38,149,-114,202r-64,-51v31,-15,75,-60,85,-96v-53,17,-101,-25,-101,-79v0,-49,43,-92,92,-92","w":494},"\u201e":{"d":"132,-176v59,1,102,50,102,115v0,82,-38,150,-114,203r-64,-52v30,-15,75,-60,85,-95v-57,15,-101,-26,-101,-79v0,-49,43,-93,92,-92xm357,-176v60,0,103,50,103,115v0,82,-38,150,-114,203r-64,-52v31,-14,74,-61,84,-95v-57,15,-100,-26,-100,-79v0,-49,43,-92,91,-92","w":494},"\u2022":{"d":"180,-366v68,0,124,56,124,124v0,67,-57,123,-124,123v-67,0,-124,-56,-124,-123v0,-68,56,-124,124,-124","w":358},"\u2026":{"d":"135,-176v49,0,93,44,93,93v0,49,-44,94,-93,94v-49,0,-94,-45,-94,-94v0,-49,45,-93,94,-93xm404,-176v49,0,93,44,93,93v0,49,-44,94,-93,94v-49,0,-94,-45,-94,-94v0,-49,45,-93,94,-93xm673,-176v49,0,93,44,93,93v0,49,-44,94,-93,94v-49,0,-94,-45,-94,-94v0,-49,45,-93,94,-93","w":807},"\u2039":{"d":"329,-63r-139,0r-160,-180r160,-177r139,0r-160,177","w":359},"\u203a":{"d":"329,-243r-160,180r-139,0r160,-180r-160,-177r139,0","w":359},"\u20ac":{"d":"702,-167v-50,98,-142,179,-291,179v-170,0,-302,-98,-343,-231r-51,0r0,-92r33,0r1,-47r-34,0r0,-92r51,0v41,-132,175,-228,343,-228v150,0,240,80,291,178r-148,71v-19,-50,-77,-97,-143,-97v-66,0,-116,25,-151,76r211,0r0,92r-245,0v-1,8,-1,38,0,47r245,0r0,92r-213,0v35,53,86,79,153,79v66,0,124,-48,143,-97","w":715},"\u2122":{"d":"419,-447r-28,0r0,-182r-75,182r-8,0r-75,-182r0,182r-28,0r0,-220r43,0r64,160r64,-160r43,0r0,220xm169,-641r-62,0r0,194r-28,0r0,-194r-62,0r0,-26r152,0r0,26","w":454}}});
