/*!
 * The following copyright notice may not be removed under any circumstances.
 * 
 * Copyright:
 * Copyright (c) Mark Simonson, 2005. All rights reserved.
 * 
 * Description:
 * This is a protected webfont and is intended for CSS @font-face use ONLY.
 * Reverse engineering this font is strictly prohibited.
 */
Cufon.registerFont({"w":481,"face":{"font-family":"","font-weight":400,"font-stretch":"normal","units-per-em":"1000","panose-1":"2 0 5 6 3 0 0 2 0 4","ascent":"790","descent":"-210","x-height":"12","bbox":"-152 -875 896 199","underline-thickness":"20","underline-position":"-113","unicode-range":"U+0020-U+2122"},"glyphs":{" ":{"w":215},"!":{"d":"130,-185r-59,0r91,-482r90,0xm123,-47v0,31,-28,57,-59,57v-26,0,-48,-23,-48,-49v0,-31,27,-58,58,-58v27,0,49,23,49,50","w":228},"\"":{"d":"189,-677v31,1,47,28,34,63r-71,200r-36,0v14,-133,21,-203,21,-210v2,-29,22,-54,52,-53xm298,-662v23,-27,77,-14,75,25v0,7,-3,15,-6,23r-71,200r-35,0v13,-133,20,-203,21,-210v1,-16,7,-28,16,-38","w":340},"#":{"d":"209,0r-59,0r93,-182r-92,0r-91,182r-59,0r92,-182r-88,0r25,-51r89,0r101,-201r-88,0r23,-51r91,0r91,-182r59,0r-91,182r90,0r91,-182r59,0r-92,182r88,0r-24,51r-89,0r-102,201r91,0r-25,51r-92,0xm267,-233r102,-201r-90,0r-102,201r90,0","w":507},"$":{"d":"112,-428v-49,-131,70,-254,197,-250r20,-90r59,0r-22,96v55,13,97,38,125,75r-50,57v-23,-30,-54,-50,-91,-61r-51,230v39,25,69,51,91,77v56,69,33,182,-26,242v-39,40,-88,63,-150,64r-19,88r-59,0r20,-93v-71,-12,-123,-42,-154,-89r52,-58v28,41,67,67,118,78r56,-251v-50,-34,-95,-58,-116,-115xm230,-60v63,-7,108,-59,108,-127v0,-31,-20,-61,-59,-92xm293,-606v-57,3,-108,52,-107,111v0,29,21,58,62,89","w":469},"%":{"d":"121,0r-47,0r497,-667r48,0xm604,-189v0,102,-71,200,-163,201v-75,1,-126,-54,-126,-128v0,-101,71,-200,162,-201v74,-1,127,54,127,128xm371,-121v0,49,26,84,72,84v60,-1,105,-77,105,-147v0,-49,-27,-84,-73,-84v-59,1,-104,78,-104,147xm374,-549v0,101,-71,200,-162,201v-74,1,-127,-55,-127,-128v0,-102,71,-200,163,-201v75,-1,126,54,126,128xm141,-481v0,49,27,84,73,84v59,-1,104,-78,104,-147v0,-49,-26,-84,-72,-84v-60,1,-105,77,-105,147","w":650},"&":{"d":"330,-677v70,0,117,40,117,112v0,42,-19,84,-37,107v-32,42,-99,79,-146,105v20,56,57,137,80,188v31,-41,60,-90,87,-146r55,32v-39,72,-76,130,-111,173v12,23,33,58,62,106r-84,0v-9,-14,-19,-32,-30,-53v-50,43,-101,65,-153,65v-91,0,-156,-54,-156,-146v0,-58,15,-105,45,-141v30,-36,72,-69,125,-99v-10,-37,-15,-73,-15,-107v0,-96,72,-197,161,-196xm92,-143v-2,55,38,95,90,95v35,0,72,-20,113,-59v-46,-89,-64,-133,-92,-210v-61,41,-109,83,-111,174xm328,-621v-51,0,-89,81,-89,144v0,21,3,43,8,68v43,-23,76,-46,99,-69v23,-23,34,-51,34,-85v0,-39,-17,-58,-52,-58","w":522},"'":{"d":"189,-677v31,1,47,28,34,63r-71,200r-36,0v14,-133,21,-203,21,-210v2,-29,22,-54,52,-53","w":197},"(":{"d":"302,-654v-112,168,-203,385,-206,639v0,58,8,122,23,191r-52,23v-30,-76,-45,-159,-45,-250v0,-226,80,-437,239,-634","w":229},")":{"d":"-74,168v112,-168,203,-385,206,-639v0,-58,-8,-122,-23,-191r52,-23v30,76,45,159,45,250v0,226,-80,437,-239,634","w":229},"*":{"d":"215,-391r-45,0r32,-117r-111,51r-13,-40r114,-40r-90,-63r30,-35r82,72r20,-114r45,0r-32,117r110,-51r13,40r-112,41r89,62r-31,35r-82,-71","w":322},"+":{"d":"424,-312r-162,0r-41,184r-56,0r41,-184r-162,0r11,-51r163,0r39,-177r55,0r-39,177r163,0","w":438},",":{"d":"74,-97v31,0,52,24,51,57v-1,69,-61,135,-113,160r-30,-32v33,-16,71,-49,83,-84v-27,6,-49,-17,-49,-43v0,-31,28,-59,58,-58","w":229},"-":{"d":"230,-210r-208,0r14,-64r208,0","w":268},".":{"d":"123,-47v0,31,-27,57,-58,57v-27,0,-49,-23,-49,-49v0,-31,28,-58,59,-58v26,0,48,23,48,50","w":229},"\/":{"d":"-1,20r-58,0r348,-707r59,0","w":248},"0":{"d":"330,-677v119,1,173,92,172,222v-1,155,-53,303,-132,391v-45,50,-93,76,-147,76v-119,-1,-177,-93,-174,-222v4,-177,63,-338,165,-423v36,-29,75,-44,116,-44xm229,-59v28,0,55,-14,80,-43v70,-81,114,-223,114,-363v0,-94,-33,-141,-100,-141v-37,0,-71,24,-103,72v-54,81,-92,212,-92,333v0,95,34,142,101,142","w":514},"1":{"d":"191,0r-79,0r124,-562r-127,110r-37,-50r196,-165r70,0","w":315},"2":{"d":"305,-677v101,-1,184,55,184,155v0,84,-48,140,-87,188v-73,88,-188,183,-276,263r266,0r-15,71r-379,0r18,-80r212,-188v24,-22,42,-39,54,-52r43,-44v35,-37,60,-67,75,-116v23,-74,-28,-126,-101,-126v-55,0,-101,23,-139,68r-42,-52v51,-58,113,-87,187,-87","w":491},"3":{"d":"416,-206v2,115,-95,218,-212,218v-100,0,-184,-56,-207,-136r63,-41v19,60,71,104,144,106v81,2,134,-75,134,-155v0,-61,-48,-94,-112,-93v-25,0,-41,0,-47,1r16,-73v6,1,29,1,69,1v76,2,134,-60,133,-137v-1,-60,-49,-92,-113,-91v-51,0,-96,23,-134,68r-41,-50v40,-47,105,-88,184,-89v104,-1,186,51,186,151v0,93,-78,178,-160,187v56,15,96,65,97,133","w":474},"4":{"d":"312,0r-79,0r38,-171r-265,0r17,-75r331,-421r105,0r-94,426r73,0r-15,70r-73,0xm286,-241r75,-337r-265,337r190,0","w":463},"5":{"d":"447,-255v0,134,-97,267,-229,267v-98,0,-164,-44,-198,-133r64,-41v22,69,67,103,136,103v81,0,144,-101,144,-188v0,-65,-42,-105,-107,-104v-39,0,-78,17,-115,51r-53,-26r75,-341r341,0r-15,71r-262,0r-50,225v31,-31,70,-47,117,-47v91,0,152,67,152,163","w":493},"6":{"d":"451,-261v0,129,-97,273,-226,273v-121,0,-180,-87,-179,-211v2,-106,31,-213,68,-297v38,-88,115,-180,228,-181v80,-1,138,42,162,101r-56,50v-14,-46,-53,-80,-111,-80v-96,0,-135,92,-165,166v-12,33,-25,74,-33,112v31,-43,89,-89,157,-89v91,-1,155,62,155,156xm122,-188v-1,74,35,129,106,129v81,0,140,-111,140,-192v0,-60,-42,-99,-104,-99v-47,0,-93,31,-137,92v-3,19,-5,42,-5,70","w":493},"7":{"d":"132,0r-89,0r341,-596r-280,0r15,-71r373,0r-13,55","w":424},"8":{"d":"429,-185v2,113,-98,197,-212,197v-111,0,-196,-46,-195,-153v1,-110,82,-182,178,-210v-45,-25,-91,-73,-92,-139v-2,-106,100,-187,205,-187v97,0,184,52,184,149v0,104,-79,170,-167,190v49,29,98,81,99,153xm308,-605v-91,0,-162,118,-94,190v18,19,37,33,58,41v74,-13,142,-60,141,-144v0,-54,-48,-87,-105,-87xm105,-155v0,63,49,96,112,96v69,0,132,-63,132,-136v0,-56,-49,-104,-90,-117v-79,11,-154,71,-154,157","w":487},"9":{"d":"81,-405v0,-129,97,-273,226,-273v121,0,180,87,179,211v-2,137,-46,264,-101,355v-38,62,-104,122,-195,123v-80,0,-138,-42,-162,-101r56,-50v14,46,53,80,111,80v76,-1,130,-79,155,-137v17,-41,32,-90,43,-141v-31,43,-89,89,-157,89v-91,1,-155,-62,-155,-156xm410,-478v1,-74,-35,-129,-106,-129v-81,0,-141,111,-141,192v0,59,43,99,104,99v49,0,94,-31,137,-92v4,-23,6,-46,6,-70","w":493},":":{"d":"123,-47v0,31,-27,57,-58,57v-26,0,-49,-23,-49,-49v0,-31,28,-58,59,-58v26,0,48,23,48,50xm210,-441v0,31,-27,58,-58,58v-27,0,-49,-23,-49,-49v0,-31,28,-58,59,-58v26,0,48,23,48,49","w":226},";":{"d":"74,-97v31,0,52,24,51,57v-1,69,-61,135,-113,160r-30,-32v33,-16,71,-49,83,-84v-27,6,-49,-17,-49,-43v0,-31,28,-59,58,-58xm210,-441v0,31,-27,58,-58,58v-27,0,-49,-23,-49,-49v0,-31,28,-58,59,-58v26,0,48,23,48,49","w":228},"<":{"d":"382,-125r-339,-184r11,-51r422,-184r-15,63r-351,150r285,148","w":438},"=":{"d":"445,-405r-381,0r12,-51r380,0xm402,-212r-381,0r12,-51r380,0","w":438},">":{"d":"423,-309r-421,184r15,-64r351,-148r-285,-149r12,-58r340,184","w":438},"?":{"d":"261,-677v88,0,164,51,164,132v0,135,-129,164,-195,237v-25,27,-29,68,-10,98r-65,26v-24,-43,-22,-97,4,-137v40,-63,119,-86,161,-146v14,-19,21,-39,21,-62v0,-49,-41,-79,-94,-79v-41,0,-78,15,-111,45r-30,-54v45,-40,96,-60,155,-60xm201,-47v0,31,-28,57,-59,57v-26,0,-48,-23,-48,-49v0,-31,27,-58,58,-58v27,0,49,23,49,50","w":388},"@":{"d":"90,-231v0,150,96,270,242,268v55,0,109,-19,162,-56r17,26v-58,42,-119,63,-183,63v-164,2,-275,-131,-273,-300v2,-155,85,-286,185,-352v56,-37,116,-56,179,-56v155,-2,258,123,258,281v0,79,-16,144,-49,195v-33,51,-70,77,-111,77v-50,1,-82,-35,-84,-82v-36,55,-81,82,-134,82v-77,-1,-122,-58,-122,-143v0,-126,92,-271,210,-271v52,0,87,34,100,75r12,-59r65,0r-58,274v-7,35,2,72,36,72v13,0,26,-7,41,-22v34,-36,59,-119,59,-198v0,-143,-87,-249,-225,-247v-132,1,-234,95,-283,193v-30,57,-44,117,-44,180xm246,-234v0,55,24,95,76,95v43,0,83,-28,121,-85r32,-150v-9,-34,-35,-71,-78,-71v-88,0,-151,121,-151,211","w":693},"A":{"d":"450,0r-83,0r-10,-151r-238,0r-76,151r-89,0r348,-667r95,0xm356,-222r-23,-357r-181,357r204,0","w":512},"B":{"d":"455,-209v0,114,-80,209,-202,209r-237,0r147,-667r198,0v88,-2,153,59,153,144v0,90,-62,177,-141,187v48,12,82,69,82,127xm429,-511v1,-52,-37,-86,-89,-85r-113,0r-48,219r134,0v73,3,116,-66,116,-134xm374,-214v0,-58,-34,-92,-92,-92r-119,0r-52,235r137,0v75,2,126,-69,126,-143","w":517},"C":{"d":"133,-229v-1,101,49,170,145,170v48,0,93,-27,136,-81r61,37v-56,77,-123,115,-202,115v-138,1,-225,-97,-223,-241v2,-158,64,-299,152,-381v80,-75,209,-94,294,-26v34,28,57,67,72,114r-75,22v-35,-123,-165,-139,-247,-49v-64,70,-112,193,-113,320","w":534},"D":{"d":"337,-667v124,1,212,107,209,243v-3,135,-50,245,-116,322v-49,56,-134,103,-236,102r-178,0r147,-667r174,0xm464,-422v3,-97,-53,-173,-142,-174r-95,0r-116,525v86,0,154,5,209,-35v88,-63,139,-177,144,-316","w":565},"E":{"d":"359,0r-343,0r147,-667r343,0r-15,71r-264,0r-48,219r257,0r-16,71r-257,0r-52,235r264,0","w":462},"F":{"d":"96,0r-80,0r147,-667r343,0r-15,71r-264,0r-48,219r257,0r-16,71r-257,0","w":451},"G":{"d":"133,-229v-1,102,49,169,145,170v46,0,89,-21,128,-64r33,-148r-161,0r15,-71r236,0r-55,250v-57,69,-124,104,-201,104v-139,1,-225,-98,-223,-241v2,-159,63,-299,152,-381v79,-73,209,-94,293,-27v33,26,56,63,70,106r-70,25v-19,-57,-63,-100,-134,-101v-41,0,-79,19,-115,57v-66,69,-112,194,-113,321","w":564},"H":{"d":"451,0r-79,0r67,-308r-276,0r-67,308r-80,0r147,-667r80,0r-64,289r276,0r64,-289r79,0","w":575},"I":{"d":"96,0r-80,0r147,-667r80,0","w":220},"J":{"d":"118,12v-68,0,-117,-22,-147,-67r43,-59v22,37,55,55,99,55v63,0,104,-38,121,-115r108,-493r80,0r-110,495v-27,123,-92,184,-194,184","w":399},"K":{"d":"442,0r-89,0r-134,-298r-77,85r-46,213r-80,0r147,-667r80,0r-74,336r302,-336r100,0r-293,316","w":510},"L":{"d":"332,0r-322,0r147,-667r80,0r-132,596r242,0","w":414},"M":{"d":"560,0r-79,0r120,-540r-297,540r-31,0r-58,-540r-119,540r-80,0r147,-667r108,0r53,491r271,-491r112,0","w":684},"N":{"d":"449,0r-76,0r-164,-512r-113,512r-80,0r147,-667r80,0r162,501r112,-501r79,0","w":573},"O":{"d":"367,-678v135,-1,225,103,223,242v-2,155,-62,297,-150,378v-50,46,-105,70,-167,70v-136,1,-225,-101,-223,-241v1,-114,37,-224,84,-301v45,-75,124,-146,233,-148xm133,-229v-1,98,54,170,145,170v41,0,80,-19,116,-57v66,-69,111,-193,112,-320v1,-99,-53,-171,-145,-171v-42,0,-81,19,-117,58v-66,69,-110,193,-111,320","w":601},"P":{"d":"509,-505v-2,130,-90,244,-233,238r-121,0r-59,267r-80,0r147,-667r192,0v88,-2,155,73,154,162xm426,-499v0,-56,-37,-97,-91,-97r-108,0r-57,258r113,0v88,3,143,-76,143,-161","w":488},"Q":{"d":"590,-436v-1,156,-72,321,-165,391r24,55r-63,23r-18,-42v-32,14,-64,21,-95,21v-136,1,-225,-101,-223,-241v1,-114,37,-224,84,-301v45,-75,124,-146,233,-148v135,-1,224,103,223,242xm133,-229v-4,121,97,206,207,154r-55,-129r63,-23r46,110v64,-65,112,-196,112,-319v0,-99,-53,-171,-145,-171v-42,0,-81,19,-117,58v-66,69,-107,193,-111,320","w":601},"R":{"d":"510,-505v0,116,-77,217,-178,230r79,275r-86,0r-70,-267r-101,0r-58,267r-80,0r147,-667r185,0v90,-1,162,69,162,162xm426,-499v0,-56,-39,-97,-91,-97r-108,0r-57,259r114,0v87,3,142,-77,142,-162","w":510},"S":{"d":"420,-199v3,117,-92,211,-214,211v-88,0,-171,-41,-206,-94r52,-58v29,45,87,80,157,81v75,1,128,-56,127,-128v-1,-53,-47,-85,-84,-110v-65,-44,-149,-84,-152,-187v-3,-106,97,-194,206,-194v79,0,149,33,183,81r-50,57v-33,-45,-79,-67,-138,-67v-84,0,-156,100,-93,167v70,75,208,102,212,241","w":472},"T":{"d":"209,0r-79,0r132,-596r-159,0r15,-71r397,0r-15,71r-159,0","w":447},"U":{"d":"143,-215v-20,94,32,156,119,156v98,0,131,-65,151,-156r99,-452r80,0r-99,451v-32,133,-86,224,-234,228v-134,3,-225,-91,-195,-229r99,-450r80,0","w":569},"V":{"d":"250,0r-95,0r-54,-667r83,0r36,571r288,-571r89,0","w":512},"W":{"d":"498,0r-85,0r8,-526r-226,526r-84,0r-2,-667r84,0r-11,543r235,-543r66,0r-5,543r229,-543r87,0","w":717},"X":{"d":"450,0r-87,0r-98,-273r-213,273r-98,0r276,-345r-118,-322r88,0r89,259r198,-259r99,0r-262,330","w":512},"Y":{"d":"236,0r-79,0r62,-282r-121,-385r84,0r89,308r225,-308r93,0r-291,385","w":501},"Z":{"d":"369,0r-383,0r15,-68r393,-528r-276,0r15,-71r376,0r-14,66r-395,530r284,0","w":463},"[":{"d":"98,190r-157,0r192,-868r158,0r-12,53r-102,0r-168,762r101,0","w":212},"\\":{"d":"133,20r-40,-707r57,0r40,707r-57,0","w":248},"]":{"d":"78,190r-157,0r12,-53r101,0r169,-762r-102,0r12,-53r158,0","w":212},"^":{"d":"381,-333r-56,0r-51,-277r-175,277r-61,0r218,-334r55,0","w":381},"_":{"d":"349,93r-426,0r12,-53r427,0","w":422},"`":{"d":"255,-556r-51,0r-103,-144r73,0","w":186},"\u02cb":{"d":"255,-556r-51,0r-103,-144r73,0","w":186},"a":{"d":"173,12v-92,0,-144,-73,-142,-171v2,-112,42,-217,103,-280v36,-37,74,-56,118,-56v64,1,108,36,129,85r16,-73r71,0r-107,483r-72,0r15,-66v-36,52,-80,78,-131,78xm368,-351v-13,-43,-53,-81,-105,-80v-72,1,-119,86,-138,149v-12,39,-18,77,-18,113v-1,69,31,117,95,117v53,0,95,-43,117,-81"},"b":{"d":"306,-495v93,0,144,71,142,171v-2,112,-43,215,-102,280v-73,81,-207,74,-247,-29r-16,73r-71,0r147,-667r71,0r-55,250v36,-52,80,-78,131,-78xm112,-132v13,43,53,81,105,80v72,-1,119,-86,138,-149v12,-39,18,-77,18,-113v1,-69,-32,-117,-96,-117v-52,0,-94,44,-117,81"},"c":{"d":"107,-181v0,80,40,128,114,129v37,0,68,-15,93,-45r29,52v-37,38,-81,57,-132,57v-111,0,-180,-75,-178,-191v1,-113,49,-209,115,-267v78,-69,217,-65,267,21r-46,46v-19,-35,-50,-52,-92,-52v-50,0,-91,27,-123,81v-32,54,-47,110,-47,169","w":407},"d":{"d":"173,12v-92,0,-144,-73,-142,-171v2,-112,42,-217,103,-280v36,-37,74,-56,118,-56v64,1,108,36,129,85r56,-257r72,0r-148,667r-72,0r15,-66v-36,52,-80,78,-131,78xm368,-351v-13,-43,-53,-81,-105,-80v-72,1,-119,86,-138,149v-12,39,-18,77,-18,113v-1,69,31,117,95,117v53,0,95,-43,117,-81"},"e":{"d":"108,-218v-19,93,26,170,120,170v42,0,80,-17,113,-50r28,48v-43,41,-93,62,-148,62v-117,1,-192,-73,-189,-191v4,-125,57,-230,138,-285v31,-21,65,-31,101,-31v105,0,169,72,167,181v0,32,-5,64,-14,96r-316,0xm366,-272v20,-85,-17,-163,-101,-163v-80,0,-135,91,-148,163r249,0","w":469},"f":{"d":"101,0r-72,0r93,-420r-64,0r14,-63r64,0r12,-58v21,-91,67,-136,138,-136v39,0,69,11,90,34r-37,52v-12,-15,-28,-22,-48,-22v-37,0,-60,24,-71,72r-13,58r82,0r-14,63r-81,0","w":253},"g":{"d":"251,-495v58,1,111,41,130,85r16,-73r71,0r-109,486v-29,129,-96,193,-203,193v-78,0,-136,-23,-174,-69r45,-55v25,40,68,60,129,60v67,0,111,-43,132,-129r18,-77v-36,52,-81,78,-134,78v-92,-1,-142,-68,-140,-170v2,-110,38,-212,99,-274v35,-36,75,-55,120,-55xm107,-176v-1,70,31,117,95,117v52,0,95,-42,118,-79r47,-213v-13,-41,-57,-80,-108,-80v-44,0,-80,28,-109,84v-29,56,-43,113,-43,171"},"h":{"d":"319,-495v79,0,125,51,107,133r-80,362r-72,0r76,-344v16,-52,-6,-88,-65,-87v-41,0,-82,26,-124,79r-78,352r-71,0r147,-667r71,0r-55,251v46,-53,94,-79,144,-79","w":466},"i":{"d":"230,-608v0,31,-26,55,-55,55v-24,1,-45,-19,-45,-42v0,-31,27,-56,55,-56v24,-1,45,19,45,43xm83,0r-71,0r107,-483r71,0","w":203},"j":{"d":"23,163v-37,44,-147,44,-175,-5r37,-52v10,17,26,26,47,26v33,0,55,-24,66,-73r121,-542r71,0r-120,542v-11,47,-28,81,-47,104xm230,-608v0,31,-26,55,-55,55v-24,1,-45,-19,-45,-42v0,-31,27,-56,55,-56v24,-1,45,19,45,43","w":203},"k":{"d":"370,0r-81,0r-87,-221r-90,90r-29,131r-71,0r147,-667r71,0r-97,441r256,-257r87,0r-217,217","w":439},"l":{"d":"83,0r-71,0r147,-667r71,0","w":203},"m":{"d":"555,-495v72,-1,115,54,98,133r-80,362r-72,0r77,-347v14,-50,-10,-84,-57,-84v-48,0,-91,45,-115,79r-78,352r-72,0r77,-347v13,-51,-4,-84,-57,-84v-37,0,-76,26,-115,79r-78,352r-71,0r107,-483r71,0r-15,67v40,-53,85,-79,135,-79v56,0,104,36,102,89v44,-59,92,-89,143,-89","w":693},"n":{"d":"319,-495v79,0,125,52,107,133r-80,362r-72,0r76,-343v16,-55,-5,-88,-65,-88v-42,0,-83,26,-124,79r-78,352r-71,0r107,-483r71,0r-15,67v46,-53,94,-79,144,-79","w":466},"o":{"d":"271,-495v110,-1,174,74,173,186v-1,113,-45,213,-112,271v-38,33,-80,50,-126,50v-110,1,-175,-74,-174,-186v1,-113,45,-212,112,-270v38,-33,80,-51,127,-51xm107,-175v-1,74,33,123,102,123v72,0,120,-83,141,-145v13,-39,20,-76,20,-111v1,-75,-33,-123,-103,-123v-72,0,-121,83,-141,145v-13,39,-19,76,-19,111","w":478},"p":{"d":"306,-495v93,0,144,71,142,171v-2,112,-43,215,-102,280v-73,81,-207,74,-247,-29r-57,257r-71,0r148,-667r71,0r-15,66v36,-52,80,-78,131,-78xm112,-132v13,43,53,81,105,80v72,-1,119,-86,138,-149v12,-39,18,-77,18,-113v1,-69,-32,-117,-96,-117v-52,0,-94,44,-117,81","w":479},"q":{"d":"173,12v-92,0,-144,-73,-142,-171v2,-112,42,-217,103,-280v36,-37,74,-56,118,-56v64,1,108,36,129,85r15,-73r72,0r-148,667r-72,0r56,-250v-36,52,-80,78,-131,78xm368,-351v-13,-43,-53,-81,-105,-80v-72,1,-119,86,-138,149v-12,39,-18,77,-18,113v-1,69,31,117,95,117v53,0,95,-43,117,-81","w":479},"r":{"d":"83,0r-71,0r107,-483r71,0r-16,71v41,-54,92,-81,155,-81r-17,74v-70,-18,-125,31,-153,77","w":291},"s":{"d":"330,-145v2,89,-75,157,-171,157v-77,0,-132,-25,-166,-76r45,-48v21,35,69,66,124,66v69,0,127,-76,76,-129v-55,-57,-171,-68,-174,-174v-2,-85,71,-146,162,-146v65,0,124,30,151,69r-42,47v-15,-31,-66,-58,-112,-58v-66,0,-118,69,-68,116v57,55,172,69,175,176","w":388},"t":{"d":"140,12v-78,1,-109,-41,-93,-112r72,-320r-64,0r14,-63r64,0r29,-132r72,0r-29,132r81,0r-14,63r-81,0r-69,308v-8,32,0,60,36,60v15,0,28,-5,38,-15r10,57v-18,15,-40,22,-66,22","w":263},"u":{"d":"145,12v-78,0,-123,-54,-106,-133r79,-362r72,0r-76,343v-14,53,6,89,65,88v43,0,84,-26,123,-77r79,-354r72,0r-107,483r-72,0r15,-67v-46,53,-94,79,-144,79","w":465},"v":{"d":"190,0r-79,0r-52,-483r75,0r32,397r210,-397r80,0","w":409},"w":{"d":"443,0r-73,0r-19,-388r-189,388r-73,0r-23,-483r72,0r10,386r188,-386r67,0r17,386r182,-386r78,0","w":639},"x":{"d":"341,0r-77,0r-69,-194r-154,194r-83,0r202,-246r-87,-237r77,0r62,184r145,-184r83,0r-193,237","w":407},"y":{"d":"-53,185r25,-62v38,16,70,2,94,-39r44,-76r-51,-491r75,0r33,396r209,-396r80,0r-324,584v-32,56,-59,95,-129,95v-21,0,-40,-4,-56,-11","w":409},"z":{"d":"291,0r-302,0r12,-56r288,-364r-207,0r14,-63r298,0r-12,55r-289,365r211,0","w":388},"{":{"d":"44,69v-9,37,10,67,43,68r42,0r-12,53r-36,0v-60,1,-108,-53,-93,-121r48,-219v10,-37,-5,-67,-36,-70r11,-48v35,0,57,-24,67,-70r49,-221v15,-71,59,-117,137,-119r46,0r-12,53r-46,0v-36,0,-59,22,-69,66r-51,233v-11,47,-32,76,-65,88v29,11,33,52,25,88","w":231},"|":{"d":"144,20r-54,0r0,-707r54,0r0,707","w":194},"}":{"d":"186,-557v9,-37,-10,-67,-43,-68r-42,0r12,-53r36,0v61,0,110,51,94,121r-49,219v-7,35,4,70,37,70r-11,48v-35,0,-57,23,-68,70r-49,221v-15,71,-59,117,-137,119r-46,0r12,-53r46,0v36,0,59,-22,69,-66r51,-233v11,-47,32,-76,65,-88v-29,-12,-33,-52,-25,-88","w":231},"~":{"d":"461,-667r53,5v-35,159,-90,238,-166,238v-67,0,-77,-61,-81,-124v-2,-31,-7,-66,-38,-67v-42,0,-78,64,-108,192r-53,-6v35,-158,90,-237,165,-237v76,0,79,75,85,142v2,25,10,50,34,50v43,0,79,-64,109,-193","w":449},"\u00a0":{"w":215},"\u00a1":{"d":"96,-298r60,0r-92,482r-89,0xm104,-436v0,-31,27,-57,58,-57v26,0,49,23,49,49v0,31,-28,58,-59,58v-26,0,-48,-23,-48,-50","w":228},"\u00a2":{"d":"148,3v-72,-22,-115,-87,-115,-182v0,-141,96,-309,226,-315r16,-71r57,0r-17,74v44,9,77,31,100,66r-46,46v-15,-27,-38,-44,-68,-49r-83,376v40,1,69,-14,96,-45r29,52v-39,40,-82,58,-140,57r-19,88r-57,0xm244,-426v-81,19,-138,145,-137,245v0,57,19,96,56,116","w":407},"\u00a3":{"d":"2,-52v72,-35,159,-115,147,-218r-119,0r11,-52r93,0v-15,-34,-38,-76,-38,-127v0,-117,100,-228,216,-228v83,0,157,48,168,120r-70,27v-8,-46,-44,-80,-97,-80v-76,0,-132,83,-132,168v0,46,26,87,37,120r111,0r-12,52r-89,0v1,78,-57,153,-107,184v16,-6,30,-9,41,-9v32,0,103,37,132,37v30,0,57,-12,80,-37r17,63v-30,30,-65,45,-106,45v-48,0,-127,-44,-170,-44v-27,0,-60,13,-97,38","w":450},"\u00a4":{"d":"461,-136r-34,27r-37,-49v-86,63,-203,58,-277,-15r-79,66r-23,-31r77,-63v-58,-105,-32,-201,49,-281r-37,-49r32,-26r39,48v84,-61,202,-58,276,14r78,-64r25,30r-78,64v58,102,32,199,-49,281xm261,-162v99,0,193,-90,193,-189v0,-89,-66,-153,-155,-153v-99,0,-193,90,-193,189v0,89,66,153,155,153","w":522},"\u00a5":{"d":"239,0r-79,0r27,-123r-192,0r11,-51r192,0r24,-108r-192,0r11,-51r165,0r-105,-334r84,0r89,308r225,-308r93,0r-253,334r159,0r-11,51r-186,0r-24,108r185,0r-11,51r-185,0","w":501},"\u00a6":{"d":"144,20r-54,0r0,-316r54,0r0,316xm144,-371r-54,0r0,-316r54,0r0,316","w":194},"\u00a7":{"d":"266,-623v-67,0,-122,76,-71,126v56,56,173,66,173,174v0,75,-49,123,-113,143v39,26,58,60,58,103v1,88,-74,158,-167,158v-80,0,-138,-24,-175,-72r45,-45v27,41,70,62,128,62v71,0,129,-83,78,-138v-55,-57,-172,-66,-172,-174v0,-74,57,-127,129,-135v-49,-29,-74,-67,-74,-112v-1,-82,72,-144,158,-144v72,0,126,22,161,67r-43,40v-25,-35,-64,-53,-115,-53xm232,-393v-63,8,-112,36,-112,94v0,35,29,65,87,92v60,-19,90,-52,90,-101v0,-33,-22,-62,-65,-85","w":390},"\u00a8":{"d":"306,-649v21,0,40,18,40,40v0,26,-25,50,-51,50v-22,0,-40,-18,-40,-40v0,-26,25,-50,51,-50xm131,-649v22,0,40,18,40,40v0,26,-24,50,-50,50v-22,0,-40,-18,-40,-40v0,-24,26,-50,50,-50","w":268},"\u00a9":{"d":"408,-679v185,0,346,160,346,345v0,186,-161,345,-346,345v-185,0,-344,-160,-344,-345v0,-186,158,-345,344,-345xm408,-19v168,0,316,-148,316,-315v0,-169,-148,-315,-316,-315v-168,0,-314,147,-314,315v0,167,147,315,314,315xm234,-308v0,86,67,155,156,155v45,0,83,-16,115,-48r19,28v-41,35,-86,52,-134,52v-112,0,-192,-78,-192,-186v0,-126,114,-241,236,-241v72,0,124,27,155,80r-30,21v-24,-45,-66,-68,-126,-68v-101,0,-199,99,-199,207","w":778},"\u00aa":{"d":"312,-556v-8,-25,-37,-47,-69,-47v-61,-1,-104,95,-104,161v0,47,21,78,64,79v27,0,53,-17,78,-51xm81,-438v0,-93,61,-210,150,-210v42,0,72,17,90,52r10,-44r55,0r-69,314r-56,0r10,-45v-26,35,-56,53,-91,53v-64,-1,-99,-49,-99,-120","w":351},"\u00ab":{"d":"178,-63r-64,0r-85,-180r165,-177r70,0r-169,181xm308,-63r-64,0r-85,-180r165,-177r70,0r-169,181","w":382},"\u00ac":{"d":"456,-456r-54,244r-53,0r43,-193r-328,0r12,-51r380,0","w":441},"\u00ad":{"d":"230,-210r-208,0r14,-64r208,0","w":268},"\u00ae":{"d":"296,-677v115,0,212,97,212,212v0,114,-99,212,-213,212v-114,0,-211,-98,-211,-212v0,-114,98,-212,212,-212xm295,-282v99,0,184,-84,184,-183v0,-100,-84,-183,-184,-183v-100,0,-182,83,-182,183v0,99,83,183,182,183xm403,-522v0,44,-40,83,-80,82r44,97r-38,0r-42,-96r-46,0r-21,96r-32,0r53,-243r92,0v39,-1,70,25,70,64xm315,-468v29,1,55,-22,54,-50v1,-25,-17,-40,-41,-40r-61,0r-20,90r68,0","w":494},"\u00af":{"d":"382,-591r-305,0r10,-46r305,0","w":306},"\u203e":{"d":"382,-591r-305,0r10,-46r305,0","w":306},"\u00b0":{"d":"213,-677v65,0,121,57,121,122v0,65,-56,120,-121,120v-65,0,-121,-55,-121,-120v0,-65,56,-122,121,-122xm212,-482v40,0,76,-34,76,-73v0,-40,-35,-75,-75,-75v-40,0,-74,35,-74,75v0,39,33,73,73,73","w":289},"\u00b1":{"d":"425,-318r-162,0r-41,184r-55,0r41,-184r-163,0r11,-51r163,0r39,-177r55,0r-39,177r163,0xm360,-22r-380,0r10,-51r381,0","w":438},"\u00b2":{"d":"272,-827v65,0,127,35,124,100v-3,59,-26,81,-66,121v-57,57,-103,89,-162,137r173,0r-10,48r-251,0r10,-47v107,-84,174,-139,199,-166v31,-33,47,-62,47,-89v1,-36,-30,-56,-66,-56v-38,0,-70,16,-95,47r-29,-38v35,-38,77,-57,126,-57","w":327},"\u00b3":{"d":"294,-622v35,8,64,40,64,83v0,66,-61,125,-134,125v-65,0,-114,-28,-136,-72r42,-32v19,37,49,56,91,56v48,0,79,-41,79,-86v0,-47,-54,-60,-102,-54r11,-48v6,1,21,1,45,1v47,0,82,-28,81,-75v0,-35,-33,-56,-70,-55v-33,0,-64,15,-91,44r-28,-36v34,-37,75,-56,123,-56v68,-1,125,31,125,96v0,57,-45,104,-100,109","w":327},"\u00b4":{"d":"287,-700r-167,144r-53,0r146,-144r74,0","w":186},"\u00b5":{"d":"288,-65v-43,47,-121,95,-207,70r-39,179r-71,0r148,-667r71,0r-76,344v-13,50,3,91,57,89v53,-2,106,-42,131,-77r79,-356r72,0r-107,483r-72,0","w":465},"\u03bc":{"d":"288,-65v-43,47,-121,95,-207,70r-39,179r-71,0r148,-667r71,0r-76,344v-13,50,3,91,57,89v53,-2,106,-42,131,-77r79,-356r72,0r-107,483r-72,0","w":465},"\u00b6":{"d":"79,-479v0,-97,92,-188,194,-188r196,0r-170,767r-43,0r161,-723r-90,0r-161,723r-44,0r94,-423v-78,1,-137,-73,-137,-156","w":449},"\u00b7":{"d":"168,-249v0,31,-28,58,-59,58v-26,0,-48,-23,-48,-49v0,-31,27,-58,58,-58v26,0,49,23,49,49","w":229},"\u2219":{"d":"168,-249v0,31,-28,58,-59,58v-26,0,-48,-23,-48,-49v0,-31,27,-58,58,-58v26,0,49,23,49,49","w":229},"\u00b8":{"d":"107,102v0,52,-47,89,-101,89v-39,0,-71,-13,-95,-38r26,-34v18,22,42,33,71,33v31,1,54,-20,55,-48v1,-35,-46,-37,-62,-13r-28,-18r49,-84r44,0r-41,66v35,-26,82,2,82,47","w":185},"\u00b9":{"d":"208,-421r-59,0r71,-321r-74,63r-28,-37r127,-105r51,0","w":225},"\u00ba":{"d":"370,-520v0,92,-70,202,-163,202v-77,0,-124,-51,-124,-128v0,-92,70,-202,163,-202v77,0,124,51,124,128xm140,-444v0,47,23,79,68,79v64,0,105,-94,105,-157v0,-47,-25,-76,-69,-78v-64,-2,-104,94,-104,156","w":348},"\u00bb":{"d":"75,-420r64,0r85,180r-165,177r-70,0r169,-182xm205,-420r64,0r85,180r-165,177r-70,0r169,-182","w":382},"\u00bc":{"d":"609,-667r-497,667r-47,0r496,-667r48,0xm615,-101r-47,0r-22,101r-57,0r22,-101r-169,0r10,-45r207,-254r75,0r-56,252r47,0xm521,-148r42,-189r-156,189r114,0xm174,-267r-59,0r71,-321r-74,63r-28,-37r127,-105r51,0","w":673},"\u00bd":{"d":"609,-667r-497,667r-47,0r496,-667r48,0xm560,-406v65,0,127,35,124,100v-3,59,-26,80,-66,120v-57,57,-104,89,-162,138r173,0r-10,48r-251,0r10,-47v107,-84,174,-139,199,-166v31,-33,47,-62,47,-89v1,-36,-30,-56,-66,-56v-38,0,-70,16,-95,47r-29,-38v35,-38,77,-57,126,-57xm174,-267r-59,0r71,-321r-74,63r-28,-37r127,-105r51,0","w":708},"\u00be":{"d":"682,-667r-497,667r-47,0r496,-667r48,0xm688,-101r-47,0r-22,101r-57,0r22,-101r-169,0r10,-45r207,-254r75,0r-56,252r47,0xm594,-148r42,-189r-156,189r114,0xm260,-468v35,8,64,40,64,83v0,66,-61,125,-134,125v-65,0,-114,-28,-136,-72r42,-32v19,37,49,56,91,56v48,0,79,-41,79,-86v0,-47,-54,-60,-102,-54r11,-48v6,1,21,1,45,1v47,0,82,-28,81,-75v0,-35,-33,-56,-70,-55v-33,0,-64,15,-91,44r-28,-36v34,-37,75,-56,123,-56v68,-1,125,31,125,96v0,57,-45,104,-100,109","w":746},"\u00bf":{"d":"125,195v-88,0,-163,-52,-163,-133v0,-134,130,-163,194,-237v26,-28,31,-66,10,-98r65,-26v24,39,21,99,-4,138v-41,62,-119,85,-161,145v-14,19,-21,39,-21,62v0,49,41,79,94,79v42,0,79,-15,111,-45r30,54v-45,41,-97,61,-155,61xm185,-435v0,-31,28,-58,59,-58v26,0,49,23,49,49v0,31,-28,58,-59,58v-26,0,-49,-23,-49,-49","w":333},"\u00c0":{"d":"422,-728r-51,0r-103,-144r73,0xm450,0r-83,0r-10,-151r-238,0r-76,151r-89,0r348,-667r95,0xm356,-222r-23,-357r-181,357r204,0","w":512},"\u00c1":{"d":"524,-872r-167,144r-53,0r146,-144r74,0xm450,0r-83,0r-10,-151r-238,0r-76,151r-89,0r348,-667r95,0xm356,-222r-23,-357r-181,357r204,0","w":512},"\u00c2":{"d":"481,-728r-44,0r-49,-105r-92,105r-48,0r112,-144r70,0xm450,0r-83,0r-10,-151r-238,0r-76,151r-89,0r348,-667r95,0xm356,-222r-23,-357r-181,357r204,0","w":512},"\u00c3":{"d":"418,-726v-30,0,-49,-24,-54,-47v-5,-20,-15,-47,-39,-47v-25,0,-43,29,-56,88r-43,0v19,-89,54,-134,106,-134v48,-1,50,50,68,80v6,10,14,14,25,14v24,0,43,-29,56,-88r43,0v-19,89,-54,134,-106,134xm450,0r-83,0r-10,-151r-238,0r-76,151r-89,0r348,-667r95,0xm356,-222r-23,-357r-181,357r204,0","w":512},"\u00c4":{"d":"466,-818v21,0,40,19,40,40v0,26,-25,50,-51,50v-22,0,-40,-18,-40,-40v0,-26,25,-50,51,-50xm291,-818v22,0,40,18,40,40v0,26,-24,50,-50,50v-22,0,-40,-18,-40,-40v0,-25,25,-50,50,-50xm450,0r-83,0r-10,-151r-238,0r-76,151r-89,0r348,-667r95,0xm356,-222r-23,-357r-181,357r204,0","w":512},"\u00c5":{"d":"465,-792v0,52,-47,100,-100,100v-47,0,-81,-36,-81,-83v0,-52,48,-100,100,-100v47,0,81,36,81,83xm322,-778v0,26,20,48,46,48v31,0,60,-28,60,-59v0,-27,-19,-48,-47,-48v-31,0,-59,28,-59,59xm450,0r-83,0r-10,-151r-238,0r-76,151r-89,0r348,-667r95,0xm356,-222r-23,-357r-181,357r204,0","w":512},"\u00c6":{"d":"650,0r-343,0r32,-151r-191,0r-102,151r-89,0r464,-667r376,0r-15,71r-264,0r-49,219r257,0r-16,71r-257,0r-52,235r264,0xm355,-222r78,-350r-240,350r162,0","w":752},"\u00c7":{"d":"133,-229v-1,101,49,170,145,170v48,0,93,-27,136,-81r61,37v-60,79,-123,117,-212,115r-26,43v35,-26,82,2,82,47v0,52,-47,89,-101,89v-39,0,-71,-13,-95,-38r26,-34v18,22,42,33,71,33v31,1,54,-20,55,-48v1,-35,-46,-37,-62,-13r-28,-18r38,-66v-107,-18,-174,-108,-173,-236v1,-158,64,-299,152,-381v80,-75,209,-94,294,-26v34,28,57,67,72,114r-75,22v-35,-123,-165,-139,-247,-49v-64,70,-112,193,-113,320","w":534},"\u00c8":{"d":"409,-728r-51,0r-103,-144r73,0xm359,0r-343,0r147,-667r343,0r-15,71r-264,0r-48,219r257,0r-16,71r-257,0r-52,235r264,0","w":462},"\u00c9":{"d":"510,-872r-167,144r-53,0r146,-144r74,0xm359,0r-343,0r147,-667r343,0r-15,71r-264,0r-48,219r257,0r-16,71r-257,0r-52,235r264,0","w":462},"\u00ca":{"d":"466,-728r-44,0r-49,-105r-92,105r-48,0r112,-144r70,0xm359,0r-343,0r147,-667r343,0r-15,71r-264,0r-48,219r257,0r-16,71r-257,0r-52,235r264,0","w":462},"\u00cb":{"d":"452,-818v21,0,40,19,40,40v0,26,-25,50,-51,50v-22,0,-40,-18,-40,-40v0,-26,25,-50,51,-50xm277,-818v22,0,40,18,40,40v0,26,-24,50,-50,50v-22,0,-40,-18,-40,-40v0,-25,25,-50,50,-50xm359,0r-343,0r147,-667r343,0r-15,71r-264,0r-48,219r257,0r-16,71r-257,0r-52,235r264,0","w":462},"\u00cc":{"d":"275,-728r-51,0r-103,-144r73,0xm96,0r-80,0r147,-667r80,0","w":220},"\u00cd":{"d":"378,-872r-167,144r-53,0r146,-144r74,0xm96,0r-80,0r147,-667r80,0","w":220},"\u00ce":{"d":"334,-728r-44,0r-49,-105r-92,105r-48,0r112,-144r70,0xm96,0r-80,0r147,-667r80,0","w":220},"\u00cf":{"d":"321,-818v22,0,40,19,40,40v0,26,-25,50,-51,50v-22,0,-40,-18,-40,-40v0,-26,25,-50,51,-50xm146,-818v22,0,40,18,40,40v0,26,-24,50,-50,50v-22,0,-40,-18,-40,-40v0,-26,24,-50,50,-50xm96,0r-80,0r147,-667r80,0","w":220},"\u00d0":{"d":"361,-667v124,1,212,107,209,243v-3,135,-50,245,-116,322v-49,56,-134,103,-236,102r-178,0r66,-301r-78,0r15,-66r78,0r66,-300r174,0xm488,-422v3,-97,-53,-173,-142,-174r-95,0r-51,229r127,0r-15,66r-126,0r-51,230v86,0,154,5,209,-35v88,-63,139,-177,144,-316","w":589},"\u00d1":{"d":"449,-726v-30,0,-49,-24,-54,-47v-5,-20,-15,-47,-39,-47v-25,0,-43,29,-56,88r-43,0v19,-89,54,-134,106,-134v48,-1,49,50,67,80v6,10,15,14,26,14v24,0,43,-29,56,-88r43,0v-19,89,-54,134,-106,134xm449,0r-76,0r-164,-512r-113,512r-80,0r147,-667r80,0r162,501r112,-501r79,0","w":573},"\u00d2":{"d":"467,-728r-51,0r-103,-144r73,0xm367,-678v135,-1,225,103,223,242v-2,155,-62,297,-150,378v-50,46,-105,70,-167,70v-136,1,-225,-101,-223,-241v1,-114,37,-224,84,-301v45,-75,124,-146,233,-148xm133,-229v-1,98,54,170,145,170v41,0,80,-19,116,-57v66,-69,111,-193,112,-320v1,-99,-53,-171,-145,-171v-42,0,-81,19,-117,58v-66,69,-110,193,-111,320","w":601},"\u00d3":{"d":"568,-872r-167,144r-53,0r146,-144r74,0xm367,-678v135,-1,225,103,223,242v-2,155,-62,297,-150,378v-50,46,-105,70,-167,70v-136,1,-225,-101,-223,-241v1,-114,37,-224,84,-301v45,-75,124,-146,233,-148xm133,-229v-1,98,54,170,145,170v41,0,80,-19,116,-57v66,-69,111,-193,112,-320v1,-99,-53,-171,-145,-171v-42,0,-81,19,-117,58v-66,69,-110,193,-111,320","w":601},"\u00d4":{"d":"525,-728r-44,0r-49,-105r-92,105r-48,0r112,-144r70,0xm367,-678v135,-1,225,103,223,242v-2,155,-62,297,-150,378v-50,46,-105,70,-167,70v-136,1,-225,-101,-223,-241v1,-114,37,-224,84,-301v45,-75,124,-146,233,-148xm133,-229v-1,98,54,170,145,170v41,0,80,-19,116,-57v66,-69,111,-193,112,-320v1,-99,-53,-171,-145,-171v-42,0,-81,19,-117,58v-66,69,-110,193,-111,320","w":601},"\u00d5":{"d":"466,-726v-30,0,-49,-24,-54,-47v-5,-20,-15,-47,-39,-47v-25,0,-43,29,-56,88r-43,0v19,-89,54,-134,106,-134v48,-1,50,50,68,80v6,10,14,14,25,14v24,0,43,-29,56,-88r43,0v-19,89,-54,134,-106,134xm367,-678v135,-1,225,103,223,242v-2,155,-62,297,-150,378v-50,46,-105,70,-167,70v-136,1,-225,-101,-223,-241v1,-114,37,-224,84,-301v45,-75,124,-146,233,-148xm133,-229v-1,98,54,170,145,170v41,0,80,-19,116,-57v66,-69,111,-193,112,-320v1,-99,-53,-171,-145,-171v-42,0,-81,19,-117,58v-66,69,-110,193,-111,320","w":601},"\u00d6":{"d":"510,-818v21,0,40,19,40,40v0,26,-25,50,-51,50v-22,0,-40,-18,-40,-40v0,-26,25,-50,51,-50xm335,-818v22,0,40,18,40,40v0,26,-24,50,-50,50v-22,0,-40,-18,-40,-40v0,-25,25,-50,50,-50xm367,-678v135,-1,225,103,223,242v-2,155,-62,297,-150,378v-50,46,-105,70,-167,70v-136,1,-225,-101,-223,-241v1,-114,37,-224,84,-301v45,-75,124,-146,233,-148xm133,-229v-1,98,54,170,145,170v41,0,80,-19,116,-57v66,-69,111,-193,112,-320v1,-99,-53,-171,-145,-171v-42,0,-81,19,-117,58v-66,69,-110,193,-111,320","w":601},"\u00d7":{"d":"332,-172r-98,-126r-157,129r-32,-39r159,-129r-99,-126r41,-33r97,126r158,-129r32,39r-158,129r98,126","w":438},"\u00d8":{"d":"273,12v-60,0,-110,-18,-149,-53r-31,41r-59,0r59,-77v-88,-127,-23,-350,41,-453v46,-75,124,-146,233,-148v57,0,106,17,146,52r31,-41r59,0r-58,76v68,95,50,243,7,361v-25,68,-62,125,-112,172v-50,47,-105,70,-167,70xm278,-59v41,0,80,-19,116,-57v66,-69,111,-193,112,-320v0,-31,-5,-59,-16,-84r-317,416v26,30,61,45,105,45xm162,-404v-26,82,-43,176,-15,257r317,-416v-26,-29,-60,-44,-103,-44v-42,0,-81,19,-117,58v-36,39,-63,87,-82,145","w":601},"\u00d9":{"d":"451,-728r-51,0r-103,-144r73,0xm143,-215v-20,94,32,156,119,156v98,0,131,-65,151,-156r99,-452r80,0r-99,451v-32,133,-86,224,-234,228v-134,3,-225,-91,-195,-229r99,-450r80,0","w":569},"\u00da":{"d":"551,-872r-167,144r-53,0r146,-144r74,0xm143,-215v-20,94,32,156,119,156v98,0,131,-65,151,-156r99,-452r80,0r-99,451v-32,133,-86,224,-234,228v-134,3,-225,-91,-195,-229r99,-450r80,0","w":569},"\u00db":{"d":"511,-728r-44,0r-49,-105r-92,105r-48,0r112,-144r70,0xm143,-215v-20,94,32,156,119,156v98,0,131,-65,151,-156r99,-452r80,0r-99,451v-32,133,-86,224,-234,228v-134,3,-225,-91,-195,-229r99,-450r80,0","w":569},"\u00dc":{"d":"495,-818v22,0,40,19,40,40v0,26,-25,50,-51,50v-22,0,-40,-18,-40,-40v0,-26,25,-50,51,-50xm320,-818v22,0,40,18,40,40v0,26,-24,50,-50,50v-22,0,-40,-18,-40,-40v0,-26,24,-50,50,-50xm143,-215v-20,94,32,156,119,156v98,0,131,-65,151,-156r99,-452r80,0r-99,451v-32,133,-86,224,-234,228v-134,3,-225,-91,-195,-229r99,-450r80,0","w":569},"\u00dd":{"d":"521,-872r-167,144r-53,0r146,-144r74,0xm236,0r-79,0r62,-282r-121,-385r84,0r89,308r225,-308r93,0r-291,385","w":501},"\u00de":{"d":"329,-547v88,-2,156,73,153,162v-5,143,-85,234,-233,238r-121,0r-32,147r-80,0r147,-667r80,0r-27,120r113,0xm399,-379v0,-54,-37,-99,-90,-98r-108,0r-57,259r112,0v88,3,143,-76,143,-161","w":488},"\u00df":{"d":"317,-677v77,-1,156,46,155,119v-1,101,-102,113,-152,166v-23,25,-25,60,1,83v55,51,165,62,166,166v1,85,-74,155,-167,155v-71,0,-126,-26,-167,-78r44,-46v31,43,72,65,121,65v67,0,126,-78,76,-129v-52,-53,-164,-60,-164,-162v0,-102,98,-118,150,-169v12,-12,18,-26,18,-41v-1,-69,-111,-83,-156,-38v-19,19,-34,43,-42,78r-112,508r-72,0r113,-508v20,-93,82,-167,188,-169","w":525},"\u00e0":{"d":"173,12v-92,0,-144,-73,-142,-171v2,-112,42,-217,103,-280v36,-37,74,-56,118,-56v64,1,108,36,129,85r16,-73r71,0r-107,483r-72,0r15,-66v-36,52,-80,78,-131,78xm368,-351v-13,-43,-53,-81,-105,-80v-72,1,-119,86,-138,149v-12,39,-18,77,-18,113v-1,69,31,117,95,117v53,0,95,-43,117,-81xm350,-556r-51,0r-103,-144r73,0"},"\u00e1":{"d":"173,12v-92,0,-144,-73,-142,-171v2,-112,42,-217,103,-280v36,-37,74,-56,118,-56v64,1,108,36,129,85r16,-73r71,0r-107,483r-72,0r15,-66v-36,52,-80,78,-131,78xm368,-351v-13,-43,-53,-81,-105,-80v-72,1,-119,86,-138,149v-12,39,-18,77,-18,113v-1,69,31,117,95,117v53,0,95,-43,117,-81xm452,-700r-167,144r-53,0r146,-144r74,0"},"\u00e2":{"d":"173,12v-92,0,-144,-73,-142,-171v2,-112,42,-217,103,-280v36,-37,74,-56,118,-56v64,1,108,36,129,85r16,-73r71,0r-107,483r-72,0r15,-66v-36,52,-80,78,-131,78xm368,-351v-13,-43,-53,-81,-105,-80v-72,1,-119,86,-138,149v-12,39,-18,77,-18,113v-1,69,31,117,95,117v53,0,95,-43,117,-81xm409,-556r-44,0r-49,-105r-92,105r-48,0r112,-144r70,0"},"\u00e3":{"d":"173,12v-92,0,-144,-73,-142,-171v2,-112,42,-217,103,-280v36,-37,74,-56,118,-56v64,1,108,36,129,85r16,-73r71,0r-107,483r-72,0r15,-66v-36,52,-80,78,-131,78xm368,-351v-13,-43,-53,-81,-105,-80v-72,1,-119,86,-138,149v-12,39,-18,77,-18,113v-1,69,31,117,95,117v53,0,95,-43,117,-81xm349,-554v-30,0,-49,-24,-54,-47v-5,-20,-15,-47,-39,-47v-25,0,-43,29,-56,88r-43,0v19,-89,54,-134,106,-134v48,-1,49,50,67,80v6,10,15,14,26,14v24,0,43,-29,56,-88r43,0v-19,89,-54,134,-106,134"},"\u00e4":{"d":"173,12v-92,0,-144,-73,-142,-171v2,-112,42,-217,103,-280v36,-37,74,-56,118,-56v64,1,108,36,129,85r16,-73r71,0r-107,483r-72,0r15,-66v-36,52,-80,78,-131,78xm368,-351v-13,-43,-53,-81,-105,-80v-72,1,-119,86,-138,149v-12,39,-18,77,-18,113v-1,69,31,117,95,117v53,0,95,-43,117,-81xm396,-649v21,0,40,18,40,40v0,26,-25,50,-51,50v-22,0,-40,-18,-40,-40v0,-26,25,-50,51,-50xm221,-649v22,0,40,18,40,40v0,26,-24,50,-50,50v-22,0,-40,-18,-40,-40v0,-24,26,-50,50,-50"},"\u00e5":{"d":"173,12v-92,0,-144,-73,-142,-171v2,-112,42,-217,103,-280v36,-37,74,-56,118,-56v64,1,108,36,129,85r16,-73r71,0r-107,483r-72,0r15,-66v-36,52,-80,78,-131,78xm368,-351v-13,-43,-53,-81,-105,-80v-72,1,-119,86,-138,149v-12,39,-18,77,-18,113v-1,69,31,117,95,117v53,0,95,-43,117,-81xm400,-647v0,53,-48,100,-100,100v-47,0,-81,-36,-81,-83v0,-52,48,-100,100,-100v47,0,81,36,81,83xm257,-633v0,26,20,48,46,48v31,0,60,-28,60,-59v0,-27,-19,-48,-47,-48v-31,0,-59,28,-59,59"},"\u00e6":{"d":"412,-218v-19,93,28,169,121,169v40,0,77,-17,110,-50r28,50v-42,41,-88,61,-137,61v-82,0,-132,-39,-150,-116r-23,104r-71,0r14,-66v-36,52,-80,78,-131,78v-92,0,-144,-73,-142,-171v2,-112,42,-217,103,-280v36,-37,74,-56,118,-56v64,1,108,36,129,85r16,-73r71,0r-18,81v43,-62,90,-93,143,-93v99,0,146,71,145,176v0,34,-4,68,-13,101r-313,0xm368,-351v-13,-43,-53,-81,-105,-80v-72,1,-119,86,-138,149v-12,39,-18,77,-18,113v-1,69,32,117,95,117v53,0,96,-43,118,-81xm667,-272v19,-83,-14,-163,-97,-163v-80,0,-136,91,-149,163r246,0","w":769},"\u00e7":{"d":"260,102v0,52,-47,89,-101,89v-39,0,-71,-13,-95,-38r26,-34v18,22,42,33,71,33v31,1,54,-20,55,-48v1,-35,-46,-37,-62,-13r-28,-18r38,-66v-82,-16,-132,-86,-131,-186v1,-113,49,-209,115,-267v78,-69,217,-65,267,21r-46,46v-19,-35,-50,-52,-92,-52v-50,0,-91,27,-123,81v-32,54,-47,110,-47,169v0,80,40,128,114,129v37,0,68,-15,93,-45r29,52v-39,39,-82,58,-139,57r-26,43v35,-26,82,2,82,47","w":407},"\u00e8":{"d":"108,-218v-19,93,26,170,120,170v42,0,80,-17,113,-50r28,48v-43,41,-93,62,-148,62v-117,1,-192,-73,-189,-191v4,-125,57,-230,138,-285v31,-21,65,-31,101,-31v105,0,169,72,167,181v0,32,-5,64,-14,96r-316,0xm366,-272v20,-85,-17,-163,-101,-163v-80,0,-135,91,-148,163r249,0xm367,-556r-51,0r-103,-144r73,0","w":469},"\u00e9":{"d":"108,-218v-19,93,26,170,120,170v42,0,80,-17,113,-50r28,48v-43,41,-93,62,-148,62v-117,1,-192,-73,-189,-191v4,-125,57,-230,138,-285v31,-21,65,-31,101,-31v105,0,169,72,167,181v0,32,-5,64,-14,96r-316,0xm366,-272v20,-85,-17,-163,-101,-163v-80,0,-135,91,-148,163r249,0xm469,-700r-167,144r-53,0r146,-144r74,0","w":469},"\u00ea":{"d":"108,-218v-19,93,26,170,120,170v42,0,80,-17,113,-50r28,48v-43,41,-93,62,-148,62v-117,1,-192,-73,-189,-191v4,-125,57,-230,138,-285v31,-21,65,-31,101,-31v105,0,169,72,167,181v0,32,-5,64,-14,96r-316,0xm366,-272v20,-85,-17,-163,-101,-163v-80,0,-135,91,-148,163r249,0xm425,-556r-44,0r-49,-105r-92,105r-48,0r112,-144r70,0","w":469},"\u00eb":{"d":"108,-218v-19,93,26,170,120,170v42,0,80,-17,113,-50r28,48v-43,41,-93,62,-148,62v-117,1,-192,-73,-189,-191v4,-125,57,-230,138,-285v31,-21,65,-31,101,-31v105,0,169,72,167,181v0,32,-5,64,-14,96r-316,0xm366,-272v20,-85,-17,-163,-101,-163v-80,0,-135,91,-148,163r249,0xm410,-649v21,0,40,18,40,40v0,26,-25,50,-51,50v-22,0,-40,-18,-40,-40v0,-26,25,-50,51,-50xm235,-649v22,0,40,18,40,40v0,26,-24,50,-50,50v-22,0,-40,-18,-40,-40v0,-24,26,-50,50,-50","w":469},"\u00ec":{"d":"228,-556r-51,0r-103,-144r73,0xm83,0r-71,0r107,-483r71,0","w":203},"\u00ed":{"d":"331,-700r-167,144r-53,0r146,-144r74,0xm83,0r-71,0r107,-483r71,0","w":203},"\u00ee":{"d":"288,-556r-44,0r-49,-105r-92,105r-48,0r112,-144r70,0xm83,0r-71,0r107,-483r71,0","w":203},"\u00ef":{"d":"274,-649v21,0,40,18,40,40v0,26,-25,50,-51,50v-22,0,-40,-18,-40,-40v0,-26,25,-50,51,-50xm99,-649v22,0,40,18,40,40v0,26,-24,50,-50,50v-22,0,-40,-18,-40,-40v0,-24,26,-50,50,-50xm83,0r-71,0r107,-483r71,0","w":203},"\u00f0":{"d":"209,12v-110,1,-178,-73,-177,-183v1,-108,46,-205,107,-261v54,-49,127,-65,190,-26v23,15,39,38,49,67v-12,-54,-33,-109,-62,-164r-137,41r-9,-40r125,-37v-15,-25,-32,-47,-49,-66r62,-38v24,29,44,57,60,82r94,-28r9,39r-81,25v104,168,61,418,-50,530v-38,39,-81,59,-131,59xm107,-174v-1,75,33,122,104,122v69,0,117,-78,137,-138v13,-38,19,-74,19,-109v0,-62,-38,-118,-105,-118v-43,0,-80,27,-110,81v-30,54,-45,107,-45,162","w":478},"\u00f1":{"d":"320,-495v79,0,125,52,107,133r-80,362r-72,0r76,-343v16,-55,-5,-88,-65,-88v-42,0,-83,26,-124,79r-78,352r-71,0r107,-483r71,0r-15,67v46,-53,94,-79,144,-79xm361,-554v-30,0,-49,-24,-54,-47v-5,-20,-15,-47,-39,-47v-25,0,-43,29,-56,88r-43,0v19,-89,54,-134,106,-134v48,-1,49,50,67,80v6,10,15,14,26,14v24,0,43,-29,56,-88r43,0v-19,89,-54,134,-106,134","w":466},"\u00f2":{"d":"271,-495v110,-1,174,74,173,186v-1,113,-45,213,-112,271v-38,33,-80,50,-126,50v-110,1,-175,-74,-174,-186v1,-113,45,-212,112,-270v38,-33,80,-51,127,-51xm107,-175v-1,74,33,123,102,123v72,0,120,-83,141,-145v13,-39,20,-76,20,-111v1,-75,-33,-123,-103,-123v-72,0,-121,83,-141,145v-13,39,-19,76,-19,111xm367,-556r-51,0r-103,-144r73,0","w":478},"\u00f3":{"d":"271,-495v110,-1,174,74,173,186v-1,113,-45,213,-112,271v-38,33,-80,50,-126,50v-110,1,-175,-74,-174,-186v1,-113,45,-212,112,-270v38,-33,80,-51,127,-51xm107,-175v-1,74,33,123,102,123v72,0,120,-83,141,-145v13,-39,20,-76,20,-111v1,-75,-33,-123,-103,-123v-72,0,-121,83,-141,145v-13,39,-19,76,-19,111xm468,-700r-167,144r-53,0r146,-144r74,0","w":478},"\u00f4":{"d":"271,-495v110,-1,174,74,173,186v-1,113,-45,213,-112,271v-38,33,-80,50,-126,50v-110,1,-175,-74,-174,-186v1,-113,45,-212,112,-270v38,-33,80,-51,127,-51xm107,-175v-1,74,33,123,102,123v72,0,120,-83,141,-145v13,-39,20,-76,20,-111v1,-75,-33,-123,-103,-123v-72,0,-121,83,-141,145v-13,39,-19,76,-19,111xm426,-556r-44,0r-49,-105r-92,105r-48,0r112,-144r70,0","w":478},"\u00f5":{"d":"271,-495v110,-1,174,74,173,186v-1,113,-45,213,-112,271v-38,33,-80,50,-126,50v-110,1,-175,-74,-174,-186v1,-113,45,-212,112,-270v38,-33,80,-51,127,-51xm107,-175v-1,74,33,123,102,123v72,0,120,-83,141,-145v13,-39,20,-76,20,-111v1,-75,-33,-123,-103,-123v-72,0,-121,83,-141,145v-13,39,-19,76,-19,111xm366,-554v-30,0,-49,-24,-54,-47v-5,-20,-15,-47,-39,-47v-25,0,-43,29,-56,88r-43,0v19,-89,54,-134,106,-134v48,-1,50,50,68,80v6,10,14,14,25,14v24,0,43,-29,56,-88r43,0v-19,89,-54,134,-106,134","w":478},"\u00f6":{"d":"271,-495v110,-1,174,74,173,186v-1,113,-45,213,-112,271v-38,33,-80,50,-126,50v-110,1,-175,-74,-174,-186v1,-113,45,-212,112,-270v38,-33,80,-51,127,-51xm107,-175v-1,74,33,123,102,123v72,0,120,-83,141,-145v13,-39,20,-76,20,-111v1,-75,-33,-123,-103,-123v-72,0,-121,83,-141,145v-13,39,-19,76,-19,111xm412,-649v21,0,40,18,40,40v0,26,-25,50,-51,50v-22,0,-40,-18,-40,-40v0,-26,25,-50,51,-50xm237,-649v22,0,40,18,40,40v0,26,-24,50,-50,50v-22,0,-40,-18,-40,-40v0,-24,26,-50,50,-50","w":478},"\u00f7":{"d":"428,-312r-384,0r11,-51r385,0xm250,-171v0,26,-24,48,-50,48v-22,0,-40,-19,-40,-41v0,-26,23,-49,49,-49v22,0,41,20,41,42xm324,-506v0,26,-23,48,-49,48v-22,0,-41,-19,-41,-41v0,-26,23,-48,49,-48v22,0,41,19,41,41","w":443},"\u00f8":{"d":"52,0r-52,0r57,-65v-39,-69,-28,-178,3,-257v32,-83,106,-172,211,-173v50,0,91,15,122,45r28,-33r52,0r-56,64v42,72,31,175,-1,257v-31,83,-106,173,-210,174v-53,0,-94,-15,-125,-46xm209,-52v72,-2,120,-83,141,-145v18,-55,27,-106,14,-161r-235,269v18,25,45,37,80,37xm183,-388v-51,57,-89,161,-71,260r233,-268v-18,-23,-44,-35,-78,-35v-31,0,-59,14,-84,43","w":478},"\u00f9":{"d":"145,12v-78,0,-123,-54,-106,-133r79,-362r72,0r-76,343v-14,53,6,89,65,88v43,0,84,-26,123,-77r79,-354r72,0r-107,483r-72,0r15,-67v-46,53,-94,79,-144,79xm361,-556r-51,0r-103,-144r73,0","w":465},"\u00fa":{"d":"145,12v-78,0,-123,-54,-106,-133r79,-362r72,0r-76,343v-14,53,6,89,65,88v43,0,84,-26,123,-77r79,-354r72,0r-107,483r-72,0r15,-67v-46,53,-94,79,-144,79xm463,-700r-167,144r-53,0r146,-144r74,0","w":465},"\u00fb":{"d":"145,12v-78,0,-123,-54,-106,-133r79,-362r72,0r-76,343v-14,53,6,89,65,88v43,0,84,-26,123,-77r79,-354r72,0r-107,483r-72,0r15,-67v-46,53,-94,79,-144,79xm419,-556r-44,0r-49,-105r-92,105r-48,0r112,-144r70,0","w":465},"\u00fc":{"d":"145,12v-78,0,-123,-54,-106,-133r79,-362r72,0r-76,343v-14,53,6,89,65,88v43,0,84,-26,123,-77r79,-354r72,0r-107,483r-72,0r15,-67v-46,53,-94,79,-144,79xm407,-649v22,0,40,18,40,40v0,26,-25,50,-51,50v-22,0,-40,-18,-40,-40v0,-26,25,-50,51,-50xm232,-649v22,0,40,18,40,40v0,26,-24,50,-50,50v-22,0,-40,-18,-40,-40v0,-25,25,-50,50,-50","w":465},"\u00fd":{"d":"-53,185r25,-62v38,16,70,2,94,-39r44,-76r-51,-491r75,0r33,396r209,-396r80,0r-324,584v-32,56,-59,95,-129,95v-21,0,-40,-4,-56,-11xm434,-700r-167,144r-53,0r146,-144r74,0","w":409},"\u00fe":{"d":"306,-495v93,0,144,71,142,171v-2,112,-43,215,-102,280v-73,81,-207,74,-247,-29r-57,257r-71,0r188,-851r71,0r-55,250v36,-52,80,-78,131,-78xm112,-132v13,43,53,81,105,80v72,-1,119,-86,138,-149v12,-39,18,-77,18,-113v1,-69,-32,-117,-96,-117v-52,0,-94,44,-117,81","w":479},"\u00ff":{"d":"-53,185r25,-62v38,16,70,2,94,-39r44,-76r-51,-491r75,0r33,396r209,-396r80,0r-324,584v-32,56,-59,95,-129,95v-21,0,-40,-4,-56,-11xm377,-649v22,0,40,18,40,40v0,26,-25,50,-51,50v-22,0,-40,-18,-40,-40v0,-26,25,-50,51,-50xm202,-649v22,0,40,18,40,40v0,26,-24,50,-50,50v-22,0,-40,-18,-40,-40v0,-25,25,-50,50,-50","w":409},"\u0152":{"d":"247,12v-125,1,-200,-108,-197,-241v2,-152,64,-294,152,-375v51,-47,106,-73,167,-73v85,0,138,39,161,116r23,-106r343,0r-15,71r-264,0r-48,219r257,0r-16,71r-257,0r-52,235r264,0r-16,71r-343,0r18,-84v-44,64,-103,96,-177,96xm133,-229v-1,96,48,172,139,170v83,-2,144,-65,176,-131r59,-266v-9,-87,-52,-148,-140,-150v-43,0,-83,21,-121,62v-65,71,-111,192,-113,315","w":852},"\u0153":{"d":"592,-495v103,0,167,72,165,181v0,32,-5,64,-14,96r-312,0v-19,91,25,170,118,170v42,0,79,-17,111,-50r28,48v-43,41,-91,62,-146,62v-87,0,-151,-54,-162,-124v-42,65,-81,123,-176,124v-109,1,-174,-73,-172,-186v1,-114,45,-215,112,-272v38,-32,79,-49,125,-49v80,0,137,57,148,122v46,-81,104,-122,175,-122xm685,-272v19,-80,-14,-163,-98,-163v-80,0,-136,92,-147,163r245,0xm107,-175v0,73,31,124,100,124v71,0,120,-83,140,-145v13,-39,19,-76,19,-112v1,-74,-34,-122,-101,-123v-44,0,-81,28,-112,84v-31,56,-46,113,-46,172","w":787},"\u0178":{"d":"463,-818v22,0,40,19,40,40v0,26,-25,50,-51,50v-22,0,-40,-18,-40,-40v0,-26,25,-50,51,-50xm288,-818v22,0,40,18,40,40v0,26,-24,50,-50,50v-22,0,-40,-18,-40,-40v0,-26,24,-50,50,-50xm236,0r-79,0r62,-282r-121,-385r84,0r89,308r225,-308r93,0r-291,385","w":501},"\u02c6":{"d":"302,-556r-44,0r-49,-105r-92,105r-48,0r112,-144r70,0","w":233},"\u02dc":{"d":"262,-554v-30,0,-49,-24,-54,-47v-5,-20,-15,-47,-39,-47v-25,0,-43,29,-56,88r-43,0v19,-89,54,-134,106,-134v48,-1,50,50,68,80v6,10,14,14,25,14v24,0,43,-29,56,-88r43,0v-19,89,-54,134,-106,134","w":270},"\u2013":{"d":"489,-210r-467,0r14,-64r466,0","w":527},"\u2014":{"d":"699,-210r-677,0r14,-64r676,0","w":737},"\u2018":{"d":"166,-461v-31,0,-53,-23,-52,-56v1,-69,62,-135,114,-160r30,31v-34,17,-71,50,-83,84v30,-3,49,17,49,44v1,31,-28,58,-58,57","w":229},"\u2019":{"d":"203,-677v31,0,52,24,51,57v-1,68,-62,135,-113,160r-30,-32v33,-16,71,-50,83,-84v-30,3,-49,-16,-49,-44v-1,-30,28,-58,58,-57","w":229},"\u201a":{"d":"74,-97v31,0,52,24,51,57v-1,69,-61,135,-113,160r-30,-32v33,-16,71,-49,83,-84v-27,6,-49,-17,-49,-43v0,-31,28,-59,58,-58","w":229},"\u201c":{"d":"327,-461v-32,0,-53,-22,-52,-56v1,-69,62,-135,114,-160r30,31v-34,17,-72,50,-84,84v30,-3,50,17,50,44v1,31,-28,58,-58,57xm170,-461v-31,0,-52,-23,-51,-56v1,-69,62,-135,114,-160r29,31v-33,17,-71,50,-83,84v30,-3,49,17,49,44v1,31,-28,58,-58,57","w":386},"\u201d":{"d":"203,-677v31,0,52,24,51,57v-1,68,-62,135,-113,160r-30,-32v33,-16,71,-50,83,-84v-30,3,-49,-16,-49,-44v-1,-30,28,-58,58,-57xm359,-677v31,0,53,24,52,57v-1,69,-62,135,-114,160r-30,-32v33,-16,71,-49,83,-84v-30,3,-49,-16,-49,-44v-1,-30,28,-58,58,-57","w":386},"\u201e":{"d":"74,-97v31,0,52,24,51,57v-1,69,-61,135,-113,160r-30,-32v33,-16,71,-49,83,-84v-27,6,-49,-17,-49,-43v0,-31,28,-59,58,-58xm230,-97v32,0,53,23,52,57v-1,69,-62,135,-114,160r-30,-32v34,-16,72,-49,84,-84v-27,6,-50,-17,-50,-43v0,-31,28,-59,58,-58","w":386},"\u2022":{"d":"191,-349v53,0,96,43,96,96v0,62,-58,117,-120,117v-53,0,-96,-43,-96,-96v0,-62,58,-117,120,-117","w":358},"\u2026":{"d":"123,-47v0,31,-27,57,-58,57v-27,0,-49,-23,-49,-49v0,-31,28,-58,59,-58v26,0,48,23,48,50xm352,-47v0,31,-28,57,-59,57v-26,0,-49,-23,-49,-49v0,-31,28,-58,59,-58v26,0,49,23,49,50xm580,-47v0,31,-27,57,-58,57v-27,0,-49,-23,-49,-49v0,-31,27,-58,58,-58v27,0,49,23,49,50","w":685},"\u2039":{"d":"178,-63r-64,0r-85,-180r165,-177r70,0r-169,181","w":252},"\u203a":{"d":"75,-420r64,0r85,180r-165,177r-70,0r169,-182","w":252},"\u20ac":{"d":"152,-238v-4,107,46,178,145,179v48,0,93,-27,136,-81r61,37v-56,77,-123,115,-202,115v-141,0,-228,-100,-223,-250r-47,0r11,-50r39,0v5,-37,10,-67,17,-92r-36,0r12,-51r41,0v27,-73,66,-131,114,-178v78,-77,209,-95,294,-27v34,28,58,67,73,114r-75,22v-32,-116,-159,-140,-238,-58v-32,32,-59,74,-81,127r216,0r-12,51r-223,0v-9,28,-15,59,-19,92r222,0r-12,50r-213,0","w":550},"\u2122":{"d":"424,-447r-28,0r40,-182r-105,182r-8,0r-25,-182r-40,182r-28,0r48,-220r43,0r20,158r88,-158r43,0xm237,-641r-52,0r-43,194r-28,0r43,-194r-52,0r5,-26r132,0","w":414}}});
