/*!
 * The following copyright notice may not be removed under any circumstances.
 * 
 * Copyright:
 * Copyright (c) Mark Simonson, 2005. All rights reserved.
 * 
 * Description:
 * This is a protected webfont and is intended for CSS @font-face use ONLY.
 * Reverse engineering this font is strictly prohibited.
 */
Cufon.registerFont({"w":470,"face":{"font-family":"","font-weight":300,"font-stretch":"normal","units-per-em":"1000","panose-1":"2 0 5 6 3 0 0 2 0 4","ascent":"790","descent":"-210","x-height":"12","bbox":"-150 -872 886 199","underline-thickness":"20","underline-position":"-113","unicode-range":"U+0020-U+2122"},"glyphs":{" ":{"w":217},"!":{"d":"113,-173r-40,0r96,-494r66,0xm105,-37v0,25,-21,47,-47,47v-21,0,-39,-18,-39,-40v0,-25,21,-46,47,-46v21,0,39,17,39,39","w":218},"\"":{"d":"146,-429r-28,0v16,-131,24,-199,25,-205v0,-32,38,-57,64,-34v12,10,9,28,4,43xm276,-429r-28,0v16,-131,24,-199,25,-205v0,-32,38,-57,64,-34v12,10,9,28,4,43","w":315},"#":{"d":"192,0r-46,0r95,-186r-96,0r-94,186r-46,0r94,-186r-91,0r19,-41r92,0r109,-213r-93,0r18,-40r95,0r93,-187r46,0r-93,187r95,0r93,-187r46,0r-94,187r91,0r-17,40r-94,0r-109,213r95,0r-19,41r-95,0xm259,-227r110,-213r-96,0r-108,213r94,0","w":494},"$":{"d":"118,-438v-47,-127,65,-246,191,-240r20,-90r45,0r-22,95v55,11,95,36,121,73r-38,40v-22,-33,-53,-53,-94,-62r-57,259v48,35,72,48,99,99v40,73,14,161,-37,216v-37,40,-85,59,-146,60r-19,88r-45,0r20,-92v-63,-8,-124,-43,-150,-87r40,-41v27,43,67,70,121,79r63,-284v-48,-34,-92,-58,-112,-113xm212,-39v77,-3,133,-68,131,-147v-1,-58,-35,-80,-74,-112xm297,-627v-89,-4,-167,107,-109,185v13,17,32,34,57,52","w":454},"%":{"d":"114,0r-40,0r495,-667r42,0xm591,-189v0,101,-69,200,-159,201v-73,1,-122,-55,-122,-127v0,-101,69,-199,159,-200v73,-1,122,54,122,126xm354,-118v0,54,29,92,79,92v65,-1,114,-84,114,-159v0,-54,-29,-92,-79,-92v-65,1,-114,84,-114,159xm370,-550v0,100,-70,199,-160,200v-72,1,-122,-55,-122,-126v0,-101,70,-200,160,-201v72,-1,122,55,122,127xm133,-480v0,54,29,92,79,92v65,-1,113,-84,113,-159v0,-53,-29,-92,-78,-92v-66,1,-114,83,-114,159","w":641},"&":{"d":"323,-677v64,0,107,37,105,104v-4,126,-98,164,-182,216v15,43,67,167,88,208v34,-46,65,-98,92,-155r41,22v-39,77,-76,137,-110,179r61,103r-63,0r-35,-62v-49,49,-101,74,-155,74v-86,1,-147,-53,-147,-140v0,-58,14,-106,44,-142v30,-36,72,-70,125,-101v-11,-37,-16,-73,-16,-110v0,-92,67,-197,152,-196xm75,-133v-2,59,40,100,96,100v40,0,82,-24,127,-72v-45,-85,-66,-143,-98,-223v-68,46,-123,93,-125,195xm321,-634v-56,0,-97,90,-97,158v0,23,3,48,10,77v47,-27,84,-53,108,-78v24,-25,36,-57,36,-95v0,-41,-19,-62,-57,-62","w":510},"'":{"d":"146,-429r-28,0v16,-131,24,-199,25,-205v0,-32,38,-57,64,-34v12,10,9,28,4,43","w":187},"(":{"d":"284,-664v-139,214,-259,514,-188,848r-35,15v-26,-76,-39,-156,-39,-240v0,-226,78,-441,233,-644","w":208},")":{"d":"-77,178v139,-217,259,-510,188,-848r35,-15v26,76,39,156,39,240v0,227,-78,441,-234,644","w":208},"*":{"d":"210,-400r-38,0r33,-118r-113,51r-11,-33r116,-41r-91,-63r25,-30r83,73r20,-116r38,0r-32,119r112,-52r11,33r-115,41r91,63r-26,30r-83,-73","w":315},"+":{"d":"423,-317r-167,0r-42,188r-44,0r42,-188r-167,0r9,-40r167,0r40,-182r44,0r-40,182r167,0","w":436},",":{"d":"65,-76v27,0,43,18,42,47v-1,62,-55,123,-101,145r-24,-26v33,-16,67,-50,78,-84v-25,3,-41,-15,-41,-36v-1,-24,22,-47,46,-46","w":218},"-":{"d":"231,-219r-207,0r10,-46r206,0","w":266},".":{"d":"106,-37v1,25,-22,47,-48,47v-21,0,-39,-18,-39,-40v0,-25,21,-46,47,-46v22,0,40,18,40,39","w":218},"\/":{"d":"-14,20r-45,0r348,-707r46,0","w":235},"0":{"d":"325,-677v113,2,162,89,161,213v-1,113,-32,228,-71,312v-36,78,-102,164,-199,164v-114,0,-163,-90,-162,-214v1,-154,51,-305,128,-396v44,-52,90,-79,143,-79xm220,-39v40,0,75,-27,110,-77v59,-86,100,-226,100,-355v0,-103,-36,-155,-109,-155v-31,0,-60,15,-87,45v-56,60,-87,158,-108,253v-10,49,-16,93,-16,133v0,104,37,156,110,156","w":502},"1":{"d":"158,0r-55,0r130,-592r-128,113r-27,-37r177,-151r50,0","w":288},"2":{"d":"301,-677v93,-1,169,51,169,145v0,59,-34,128,-102,207v-31,37,-176,179,-279,275r277,0r-11,50r-353,0r13,-58r215,-202v24,-23,42,-42,55,-56r43,-47v36,-41,62,-74,78,-127v23,-79,-31,-137,-107,-137v-55,0,-102,24,-140,72r-34,-36v49,-57,107,-86,176,-86","w":477},"3":{"d":"393,-208v0,113,-87,220,-202,220v-95,0,-171,-57,-190,-136r47,-26v18,64,68,110,143,111v89,2,146,-86,146,-176v0,-81,-75,-113,-161,-102r13,-53v5,1,27,1,66,1v82,2,144,-72,144,-156v0,-64,-51,-102,-117,-101v-51,0,-96,24,-137,73r-32,-34v36,-48,97,-89,174,-90v96,-1,170,52,170,146v0,95,-75,182,-158,192v53,15,94,65,94,131","w":457},"4":{"d":"286,0r-55,0r40,-183r-261,0r12,-54r337,-430r74,0r-96,434r76,0r-11,50r-76,0xm281,-233r82,-367r-288,367r206,0","w":440},"5":{"d":"425,-255v0,129,-93,267,-218,267v-91,0,-151,-45,-181,-134r48,-26v19,73,65,109,136,109v88,1,157,-115,157,-212v0,-70,-44,-115,-113,-115v-40,0,-80,18,-120,54r-38,-22r74,-333r315,0r-11,50r-259,0r-56,251v31,-32,70,-48,118,-48v88,0,148,66,148,159","w":477},"6":{"d":"280,-411v89,0,151,58,149,151v-1,97,-42,182,-102,230v-34,28,-72,42,-114,42v-151,3,-182,-156,-153,-308v26,-134,73,-273,166,-344v58,-44,143,-50,202,-9v27,19,46,45,57,78r-43,32v-16,-58,-53,-87,-112,-87v-106,0,-147,105,-178,188v-14,36,-23,78,-32,121v30,-44,91,-94,160,-94xm104,-179v0,81,35,140,113,140v91,0,155,-126,155,-216v0,-64,-44,-108,-110,-108v-53,0,-103,35,-152,106v-4,25,-6,51,-6,78","w":478},"7":{"d":"108,0r-63,0r348,-617r-283,0r11,-50r348,0r-9,38","w":404},"8":{"d":"406,-185v2,109,-91,197,-199,197v-103,0,-181,-47,-180,-147v2,-113,83,-185,181,-215v-45,-23,-94,-75,-94,-140v0,-102,93,-187,193,-187v90,0,168,52,168,144v0,107,-80,171,-168,194v48,30,98,82,99,154xm303,-626v-100,0,-176,133,-103,214v19,22,39,37,62,46v80,-15,154,-69,154,-162v0,-59,-51,-98,-113,-98xm86,-145v0,68,54,106,120,106v76,0,143,-71,143,-152v0,-62,-52,-116,-96,-130v-85,13,-167,81,-167,176","w":471},"9":{"d":"237,-255v-89,0,-151,-58,-149,-151v1,-97,42,-182,102,-230v34,-28,72,-42,114,-42v151,-3,181,156,152,308v-26,134,-71,273,-164,344v-58,44,-144,50,-203,9v-27,-19,-46,-45,-57,-78r43,-32v16,58,53,87,112,87v106,0,146,-105,177,-188v14,-36,24,-78,33,-121v-31,44,-90,94,-160,94xm413,-487v0,-81,-35,-140,-113,-140v-91,0,-155,126,-155,216v0,64,44,108,110,108v53,0,103,-35,152,-106v4,-25,6,-51,6,-78","w":478},":":{"d":"106,-37v1,25,-22,47,-48,47v-21,0,-39,-18,-39,-40v0,-25,21,-46,47,-46v22,0,40,18,40,39xm197,-450v0,25,-22,46,-47,46v-21,0,-40,-19,-40,-40v0,-25,22,-46,48,-46v22,0,39,18,39,40","w":217},";":{"d":"65,-76v27,0,43,18,42,47v-1,62,-55,123,-101,145r-24,-26v33,-16,67,-50,78,-84v-25,3,-41,-15,-41,-36v-1,-24,22,-47,46,-46xm197,-450v0,25,-22,46,-47,46v-21,0,-40,-19,-40,-40v0,-25,22,-46,48,-46v22,0,39,18,39,40","w":218},"<":{"d":"380,-127r-336,-189r9,-37r420,-190r-12,51r-361,160r290,159","w":436},"=":{"d":"444,-412r-378,0r9,-40r378,0xm400,-216r-378,0r9,-40r379,0","w":436},">":{"d":"423,-316r-421,189r12,-50r363,-159r-292,-161r10,-46r336,190","w":436},"?":{"d":"261,-677v86,0,158,51,158,131v0,138,-135,166,-202,243v-26,30,-31,71,-9,104r-46,23v-26,-42,-24,-98,4,-138v44,-64,128,-90,172,-154v15,-21,22,-44,22,-69v0,-55,-47,-91,-107,-91v-45,0,-84,16,-119,49r-23,-39v43,-39,93,-59,150,-59xm187,-37v0,25,-22,47,-48,47v-21,0,-39,-18,-39,-40v0,-25,21,-46,47,-46v22,0,40,17,40,39","w":386},"@":{"d":"88,-231v0,151,97,271,242,270v55,0,109,-19,160,-57r16,25v-57,42,-117,63,-180,63v-161,2,-271,-133,-271,-300v0,-200,168,-408,360,-408v154,0,254,125,254,284v0,79,-15,144,-46,194v-31,50,-66,75,-105,75v-49,1,-79,-38,-80,-84v-28,41,-72,84,-135,84v-76,0,-121,-58,-121,-141v0,-126,92,-274,210,-274v53,0,87,37,100,79r13,-61r47,0r-60,285v-7,35,3,76,38,72v29,-4,49,-29,66,-54v25,-38,41,-108,41,-176v0,-144,-87,-253,-224,-251v-131,1,-233,96,-281,194v-29,58,-44,118,-44,181xm233,-229v0,59,25,104,81,104v47,0,92,-32,134,-95r34,-160v-10,-39,-37,-79,-85,-79v-95,0,-164,132,-164,230","w":684},"A":{"d":"427,0r-58,0r-12,-165r-252,0r-84,165r-63,0r348,-667r67,0xm355,-215r-27,-387r-199,387r226,0","w":493},"B":{"d":"432,-211v1,113,-80,211,-199,211r-212,0r147,-667r177,0v83,-1,145,57,145,140v0,91,-60,179,-138,190v46,11,80,70,80,126xm430,-521v1,-58,-41,-97,-98,-96r-119,0r-55,250r143,0v83,4,129,-77,129,-154xm374,-213v0,-65,-38,-105,-103,-104r-125,0r-59,267r146,0v85,3,141,-80,141,-163","w":498},"C":{"d":"114,-222v-1,109,52,183,155,183v50,0,98,-27,144,-81r42,28v-55,69,-119,104,-190,104v-132,0,-214,-96,-210,-235v5,-179,75,-332,184,-413v72,-54,175,-56,243,-4v32,25,56,59,71,103r-53,17v-25,-71,-72,-107,-141,-107v-43,0,-84,22,-123,65v-69,75,-121,208,-122,340","w":523},"D":{"d":"326,-667v119,1,203,106,200,238v-3,132,-52,243,-115,321v-47,57,-128,108,-228,108r-162,0r147,-667r158,0xm468,-427v3,-106,-56,-190,-152,-190r-103,0r-126,567v93,0,165,5,225,-39v68,-50,112,-132,138,-220v12,-42,18,-81,18,-118","w":550},"E":{"d":"347,0r-326,0r147,-667r326,0r-10,50r-271,0r-55,250r263,0r-11,50r-264,0r-59,267r271,0","w":453},"F":{"d":"77,0r-56,0r147,-667r326,0r-10,50r-271,0r-55,250r263,0r-11,50r-264,0","w":441},"G":{"d":"114,-222v-1,111,51,182,155,183v51,0,97,-23,140,-70r38,-172r-175,0r11,-50r228,0r-54,245v-57,65,-121,98,-192,98v-132,0,-212,-96,-210,-235v2,-155,62,-300,149,-383v50,-47,102,-72,161,-72v100,0,158,60,186,136r-50,19v-25,-69,-72,-104,-142,-104v-44,0,-85,23,-124,65v-69,75,-120,207,-121,340","w":553},"H":{"d":"431,0r-56,0r70,-318r-298,0r-70,318r-56,0r147,-667r56,0r-66,299r299,0r65,-299r56,0","w":560},"I":{"d":"77,0r-56,0r147,-667r56,0","w":206},"J":{"d":"114,12v-66,0,-113,-24,-141,-71r34,-39v22,39,57,59,104,59v69,0,112,-41,130,-124r111,-504r56,0r-111,505v-26,116,-87,174,-183,174","w":390},"K":{"d":"418,0r-64,0r-147,-312r-81,88r-49,224r-56,0r147,-667r56,0r-79,356r328,-356r72,0r-298,318","w":491},"L":{"d":"319,0r-305,0r147,-667r56,0r-137,617r250,0","w":402},"M":{"d":"533,0r-56,0r128,-580r-317,580r-22,0r-61,-580r-128,580r-56,0r147,-667r79,0r57,534r293,-534r83,0","w":662},"N":{"d":"429,0r-54,0r-175,-555r-123,555r-56,0r147,-667r56,0r175,547r121,-547r56,0","w":558},"O":{"d":"363,-678v130,-1,215,101,211,235v-5,177,-74,330,-182,411v-40,29,-82,44,-127,44v-130,1,-213,-100,-210,-235v2,-153,61,-297,146,-381v50,-49,103,-74,162,-74xm114,-222v-1,106,56,183,155,183v44,0,85,-22,124,-64v70,-75,119,-206,121,-340v1,-107,-57,-183,-156,-184v-44,0,-85,23,-124,65v-70,75,-118,206,-120,340","w":590},"P":{"d":"487,-511v-1,125,-87,239,-222,233r-127,0r-61,278r-56,0r147,-667r173,0v84,-2,147,70,146,156xm427,-508v0,-62,-39,-109,-98,-109r-116,0r-64,289r122,0v98,3,156,-85,156,-180","w":468},"Q":{"d":"574,-443v-1,153,-75,328,-166,399r25,57r-46,18r-21,-46v-33,18,-66,27,-101,27v-130,1,-213,-100,-210,-235v2,-153,61,-297,146,-381v50,-49,103,-74,162,-74v130,-1,212,101,211,235xm114,-222v-1,106,56,183,155,183v26,0,52,-8,77,-24r-59,-136r45,-18r53,122v71,-68,129,-215,129,-348v0,-107,-57,-183,-156,-184v-44,0,-85,23,-124,65v-70,75,-118,206,-120,340","w":590},"R":{"d":"488,-512v0,119,-79,218,-185,229r85,283r-61,0r-78,-278r-111,0r-61,278r-56,0r147,-667r167,0v84,-1,153,67,153,155xm428,-509v0,-61,-42,-108,-99,-108r-116,0r-64,289r123,0v97,3,156,-86,156,-181","w":491},"S":{"d":"401,-192v2,112,-88,204,-204,204v-82,0,-161,-40,-192,-91r40,-41v28,46,84,80,154,81v84,1,145,-65,143,-147v-2,-77,-71,-107,-118,-143v-51,-39,-115,-76,-117,-164v-2,-101,93,-185,194,-185v74,0,141,33,171,78r-38,40v-30,-45,-75,-67,-135,-67v-88,0,-169,100,-115,180v25,36,66,59,100,85v54,41,115,81,117,170","w":459},"T":{"d":"191,0r-56,0r137,-617r-163,0r11,-50r382,0r-11,50r-164,0","w":435},"U":{"d":"123,-209v-23,95,34,175,128,171v106,-4,140,-71,162,-171r101,-458r56,0r-101,457v-31,131,-77,218,-220,222v-127,4,-210,-91,-181,-222r100,-457r56,0","w":552},"V":{"d":"226,0r-67,0r-54,-667r58,0r42,598r306,-598r63,0","w":493},"W":{"d":"473,0r-62,0r6,-561r-243,561r-61,0r0,-667r59,0r-8,577r250,-577r50,0r-5,577r247,-577r61,0","w":694},"X":{"d":"426,0r-61,0r-106,-292r-231,292r-70,0r276,-344r-118,-323r62,0r98,277r215,-277r71,0r-262,329","w":493},"Y":{"d":"216,0r-56,0r63,-286r-122,-381r60,0r98,325r243,-325r66,0r-289,381","w":483},"Z":{"d":"357,0r-369,0r11,-49r418,-568r-292,0r10,-50r362,0r-10,48r-420,569r301,0","w":453},"[":{"d":"86,190r-147,0r193,-868r147,0r-10,42r-104,0r-174,784r104,0","w":200},"\\":{"d":"133,20r-40,-707r44,0r40,707r-44,0","w":235},"]":{"d":"67,190r-146,0r10,-42r103,0r173,-784r-103,0r9,-42r147,0","w":200},"^":{"d":"377,-333r-43,0r-59,-291r-189,291r-48,0r224,-334r40,0","w":377},"_":{"d":"352,82r-427,0r10,-42r427,0","w":422},"`":{"d":"243,-556r-39,0r-103,-144r58,0","w":174},"\u02cb":{"d":"243,-556r-39,0r-103,-144r58,0","w":174},"a":{"d":"176,12v-90,0,-142,-72,-140,-168v1,-113,41,-218,102,-282v35,-37,74,-57,117,-57v66,1,109,38,130,89r16,-77r51,0r-107,483r-51,0r16,-69v-37,54,-81,81,-134,81xm374,-360v-13,-46,-57,-91,-114,-90v-78,2,-129,96,-150,165v-13,43,-20,84,-20,123v-1,76,32,129,103,129v57,0,106,-51,129,-92"},"b":{"d":"292,-495v91,0,143,71,141,168v-1,112,-41,219,-102,283v-35,37,-74,56,-117,56v-66,-1,-109,-38,-130,-89r-17,77r-50,0r147,-667r50,0r-55,253v35,-54,80,-81,133,-81xm94,-123v13,46,58,91,115,90v78,-2,130,-96,151,-165v13,-43,19,-84,19,-123v1,-76,-34,-129,-103,-129v-59,0,-105,50,-130,92"},"c":{"d":"91,-173v-1,85,41,139,120,140v37,0,69,-16,98,-48r23,36v-37,38,-79,57,-127,57v-106,0,-170,-74,-168,-187v1,-112,48,-209,112,-269v75,-70,207,-68,256,18r-35,32v-38,-73,-139,-71,-194,-10v-49,54,-84,138,-85,231","w":400},"d":{"d":"176,12v-90,0,-142,-72,-140,-168v1,-113,41,-218,102,-282v35,-37,74,-57,117,-57v66,1,109,38,130,89r57,-261r51,0r-148,667r-51,0r16,-69v-37,54,-81,81,-134,81xm374,-360v-13,-46,-57,-91,-114,-90v-78,2,-129,96,-150,165v-13,43,-20,84,-20,123v-1,76,32,129,103,129v57,0,106,-51,129,-92"},"e":{"d":"94,-225v-22,105,24,196,126,194v42,0,81,-19,117,-56r23,34v-42,43,-90,65,-144,65v-112,1,-181,-72,-179,-186v2,-106,44,-206,107,-266v38,-36,79,-55,125,-55v102,0,160,71,159,176v0,32,-4,63,-13,94r-321,0xm373,-265v22,-92,-15,-187,-108,-187v-88,0,-152,105,-164,187r272,0","w":464},"f":{"d":"83,0r-51,0r97,-438r-64,0r10,-45r64,0r15,-69v18,-83,60,-125,127,-125v33,0,60,11,80,33r-30,37v-13,-17,-29,-25,-49,-25v-41,0,-67,27,-78,81r-14,68r83,0r-10,45r-83,0","w":239},"g":{"d":"254,-495v58,1,112,44,131,89r17,-77r50,0r-111,496v-27,122,-91,183,-190,183v-75,0,-129,-23,-164,-68r34,-39v27,41,71,62,131,62v71,0,118,-46,139,-138r20,-86v-36,54,-82,81,-137,81v-90,-1,-140,-69,-138,-169v2,-111,40,-213,100,-277v35,-37,73,-57,118,-57xm90,-166v-1,78,32,129,102,129v57,0,105,-48,130,-89r52,-233v-13,-45,-61,-92,-117,-91v-77,1,-128,94,-148,162v-13,43,-19,83,-19,122"},"h":{"d":"304,-495v76,0,120,51,102,131r-80,364r-51,0r78,-355v16,-56,-7,-95,-69,-95v-46,0,-92,29,-137,88r-80,362r-50,0r147,-667r50,0r-55,254v46,-55,94,-82,145,-82","w":450},"i":{"d":"214,-603v0,24,-22,44,-44,44v-20,1,-36,-16,-36,-35v0,-23,23,-43,44,-43v19,-1,36,15,36,34xm67,0r-50,0r107,-483r50,0","w":192},"j":{"d":"8,167v-37,42,-133,38,-158,-10r32,-35v10,19,26,29,49,29v34,0,57,-26,69,-79r124,-555r50,0r-123,555v-10,44,-25,75,-43,95xm214,-603v0,24,-22,44,-44,44v-20,1,-36,-16,-36,-35v0,-23,23,-43,44,-43v19,-1,36,15,36,34","w":192},"k":{"d":"351,0r-57,0r-98,-233r-99,97r-30,136r-50,0r147,-667r50,0r-101,460r283,-276r63,0r-223,218","w":425},"l":{"d":"67,0r-50,0r147,-667r50,0","w":192},"m":{"d":"533,-495v70,-1,109,55,92,131r-80,364r-51,0r80,-359v15,-53,-12,-91,-61,-91v-54,0,-100,50,-127,87r-80,363r-51,0r80,-359v14,-56,-9,-90,-61,-91v-40,0,-82,29,-127,87r-80,363r-50,0r107,-483r50,0r-15,70v28,-37,75,-81,134,-82v57,-1,100,35,98,89v45,-59,92,-89,142,-89","w":670},"n":{"d":"304,-495v76,0,119,52,102,131r-80,364r-51,0r78,-355v16,-58,-7,-95,-69,-95v-45,0,-91,29,-137,87r-80,363r-50,0r107,-483r50,0r-15,70v46,-55,94,-82,145,-82","w":450},"o":{"d":"269,-495v104,0,164,72,162,181v-1,113,-45,214,-109,274v-37,34,-77,52,-122,52v-104,0,-165,-72,-163,-181v1,-113,45,-214,109,-274v37,-34,78,-52,123,-52xm90,-169v-1,82,36,135,112,136v49,0,90,-31,124,-93v34,-62,52,-125,52,-188v1,-82,-36,-135,-112,-136v-49,0,-90,32,-124,94v-34,62,-52,124,-52,187"},"p":{"d":"292,-495v91,0,143,71,141,168v-1,112,-41,219,-102,283v-35,37,-74,56,-117,56v-66,-1,-109,-38,-130,-89r-58,261r-50,0r148,-667r50,0r-15,69v35,-54,80,-81,133,-81xm94,-123v13,46,58,91,115,90v78,-2,130,-96,151,-165v13,-43,19,-84,19,-123v1,-76,-34,-129,-103,-129v-59,0,-105,50,-130,92","w":468},"q":{"d":"176,12v-90,0,-142,-72,-140,-168v1,-113,41,-218,102,-282v35,-37,74,-57,117,-57v66,1,109,38,130,89r16,-77r51,0r-148,667r-51,0r57,-253v-37,54,-81,81,-134,81xm374,-360v-13,-46,-57,-91,-114,-90v-78,2,-129,96,-150,165v-13,43,-20,84,-20,123v-1,76,32,129,103,129v57,0,106,-51,129,-92","w":468},"r":{"d":"67,0r-50,0r107,-483r50,0r-16,74v40,-51,74,-83,157,-84r-12,55v-73,-16,-129,38,-158,86","w":278},"s":{"d":"313,-140v3,86,-71,152,-161,152v-73,0,-125,-25,-155,-75r35,-33v21,35,66,65,121,65v78,0,141,-84,88,-147v-52,-61,-168,-73,-172,-178v-3,-80,66,-139,153,-139v62,0,116,30,140,68r-33,33v-16,-33,-62,-58,-110,-58v-74,0,-130,76,-79,132v54,59,169,74,173,180","w":377},"t":{"d":"127,12v-67,2,-93,-41,-79,-102r78,-348r-66,0r10,-45r66,0r29,-132r50,0r-29,132r83,0r-10,45r-83,0r-76,342v-9,32,0,63,37,63v15,0,29,-6,42,-18r12,39v-18,16,-39,24,-64,24","w":248},"u":{"d":"146,12v-78,0,-121,-50,-103,-131r80,-364r51,0r-78,355v-16,58,7,95,70,95v46,0,91,-28,135,-85r81,-365r51,0r-107,483r-51,0r15,-70v-46,55,-94,82,-144,82","w":450},"v":{"d":"170,0r-57,0r-50,-483r54,0r36,423r225,-423r57,0","w":392},"w":{"d":"416,0r-50,0r-21,-413r-202,413r-50,0r-23,-483r52,0r12,411r201,-411r48,0r19,411r195,-411r56,0","w":617},"x":{"d":"323,0r-56,0r-76,-208r-168,208r-60,0r203,-246r-88,-237r55,0r70,198r158,-198r60,0r-194,237","w":393},"y":{"d":"-55,186r19,-45v14,9,52,10,67,-4v30,-29,56,-89,81,-128r-49,-492r54,0r36,421r225,-421r57,0r-327,593v-42,73,-89,103,-163,76","w":392},"z":{"d":"279,0r-286,0r8,-42r307,-396r-218,0r10,-45r282,0r-9,41r-308,397r223,0","w":379},"{":{"d":"30,78v-12,41,10,70,44,70r43,0r-9,42r-38,0v-55,1,-97,-51,-83,-113r51,-231v7,-35,-4,-71,-37,-71r9,-38v35,0,58,-24,68,-71r51,-233v17,-74,59,-111,125,-111r47,0r-10,42r-46,0v-38,0,-62,23,-72,69r-54,240v-10,47,-31,76,-64,88v29,11,33,51,25,87","w":222},"|":{"d":"137,20r-42,0r0,-707r42,0r0,707","w":192},"}":{"d":"191,-566v9,-38,-11,-69,-44,-70r-44,0r10,-42r38,0v55,0,97,49,83,113r-51,231v-7,36,5,75,36,71r-9,38v-35,0,-57,24,-67,71r-52,233v-17,74,-58,111,-125,111r-46,0r10,-42v39,0,71,4,92,-18v12,-13,21,-29,26,-51r53,-240v9,-46,31,-75,64,-88v-29,-11,-33,-51,-25,-87","w":222},"~":{"d":"466,-667r42,4v-37,156,-91,234,-162,234v-67,1,-74,-64,-78,-127v-2,-33,-9,-68,-42,-69v-45,0,-84,66,-116,198r-41,-6v35,-155,89,-232,160,-232v66,0,75,64,79,127v2,33,9,70,42,70v46,0,85,-66,116,-199","w":443},"\u00a0":{"w":217},"\u00a1":{"d":"104,-310r39,0r-96,494r-66,0xm111,-446v0,-26,21,-48,47,-47v21,0,39,18,39,40v0,25,-21,46,-47,46v-21,0,-39,-18,-39,-39","w":218},"\u00a2":{"d":"150,4v-70,-20,-114,-86,-113,-179v1,-108,44,-206,106,-264v36,-33,75,-52,118,-55r16,-71r44,0r-16,73v43,7,77,29,100,66r-35,32v-17,-31,-42,-49,-75,-54r-93,415v46,2,75,-14,107,-48r23,36v-41,40,-82,61,-140,56r-19,89r-44,0xm251,-448v-96,13,-162,164,-160,275v0,67,23,111,69,131","w":400},"\u00a3":{"d":"-1,-38v72,-31,157,-116,159,-207v0,-5,-1,-12,-2,-23r-127,0r9,-41r106,0v-20,-45,-47,-80,-47,-140v0,-114,94,-228,206,-228v76,0,146,46,156,112r-50,20v-8,-48,-49,-85,-105,-84v-83,0,-147,90,-147,183v0,54,32,99,46,137r111,0r-9,41r-94,0v8,86,-58,165,-112,200v16,-6,30,-9,42,-9v33,0,106,39,135,39v31,0,59,-13,83,-38r14,44v-30,30,-64,45,-103,45v-49,0,-118,-44,-162,-44v-27,0,-59,13,-96,38","w":433},"\u00a4":{"d":"461,-136r-34,27r-37,-49v-86,63,-203,58,-277,-15r-79,66r-23,-31r77,-63v-58,-105,-32,-201,49,-281r-37,-49r32,-26r39,48v84,-61,202,-58,276,14r78,-64r25,30r-78,64v58,102,32,199,-49,281xm261,-162v99,0,193,-90,193,-189v0,-89,-66,-153,-155,-153v-99,0,-193,90,-193,189v0,89,66,153,155,153","w":522},"\u00a5":{"d":"219,0r-56,0r28,-126r-197,0r10,-40r196,0r26,-120r-196,0r9,-40r174,0r-109,-341r60,0r98,325r243,-325r66,0r-259,341r168,0r-9,40r-189,0r-26,120r188,0r-9,40r-188,0","w":483},"\u00a6":{"d":"137,20r-42,0r0,-316r42,0r0,316xm137,-371r-42,0r0,-316r42,0r0,316","w":192},"\u00a7":{"d":"260,-637v-72,0,-131,82,-80,141v53,61,171,68,171,178v0,75,-49,123,-115,141v40,27,60,61,60,104v1,84,-69,154,-157,154v-75,0,-129,-24,-164,-71r36,-32v25,41,67,62,126,62v76,0,141,-92,87,-154v-52,-60,-169,-69,-169,-177v0,-75,58,-126,133,-133v-53,-31,-79,-69,-79,-114v-1,-77,68,-139,149,-139v69,0,119,22,150,66r-34,28v-24,-36,-62,-54,-114,-54xm229,-401v-71,8,-124,39,-124,102v0,56,47,74,95,101v117,-32,137,-152,29,-203","w":378},"\u00a8":{"d":"297,-637v17,0,32,15,32,32v0,21,-19,41,-40,41v-18,0,-33,-15,-33,-33v-1,-21,19,-40,41,-40xm129,-637v17,0,32,15,32,32v0,22,-20,42,-41,41v-18,0,-32,-15,-32,-33v-1,-21,19,-40,41,-40","w":260},"\u00a9":{"d":"408,-679v185,0,346,160,346,345v0,186,-161,345,-346,345v-185,0,-344,-160,-344,-345v0,-186,158,-345,344,-345xm408,-17v169,0,318,-148,318,-317v0,-169,-149,-317,-318,-317v-169,0,-316,148,-316,317v0,169,147,317,316,317xm230,-307v0,88,69,157,159,157v45,0,83,-16,116,-47r17,25v-40,35,-84,52,-133,52v-112,0,-192,-79,-192,-187v0,-127,114,-242,236,-242v71,0,122,27,155,80r-27,19v-25,-46,-67,-69,-128,-69v-103,0,-203,102,-203,212","w":778},"\u00aa":{"d":"317,-560v-8,-29,-40,-54,-76,-54v-66,0,-113,103,-113,174v0,51,22,86,69,87v32,0,61,-19,87,-57xm234,-648v41,1,77,25,91,55r10,-47r42,0r-70,314r-42,0r11,-47v-26,37,-57,55,-93,55v-65,-1,-98,-48,-98,-120v0,-92,60,-212,149,-210","w":346},"\u00ab":{"d":"162,-63r-48,0r-85,-180r165,-177r54,0r-168,181xm276,-63r-48,0r-85,-180r165,-177r54,0r-168,181","w":350},"\u00ac":{"d":"453,-452r-53,236r-42,0r43,-196r-335,0r9,-40r378,0","w":437},"\u00ad":{"d":"231,-219r-207,0r10,-46r206,0","w":266},"\u00ae":{"d":"296,-677v115,0,212,97,212,212v0,114,-99,212,-213,212v-114,0,-211,-98,-211,-212v0,-114,98,-212,212,-212xm295,-280v98,0,186,-87,186,-185v0,-100,-86,-185,-186,-185v-100,0,-184,85,-184,185v0,98,85,185,184,185xm402,-522v0,44,-40,83,-80,82r44,97r-36,0r-42,-96r-48,0r-21,96r-30,0r53,-243r91,0v38,-1,69,26,69,64xm315,-468v29,1,55,-22,55,-50v0,-25,-18,-40,-42,-40r-62,0r-20,90r69,0","w":494},"\u00af":{"d":"380,-591r-303,0r8,-37r303,0","w":304},"\u203e":{"d":"380,-591r-303,0r8,-37r303,0","w":304},"\u00b0":{"d":"210,-677v62,0,116,54,116,116v0,62,-54,116,-116,116v-62,0,-115,-54,-115,-116v0,-62,53,-116,115,-116xm209,-484v41,0,79,-35,79,-77v0,-40,-37,-78,-78,-78v-40,0,-77,37,-77,78v0,42,34,77,76,77","w":281},"\u00b1":{"d":"424,-320r-168,0r-41,188r-44,0r42,-188r-167,0r9,-40r167,0r40,-182r43,0r-39,182r167,0xm359,-26r-378,0r8,-40r378,0","w":436},"\u00b2":{"d":"270,-827v61,0,117,34,115,96v0,35,-19,69,-36,90v-53,67,-136,127,-201,183r179,0r-8,37r-238,0r8,-36v103,-86,166,-140,189,-163v41,-41,62,-78,62,-109v1,-40,-32,-61,-71,-61v-37,0,-68,16,-94,48r-24,-28v33,-38,72,-57,119,-57","w":319},"\u00b3":{"d":"284,-623v35,7,63,41,62,83v0,65,-57,126,-129,126v-63,0,-105,-24,-126,-72r33,-23v18,39,49,58,92,58v52,0,86,-47,86,-97v0,-48,-52,-68,-104,-60r9,-37v7,1,21,1,43,1v50,1,88,-34,88,-85v0,-37,-35,-62,-74,-61v-32,0,-63,15,-92,46r-22,-27v33,-37,72,-56,117,-56v64,0,116,31,115,93v0,58,-44,105,-98,111","w":319},"\u00b4":{"d":"275,-700r-167,144r-41,0r148,-144r60,0","w":174},"\u00b5":{"d":"26,184r-50,0r148,-667r50,0r-79,357v-13,53,4,96,62,94v58,-2,116,-46,143,-84r82,-367r51,0r-107,483r-51,0r14,-68v-49,53,-101,80,-157,80v-28,0,-50,-5,-65,-15","w":450},"\u03bc":{"d":"26,184r-50,0r148,-667r50,0r-79,357v-13,53,4,96,62,94v58,-2,116,-46,143,-84r82,-367r51,0r-107,483r-51,0r14,-68v-49,53,-101,80,-157,80v-28,0,-50,-5,-65,-15","w":450},"\u00b6":{"d":"79,-479v0,-97,92,-188,194,-188r187,0r-170,767r-37,0r162,-730r-94,0r-162,730r-37,0r94,-423v-78,1,-137,-73,-137,-156","w":449},"\u00b7":{"d":"152,-248v1,25,-21,46,-47,46v-22,0,-39,-17,-39,-39v-1,-25,21,-46,47,-46v22,0,39,18,39,39","w":218},"\u2219":{"d":"152,-248v1,25,-21,46,-47,46v-22,0,-39,-17,-39,-39v-1,-25,21,-46,47,-46v22,0,39,18,39,39","w":218},"\u00b8":{"d":"100,102v0,51,-46,87,-99,87v-37,0,-67,-12,-90,-37r23,-29v18,22,41,33,70,33v35,1,59,-21,59,-53v1,-35,-49,-41,-66,-14r-24,-16r50,-84r37,0r-41,68v33,-28,81,1,81,45","w":178},"\u00b9":{"d":"189,-421r-44,0r74,-338r-74,64r-22,-29r115,-97r39,0","w":208},"\u00ba":{"d":"362,-523v0,90,-67,205,-159,205v-74,0,-116,-50,-116,-125v0,-90,66,-205,158,-205v74,0,117,50,117,125xm130,-442v0,51,25,88,74,88v68,0,115,-103,115,-170v0,-50,-27,-87,-75,-87v-70,0,-114,100,-114,169","w":343},"\u00bb":{"d":"75,-420r48,0r85,180r-165,177r-54,0r169,-182xm189,-420r48,0r85,180r-165,177r-54,0r168,-182","w":350},"\u00bc":{"d":"589,-667r-496,667r-41,0r496,-667r41,0xm584,-107r-48,0r-24,107r-43,0r23,-107r-167,0r8,-36r211,-257r56,0r-57,256r49,0xm500,-144r46,-206r-171,206r125,0xm155,-267r-44,0r74,-338r-74,64r-22,-29r115,-97r39,0","w":644},"\u00bd":{"d":"589,-667r-496,667r-41,0r496,-667r41,0xm537,-406v61,0,117,34,115,96v0,35,-19,69,-36,90v-51,65,-135,128,-201,183r179,0r-8,37r-238,0r8,-36v103,-86,166,-140,189,-163v41,-41,62,-78,62,-109v1,-40,-32,-61,-71,-61v-37,0,-68,16,-94,48r-24,-28v33,-38,72,-57,119,-57xm155,-267r-44,0r74,-338r-74,64r-22,-29r115,-97r39,0","w":679},"\u00be":{"d":"666,-667r-496,667r-41,0r496,-667r41,0xm661,-107r-48,0r-24,107r-43,0r23,-107r-167,0r8,-36r211,-257r56,0r-57,256r49,0xm577,-144r46,-206r-171,206r125,0xm250,-469v35,7,63,41,62,83v0,65,-57,126,-129,126v-63,0,-105,-24,-126,-72r33,-23v18,39,49,58,92,58v52,0,86,-47,86,-97v0,-48,-52,-68,-104,-60r9,-37v7,1,21,1,43,1v50,1,88,-34,88,-85v0,-37,-35,-62,-74,-61v-32,0,-63,15,-92,46r-22,-27v33,-37,72,-56,117,-56v64,0,116,31,115,93v0,58,-44,105,-98,111","w":721},"\u00bf":{"d":"124,195v-87,0,-158,-53,-158,-132v0,-138,135,-167,201,-243v26,-30,31,-72,9,-104r46,-23v26,42,24,97,-3,138v-43,65,-129,88,-172,153v-15,21,-22,45,-22,70v0,55,46,91,106,91v44,0,84,-16,120,-49r22,39v-44,40,-94,60,-149,60xm198,-446v-1,-25,21,-46,47,-46v22,0,39,17,39,39v1,25,-21,46,-47,46v-22,0,-39,-18,-39,-39","w":328},"\u00c0":{"d":"406,-728r-39,0r-103,-144r58,0xm427,0r-58,0r-12,-165r-252,0r-84,165r-63,0r348,-667r67,0xm355,-215r-27,-387r-199,387r226,0","w":493},"\u00c1":{"d":"508,-872r-167,144r-41,0r148,-144r60,0xm427,0r-58,0r-12,-165r-252,0r-84,165r-63,0r348,-667r67,0xm355,-215r-27,-387r-199,387r226,0","w":493},"\u00c2":{"d":"464,-728r-34,0r-51,-112r-96,112r-38,0r114,-144r52,0xm427,0r-58,0r-12,-165r-252,0r-84,165r-63,0r348,-667r67,0xm355,-215r-27,-387r-199,387r226,0","w":493},"\u00c3":{"d":"406,-726v-31,0,-47,-27,-52,-52v-5,-22,-14,-51,-39,-51v-27,0,-47,32,-61,97r-34,0v19,-89,53,-134,102,-134v31,0,47,27,52,52v4,22,14,51,38,51v27,0,48,-32,63,-97r34,0v-19,89,-54,134,-103,134xm427,0r-58,0r-12,-165r-252,0r-84,165r-63,0r348,-667r67,0xm355,-215r-27,-387r-199,387r226,0","w":493},"\u00c4":{"d":"451,-805v17,0,32,15,32,32v0,21,-19,41,-40,41v-18,0,-33,-15,-33,-33v-1,-21,19,-40,41,-40xm283,-805v17,0,32,15,32,32v0,22,-20,42,-41,41v-18,0,-32,-15,-32,-33v-1,-21,19,-40,41,-40xm427,0r-58,0r-12,-165r-252,0r-84,165r-63,0r348,-667r67,0xm355,-215r-27,-387r-199,387r226,0","w":493},"\u00c5":{"d":"453,-789v0,50,-47,97,-97,97v-46,0,-79,-34,-79,-80v0,-50,47,-97,97,-97v45,0,79,35,79,80xm308,-775v0,30,21,52,50,52v34,0,64,-29,64,-63v0,-30,-21,-52,-50,-52v-33,0,-64,30,-64,63xm427,0r-58,0r-12,-165r-252,0r-84,165r-63,0r348,-667r67,0xm355,-215r-27,-387r-199,387r226,0","w":493},"\u00c6":{"d":"628,0r-326,0r36,-165r-200,0r-113,165r-63,0r465,-667r348,0r-10,50r-271,0r-55,250r263,0r-11,50r-264,0r-59,267r271,0xm349,-215r85,-381r-264,381r179,0","w":736},"\u00c7":{"d":"114,-222v-1,109,52,183,155,183v50,0,98,-27,144,-81r42,28v-59,71,-118,106,-197,104r-27,45v33,-28,81,1,81,45v0,51,-46,87,-99,87v-37,0,-67,-12,-90,-37r23,-29v18,22,41,33,70,33v35,1,59,-21,59,-53v1,-35,-49,-41,-66,-14r-24,-16r38,-65v-105,-16,-171,-106,-168,-231v5,-179,75,-332,184,-413v72,-54,175,-56,243,-4v32,25,56,59,71,103r-53,17v-25,-71,-72,-107,-141,-107v-43,0,-84,22,-123,65v-69,75,-121,208,-122,340","w":523},"\u00c8":{"d":"399,-728r-39,0r-103,-144r58,0xm347,0r-326,0r147,-667r326,0r-10,50r-271,0r-55,250r263,0r-11,50r-264,0r-59,267r271,0","w":453},"\u00c9":{"d":"500,-872r-167,144r-41,0r148,-144r60,0xm347,0r-326,0r147,-667r326,0r-10,50r-271,0r-55,250r263,0r-11,50r-264,0r-59,267r271,0","w":453},"\u00ca":{"d":"456,-728r-34,0r-51,-112r-96,112r-38,0r114,-144r52,0xm347,0r-326,0r147,-667r326,0r-10,50r-271,0r-55,250r263,0r-11,50r-264,0r-59,267r271,0","w":453},"\u00cb":{"d":"442,-805v18,0,32,15,32,32v1,21,-19,41,-40,41v-18,0,-33,-15,-33,-33v-1,-21,19,-40,41,-40xm274,-805v18,0,32,15,32,32v1,22,-19,42,-41,41v-18,0,-32,-15,-32,-33v-1,-21,19,-40,41,-40xm347,0r-326,0r147,-667r326,0r-10,50r-271,0r-55,250r263,0r-11,50r-264,0r-59,267r271,0","w":453},"\u00cc":{"d":"263,-728r-39,0r-103,-144r58,0xm77,0r-56,0r147,-667r56,0","w":206},"\u00cd":{"d":"365,-872r-167,144r-41,0r148,-144r60,0xm77,0r-56,0r147,-667r56,0","w":206},"\u00ce":{"d":"321,-728r-34,0r-51,-112r-96,112r-38,0r114,-144r52,0xm77,0r-56,0r147,-667r56,0","w":206},"\u00cf":{"d":"309,-804v17,0,32,14,32,32v0,21,-19,41,-40,41v-18,0,-33,-15,-33,-33v-1,-21,19,-41,41,-40xm141,-804v17,0,32,14,32,32v0,21,-20,41,-41,41v-18,0,-32,-15,-32,-33v-1,-21,19,-41,41,-40xm77,0r-56,0r147,-667r56,0","w":206},"\u00d0":{"d":"350,-667v119,1,203,106,200,238v-3,132,-52,243,-115,321v-47,57,-128,108,-228,108r-162,0r68,-310r-82,0r11,-48r82,0r68,-309r158,0xm492,-427v3,-106,-56,-190,-152,-190r-103,0r-58,259r135,0r-11,48r-134,0r-58,260v93,0,165,5,225,-39v68,-50,112,-132,138,-220v12,-42,18,-81,18,-118","w":574},"\u00d1":{"d":"440,-726v-31,0,-47,-27,-52,-52v-5,-22,-14,-51,-39,-51v-27,0,-47,32,-61,97r-34,0v19,-89,53,-134,102,-134v31,0,47,27,52,52v4,22,14,51,38,51v27,0,48,-32,63,-97r34,0v-19,89,-54,134,-103,134xm429,0r-54,0r-175,-555r-123,555r-56,0r147,-667r56,0r175,547r121,-547r56,0","w":558},"\u00d2":{"d":"456,-728r-39,0r-103,-144r58,0xm363,-678v130,-1,215,101,211,235v-5,177,-74,330,-182,411v-40,29,-82,44,-127,44v-130,1,-213,-100,-210,-235v2,-153,61,-297,146,-381v50,-49,103,-74,162,-74xm114,-222v-1,106,56,183,155,183v44,0,85,-22,124,-64v70,-75,119,-206,121,-340v1,-107,-57,-183,-156,-184v-44,0,-85,23,-124,65v-70,75,-118,206,-120,340","w":590},"\u00d3":{"d":"557,-872r-167,144r-41,0r148,-144r60,0xm363,-678v130,-1,215,101,211,235v-5,177,-74,330,-182,411v-40,29,-82,44,-127,44v-130,1,-213,-100,-210,-235v2,-153,61,-297,146,-381v50,-49,103,-74,162,-74xm114,-222v-1,106,56,183,155,183v44,0,85,-22,124,-64v70,-75,119,-206,121,-340v1,-107,-57,-183,-156,-184v-44,0,-85,23,-124,65v-70,75,-118,206,-120,340","w":590},"\u00d4":{"d":"513,-728r-34,0r-51,-112r-96,112r-38,0r114,-144r52,0xm363,-678v130,-1,215,101,211,235v-5,177,-74,330,-182,411v-40,29,-82,44,-127,44v-130,1,-213,-100,-210,-235v2,-153,61,-297,146,-381v50,-49,103,-74,162,-74xm114,-222v-1,106,56,183,155,183v44,0,85,-22,124,-64v70,-75,119,-206,121,-340v1,-107,-57,-183,-156,-184v-44,0,-85,23,-124,65v-70,75,-118,206,-120,340","w":590},"\u00d5":{"d":"459,-726v-31,0,-48,-27,-53,-52v-5,-22,-13,-51,-38,-51v-27,0,-47,32,-61,97r-34,0v19,-89,53,-134,102,-134v31,0,48,27,53,52v4,22,13,51,37,51v27,0,48,-32,63,-97r34,0v-19,89,-54,134,-103,134xm363,-678v130,-1,215,101,211,235v-5,177,-74,330,-182,411v-40,29,-82,44,-127,44v-130,1,-213,-100,-210,-235v2,-153,61,-297,146,-381v50,-49,103,-74,162,-74xm114,-222v-1,106,56,183,155,183v44,0,85,-22,124,-64v70,-75,119,-206,121,-340v1,-107,-57,-183,-156,-184v-44,0,-85,23,-124,65v-70,75,-118,206,-120,340","w":590},"\u00d6":{"d":"499,-805v17,0,32,15,32,32v0,21,-19,41,-40,41v-18,0,-33,-15,-33,-33v-1,-21,19,-40,41,-40xm331,-805v17,0,32,15,32,32v0,22,-20,42,-41,41v-18,0,-32,-15,-32,-33v-1,-21,19,-40,41,-40xm363,-678v130,-1,215,101,211,235v-5,177,-74,330,-182,411v-40,29,-82,44,-127,44v-130,1,-213,-100,-210,-235v2,-153,61,-297,146,-381v50,-49,103,-74,162,-74xm114,-222v-1,106,56,183,155,183v44,0,85,-22,124,-64v70,-75,119,-206,121,-340v1,-107,-57,-183,-156,-184v-44,0,-85,23,-124,65v-70,75,-118,206,-120,340","w":590},"\u00d7":{"d":"335,-176r-101,-129r-161,132r-25,-32r162,-132r-101,-129r32,-26r100,129r161,-132r25,32r-161,132r101,129","w":436},"\u00d8":{"d":"392,-32v-79,62,-201,57,-269,-8r-29,40r-47,0r51,-70v-65,-92,-48,-239,-6,-356v24,-69,60,-128,109,-178v49,-50,103,-74,162,-74v57,0,104,18,141,53r30,-42r47,0r-52,71v91,124,25,346,-38,452v-27,45,-60,82,-99,112xm269,-39v44,0,85,-22,124,-64v70,-75,120,-206,121,-340v0,-39,-7,-74,-22,-103r-335,459v28,32,65,48,112,48xm145,-406v-30,93,-48,202,-10,286r335,-459v-27,-32,-64,-48,-112,-48v-44,0,-85,22,-124,65v-39,43,-68,94,-89,156","w":590},"\u00d9":{"d":"436,-728r-39,0r-103,-144r58,0xm123,-209v-23,95,34,175,128,171v106,-4,140,-71,162,-171r101,-458r56,0r-101,457v-31,131,-77,218,-220,222v-127,4,-210,-91,-181,-222r100,-457r56,0","w":552},"\u00da":{"d":"536,-872r-167,144r-41,0r148,-144r60,0xm123,-209v-23,95,34,175,128,171v106,-4,140,-71,162,-171r101,-458r56,0r-101,457v-31,131,-77,218,-220,222v-127,4,-210,-91,-181,-222r100,-457r56,0","w":552},"\u00db":{"d":"494,-728r-34,0r-51,-112r-96,112r-38,0r114,-144r52,0xm123,-209v-23,95,34,175,128,171v106,-4,140,-71,162,-171r101,-458r56,0r-101,457v-31,131,-77,218,-220,222v-127,4,-210,-91,-181,-222r100,-457r56,0","w":552},"\u00dc":{"d":"480,-805v18,0,32,15,32,32v1,21,-19,41,-40,41v-18,0,-33,-15,-33,-33v-1,-21,19,-40,41,-40xm312,-805v18,0,32,15,32,32v1,22,-19,42,-41,41v-18,0,-32,-15,-32,-33v-1,-21,19,-40,41,-40xm123,-209v-23,95,34,175,128,171v106,-4,140,-71,162,-171r101,-458r56,0r-101,457v-31,131,-77,218,-220,222v-127,4,-210,-91,-181,-222r100,-457r56,0","w":552},"\u00dd":{"d":"507,-872r-167,144r-41,0r148,-144r60,0xm216,0r-56,0r63,-286r-122,-381r60,0r98,325r243,-325r66,0r-289,381","w":483},"\u00de":{"d":"314,-543v83,-2,149,71,145,156v-6,137,-79,229,-222,233r-127,0r-33,154r-56,0r147,-667r56,0r-27,124r117,0xm399,-384v0,-60,-40,-109,-98,-108r-116,0r-63,288r121,0v98,3,156,-86,156,-180","w":468},"\u00df":{"d":"309,-677v71,-1,140,42,139,110v-2,103,-109,108,-157,165v-24,27,-25,67,1,93v54,56,165,67,168,172v2,82,-69,149,-158,149v-68,0,-121,-26,-159,-77r35,-33v31,45,72,67,123,67v76,0,141,-87,88,-147v-51,-58,-163,-64,-167,-168v-2,-60,48,-103,88,-122v35,-17,86,-46,87,-92v0,-76,-116,-93,-165,-43v-20,21,-36,47,-44,83r-115,520r-51,0r115,-520v18,-86,76,-156,172,-157","w":501},"\u00e0":{"d":"176,12v-90,0,-142,-72,-140,-168v1,-113,41,-218,102,-282v35,-37,74,-57,117,-57v66,1,109,38,130,89r16,-77r51,0r-107,483r-51,0r16,-69v-37,54,-81,81,-134,81xm374,-360v-13,-46,-57,-91,-114,-90v-78,2,-129,96,-150,165v-13,43,-20,84,-20,123v-1,76,32,129,103,129v57,0,106,-51,129,-92xm340,-556r-39,0r-103,-144r58,0"},"\u00e1":{"d":"176,12v-90,0,-142,-72,-140,-168v1,-113,41,-218,102,-282v35,-37,74,-57,117,-57v66,1,109,38,130,89r16,-77r51,0r-107,483r-51,0r16,-69v-37,54,-81,81,-134,81xm374,-360v-13,-46,-57,-91,-114,-90v-78,2,-129,96,-150,165v-13,43,-20,84,-20,123v-1,76,32,129,103,129v57,0,106,-51,129,-92xm442,-700r-167,144r-41,0r148,-144r60,0"},"\u00e2":{"d":"176,12v-90,0,-142,-72,-140,-168v1,-113,41,-218,102,-282v35,-37,74,-57,117,-57v66,1,109,38,130,89r16,-77r51,0r-107,483r-51,0r16,-69v-37,54,-81,81,-134,81xm374,-360v-13,-46,-57,-91,-114,-90v-78,2,-129,96,-150,165v-13,43,-20,84,-20,123v-1,76,32,129,103,129v57,0,106,-51,129,-92xm398,-556r-34,0r-51,-112r-96,112r-38,0r114,-144r52,0"},"\u00e3":{"d":"176,12v-90,0,-142,-72,-140,-168v1,-113,41,-218,102,-282v35,-37,74,-57,117,-57v66,1,109,38,130,89r16,-77r51,0r-107,483r-51,0r16,-69v-37,54,-81,81,-134,81xm374,-360v-13,-46,-57,-91,-114,-90v-78,2,-129,96,-150,165v-13,43,-20,84,-20,123v-1,76,32,129,103,129v57,0,106,-51,129,-92xm344,-554v-31,0,-47,-27,-52,-52v-5,-22,-14,-51,-39,-51v-27,0,-47,32,-61,97r-34,0v19,-89,53,-134,102,-134v31,0,47,27,52,52v4,22,14,51,38,51v27,0,48,-32,63,-97r34,0v-19,89,-54,134,-103,134"},"\u00e4":{"d":"176,12v-90,0,-142,-72,-140,-168v1,-113,41,-218,102,-282v35,-37,74,-57,117,-57v66,1,109,38,130,89r16,-77r51,0r-107,483r-51,0r16,-69v-37,54,-81,81,-134,81xm374,-360v-13,-46,-57,-91,-114,-90v-78,2,-129,96,-150,165v-13,43,-20,84,-20,123v-1,76,32,129,103,129v57,0,106,-51,129,-92xm387,-637v17,0,32,15,32,32v0,21,-19,41,-40,41v-18,0,-33,-15,-33,-33v-1,-21,19,-40,41,-40xm219,-637v17,0,32,15,32,32v0,22,-20,42,-41,41v-18,0,-32,-15,-32,-33v-1,-21,19,-40,41,-40"},"\u00e5":{"d":"176,12v-90,0,-142,-72,-140,-168v1,-113,41,-218,102,-282v35,-37,74,-57,117,-57v66,1,109,38,130,89r16,-77r51,0r-107,483r-51,0r16,-69v-37,54,-81,81,-134,81xm374,-360v-13,-46,-57,-91,-114,-90v-78,2,-129,96,-150,165v-13,43,-20,84,-20,123v-1,76,32,129,103,129v57,0,106,-51,129,-92xm394,-647v0,50,-47,97,-97,97v-46,0,-79,-34,-79,-80v0,-50,47,-97,97,-97v45,0,79,35,79,80xm249,-633v0,30,21,52,50,52v34,0,64,-29,64,-63v0,-30,-21,-52,-50,-52v-33,0,-64,30,-64,63"},"\u00e6":{"d":"397,-225v-22,105,24,195,126,193v41,0,79,-18,114,-55r23,35v-41,43,-86,64,-136,64v-86,0,-137,-43,-153,-128r-26,116r-51,0r16,-69v-37,54,-81,81,-134,81v-90,0,-142,-72,-140,-168v1,-113,41,-218,102,-282v35,-37,74,-57,117,-57v66,1,109,38,130,89r16,-77r51,0r-21,93v45,-70,95,-105,151,-105v97,0,146,71,145,174v0,32,-4,64,-13,96r-317,0xm374,-360v-13,-46,-57,-91,-114,-90v-78,2,-129,96,-150,165v-13,43,-20,84,-20,123v-1,76,32,129,103,129v57,0,107,-50,130,-92xm672,-265v21,-91,-11,-187,-104,-187v-86,0,-153,106,-164,187r268,0","w":763},"\u00e7":{"d":"253,102v0,51,-46,87,-99,87v-37,0,-67,-12,-90,-37r23,-29v18,22,41,33,70,33v35,1,59,-21,59,-53v1,-35,-49,-41,-66,-14r-24,-16r38,-65v-80,-16,-128,-84,-127,-183v1,-112,48,-209,112,-269v75,-70,207,-68,256,18r-35,32v-38,-73,-139,-71,-194,-10v-49,54,-84,138,-85,231v-1,85,41,139,120,140v37,0,69,-16,98,-48r23,36v-39,39,-79,58,-133,57r-27,45v33,-28,81,1,81,45","w":400},"\u00e8":{"d":"94,-225v-22,105,24,196,126,194v42,0,81,-19,117,-56r23,34v-42,43,-90,65,-144,65v-112,1,-181,-72,-179,-186v2,-106,44,-206,107,-266v38,-36,79,-55,125,-55v102,0,160,71,159,176v0,32,-4,63,-13,94r-321,0xm373,-265v22,-92,-15,-187,-108,-187v-88,0,-152,105,-164,187r272,0xm358,-556r-39,0r-103,-144r58,0","w":464},"\u00e9":{"d":"94,-225v-22,105,24,196,126,194v42,0,81,-19,117,-56r23,34v-42,43,-90,65,-144,65v-112,1,-181,-72,-179,-186v2,-106,44,-206,107,-266v38,-36,79,-55,125,-55v102,0,160,71,159,176v0,32,-4,63,-13,94r-321,0xm373,-265v22,-92,-15,-187,-108,-187v-88,0,-152,105,-164,187r272,0xm459,-700r-167,144r-41,0r148,-144r60,0","w":464},"\u00ea":{"d":"94,-225v-22,105,24,196,126,194v42,0,81,-19,117,-56r23,34v-42,43,-90,65,-144,65v-112,1,-181,-72,-179,-186v2,-106,44,-206,107,-266v38,-36,79,-55,125,-55v102,0,160,71,159,176v0,32,-4,63,-13,94r-321,0xm373,-265v22,-92,-15,-187,-108,-187v-88,0,-152,105,-164,187r272,0xm415,-556r-34,0r-51,-112r-96,112r-38,0r114,-144r52,0","w":464},"\u00eb":{"d":"94,-225v-22,105,24,196,126,194v42,0,81,-19,117,-56r23,34v-42,43,-90,65,-144,65v-112,1,-181,-72,-179,-186v2,-106,44,-206,107,-266v38,-36,79,-55,125,-55v102,0,160,71,159,176v0,32,-4,63,-13,94r-321,0xm373,-265v22,-92,-15,-187,-108,-187v-88,0,-152,105,-164,187r272,0xm402,-637v18,0,32,15,32,32v1,21,-19,41,-40,41v-18,0,-33,-15,-33,-33v-1,-21,19,-40,41,-40xm234,-637v18,0,32,15,32,32v1,22,-19,42,-41,41v-18,0,-32,-15,-32,-33v-1,-21,19,-40,41,-40","w":464},"\u00ec":{"d":"217,-556r-39,0r-103,-144r58,0xm67,0r-50,0r107,-483r50,0","w":192},"\u00ed":{"d":"319,-700r-167,144r-41,0r148,-144r60,0xm67,0r-50,0r107,-483r50,0","w":192},"\u00ee":{"d":"275,-556r-34,0r-51,-112r-96,112r-38,0r114,-144r52,0xm67,0r-50,0r107,-483r50,0","w":192},"\u00ef":{"d":"263,-637v17,0,32,15,32,32v0,21,-19,41,-40,41v-18,0,-33,-15,-33,-33v-1,-21,19,-40,41,-40xm95,-637v17,0,32,15,32,32v0,22,-20,42,-41,41v-18,0,-32,-15,-32,-33v-1,-21,19,-40,41,-40xm67,0r-50,0r107,-483r50,0","w":192},"\u00f0":{"d":"203,12v-105,2,-167,-73,-166,-180v0,-78,22,-150,65,-218v43,-68,95,-102,156,-102v61,0,107,36,124,88v-15,-58,-36,-113,-64,-164r-137,41r-8,-32r128,-38v-13,-23,-30,-45,-51,-68r45,-28v24,31,43,57,58,80r97,-29r7,32r-87,26v73,124,83,248,39,392v-28,93,-97,198,-206,200xm91,-169v-1,82,37,136,113,136v77,0,129,-90,151,-157v14,-42,21,-83,21,-122v0,-68,-41,-133,-114,-130v-76,2,-128,88,-150,154v-14,41,-21,81,-21,119"},"\u00f1":{"d":"305,-495v76,0,119,52,102,131r-80,364r-51,0r78,-355v16,-58,-7,-95,-69,-95v-45,0,-91,29,-137,87r-80,363r-50,0r107,-483r50,0r-15,70v46,-55,94,-82,145,-82xm352,-554v-31,0,-47,-27,-52,-52v-5,-22,-14,-51,-39,-51v-27,0,-47,32,-61,97r-34,0v19,-89,53,-134,102,-134v31,0,47,27,52,52v4,22,14,51,38,51v27,0,48,-32,63,-97r34,0v-19,89,-54,134,-103,134","w":450},"\u00f2":{"d":"269,-495v104,0,164,72,162,181v-1,113,-45,214,-109,274v-37,34,-77,52,-122,52v-104,0,-165,-72,-163,-181v1,-113,45,-214,109,-274v37,-34,78,-52,123,-52xm90,-169v-1,82,36,135,112,136v49,0,90,-31,124,-93v34,-62,52,-125,52,-188v1,-82,-36,-135,-112,-136v-49,0,-90,32,-124,94v-34,62,-52,124,-52,187xm357,-556r-39,0r-103,-144r58,0"},"\u00f3":{"d":"269,-495v104,0,164,72,162,181v-1,113,-45,214,-109,274v-37,34,-77,52,-122,52v-104,0,-165,-72,-163,-181v1,-113,45,-214,109,-274v37,-34,78,-52,123,-52xm90,-169v-1,82,36,135,112,136v49,0,90,-31,124,-93v34,-62,52,-125,52,-188v1,-82,-36,-135,-112,-136v-49,0,-90,32,-124,94v-34,62,-52,124,-52,187xm458,-700r-167,144r-41,0r148,-144r60,0"},"\u00f4":{"d":"269,-495v104,0,164,72,162,181v-1,113,-45,214,-109,274v-37,34,-77,52,-122,52v-104,0,-165,-72,-163,-181v1,-113,45,-214,109,-274v37,-34,78,-52,123,-52xm90,-169v-1,82,36,135,112,136v49,0,90,-31,124,-93v34,-62,52,-125,52,-188v1,-82,-36,-135,-112,-136v-49,0,-90,32,-124,94v-34,62,-52,124,-52,187xm414,-556r-34,0r-51,-112r-96,112r-38,0r114,-144r52,0"},"\u00f5":{"d":"269,-495v104,0,164,72,162,181v-1,113,-45,214,-109,274v-37,34,-77,52,-122,52v-104,0,-165,-72,-163,-181v1,-113,45,-214,109,-274v37,-34,78,-52,123,-52xm90,-169v-1,82,36,135,112,136v49,0,90,-31,124,-93v34,-62,52,-125,52,-188v1,-82,-36,-135,-112,-136v-49,0,-90,32,-124,94v-34,62,-52,124,-52,187xm361,-554v-31,0,-48,-27,-53,-52v-5,-22,-13,-51,-38,-51v-27,0,-47,32,-61,97r-34,0v19,-89,53,-134,102,-134v31,0,48,27,53,52v4,22,13,51,37,51v27,0,48,-32,63,-97r34,0v-19,89,-54,134,-103,134"},"\u00f6":{"d":"269,-495v104,0,164,72,162,181v-1,113,-45,214,-109,274v-37,34,-77,52,-122,52v-104,0,-165,-72,-163,-181v1,-113,45,-214,109,-274v37,-34,78,-52,123,-52xm90,-169v-1,82,36,135,112,136v49,0,90,-31,124,-93v34,-62,52,-125,52,-188v1,-82,-36,-135,-112,-136v-49,0,-90,32,-124,94v-34,62,-52,124,-52,187xm402,-637v18,0,32,15,32,32v1,21,-19,41,-40,41v-18,0,-33,-15,-33,-33v-1,-21,19,-40,41,-40xm234,-637v18,0,32,15,32,32v1,22,-19,42,-41,41v-18,0,-32,-15,-32,-33v-1,-21,19,-40,41,-40"},"\u00f7":{"d":"429,-317r-384,0r9,-40r385,0xm243,-169v0,23,-20,42,-42,42v-19,1,-37,-17,-36,-36v-1,-22,20,-41,43,-41v20,0,35,15,35,35xm318,-507v0,22,-20,42,-42,42v-19,0,-36,-17,-36,-36v0,-22,21,-42,43,-42v20,0,35,17,35,36","w":443},"\u00f8":{"d":"51,0r-43,0r53,-63v-38,-70,-27,-176,3,-255v31,-83,102,-175,205,-177v49,0,88,15,117,46r28,-34r42,0r-51,61v41,69,30,176,-1,256v-31,83,-102,176,-204,178v-51,0,-91,-16,-120,-47xm202,-33v49,0,90,-31,124,-93v34,-62,52,-125,52,-188v0,-25,-3,-47,-10,-64r-254,303v19,28,48,42,88,42xm142,-356v-43,81,-64,156,-44,248r254,-302v-19,-27,-48,-40,-86,-40v-49,0,-90,31,-124,94"},"\u00f9":{"d":"146,12v-78,0,-121,-50,-103,-131r80,-364r51,0r-78,355v-16,58,7,95,70,95v46,0,91,-28,135,-85r81,-365r51,0r-107,483r-51,0r15,-70v-46,55,-94,82,-144,82xm348,-556r-39,0r-103,-144r58,0","w":450},"\u00fa":{"d":"146,12v-78,0,-121,-50,-103,-131r80,-364r51,0r-78,355v-16,58,7,95,70,95v46,0,91,-28,135,-85r81,-365r51,0r-107,483r-51,0r15,-70v-46,55,-94,82,-144,82xm449,-700r-167,144r-41,0r148,-144r60,0","w":450},"\u00fb":{"d":"146,12v-78,0,-121,-50,-103,-131r80,-364r51,0r-78,355v-16,58,7,95,70,95v46,0,91,-28,135,-85r81,-365r51,0r-107,483r-51,0r15,-70v-46,55,-94,82,-144,82xm404,-556r-34,0r-51,-112r-96,112r-38,0r114,-144r52,0","w":450},"\u00fc":{"d":"146,12v-78,0,-121,-50,-103,-131r80,-364r51,0r-78,355v-16,58,7,95,70,95v46,0,91,-28,135,-85r81,-365r51,0r-107,483r-51,0r15,-70v-46,55,-94,82,-144,82xm395,-637v17,0,32,15,32,32v0,21,-19,41,-40,41v-18,0,-33,-15,-33,-33v-1,-21,19,-40,41,-40xm227,-637v17,0,32,15,32,32v0,22,-20,42,-41,41v-18,0,-32,-15,-32,-33v-1,-21,19,-40,41,-40","w":450},"\u00fd":{"d":"-55,186r19,-45v14,9,52,10,67,-4v30,-29,56,-89,81,-128r-49,-492r54,0r36,421r225,-421r57,0r-327,593v-42,73,-89,103,-163,76xm419,-700r-167,144r-41,0r148,-144r60,0","w":392},"\u00fe":{"d":"292,-495v91,0,143,71,141,168v-1,112,-41,219,-102,283v-35,37,-74,56,-117,56v-66,-1,-109,-38,-130,-89r-58,261r-50,0r188,-851r50,0r-55,253v35,-54,80,-81,133,-81xm94,-123v13,46,58,91,115,90v78,-2,130,-96,151,-165v13,-43,19,-84,19,-123v1,-76,-34,-129,-103,-129v-59,0,-105,50,-130,92","w":468},"\u00ff":{"d":"-55,186r19,-45v14,9,52,10,67,-4v30,-29,56,-89,81,-128r-49,-492r54,0r36,421r225,-421r57,0r-327,593v-42,73,-89,103,-163,76xm363,-637v17,0,32,15,32,32v0,21,-19,41,-40,41v-18,0,-33,-15,-33,-33v-1,-21,19,-40,41,-40xm195,-637v17,0,32,15,32,32v0,22,-20,42,-41,41v-18,0,-32,-15,-32,-33v-1,-21,19,-40,41,-40","w":392},"\u0152":{"d":"247,12v-123,1,-194,-106,-192,-235v1,-111,40,-221,85,-298v44,-76,123,-156,229,-156v89,0,144,43,166,128r25,-118r326,0r-10,50r-271,0r-55,250r264,0r-12,50r-263,0r-59,267r270,0r-11,50r-326,0r20,-93v-47,70,-109,105,-186,105xm114,-222v-1,103,51,185,149,183v91,-2,155,-71,191,-144r61,-277v-8,-98,-54,-164,-150,-166v-47,0,-89,22,-129,66v-70,75,-120,207,-122,338","w":847},"\u0153":{"d":"592,-495v100,0,158,71,156,176v0,34,-4,65,-13,94r-317,0v-3,13,-5,31,-5,53v-1,83,46,142,129,141v41,0,80,-19,115,-56r24,34v-42,43,-89,65,-142,65v-91,0,-154,-59,-163,-135v-21,40,-46,72,-74,97v-28,25,-62,38,-104,38v-104,0,-163,-71,-161,-181v1,-114,44,-216,109,-275v37,-33,76,-51,121,-51v83,0,139,62,146,133v45,-89,104,-133,179,-133xm693,-265v24,-90,-12,-187,-106,-187v-88,0,-151,107,-162,187r268,0xm90,-169v-1,79,35,136,110,136v78,0,131,-90,153,-158v14,-43,21,-84,21,-123v2,-82,-37,-136,-110,-136v-48,0,-89,30,-123,92v-34,62,-51,125,-51,189","w":783},"\u0178":{"d":"450,-805v18,0,32,15,32,32v1,21,-19,41,-40,41v-18,0,-33,-15,-33,-33v-1,-21,19,-40,41,-40xm282,-805v18,0,32,15,32,32v1,22,-19,42,-41,41v-18,0,-32,-15,-32,-33v-1,-21,19,-40,41,-40xm216,0r-56,0r63,-286r-122,-381r60,0r98,325r243,-325r66,0r-289,381","w":483},"\u02c6":{"d":"288,-556r-34,0r-51,-112r-96,112r-38,0r114,-144r52,0","w":219},"\u02dc":{"d":"256,-554v-31,0,-47,-27,-52,-52v-5,-22,-14,-51,-39,-51v-27,0,-47,32,-61,97r-34,0v19,-89,53,-134,102,-134v31,0,47,27,52,52v4,22,14,51,38,51v27,0,48,-32,63,-97r34,0v-19,89,-54,134,-103,134","w":261},"\u2013":{"d":"491,-219r-467,0r10,-46r466,0","w":527},"\u2014":{"d":"701,-219r-677,0r10,-46r676,0","w":737},"\u2018":{"d":"164,-485v-25,0,-42,-20,-41,-47v1,-62,55,-123,101,-145r24,26v-33,16,-67,50,-78,84v24,-3,41,13,41,35v1,25,-22,48,-47,47","w":218},"\u2019":{"d":"199,-677v25,0,43,20,42,47v-1,62,-56,123,-102,145r-24,-26v33,-16,67,-49,78,-84v-22,6,-41,-14,-41,-35v0,-25,22,-48,47,-47","w":218},"\u201a":{"d":"65,-76v27,0,43,18,42,47v-1,62,-55,123,-101,145r-24,-26v33,-16,67,-50,78,-84v-25,3,-41,-15,-41,-36v-1,-24,22,-47,46,-46","w":218},"\u201c":{"d":"309,-485v-27,0,-43,-18,-42,-47v1,-62,55,-123,101,-145r24,26v-33,16,-67,50,-78,84v24,-3,41,13,41,35v1,24,-22,48,-46,47xm170,-485v-27,0,-43,-18,-42,-47v1,-62,55,-123,101,-145r24,26v-32,15,-67,49,-77,84v24,-3,40,13,40,35v1,24,-22,48,-46,47","w":359},"\u201d":{"d":"199,-677v25,0,43,20,42,47v-1,62,-56,123,-102,145r-24,-26v33,-16,67,-49,78,-84v-22,6,-41,-14,-41,-35v0,-25,22,-48,47,-47xm338,-677v25,0,43,20,42,47v-1,62,-56,123,-102,145r-24,-26v33,-16,67,-49,78,-84v-22,6,-41,-14,-41,-35v0,-25,22,-48,47,-47","w":359},"\u201e":{"d":"65,-76v27,0,43,18,42,47v-1,62,-55,123,-101,145r-24,-26v33,-16,67,-50,78,-84v-25,3,-41,-15,-41,-36v-1,-24,22,-47,46,-46xm204,-76v27,0,43,18,42,47v-1,62,-55,123,-101,145r-24,-26v33,-16,67,-50,78,-84v-25,3,-41,-15,-41,-36v-1,-24,22,-47,46,-46","w":359},"\u2022":{"d":"190,-344v52,0,92,40,92,92v0,58,-56,111,-114,111v-52,0,-92,-40,-92,-92v0,-58,56,-111,114,-111","w":358},"\u2026":{"d":"106,-37v1,25,-22,47,-48,47v-21,0,-39,-18,-39,-40v0,-25,21,-46,47,-46v22,0,40,18,40,39xm324,-37v0,25,-22,47,-47,47v-22,0,-40,-18,-40,-40v0,-25,22,-46,47,-46v22,0,40,17,40,39xm542,-37v0,25,-22,47,-47,47v-22,0,-40,-19,-40,-40v-1,-25,22,-46,48,-46v22,0,39,17,39,39","w":655},"\u2039":{"d":"162,-63r-48,0r-85,-180r165,-177r54,0r-168,181","w":236},"\u203a":{"d":"75,-420r48,0r85,180r-165,177r-54,0r169,-182","w":236},"\u20ac":{"d":"131,-242v-6,120,45,202,155,203v50,0,98,-27,144,-81r42,28v-55,69,-119,104,-190,104v-138,-1,-218,-102,-210,-254r-47,0r9,-41r41,0v4,-34,11,-68,21,-102r-39,0r9,-41r43,0v27,-73,66,-133,113,-181v74,-77,190,-96,276,-33v33,24,57,59,72,103r-53,17v-37,-120,-175,-141,-257,-50v-35,39,-65,85,-88,144r231,0r-10,41r-236,0v-11,38,-19,72,-22,102r236,0r-10,41r-230,0","w":538},"\u2122":{"d":"424,-447r-28,0r40,-182r-105,182r-8,0r-25,-182r-40,182r-28,0r48,-220r43,0r20,158r88,-158r43,0xm237,-641r-52,0r-43,194r-28,0r43,-194r-52,0r5,-26r132,0","w":414}}});
