/*!
 * The following copyright notice may not be removed under any circumstances.
 * 
 * Copyright:
 * Copyright (c) Mark Simonson, 2005. All rights reserved.
 * 
 * Description:
 * This is a protected webfont and is intended for CSS @font-face use ONLY.
 * Reverse engineering this font is strictly prohibited.
 */
Cufon.registerFont({"w":538,"face":{"font-family":"","font-weight":600,"font-stretch":"normal","units-per-em":"1000","panose-1":"2 0 5 6 3 0 0 2 0 4","ascent":"790","descent":"-210","x-height":"12","bbox":"-68 -881 817 199","underline-thickness":"20","underline-position":"-113","unicode-range":"U+0020-U+2122"},"glyphs":{" ":{"w":211},"!":{"d":"164,-201r-86,0r-18,-466r122,0xm188,-57v0,36,-31,67,-67,67v-36,0,-67,-31,-67,-67v0,-35,31,-66,67,-66v36,0,67,31,67,66","w":242},"\"":{"d":"49,-621v-2,-47,64,-75,97,-39v11,11,18,24,16,39r-33,226r-46,0v-23,-139,-34,-215,-34,-226xm211,-621v-3,-47,64,-75,97,-39v11,11,18,24,16,39r-34,226r-45,0v-23,-139,-34,-215,-34,-226","w":373},"#":{"d":"285,0r-76,0r51,-176r-85,0r-49,176r-77,0r50,-176r-81,0r18,-66r83,0r51,-183r-83,0r17,-65r85,0r49,-177r77,0r-50,177r84,0r49,-177r76,0r-50,177r83,0r-17,65r-84,0r-52,183r86,0r-18,66r-87,0xm277,-242r53,-183r-84,0r-51,183r82,0","w":524},"$":{"d":"458,-184v-1,106,-69,178,-168,192r0,92r-76,0r0,-89v-78,-6,-141,-34,-189,-84r56,-86v35,41,80,65,133,72r0,-206v-53,-23,-73,-34,-114,-67v-36,-29,-55,-69,-55,-131v0,-101,75,-172,169,-184r0,-93r76,0r0,92v62,7,114,30,155,71r-53,84v-27,-29,-61,-47,-102,-54r0,187v52,24,73,36,113,70v35,31,55,72,55,134xm345,-176v0,-31,-18,-58,-55,-81r0,162v37,-14,55,-41,55,-81xm158,-498v0,29,19,54,56,75r0,-150v-37,12,-56,37,-56,75","w":489},"%":{"d":"318,-511v0,90,-58,165,-146,165v-88,0,-146,-75,-146,-165v0,-91,58,-166,146,-166v88,0,146,75,146,166xm185,0r-56,0r351,-667r57,0xm637,-152v0,90,-58,164,-146,164v-88,0,-146,-74,-146,-164v0,-91,58,-167,146,-167v88,0,146,76,146,167xm97,-511v0,54,26,101,75,101v48,0,74,-48,74,-101v0,-53,-26,-102,-74,-103v-49,0,-75,50,-75,103xm416,-152v0,54,26,101,75,101v49,0,75,-47,75,-101v0,-55,-25,-103,-75,-103v-50,0,-75,49,-75,103","w":663},"&":{"d":"263,-677v78,0,140,58,140,137v0,76,-46,120,-86,152v-12,9,-29,20,-52,35v29,50,70,105,104,154v19,-40,36,-85,49,-135r81,37v-22,67,-47,123,-76,169r106,128r-119,0v-24,-29,-39,-48,-44,-55v-46,45,-98,67,-157,67v-106,0,-181,-74,-179,-186v2,-105,54,-148,122,-197v-28,-57,-42,-106,-42,-145v-2,-90,65,-161,153,-161xm133,-181v0,61,37,112,92,113v31,0,62,-17,92,-50v-63,-81,-78,-110,-126,-183v-39,34,-58,74,-58,120xm265,-603v-43,0,-61,39,-60,88v0,25,8,57,25,95v45,-32,83,-54,86,-116v2,-38,-18,-67,-51,-67"},"'":{"d":"49,-621v-2,-47,64,-75,97,-39v11,11,18,24,16,39r-33,226r-46,0v-23,-139,-34,-215,-34,-226","w":211},"(":{"d":"238,159r-67,40v-168,-256,-168,-628,0,-884r67,39v-113,257,-113,548,0,805","w":257},")":{"d":"19,159r66,40v169,-258,169,-627,0,-884r-66,39v113,263,113,543,0,805","w":257},"*":{"d":"192,-379r-54,0r5,-112r-94,61r-27,-47r100,-51r-100,-51r27,-46r94,61r-5,-113r54,0r-6,113r95,-61r27,46r-100,51r100,51r-27,47r-95,-61","w":330},"+":{"d":"412,-305r-156,0r0,179r-71,0r0,-179r-156,0r0,-65r156,0r0,-171r71,0r0,171r156,0r0,65","w":441},",":{"d":"119,-123v45,0,75,39,74,88v-1,73,-43,134,-91,166r-45,-37v28,-15,64,-58,70,-93v-39,10,-73,-20,-73,-59v0,-35,30,-66,65,-65","w":243},"-":{"d":"240,-199r-210,0r0,-86r210,0r0,86","w":270},".":{"d":"188,-57v0,36,-31,67,-67,67v-35,0,-67,-31,-67,-67v0,-35,32,-66,67,-66v36,0,67,31,67,66","w":242},"\/":{"d":"73,20r-73,0r192,-707r73,0","w":265},"0":{"d":"368,-18v-59,38,-148,39,-207,0v-118,-78,-148,-307,-101,-479v25,-90,94,-180,204,-180v110,-1,179,90,204,180v48,174,16,404,-100,479xm264,-86v75,0,113,-82,113,-247v0,-164,-38,-246,-113,-246v-75,0,-112,82,-112,246v0,165,37,247,112,247","w":528},"1":{"d":"288,0r-111,0r0,-524r-101,107r-65,-67r180,-183r97,0r0,667","w":352},"2":{"d":"248,-677v117,0,208,76,208,194v0,50,-18,101,-53,153v-35,52,-100,130,-195,233r251,0r0,97r-412,0r0,-90v127,-131,209,-219,244,-264v35,-45,53,-87,53,-128v0,-57,-43,-98,-98,-97v-59,0,-106,26,-142,79r-68,-69v52,-72,123,-108,212,-108","w":510},"3":{"d":"457,-182v0,120,-91,194,-217,194v-98,0,-177,-48,-216,-109r69,-68v36,53,84,79,143,79v71,1,111,-39,111,-106v0,-67,-39,-100,-118,-100v-25,0,-44,1,-57,2r0,-100v7,1,25,1,55,1v64,0,111,-30,111,-93v0,-63,-42,-97,-105,-97v-54,0,-99,24,-135,72r-66,-63v49,-71,118,-107,209,-107v120,-1,206,61,206,179v0,77,-58,142,-123,153v69,10,133,79,133,163","w":498},"4":{"d":"401,0r-110,0r0,-154r-269,0r0,-95r238,-418r141,0r0,415r70,0r0,98r-70,0r0,154xm291,-252r0,-299r-169,299r169,0","w":493},"5":{"d":"476,-212v0,129,-90,224,-219,224v-93,0,-163,-36,-212,-107r69,-70v34,53,81,79,140,79v65,0,110,-58,110,-123v0,-73,-36,-123,-105,-123v-45,0,-83,19,-115,58r-81,-23r0,-370r376,0r0,97r-265,0r0,199v31,-38,72,-57,123,-57v111,1,179,94,179,216","w":514},"6":{"d":"478,-211v0,123,-84,226,-207,223v-147,-3,-204,-109,-225,-238v-35,-217,35,-452,243,-451v70,0,125,26,164,77r-56,80v-27,-39,-63,-59,-107,-59v-44,0,-78,22,-102,67v-26,49,-39,107,-37,177v22,-46,79,-91,145,-91v112,1,182,91,182,215xm152,-248v8,81,28,159,113,162v64,2,101,-59,101,-121v0,-76,-36,-124,-103,-124v-53,0,-90,43,-111,83","w":513},"7":{"d":"217,0r-120,0r207,-570r-281,0r0,-97r406,0r0,77","w":450},"8":{"d":"472,-168v0,116,-96,180,-217,180v-122,0,-218,-63,-217,-180v0,-86,65,-152,131,-176v-63,-23,-122,-78,-122,-161v0,-113,98,-172,208,-172v110,0,207,60,207,172v0,83,-58,138,-121,161v65,24,131,91,131,176xm255,-579v-57,0,-97,36,-97,92v0,57,55,93,97,103v41,-10,96,-47,96,-103v0,-56,-40,-92,-96,-92xm149,-183v0,60,46,97,106,97v59,0,105,-38,105,-97v0,-59,-62,-109,-105,-116v-43,6,-106,57,-106,116","w":509},"9":{"d":"35,-455v0,-123,84,-226,207,-223v147,3,203,109,224,238v35,217,-34,452,-242,451v-70,0,-125,-26,-164,-77r56,-80v27,39,63,59,107,59v45,0,79,-22,103,-67v26,-49,38,-107,36,-177v-22,46,-79,91,-145,91v-112,-1,-182,-91,-182,-215xm147,-459v0,76,36,124,103,124v45,0,82,-28,111,-83v-4,-58,-15,-100,-47,-134v-17,-18,-39,-28,-65,-28v-65,-2,-102,59,-102,121","w":513},":":{"d":"188,-423v0,35,-31,67,-67,67v-35,0,-67,-32,-67,-67v0,-35,32,-67,67,-67v36,0,67,32,67,67xm188,-57v0,36,-31,67,-67,67v-35,0,-67,-31,-67,-67v0,-35,32,-66,67,-66v36,0,67,31,67,66","w":238},";":{"d":"188,-423v0,35,-31,67,-67,67v-35,0,-67,-32,-67,-67v0,-36,32,-67,67,-67v36,0,67,31,67,67xm119,-126v45,0,75,39,74,88v-1,75,-42,134,-91,167r-45,-37v29,-17,64,-57,70,-94v-39,10,-73,-20,-73,-58v0,-35,30,-67,65,-66","w":242},"<":{"d":"412,-124r-383,-175r0,-71r383,-176r0,77r-306,135r306,133r0,77","w":441},"=":{"d":"412,-397r-383,0r0,-65r383,0r0,65xm412,-206r-383,0r0,-65r383,0r0,65","w":441},">":{"d":"412,-299r-383,175r0,-77r307,-133r-307,-135r0,-77r383,176r0,71","w":441},"?":{"d":"196,-677v97,0,173,58,173,149v0,109,-89,142,-133,208v-20,31,-21,70,5,95r-83,31v-37,-38,-39,-110,-10,-158v34,-56,109,-77,109,-156v0,-42,-33,-72,-80,-72v-39,0,-73,17,-100,51r-55,-70v45,-52,103,-78,174,-78xm261,-57v0,36,-31,67,-67,67v-35,0,-67,-31,-67,-67v0,-35,32,-66,67,-66v36,0,67,31,67,66","w":390},"@":{"d":"73,-231v0,149,96,268,242,266v55,0,110,-19,164,-56r19,28v-60,42,-123,63,-188,63v-166,2,-277,-130,-275,-300v2,-155,86,-287,187,-352v57,-37,118,-56,183,-56v156,0,263,120,263,277v0,80,-18,146,-53,198v-35,52,-75,78,-120,78v-51,0,-86,-33,-89,-80v-37,53,-80,80,-131,80v-79,-1,-124,-60,-124,-146v0,-125,91,-268,209,-268v49,0,82,23,100,70r11,-54r89,0r-55,259v-1,7,-2,15,-2,26v0,29,12,44,35,44v20,0,40,-19,60,-56v20,-37,31,-88,31,-151v2,-142,-87,-241,-226,-241v-176,0,-330,191,-330,371xm244,-241v0,49,22,84,68,84v39,0,74,-24,105,-73r29,-137v-9,-29,-31,-60,-69,-60v-79,0,-133,105,-133,186","w":703},"A":{"d":"535,0r-119,0r-37,-132r-220,0r-37,132r-119,0r200,-667r132,0xm357,-230r-88,-319r-88,319r176,0"},"B":{"d":"500,-180v0,109,-64,180,-176,180r-260,0r0,-667r253,0v105,-2,172,70,172,170v0,79,-44,137,-105,153v66,8,116,86,116,164xm375,-479v0,-54,-28,-92,-83,-91r-118,0r0,181r118,0v55,1,83,-36,83,-90xm386,-195v0,-55,-32,-97,-89,-97r-123,0r0,195r123,0v59,0,89,-38,89,-98","w":541},"C":{"d":"312,-86v64,-1,101,-47,121,-98r92,40v-47,104,-118,156,-213,156v-175,1,-273,-159,-273,-345v0,-187,98,-345,273,-345v95,0,165,49,212,147r-91,41v-27,-60,-68,-90,-121,-90v-170,-1,-197,298,-116,425v29,46,67,69,116,69","w":549},"D":{"d":"545,-333v0,188,-98,333,-281,333r-200,0r0,-667r199,0v181,-2,282,148,282,334xm432,-333v0,-131,-49,-235,-169,-237r-89,0r0,473r89,0v117,-1,169,-109,169,-236","w":584},"E":{"d":"430,0r-366,0r0,-667r366,0r0,97r-256,0r0,181r249,0r0,97r-249,0r0,195r256,0r0,97","w":473},"F":{"d":"174,0r-110,0r0,-667r366,0r0,97r-256,0r0,181r249,0r0,97r-249,0r0,292","w":464},"G":{"d":"39,-333v0,-189,98,-344,273,-345v96,0,167,47,213,142r-89,43v-29,-58,-71,-87,-124,-87v-48,0,-85,23,-116,66v-57,81,-57,279,0,361v31,44,68,67,116,67v47,0,85,-16,113,-48r0,-124r-142,0r0,-97r246,0r0,265v-56,68,-128,102,-217,102v-175,0,-273,-157,-273,-345","w":578},"H":{"d":"531,0r-110,0r0,-294r-247,0r0,294r-110,0r0,-667r110,0r0,275r247,0r0,-275r110,0r0,667","w":595},"I":{"d":"174,0r-110,0r0,-667r110,0r0,667","w":238},"J":{"d":"347,-184v2,127,-75,196,-197,196v-58,0,-105,-18,-142,-55r43,-87v25,29,54,44,89,44v61,0,97,-40,96,-102r0,-479r111,0r0,483","w":410},"K":{"d":"529,0r-131,0r-172,-275r-52,77r0,198r-110,0r0,-667r110,0r0,321r209,-321r129,0r-218,315","w":536},"L":{"d":"403,0r-343,0r0,-667r110,0r0,570r233,0r0,97","w":429},"M":{"d":"650,0r-109,0r0,-488r-163,488r-42,0r-162,-488r0,488r-110,0r0,-667r149,0r144,434r145,-434r148,0r0,667","w":714},"N":{"d":"530,0r-106,0r-250,-450r0,450r-110,0r0,-667r112,0r243,437r0,-437r111,0r0,667","w":594},"O":{"d":"576,-333v0,185,-93,345,-269,345v-175,0,-268,-161,-268,-345v0,-185,93,-345,268,-345v176,0,269,160,269,345xm193,-156v53,91,175,91,228,0v51,-88,51,-268,0,-355v-53,-90,-175,-90,-228,0v-51,87,-51,267,0,355","w":615},"P":{"d":"489,-460v1,118,-76,210,-198,207r-117,0r0,253r-110,0r0,-667r227,0v123,-3,198,89,198,207xm376,-460v0,-62,-37,-111,-98,-110r-104,0r0,220r104,0v61,1,98,-47,98,-110","w":515},"Q":{"d":"307,-678v176,0,269,160,269,345v0,118,-31,209,-94,273r30,48r-77,47r-28,-43v-31,13,-64,20,-100,20v-175,1,-268,-161,-268,-345v0,-185,93,-345,268,-345xm193,-511v-84,150,-40,481,159,417r-73,-116r78,-48r64,102v55,-83,51,-269,0,-355v-53,-90,-177,-91,-228,0","w":615},"R":{"d":"490,-461v0,100,-54,169,-125,190r130,271r-124,0r-114,-252r-83,0r0,252r-110,0r0,-667r230,0v116,-2,196,88,196,206xm376,-460v0,-63,-37,-110,-98,-110r-104,0r0,220r104,0v61,1,98,-47,98,-110","w":535},"S":{"d":"455,-184v0,119,-88,196,-217,196v-89,0,-161,-28,-216,-85r56,-86v43,49,96,73,159,73v62,0,105,-35,105,-90v0,-59,-58,-87,-106,-107v-91,-38,-194,-80,-194,-208v-1,-110,92,-187,208,-187v79,0,143,24,192,73r-53,84v-38,-39,-85,-58,-142,-58v-52,0,-94,32,-92,81v2,55,60,80,106,100v92,39,194,85,194,214","w":488},"T":{"d":"287,0r-110,0r0,-570r-154,0r0,-97r417,0r0,97r-153,0r0,570","w":464},"U":{"d":"529,-225v2,147,-87,237,-232,237v-146,0,-233,-89,-233,-237r0,-442r111,0r0,443v-1,85,40,138,122,138v81,0,122,-53,121,-138r0,-443r111,0r0,442","w":593},"V":{"d":"335,0r-132,0r-200,-667r119,0r147,535r147,-535r119,0"},"W":{"d":"586,0r-116,0r-96,-478r-97,478r-115,0r-152,-667r119,0r96,497r104,-497r89,0r104,497r96,-497r119,0","w":747},"X":{"d":"536,0r-128,0r-139,-253r-139,253r-127,0r198,-341r-187,-326r128,0r127,240r127,-240r128,0r-187,325"},"Y":{"d":"317,0r-110,0r0,-278r-207,-389r122,0r140,285r140,-285r122,0r-207,389r0,278","w":524},"Z":{"d":"439,0r-401,0r0,-92r260,-478r-260,0r0,-97r394,0r0,90r-262,480r269,0r0,97","w":477},"[":{"d":"212,190r-173,0r0,-868r173,0r0,69r-99,0r0,730r99,0r0,69","w":229},"\\":{"d":"192,20r-192,-707r74,0r192,707r-74,0","w":265},"]":{"d":"190,190r-173,0r0,-69r99,0r0,-730r-99,0r0,-69r173,0r0,868","w":229},"^":{"d":"367,-333r-76,0r-98,-259r-99,259r-75,0r137,-334r74,0","w":386},"_":{"d":"425,109r-428,0r0,-69r428,0r0,69","w":422},"`":{"d":"203,-556r-68,0r-135,-144r92,0","w":203},"\u02cb":{"d":"203,-556r-68,0r-135,-144r92,0","w":203},"a":{"d":"234,-495v108,0,176,53,176,164r0,331r-100,0r0,-51v-29,42,-72,63,-128,63v-84,0,-148,-69,-148,-160v0,-94,62,-158,148,-158v58,0,101,20,128,60r0,-72v0,-59,-35,-92,-94,-92v-44,0,-84,19,-121,56r-39,-70v47,-47,106,-71,178,-71xm134,-147v0,51,34,91,84,90v43,0,74,-17,92,-50r0,-79v-18,-34,-49,-51,-92,-51v-50,-1,-84,40,-84,90","w":469},"b":{"d":"254,-407v-42,0,-81,35,-96,67r0,198v15,32,52,66,96,66v75,0,104,-81,104,-165v0,-85,-28,-166,-104,-166xm460,-241v0,138,-54,253,-177,253v-53,0,-94,-25,-125,-76r0,64r-99,0r0,-667r99,0r0,249v24,-43,66,-77,125,-77v122,0,177,118,177,254","w":495},"c":{"d":"138,-242v0,85,41,166,120,166v34,0,63,-15,87,-45r50,68v-34,43,-83,65,-148,65v-131,1,-212,-117,-212,-254v0,-137,81,-254,212,-253v64,0,113,22,148,65r-50,68v-23,-30,-52,-45,-87,-45v-79,0,-120,80,-120,165","w":417},"d":{"d":"35,-241v0,-135,56,-254,177,-254v55,0,96,26,125,77r0,-249r99,0r0,667r-99,0r0,-64v-31,51,-72,76,-125,76v-122,-2,-177,-116,-177,-253xm138,-241v0,85,28,165,104,165v43,0,81,-34,95,-66r0,-199v-14,-33,-52,-66,-95,-66v-77,0,-104,81,-104,166","w":495},"e":{"d":"136,-209v3,78,47,140,127,139v44,0,81,-17,110,-52r48,60v-44,49,-100,74,-168,74v-136,1,-218,-113,-218,-254v0,-134,79,-254,208,-253v144,1,209,128,201,286r-308,0xm348,-280v-1,-68,-35,-133,-106,-133v-70,0,-104,67,-107,133r213,0","w":476},"f":{"d":"233,-591v-36,0,-55,26,-55,64r0,44r80,0r0,87r-80,0r0,396r-99,0r0,-396r-63,0r0,-87r63,0r0,-44v-1,-91,48,-150,136,-150v41,0,73,11,96,34r-33,71v-12,-13,-27,-19,-45,-19","w":273},"g":{"d":"436,-8v0,137,-76,202,-209,204v-71,0,-128,-21,-172,-62r42,-78v32,36,74,54,125,54v70,-1,117,-42,115,-118r0,-70v-25,42,-66,78,-125,78v-122,0,-177,-110,-177,-247v0,-136,55,-248,177,-248v54,0,96,26,125,77r0,-65r99,0r0,475xm138,-247v0,84,28,159,104,159v42,0,81,-34,95,-66r0,-187v-14,-32,-53,-66,-95,-66v-76,0,-104,75,-104,160","w":495},"h":{"d":"159,-418v25,-39,80,-77,141,-77v85,0,127,43,127,130r0,365r-99,0r0,-330v0,-51,-23,-77,-70,-77v-44,0,-82,36,-99,67r0,340r-100,0r0,-667r100,0r0,249","w":486},"i":{"d":"171,-606v0,33,-29,62,-62,62v-33,0,-63,-29,-63,-62v0,-34,29,-62,63,-62v34,0,62,28,62,62xm158,0r-99,0r0,-483r99,0r0,483","w":217},"j":{"d":"171,-606v0,33,-29,62,-62,62v-33,0,-63,-29,-63,-62v0,-34,29,-62,63,-62v34,0,62,28,62,62xm17,196v-34,0,-62,-10,-85,-31r28,-77v13,15,29,22,47,22v35,0,52,-23,52,-69r0,-524r99,0r0,524v0,103,-47,155,-141,155","w":217},"k":{"d":"449,0r-117,0r-115,-202r-59,78r0,124r-99,0r0,-667r99,0r0,421r172,-237r116,0r-160,217","w":457},"l":{"d":"158,0r-99,0r0,-667r99,0r0,667","w":217},"m":{"d":"406,-410v22,-41,80,-86,140,-85v79,0,118,42,118,127r0,368r-99,0r0,-335v0,-48,-20,-72,-61,-72v-42,0,-78,37,-93,67r0,340r-99,0r0,-335v0,-48,-20,-72,-61,-72v-42,0,-76,37,-93,67r0,340r-99,0r0,-483r99,0r0,65v20,-34,80,-77,135,-77v62,0,103,33,113,85","w":723},"n":{"d":"158,-418v26,-38,82,-77,142,-77v85,0,127,44,127,132r0,363r-100,0r0,-329v0,-52,-23,-78,-69,-78v-45,0,-82,36,-100,67r0,340r-99,0r0,-483r99,0r0,65","w":486},"o":{"d":"455,-242v0,136,-75,254,-210,254v-135,0,-210,-118,-210,-254v0,-136,76,-253,210,-253v134,0,210,118,210,253xm138,-242v0,84,29,166,107,166v76,0,106,-83,106,-166v0,-83,-29,-165,-106,-165v-77,0,-107,83,-107,165","w":490},"p":{"d":"460,-242v0,136,-55,254,-177,254v-54,0,-96,-26,-125,-77r0,249r-99,0r0,-667r99,0r0,64v31,-51,72,-76,125,-76v122,2,177,116,177,253xm158,-142v14,31,55,66,96,66v75,0,104,-81,103,-166v0,-84,-28,-165,-103,-165v-43,0,-81,33,-96,65r0,200","w":494},"q":{"d":"137,-242v0,86,27,166,104,166v41,0,81,-35,95,-66r0,-200v-15,-32,-52,-65,-95,-65v-76,0,-104,81,-104,165xm34,-242v0,-138,54,-253,177,-253v53,0,94,25,125,76r0,-64r99,0r0,667r-99,0r0,-249v-29,51,-71,77,-125,77v-122,-2,-177,-118,-177,-254","w":494},"r":{"d":"292,-395v-58,-15,-113,28,-134,64r0,331r-99,0r0,-483r99,0r0,71v25,-41,75,-81,134,-82r0,99","w":308},"s":{"d":"373,-133v0,91,-77,145,-175,145v-75,0,-134,-23,-177,-69r45,-70v27,31,76,60,130,60v46,1,81,-21,81,-63v0,-41,-48,-58,-85,-71v-75,-25,-156,-55,-155,-156v1,-85,74,-138,167,-138v63,0,117,21,160,62r-43,68v-28,-34,-67,-51,-116,-51v-39,0,-74,21,-74,56v0,39,49,54,85,66v76,25,157,60,157,161","w":402},"t":{"d":"188,12v-74,0,-111,-40,-111,-120r0,-288r-63,0r0,-87r63,0r0,-132r99,0r0,132r80,0r0,87r-80,0r0,267v0,35,12,53,37,53v17,0,30,-5,38,-16r24,76v-21,19,-50,28,-87,28","w":282},"u":{"d":"228,-76v45,0,81,-34,99,-65r0,-342r99,0r0,483r-99,0r0,-63v-26,39,-80,75,-141,75v-85,0,-127,-43,-127,-130r0,-365r99,0r0,330v0,51,23,77,70,77","w":486},"v":{"d":"269,0r-107,0r-161,-483r107,0r108,364r109,-364r106,0","w":432},"w":{"d":"532,0r-104,0r-94,-354r-93,354r-104,0r-130,-483r103,0r85,352r92,-352r92,0r95,352r84,-352r104,0","w":669},"x":{"d":"420,0r-109,0r-98,-175r-98,175r-109,0r145,-246r-137,-237r109,0r90,166r90,-166r109,0r-138,237","w":426},"y":{"d":"43,189r15,-88v33,16,73,3,86,-34r21,-58r-164,-492r107,0r108,363r109,-363r106,0r-192,573v-24,70,-59,102,-142,106v-22,0,-40,-2,-54,-7","w":432},"z":{"d":"362,0r-324,0r0,-76r195,-320r-195,0r0,-87r320,0r0,73r-196,323r200,0r0,87","w":400},"{":{"d":"131,60v-1,33,21,61,51,61r45,0r0,69r-45,0v-67,1,-125,-59,-125,-130r0,-206v0,-36,-17,-68,-52,-68r0,-60v35,0,52,-32,52,-68r0,-206v-3,-72,57,-131,125,-130r45,0r0,69r-45,0v-31,0,-52,28,-51,61r0,215v0,46,-15,76,-46,89v31,13,46,43,46,89r0,215","w":244},"|":{"d":"133,20r-69,0r0,-707r69,0r0,707","w":196},"}":{"d":"187,60v3,72,-57,131,-125,130r-45,0r0,-69r45,0v30,0,51,-28,51,-61r0,-215v0,-46,15,-76,46,-89v-31,-13,-46,-43,-46,-89r0,-215v1,-33,-20,-61,-51,-61r-45,0r0,-69r45,0v67,-1,125,59,125,130r0,206v0,36,17,68,52,68r0,60v-35,0,-52,32,-52,68r0,206","w":244},"~":{"d":"361,-667r70,7v-6,67,-11,106,-29,160v-16,46,-46,81,-101,82v-53,2,-84,-50,-93,-92v-5,-23,-12,-44,-20,-63v-19,-46,-57,-34,-70,15v-8,30,-16,76,-21,141r-70,-8v10,-161,53,-241,130,-241v53,0,85,49,94,92v5,23,11,45,19,64v19,47,58,33,71,-16v8,-30,15,-76,20,-141","w":458},"\u00a0":{"w":211},"\u00a1":{"d":"60,184r18,-466r85,0r19,466r-122,0xm121,-360v-36,0,-67,-31,-67,-66v0,-36,31,-67,67,-67v35,0,67,31,67,67v0,35,-32,66,-67,66","w":242},"\u00a2":{"d":"35,-242v0,-125,64,-227,166,-248r0,-75r74,0r0,72v51,5,91,26,120,63r-50,68v-19,-25,-43,-40,-70,-44r0,329v26,-4,49,-19,70,-44r50,68v-29,37,-69,58,-120,63r0,90r-74,0r0,-93v-103,-20,-166,-124,-166,-249xm138,-242v0,72,21,122,63,149r0,-297v-42,27,-63,77,-63,148","w":417},"\u00a3":{"d":"46,-71v66,-34,128,-108,88,-200r-108,0r0,-67r69,0v-32,-51,-48,-97,-48,-140v0,-109,98,-201,206,-199v95,1,161,47,186,121r-88,45v-16,-50,-46,-75,-90,-75v-79,0,-117,99,-83,176v10,25,24,47,39,72r111,0r0,67r-85,0v14,70,-23,131,-62,162v12,-6,27,-9,44,-9v32,0,88,32,118,32v36,0,62,-12,79,-35r39,88v-28,31,-70,46,-125,46v-48,0,-115,-45,-155,-44v-27,0,-61,13,-100,38","w":472},"\u00a4":{"d":"486,-137r-29,29r-56,-57v-76,68,-204,68,-280,0r-57,57r-28,-29r56,-56v-67,-81,-67,-201,0,-280r-56,-57r28,-28r57,56v76,-67,203,-67,280,0r56,-56r29,28r-56,57v67,79,67,200,0,280xm261,-162v92,0,171,-79,171,-171v0,-92,-79,-171,-171,-171v-92,0,-171,79,-171,171v0,92,79,171,171,171","w":522},"\u00a5":{"d":"317,0r-110,0r0,-119r-184,0r0,-64r184,0r0,-95r-184,0r0,-65r149,0r-172,-324r122,0r140,285r140,-285r122,0r-173,324r149,0r0,65r-183,0r0,95r183,0r0,64r-183,0r0,119","w":524},"\u00a6":{"d":"133,20r-69,0r0,-316r69,0r0,316xm133,-371r-69,0r0,-316r69,0r0,316","w":196},"\u00a7":{"d":"207,-606v-42,-1,-77,23,-76,62v1,43,48,59,85,72v74,27,157,57,157,157v0,55,-27,97,-80,124v53,30,80,72,80,126v1,90,-81,146,-175,146v-72,0,-131,-23,-176,-70r44,-65v25,30,75,62,128,62v46,0,83,-25,83,-68v0,-62,-71,-70,-120,-92v-60,-27,-119,-56,-120,-141v0,-61,45,-105,94,-120v-63,-31,-94,-75,-94,-131v0,-81,76,-133,163,-133v69,0,124,21,163,63r-42,60v-31,-35,-69,-52,-114,-52xm280,-296v0,-39,-25,-68,-75,-87v-51,12,-76,37,-76,76v0,55,44,65,93,88v39,-18,58,-44,58,-77","w":406},"\u00a8":{"d":"230,-663v30,0,57,26,57,56v0,30,-27,56,-57,56v-30,0,-56,-26,-56,-56v0,-30,26,-56,56,-56xm48,-663v30,0,56,26,56,56v0,30,-26,56,-56,56v-30,0,-56,-26,-56,-56v0,-30,26,-56,56,-56","w":278},"\u00a9":{"d":"389,-679v186,0,345,160,345,345v0,186,-160,345,-345,345v-185,0,-345,-161,-345,-345v0,-186,160,-345,345,-345xm389,-22v166,0,312,-146,312,-312v0,-166,-146,-312,-312,-312v-166,0,-312,146,-312,312v0,166,146,312,312,312xm226,-335v0,95,75,179,167,177v51,0,90,-19,119,-58r28,27v-38,45,-87,67,-147,67v-114,0,-208,-97,-208,-213v0,-117,93,-212,208,-212v60,0,109,22,146,66r-27,28v-23,-31,-68,-58,-119,-58v-93,-1,-167,79,-167,176","w":778},"\u00aa":{"d":"167,-648v75,0,123,37,123,115r0,207r-73,0r0,-33v-21,27,-51,41,-88,41v-56,0,-100,-44,-100,-104v0,-61,43,-102,100,-102v38,0,67,13,88,38r0,-45v1,-38,-26,-60,-63,-60v-31,0,-58,13,-82,40r-29,-49v33,-32,74,-48,124,-48xm102,-423v0,34,22,57,55,57v27,0,47,-11,60,-33r0,-47v-13,-22,-33,-33,-60,-33v-33,-1,-55,23,-55,56","w":338},"\u00ab":{"d":"393,-63r-86,0r-125,-180r125,-177r86,0r-125,177xm242,-63r-87,0r-125,-180r125,-177r87,0r-125,177","w":423},"\u00ac":{"d":"412,-462r0,256r-67,0r0,-191r-316,0r0,-65r383,0","w":445},"\u00ad":{"d":"240,-199r-210,0r0,-86r210,0r0,86","w":270},"\u00ae":{"d":"247,-677v116,0,212,96,212,212v0,114,-98,212,-212,212v-114,0,-212,-98,-212,-212v0,-114,98,-212,212,-212xm247,-283v98,0,182,-84,182,-182v0,-99,-83,-182,-182,-182v-99,0,-182,83,-182,182v0,98,84,182,182,182xm343,-512v0,39,-34,70,-62,72r65,97r-41,0r-63,-96r-43,0r0,96r-33,0r0,-243r99,0v42,-1,78,31,78,74xm265,-469v22,1,44,-20,44,-43v0,-24,-21,-45,-44,-45r-66,0r0,88r66,0","w":494},"\u00af":{"d":"309,-591r-309,0r0,-59r309,0r0,59","w":309},"\u203e":{"d":"309,-591r-309,0r0,-59r309,0r0,59","w":309},"\u00b0":{"d":"149,-677v69,0,129,60,129,129v0,68,-61,127,-129,127v-68,0,-127,-59,-127,-127v0,-68,59,-129,127,-129xm149,-479v37,0,71,-32,71,-69v0,-38,-33,-71,-71,-71v-37,0,-69,34,-69,71v0,37,32,69,69,69","w":300},"\u00b1":{"d":"412,-315r-156,0r0,179r-71,0r0,-179r-156,0r0,-64r156,0r0,-172r71,0r0,172r156,0r0,64xm412,-16r-383,0r0,-65r383,0r0,65","w":441},"\u00b2":{"d":"169,-827v76,-1,138,42,137,117v0,31,-12,62,-36,94v-24,32,-67,76,-128,133r166,0r0,62r-269,0r0,-57v77,-70,128,-119,153,-148v25,-29,37,-56,37,-80v1,-37,-27,-59,-63,-59v-39,0,-69,17,-91,50r-44,-47v33,-43,79,-65,138,-65","w":338},"\u00b3":{"d":"224,-628v43,6,85,46,85,97v0,73,-63,117,-141,117v-65,0,-112,-22,-141,-65r45,-47v23,33,54,50,93,50v41,1,68,-21,68,-59v0,-40,-26,-60,-77,-60v-19,0,-31,0,-35,1r0,-62v4,1,15,1,33,1v49,0,74,-18,74,-55v0,-37,-28,-55,-66,-55v-36,0,-65,15,-88,45r-42,-43v32,-43,77,-64,136,-64v77,-1,135,35,135,108v0,47,-39,84,-79,91","w":338},"\u00b4":{"d":"203,-700r-135,144r-68,0r110,-144r93,0","w":203},"\u00b5":{"d":"327,-63v-31,44,-92,85,-169,73r0,174r-99,0r0,-667r99,0r0,330v0,52,23,78,70,78v45,0,81,-35,99,-66r0,-342r99,0r0,483r-99,0r0,-63","w":486},"\u03bc":{"d":"327,-63v-31,44,-92,85,-169,73r0,174r-99,0r0,-667r99,0r0,330v0,52,23,78,70,78v45,0,81,-35,99,-66r0,-342r99,0r0,483r-99,0r0,-63","w":486},"\u00b6":{"d":"27,-495v0,-92,80,-172,172,-172r190,0r0,767r-53,0r0,-714r-84,0r0,714r-53,0r0,-423v-92,3,-172,-80,-172,-172","w":449},"\u00b7":{"d":"121,-311v36,0,67,31,67,66v0,36,-31,67,-67,67v-36,0,-67,-31,-67,-67v0,-35,31,-66,67,-66","w":242},"\u2219":{"d":"121,-311v36,0,67,31,67,66v0,36,-31,67,-67,67v-36,0,-67,-31,-67,-67v0,-35,31,-66,67,-66","w":242},"\u00b8":{"d":"195,111v0,52,-47,83,-101,82v-39,0,-70,-10,-94,-31r21,-43v24,19,48,28,71,28v24,0,50,-13,50,-37v0,-36,-44,-39,-60,-16r-39,-22r30,-83r53,0r-25,64v41,-29,94,8,94,58","w":195},"\u00b9":{"d":"194,-421r-77,0r0,-301r-62,64r-44,-46r116,-117r67,0r0,400","w":247},"\u00ba":{"d":"323,-483v0,89,-57,165,-147,165v-89,0,-145,-76,-145,-165v0,-90,55,-165,145,-165v92,0,147,74,147,165xm107,-483v0,55,19,105,69,105v51,0,71,-49,71,-105v0,-56,-20,-104,-71,-104v-50,0,-69,50,-69,104","w":354},"\u00bb":{"d":"242,-243r-125,180r-87,0r125,-180r-125,-177r87,0xm393,-243r-125,180r-86,0r125,-180r-125,-177r86,0","w":423},"\u00bc":{"d":"544,-667r-352,667r-56,0r351,-667r57,0xm690,-94r-44,0r0,94r-77,0r0,-94r-171,0r0,-57r148,-249r100,0r0,245r44,0r0,61xm569,-155r0,-170r-100,170r100,0xm194,-267r-77,0r0,-301r-62,64r-44,-46r116,-117r67,0r0,400","w":712},"\u00bd":{"d":"544,-667r-352,667r-56,0r351,-667r57,0xm578,-406v76,-1,138,42,137,117v0,31,-13,62,-37,94v-24,32,-66,76,-127,133r166,0r0,62r-269,0r0,-57v77,-70,128,-120,153,-149v25,-29,37,-55,37,-79v1,-37,-27,-59,-63,-59v-39,0,-69,17,-91,50r-44,-47v33,-43,79,-65,138,-65xm194,-267r-77,0r0,-301r-62,64r-44,-46r116,-117r67,0r0,400","w":747},"\u00be":{"d":"611,-667r-352,667r-56,0r351,-667r57,0xm757,-94r-44,0r0,94r-77,0r0,-94r-171,0r0,-57r148,-249r100,0r0,245r44,0r0,61xm636,-155r0,-170r-100,170r100,0xm224,-474v43,6,85,46,85,97v0,73,-63,117,-141,117v-65,0,-112,-22,-141,-65r45,-47v23,33,54,50,93,50v41,1,68,-21,68,-59v0,-40,-26,-60,-77,-60v-19,0,-31,0,-35,1r0,-62v4,1,15,1,33,1v49,0,74,-18,74,-55v0,-37,-28,-55,-66,-55v-36,0,-65,15,-88,45r-42,-43v32,-43,77,-64,136,-64v77,-1,135,35,135,108v0,47,-39,84,-79,91","w":780},"\u00bf":{"d":"195,196v-98,0,-173,-59,-173,-150v0,-62,39,-117,74,-144v39,-30,106,-103,53,-158r84,-31v33,33,39,98,17,145v-25,52,-75,75,-104,122v-33,54,2,119,67,119v39,0,73,-17,100,-52r56,70v-45,53,-103,79,-174,79xm129,-426v0,-36,32,-67,67,-67v36,0,67,31,67,67v0,35,-31,66,-67,66v-35,0,-67,-31,-67,-66","w":339},"\u00c0":{"d":"337,-728r-68,0r-135,-144r92,0xm535,0r-119,0r-37,-132r-220,0r-37,132r-119,0r200,-667r132,0xm357,-230r-88,-319r-88,319r176,0"},"\u00c1":{"d":"406,-872r-135,144r-68,0r110,-144r93,0xm535,0r-119,0r-37,-132r-220,0r-37,132r-119,0r200,-667r132,0xm357,-230r-88,-319r-88,319r176,0"},"\u00c2":{"d":"396,-728r-60,0r-67,-97r-64,97r-60,0r78,-144r92,0xm535,0r-119,0r-37,-132r-220,0r-37,132r-119,0r200,-667r132,0xm357,-230r-88,-319r-88,319r176,0"},"\u00c3":{"d":"411,-860v0,72,-26,134,-91,134v-45,0,-58,-42,-78,-68v-7,-8,-15,-13,-23,-13v-25,0,-37,25,-37,75r-54,0v-1,-72,27,-133,92,-134v46,0,55,44,78,68v32,33,61,2,59,-62r54,0xm535,0r-119,0r-37,-132r-220,0r-37,132r-119,0r200,-667r132,0xm357,-230r-88,-319r-88,319r176,0"},"\u00c4":{"d":"360,-834v30,0,57,26,57,56v0,30,-27,56,-57,56v-30,0,-56,-26,-56,-56v0,-30,26,-56,56,-56xm178,-834v30,0,56,26,56,56v0,30,-26,56,-56,56v-30,0,-56,-26,-56,-56v0,-30,26,-56,56,-56xm535,0r-119,0r-37,-132r-220,0r-37,132r-119,0r200,-667r132,0xm357,-230r-88,-319r-88,319r176,0"},"\u00c5":{"d":"363,-787v0,50,-43,95,-93,95v-51,0,-95,-44,-95,-95v0,-51,45,-94,95,-94v50,0,93,44,93,94xm222,-787v0,26,22,48,48,48v25,0,46,-22,46,-48v0,-26,-21,-47,-46,-47v-26,0,-48,21,-48,47xm535,0r-119,0r-37,-132r-220,0r-37,132r-119,0r200,-667r132,0xm357,-230r-88,-319r-88,319r176,0"},"\u00c6":{"d":"732,0r-365,0r0,-132r-184,0r-60,132r-119,0r317,-667r411,0r0,97r-255,0r0,181r248,0r0,97r-248,0r0,195r255,0r0,97xm367,-230r0,-319r-145,319r145,0","w":774},"\u00c7":{"d":"408,107v0,52,-47,83,-101,82v-39,0,-70,-10,-94,-31r21,-43v24,19,48,28,71,28v24,0,50,-13,50,-37v0,-36,-44,-39,-60,-16r-39,-22r21,-59v-152,-17,-238,-165,-238,-342v0,-187,98,-345,273,-345v95,0,165,49,212,147r-91,41v-27,-60,-68,-90,-121,-90v-170,-1,-197,298,-116,425v29,46,67,69,116,69v64,-1,101,-47,121,-98r92,40v-44,98,-110,150,-197,155r-14,38v41,-29,94,8,94,58","w":549},"\u00c8":{"d":"315,-728r-68,0r-135,-144r92,0xm430,0r-366,0r0,-667r366,0r0,97r-256,0r0,181r249,0r0,97r-249,0r0,195r256,0r0,97","w":473},"\u00c9":{"d":"385,-872r-135,144r-68,0r110,-144r93,0xm430,0r-366,0r0,-667r366,0r0,97r-256,0r0,181r249,0r0,97r-249,0r0,195r256,0r0,97","w":473},"\u00ca":{"d":"373,-728r-60,0r-67,-97r-64,97r-60,0r78,-144r92,0xm430,0r-366,0r0,-667r366,0r0,97r-256,0r0,181r249,0r0,97r-249,0r0,195r256,0r0,97","w":473},"\u00cb":{"d":"339,-834v30,0,57,26,57,56v0,30,-27,56,-57,56v-30,0,-56,-26,-56,-56v0,-30,26,-56,56,-56xm157,-834v30,0,56,26,56,56v0,30,-26,56,-56,56v-30,0,-56,-26,-56,-56v0,-30,26,-56,56,-56xm430,0r-366,0r0,-667r366,0r0,97r-256,0r0,181r249,0r0,97r-249,0r0,195r256,0r0,97","w":473},"\u00cc":{"d":"186,-728r-68,0r-135,-144r92,0xm174,0r-110,0r0,-667r110,0r0,667","w":238},"\u00cd":{"d":"257,-872r-135,144r-68,0r110,-144r93,0xm174,0r-110,0r0,-667r110,0r0,667","w":238},"\u00ce":{"d":"245,-728r-60,0r-67,-97r-64,97r-60,0r78,-144r92,0xm174,0r-110,0r0,-667r110,0r0,667","w":238},"\u00cf":{"d":"211,-834v30,0,57,26,57,56v0,30,-27,56,-57,56v-30,0,-56,-26,-56,-56v0,-30,26,-56,56,-56xm29,-834v30,0,56,26,56,56v0,30,-26,56,-56,56v-30,0,-56,-26,-56,-56v0,-30,26,-56,56,-56xm174,0r-110,0r0,-667r110,0r0,667","w":238},"\u00d0":{"d":"569,-333v0,188,-98,333,-281,333r-200,0r0,-289r-74,0r0,-80r74,0r0,-298r199,0v181,-2,282,148,282,334xm456,-333v0,-131,-49,-235,-169,-237r-89,0r0,201r116,0r0,80r-116,0r0,192r89,0v117,-1,169,-109,169,-236","w":608},"\u00d1":{"d":"437,-860v0,72,-26,134,-91,134v-45,0,-58,-42,-78,-68v-7,-8,-15,-13,-23,-13v-25,0,-37,25,-37,75r-54,0v-1,-72,27,-133,92,-134v46,0,55,44,78,68v32,33,61,2,59,-62r54,0xm530,0r-106,0r-250,-450r0,450r-110,0r0,-667r112,0r243,437r0,-437r111,0r0,667","w":594},"\u00d2":{"d":"376,-728r-68,0r-135,-144r92,0xm576,-333v0,185,-93,345,-269,345v-175,0,-268,-161,-268,-345v0,-185,93,-345,268,-345v176,0,269,160,269,345xm193,-156v53,91,175,91,228,0v51,-88,51,-268,0,-355v-53,-90,-175,-90,-228,0v-51,87,-51,267,0,355","w":615},"\u00d3":{"d":"445,-872r-135,144r-68,0r110,-144r93,0xm576,-333v0,185,-93,345,-269,345v-175,0,-268,-161,-268,-345v0,-185,93,-345,268,-345v176,0,269,160,269,345xm193,-156v53,91,175,91,228,0v51,-88,51,-268,0,-355v-53,-90,-175,-90,-228,0v-51,87,-51,267,0,355","w":615},"\u00d4":{"d":"434,-728r-60,0r-67,-97r-64,97r-60,0r78,-144r92,0xm576,-333v0,185,-93,345,-269,345v-175,0,-268,-161,-268,-345v0,-185,93,-345,268,-345v176,0,269,160,269,345xm193,-156v53,91,175,91,228,0v51,-88,51,-268,0,-355v-53,-90,-175,-90,-228,0v-51,87,-51,267,0,355","w":615},"\u00d5":{"d":"449,-860v0,72,-26,134,-91,134v-45,0,-58,-42,-78,-68v-7,-8,-15,-13,-23,-13v-25,0,-37,25,-37,75r-54,0v-1,-72,27,-133,92,-134v46,0,55,44,78,68v32,33,61,2,59,-62r54,0xm576,-333v0,185,-93,345,-269,345v-175,0,-268,-161,-268,-345v0,-185,93,-345,268,-345v176,0,269,160,269,345xm193,-156v53,91,175,91,228,0v51,-88,51,-268,0,-355v-53,-90,-175,-90,-228,0v-51,87,-51,267,0,355","w":615},"\u00d6":{"d":"399,-834v30,0,57,26,57,56v0,30,-27,56,-57,56v-30,0,-56,-26,-56,-56v0,-30,26,-56,56,-56xm217,-834v30,0,56,26,56,56v0,30,-26,56,-56,56v-30,0,-56,-26,-56,-56v0,-30,26,-56,56,-56xm576,-333v0,185,-93,345,-269,345v-175,0,-268,-161,-268,-345v0,-185,93,-345,268,-345v176,0,269,160,269,345xm193,-156v53,91,175,91,228,0v51,-88,51,-268,0,-355v-53,-90,-175,-90,-228,0v-51,87,-51,267,0,355","w":615},"\u00d7":{"d":"345,-164r-124,-125r-124,125r-46,-46r124,-124r-124,-124r46,-46r124,125r124,-125r45,46r-123,124r123,124","w":441},"\u00d8":{"d":"576,-333v0,185,-93,346,-269,345v-53,0,-101,-15,-143,-44r-18,32r-75,0r45,-78v-51,-63,-77,-148,-77,-255v0,-185,93,-346,268,-345v52,0,98,14,138,41r18,-30r75,0r-44,74v55,65,82,151,82,260xm307,-86v49,0,86,-24,114,-70v49,-79,54,-242,12,-332r-215,365v23,25,53,37,89,37xm307,-580v-154,-4,-186,256,-128,396r213,-362v-24,-23,-52,-34,-85,-34","w":615},"\u00d9":{"d":"365,-728r-68,0r-135,-144r92,0xm529,-225v2,147,-87,237,-232,237v-146,0,-233,-89,-233,-237r0,-442r111,0r0,443v-1,85,40,138,122,138v81,0,122,-53,121,-138r0,-443r111,0r0,442","w":593},"\u00da":{"d":"434,-872r-135,144r-68,0r110,-144r93,0xm529,-225v2,147,-87,237,-232,237v-146,0,-233,-89,-233,-237r0,-442r111,0r0,443v-1,85,40,138,122,138v81,0,122,-53,121,-138r0,-443r111,0r0,442","w":593},"\u00db":{"d":"425,-728r-60,0r-67,-97r-64,97r-60,0r78,-144r92,0xm529,-225v2,147,-87,237,-232,237v-146,0,-233,-89,-233,-237r0,-442r111,0r0,443v-1,85,40,138,122,138v81,0,122,-53,121,-138r0,-443r111,0r0,442","w":593},"\u00dc":{"d":"388,-834v30,0,57,26,57,56v0,30,-27,56,-57,56v-30,0,-56,-26,-56,-56v0,-30,26,-56,56,-56xm206,-834v30,0,56,26,56,56v0,30,-26,56,-56,56v-30,0,-56,-26,-56,-56v0,-30,26,-56,56,-56xm529,-225v2,147,-87,237,-232,237v-146,0,-233,-89,-233,-237r0,-442r111,0r0,443v-1,85,40,138,122,138v81,0,122,-53,121,-138r0,-443r111,0r0,442","w":593},"\u00dd":{"d":"402,-872r-135,144r-68,0r110,-144r93,0xm317,0r-110,0r0,-278r-207,-389r122,0r140,285r140,-285r122,0r-207,389r0,278","w":524},"\u00de":{"d":"489,-345v1,117,-76,209,-198,206r-117,0r0,139r-110,0r0,-667r110,0r0,114r117,0v123,-3,198,90,198,208xm376,-345v0,-63,-37,-112,-98,-111r-104,0r0,220r104,0v61,1,98,-47,98,-109","w":515},"\u00df":{"d":"255,-677v89,0,180,53,180,136v0,48,-31,89,-59,108v-23,17,-60,40,-60,74v0,38,46,53,80,65v72,25,146,62,146,160v0,86,-76,146,-169,146v-65,0,-121,-23,-166,-70r41,-70v32,40,71,60,116,60v42,0,78,-24,78,-63v0,-41,-44,-60,-78,-73v-68,-26,-144,-57,-144,-150v-1,-45,32,-84,58,-102v22,-16,56,-40,57,-73v0,-37,-41,-60,-80,-60v-56,0,-93,37,-93,96r0,493r-99,0r0,-493v-1,-107,81,-184,192,-184","w":557},"\u00e0":{"d":"234,-495v108,0,176,53,176,164r0,331r-100,0r0,-51v-29,42,-72,63,-128,63v-84,0,-148,-69,-148,-160v0,-94,62,-158,148,-158v58,0,101,20,128,60r0,-72v0,-59,-35,-92,-94,-92v-44,0,-84,19,-121,56r-39,-70v47,-47,106,-71,178,-71xm134,-147v0,51,34,91,84,90v43,0,74,-17,92,-50r0,-79v-18,-34,-49,-51,-92,-51v-50,-1,-84,40,-84,90xm302,-556r-68,0r-135,-144r92,0","w":469},"\u00e1":{"d":"234,-495v108,0,176,53,176,164r0,331r-100,0r0,-51v-29,42,-72,63,-128,63v-84,0,-148,-69,-148,-160v0,-94,62,-158,148,-158v58,0,101,20,128,60r0,-72v0,-59,-35,-92,-94,-92v-44,0,-84,19,-121,56r-39,-70v47,-47,106,-71,178,-71xm134,-147v0,51,34,91,84,90v43,0,74,-17,92,-50r0,-79v-18,-34,-49,-51,-92,-51v-50,-1,-84,40,-84,90xm373,-700r-135,144r-68,0r110,-144r93,0","w":469},"\u00e2":{"d":"234,-495v108,0,176,53,176,164r0,331r-100,0r0,-51v-29,42,-72,63,-128,63v-84,0,-148,-69,-148,-160v0,-94,62,-158,148,-158v58,0,101,20,128,60r0,-72v0,-59,-35,-92,-94,-92v-44,0,-84,19,-121,56r-39,-70v47,-47,106,-71,178,-71xm134,-147v0,51,34,91,84,90v43,0,74,-17,92,-50r0,-79v-18,-34,-49,-51,-92,-51v-50,-1,-84,40,-84,90xm363,-556r-60,0r-67,-97r-64,97r-60,0r78,-144r92,0","w":469},"\u00e3":{"d":"234,-495v108,0,176,53,176,164r0,331r-100,0r0,-51v-29,42,-72,63,-128,63v-84,0,-148,-69,-148,-160v0,-94,62,-158,148,-158v58,0,101,20,128,60r0,-72v0,-59,-35,-92,-94,-92v-44,0,-84,19,-121,56r-39,-70v47,-47,106,-71,178,-71xm134,-147v0,51,34,91,84,90v43,0,74,-17,92,-50r0,-79v-18,-34,-49,-51,-92,-51v-50,-1,-84,40,-84,90xm377,-688v0,72,-26,134,-91,134v-45,0,-58,-42,-78,-68v-7,-8,-15,-13,-23,-13v-25,0,-37,25,-37,75r-54,0v-1,-72,27,-133,92,-134v46,0,55,44,78,68v32,33,61,2,59,-62r54,0","w":469},"\u00e4":{"d":"234,-495v108,0,176,53,176,164r0,331r-100,0r0,-51v-29,42,-72,63,-128,63v-84,0,-148,-69,-148,-160v0,-94,62,-158,148,-158v58,0,101,20,128,60r0,-72v0,-59,-35,-92,-94,-92v-44,0,-84,19,-121,56r-39,-70v47,-47,106,-71,178,-71xm134,-147v0,51,34,91,84,90v43,0,74,-17,92,-50r0,-79v-18,-34,-49,-51,-92,-51v-50,-1,-84,40,-84,90xm325,-663v30,0,57,26,57,56v0,30,-27,56,-57,56v-30,0,-56,-26,-56,-56v0,-30,26,-56,56,-56xm143,-663v30,0,56,26,56,56v0,30,-26,56,-56,56v-30,0,-56,-26,-56,-56v0,-30,26,-56,56,-56","w":469},"\u00e5":{"d":"234,-495v108,0,176,53,176,164r0,331r-100,0r0,-51v-29,42,-72,63,-128,63v-84,0,-148,-69,-148,-160v0,-94,62,-158,148,-158v58,0,101,20,128,60r0,-72v0,-59,-35,-92,-94,-92v-44,0,-84,19,-121,56r-39,-70v47,-47,106,-71,178,-71xm134,-147v0,51,34,91,84,90v43,0,74,-17,92,-50r0,-79v-18,-34,-49,-51,-92,-51v-50,-1,-84,40,-84,90xm328,-639v0,50,-43,95,-93,95v-51,0,-95,-44,-95,-95v0,-51,45,-94,95,-94v50,0,93,44,93,94xm187,-639v0,26,22,48,48,48v25,0,46,-22,46,-48v0,-26,-21,-47,-46,-47v-26,0,-48,21,-48,47","w":469},"\u00e6":{"d":"520,-495v139,1,206,131,197,286r-309,0v4,77,48,139,127,139v43,0,80,-18,110,-53r48,61v-43,49,-99,74,-167,74v-74,0,-132,-30,-173,-89v-41,59,-97,89,-167,89v-88,0,-152,-66,-152,-159v0,-92,61,-159,148,-159v57,0,100,20,128,60r0,-72v0,-59,-35,-92,-94,-92v-44,0,-84,19,-121,56r-39,-70v47,-47,106,-71,178,-71v72,0,119,26,140,79v32,-53,81,-79,146,-79xm621,-280v-2,-68,-35,-133,-107,-133v-69,0,-103,68,-106,133r213,0xm134,-147v0,54,32,90,84,90v47,0,82,-22,103,-66v-7,-21,-11,-41,-11,-62v-18,-35,-49,-52,-92,-52v-50,0,-84,38,-84,90","w":749},"\u00e7":{"d":"348,109v0,52,-47,83,-101,82v-39,0,-70,-10,-94,-31r21,-43v24,19,48,28,71,28v24,0,50,-13,50,-37v0,-36,-44,-39,-60,-16r-39,-22r21,-60v-112,-13,-182,-122,-182,-252v0,-137,81,-254,212,-253v64,0,113,22,148,65r-50,68v-23,-30,-52,-45,-87,-45v-79,0,-120,80,-120,165v0,85,41,166,120,166v34,0,63,-15,87,-45r50,68v-30,38,-72,59,-126,64r-15,40v41,-29,94,8,94,58","w":417},"\u00e8":{"d":"136,-209v3,78,47,140,127,139v44,0,81,-17,110,-52r48,60v-44,49,-100,74,-168,74v-136,1,-218,-113,-218,-254v0,-134,79,-254,208,-253v144,1,209,128,201,286r-308,0xm348,-280v-1,-68,-35,-133,-106,-133v-70,0,-104,67,-107,133r213,0xm311,-556r-68,0r-135,-144r92,0","w":476},"\u00e9":{"d":"136,-209v3,78,47,140,127,139v44,0,81,-17,110,-52r48,60v-44,49,-100,74,-168,74v-136,1,-218,-113,-218,-254v0,-134,79,-254,208,-253v144,1,209,128,201,286r-308,0xm348,-280v-1,-68,-35,-133,-106,-133v-70,0,-104,67,-107,133r213,0xm382,-700r-135,144r-68,0r110,-144r93,0","w":476},"\u00ea":{"d":"136,-209v3,78,47,140,127,139v44,0,81,-17,110,-52r48,60v-44,49,-100,74,-168,74v-136,1,-218,-113,-218,-254v0,-134,79,-254,208,-253v144,1,209,128,201,286r-308,0xm348,-280v-1,-68,-35,-133,-106,-133v-70,0,-104,67,-107,133r213,0xm369,-556r-60,0r-67,-97r-64,97r-60,0r78,-144r92,0","w":476},"\u00eb":{"d":"136,-209v3,78,47,140,127,139v44,0,81,-17,110,-52r48,60v-44,49,-100,74,-168,74v-136,1,-218,-113,-218,-254v0,-134,79,-254,208,-253v144,1,209,128,201,286r-308,0xm348,-280v-1,-68,-35,-133,-106,-133v-70,0,-104,67,-107,133r213,0xm333,-663v30,0,57,26,57,56v0,30,-27,56,-57,56v-30,0,-56,-26,-56,-56v0,-30,26,-56,56,-56xm151,-663v30,0,56,26,56,56v0,30,-26,56,-56,56v-30,0,-56,-26,-56,-56v0,-30,26,-56,56,-56","w":476},"\u00ec":{"d":"175,-556r-68,0r-135,-144r92,0xm158,0r-99,0r0,-483r99,0r0,483","w":217},"\u00ed":{"d":"246,-700r-135,144r-68,0r110,-144r93,0xm158,0r-99,0r0,-483r99,0r0,483","w":217},"\u00ee":{"d":"235,-556r-60,0r-67,-97r-64,97r-60,0r78,-144r92,0xm158,0r-99,0r0,-483r99,0r0,483","w":217},"\u00ef":{"d":"200,-663v30,0,57,26,57,56v0,30,-27,56,-57,56v-30,0,-56,-26,-56,-56v0,-30,26,-56,56,-56xm18,-663v30,0,56,26,56,56v0,30,-26,56,-56,56v-30,0,-56,-26,-56,-56v0,-30,26,-56,56,-56xm158,0r-99,0r0,-483r99,0r0,483","w":217},"\u00f0":{"d":"35,-230v0,-125,65,-241,182,-240v53,0,94,26,124,78v-18,-49,-50,-101,-95,-156r-124,55r-22,-50r108,-47v-19,-19,-37,-36,-55,-52r71,-61v22,20,46,45,73,74r89,-39r20,48r-73,33v81,105,122,215,122,330v0,149,-69,269,-210,269v-132,0,-210,-109,-210,-242xm138,-230v0,78,33,154,107,154v75,0,106,-75,106,-154v0,-77,-32,-153,-106,-153v-74,0,-107,76,-107,153","w":490},"\u00f1":{"d":"160,-418v26,-38,82,-77,142,-77v85,0,127,44,127,132r0,363r-100,0r0,-329v0,-52,-23,-78,-69,-78v-45,0,-82,36,-100,67r0,340r-99,0r0,-483r99,0r0,65xm386,-688v0,72,-26,134,-91,134v-45,0,-59,-42,-79,-68v-7,-8,-14,-13,-22,-13v-25,0,-37,25,-37,75r-54,0v-1,-72,27,-133,92,-134v46,0,55,44,78,68v32,33,61,2,59,-62r54,0","w":486},"\u00f2":{"d":"455,-242v0,136,-75,254,-210,254v-135,0,-210,-118,-210,-254v0,-136,76,-253,210,-253v134,0,210,118,210,253xm138,-242v0,84,29,166,107,166v76,0,106,-83,106,-166v0,-83,-29,-165,-106,-165v-77,0,-107,83,-107,165xm312,-556r-68,0r-135,-144r92,0","w":490},"\u00f3":{"d":"455,-242v0,136,-75,254,-210,254v-135,0,-210,-118,-210,-254v0,-136,76,-253,210,-253v134,0,210,118,210,253xm138,-242v0,84,29,166,107,166v76,0,106,-83,106,-166v0,-83,-29,-165,-106,-165v-77,0,-107,83,-107,165xm382,-700r-135,144r-68,0r110,-144r93,0","w":490},"\u00f4":{"d":"455,-242v0,136,-75,254,-210,254v-135,0,-210,-118,-210,-254v0,-136,76,-253,210,-253v134,0,210,118,210,253xm138,-242v0,84,29,166,107,166v76,0,106,-83,106,-166v0,-83,-29,-165,-106,-165v-77,0,-107,83,-107,165xm371,-556r-60,0r-67,-97r-64,97r-60,0r78,-144r92,0","w":490},"\u00f5":{"d":"455,-242v0,136,-75,254,-210,254v-135,0,-210,-118,-210,-254v0,-136,76,-253,210,-253v134,0,210,118,210,253xm138,-242v0,84,29,166,107,166v76,0,106,-83,106,-166v0,-83,-29,-165,-106,-165v-77,0,-107,83,-107,165xm386,-688v0,72,-26,134,-91,134v-45,0,-59,-42,-79,-68v-7,-8,-14,-13,-22,-13v-25,0,-37,25,-37,75r-54,0v-1,-72,27,-133,92,-134v46,0,55,44,78,68v32,33,61,2,59,-62r54,0","w":490},"\u00f6":{"d":"455,-242v0,136,-75,254,-210,254v-135,0,-210,-118,-210,-254v0,-136,76,-253,210,-253v134,0,210,118,210,253xm138,-242v0,84,29,166,107,166v76,0,106,-83,106,-166v0,-83,-29,-165,-106,-165v-77,0,-107,83,-107,165xm336,-663v30,0,57,26,57,56v0,30,-27,56,-57,56v-30,0,-56,-26,-56,-56v0,-30,26,-56,56,-56xm154,-663v30,0,56,26,56,56v0,30,-26,56,-56,56v-30,0,-56,-26,-56,-56v0,-30,26,-56,56,-56","w":490},"\u00f7":{"d":"222,-553v29,0,53,23,53,52v0,29,-24,53,-53,53v-29,0,-53,-24,-53,-53v0,-29,24,-52,53,-52xm414,-305r-385,0r0,-65r385,0r0,65xm222,-223v29,0,53,23,53,52v0,29,-24,53,-53,53v-29,0,-53,-24,-53,-53v0,-29,24,-52,53,-52","w":443},"\u00f8":{"d":"455,-242v1,136,-75,256,-210,254v-46,0,-86,-13,-120,-38r-18,26r-62,0r44,-63v-36,-47,-54,-107,-54,-179v-1,-136,76,-256,210,-253v45,0,84,12,117,37r18,-25r61,0r-42,61v37,47,56,107,56,180xm245,-76v105,0,124,-160,92,-256r-158,228v17,19,39,28,66,28xm245,-407v-106,-1,-124,158,-94,254r157,-227v-17,-18,-38,-27,-63,-27","w":490},"\u00f9":{"d":"228,-76v45,0,81,-34,99,-65r0,-342r99,0r0,483r-99,0r0,-63v-26,39,-80,75,-141,75v-85,0,-127,-43,-127,-130r0,-365r99,0r0,330v0,51,23,77,70,77xm311,-556r-68,0r-135,-144r92,0","w":486},"\u00fa":{"d":"228,-76v45,0,81,-34,99,-65r0,-342r99,0r0,483r-99,0r0,-63v-26,39,-80,75,-141,75v-85,0,-127,-43,-127,-130r0,-365r99,0r0,330v0,51,23,77,70,77xm381,-700r-135,144r-68,0r110,-144r93,0","w":486},"\u00fb":{"d":"228,-76v45,0,81,-34,99,-65r0,-342r99,0r0,483r-99,0r0,-63v-26,39,-80,75,-141,75v-85,0,-127,-43,-127,-130r0,-365r99,0r0,330v0,51,23,77,70,77xm369,-556r-60,0r-67,-97r-64,97r-60,0r78,-144r92,0","w":486},"\u00fc":{"d":"228,-76v45,0,81,-34,99,-65r0,-342r99,0r0,483r-99,0r0,-63v-26,39,-80,75,-141,75v-85,0,-127,-43,-127,-130r0,-365r99,0r0,330v0,51,23,77,70,77xm336,-663v30,0,57,26,57,56v0,30,-27,56,-57,56v-30,0,-56,-26,-56,-56v0,-30,26,-56,56,-56xm154,-663v30,0,56,26,56,56v0,30,-26,56,-56,56v-30,0,-56,-26,-56,-56v0,-30,26,-56,56,-56","w":486},"\u00fd":{"d":"43,189r15,-88v33,16,73,3,86,-34r21,-58r-164,-492r107,0r108,363r109,-363r106,0r-192,573v-24,70,-59,102,-142,106v-22,0,-40,-2,-54,-7xm353,-700r-135,144r-68,0r110,-144r93,0","w":432},"\u00fe":{"d":"460,-242v0,136,-55,254,-177,254v-54,0,-96,-25,-125,-76r0,248r-99,0r0,-851r99,0r0,247v30,-50,72,-75,125,-75v122,2,177,116,177,253xm158,-142v14,31,55,66,96,66v75,0,104,-81,103,-166v0,-84,-28,-165,-103,-165v-43,0,-81,33,-96,65r0,200","w":494},"\u00ff":{"d":"43,189r15,-88v33,16,73,3,86,-34r21,-58r-164,-492r107,0r108,363r109,-363r106,0r-192,573v-24,70,-59,102,-142,106v-22,0,-40,-2,-54,-7xm307,-663v30,0,57,26,57,56v0,30,-27,56,-57,56v-30,0,-56,-26,-56,-56v0,-30,26,-56,56,-56xm125,-663v30,0,56,26,56,56v0,30,-26,56,-56,56v-30,0,-56,-26,-56,-56v0,-30,26,-56,56,-56","w":432},"\u0152":{"d":"291,-677v72,0,132,36,160,88r0,-78r366,0r0,97r-256,0r0,181r249,0r0,97r-249,0r0,195r256,0r0,97r-366,0r0,-78v-29,53,-87,90,-160,90v-78,0,-138,-33,-185,-96v-88,-120,-89,-378,0,-497v47,-63,107,-96,185,-96xm309,-86v75,0,121,-55,142,-121r0,-253v-20,-67,-66,-118,-142,-119v-172,-3,-190,297,-116,424v27,46,66,69,116,69","w":858},"\u0153":{"d":"560,-495v142,1,209,129,201,286r-309,0v3,78,48,140,127,139v44,0,81,-17,110,-52r48,60v-43,49,-99,74,-167,74v-75,0,-130,-36,-167,-109v-35,73,-87,109,-158,109v-135,0,-210,-118,-210,-254v0,-136,76,-253,210,-253v71,0,123,36,158,108v34,-72,86,-108,157,-108xm665,-280v-3,-67,-35,-133,-107,-133v-69,0,-103,68,-106,133r213,0xm245,-75v76,0,106,-84,106,-167v0,-83,-31,-165,-106,-165v-76,0,-107,82,-107,165v0,84,30,167,107,167","w":793},"\u0178":{"d":"355,-834v30,0,57,26,57,56v0,30,-27,56,-57,56v-30,0,-56,-26,-56,-56v0,-30,26,-56,56,-56xm173,-834v30,0,56,26,56,56v0,30,-26,56,-56,56v-30,0,-56,-26,-56,-56v0,-30,26,-56,56,-56xm317,0r-110,0r0,-278r-207,-389r122,0r140,285r140,-285r122,0r-207,389r0,278","w":524},"\u02c6":{"d":"251,-556r-60,0r-67,-97r-64,97r-60,0r78,-144r92,0","w":251},"\u02dc":{"d":"283,-688v0,72,-26,134,-91,134v-45,0,-58,-42,-78,-68v-7,-8,-15,-13,-23,-13v-25,0,-37,25,-37,75r-54,0v-1,-72,27,-133,92,-134v46,0,55,44,78,68v32,33,61,2,59,-62r54,0","w":283},"\u2013":{"d":"497,-199r-467,0r0,-86r467,0r0,86","w":527},"\u2014":{"d":"707,-199r-677,0r0,-86r677,0r0,86","w":737},"\u2018":{"d":"121,-423v-45,0,-75,-39,-74,-88v1,-75,42,-134,91,-166r45,36v-28,16,-64,59,-70,94v39,-10,73,20,73,59v0,35,-30,66,-65,65","w":243},"\u2019":{"d":"119,-677v45,0,75,39,74,88v-1,75,-42,134,-91,167r-45,-37v28,-17,64,-58,70,-94v-39,10,-73,-20,-73,-58v0,-35,30,-67,65,-66","w":243},"\u201a":{"d":"119,-123v45,0,75,39,74,88v-1,73,-43,134,-91,166r-45,-37v28,-15,64,-58,70,-93v-39,10,-73,-20,-73,-59v0,-35,30,-66,65,-65","w":243},"\u201c":{"d":"123,-423v-44,0,-75,-40,-74,-88v1,-75,43,-132,91,-166r46,36v-29,16,-65,59,-71,94v40,-10,74,19,74,59v0,35,-31,66,-66,65xm304,-423v-44,0,-76,-40,-75,-88v1,-75,43,-132,91,-166r46,36v-29,16,-65,59,-71,94v41,-10,74,19,74,59v0,35,-30,66,-65,65","w":423},"\u201d":{"d":"299,-677v44,0,76,40,75,88v-2,74,-44,133,-91,167r-46,-37v29,-17,65,-58,71,-94v-40,10,-74,-19,-74,-58v0,-35,30,-67,65,-66xm119,-677v45,0,75,39,74,88v-1,75,-42,134,-91,167r-45,-37v28,-17,64,-58,70,-94v-39,10,-73,-20,-73,-58v0,-35,30,-67,65,-66","w":423},"\u201e":{"d":"119,-123v45,0,75,39,74,88v-1,73,-43,134,-91,166r-45,-37v28,-15,64,-58,70,-93v-39,10,-73,-20,-73,-59v0,-35,30,-66,65,-65xm299,-123v44,0,76,40,75,88v-1,74,-43,133,-91,166r-46,-37v29,-16,65,-58,71,-93v-41,10,-74,-19,-74,-59v0,-35,30,-66,65,-65","w":423},"\u2022":{"d":"180,-355v60,0,113,54,113,113v0,60,-54,112,-113,112v-60,0,-113,-52,-113,-112v0,-60,54,-113,113,-113","w":358},"\u2026":{"d":"121,-123v36,0,67,31,67,66v0,36,-31,67,-67,67v-36,0,-67,-31,-67,-67v0,-35,31,-66,67,-66xm363,-123v36,0,67,31,67,66v0,36,-31,67,-67,67v-36,0,-67,-31,-67,-67v0,-35,31,-66,67,-66xm605,-123v35,0,67,31,67,66v0,36,-32,67,-67,67v-36,0,-67,-31,-67,-67v0,-35,31,-66,67,-66","w":726},"\u2039":{"d":"242,-63r-87,0r-125,-180r125,-177r87,0r-125,177","w":272},"\u203a":{"d":"242,-243r-125,180r-87,0r125,-180r-125,-177r87,0","w":272},"\u20ac":{"d":"331,-86v64,0,101,-47,121,-98r92,40v-47,104,-118,156,-213,156v-148,-1,-238,-110,-263,-243r-47,0r0,-65r38,0v-1,-15,-1,-63,0,-77r-38,0r0,-64r47,0v26,-134,114,-240,263,-241v95,0,165,49,212,147r-91,41v-27,-60,-68,-90,-121,-90v-83,0,-128,69,-148,143r191,0r0,64r-201,0v-3,29,-2,55,-1,77r202,0r0,65r-191,0v19,76,64,145,148,145","w":567},"\u2122":{"d":"379,-447r-28,0r0,-182r-65,182r-8,0r-65,-182r0,182r-28,0r0,-220r43,0r54,158r54,-158r43,0r0,220xm149,-641r-52,0r0,194r-28,0r0,-194r-52,0r0,-26r132,0r0,26","w":414}}});
