/*!
 * The following copyright notice may not be removed under any circumstances.
 * 
 * Copyright:
 * Copyright (c) Mark Simonson, 2005. All rights reserved.
 * 
 * Description:
 * This is a protected webfont and is intended for CSS @font-face use ONLY.
 * Reverse engineering this font is strictly prohibited.
 */
Cufon.registerFont({"w":574,"face":{"font-family":"","font-weight":600,"font-stretch":"normal","units-per-em":"1000","panose-1":"2 0 5 6 3 0 0 2 0 4","ascent":"790","descent":"-210","x-height":"12","bbox":"-101 -898 1046 199","underline-thickness":"20","underline-position":"-113","unicode-range":"U+0020-U+2122"},"glyphs":{" ":{"w":258},"!":{"d":"168,-205r-91,0r-19,-462r128,0xm192,-60v0,37,-32,70,-69,70v-37,0,-70,-33,-70,-70v0,-36,34,-69,70,-69v36,0,69,33,69,69","w":244},"\"":{"d":"48,-618v-3,-50,67,-79,101,-42v11,11,20,26,17,42r-35,227r-48,0v-23,-140,-35,-216,-35,-227xm214,-618v-3,-51,67,-79,101,-42v11,11,20,26,17,42r-35,227r-48,0v-23,-140,-35,-216,-35,-227","w":380},"#":{"d":"322,0r-80,0r59,-175r-102,0r-58,175r-80,0r59,-175r-101,0r22,-69r102,0r60,-179r-102,0r21,-69r104,0r58,-175r80,0r-58,175r101,0r58,-175r80,0r-59,175r102,0r-20,69r-104,0r-61,179r106,0r-22,69r-107,0xm323,-244r61,-179r-101,0r-60,179r100,0","w":607},"$":{"d":"566,-195v0,122,-90,198,-217,205r0,90r-80,0r0,-90v-96,-7,-174,-42,-233,-104r66,-91v45,50,101,80,167,90r0,-194v-108,-28,-211,-60,-211,-193v0,-113,96,-187,211,-194r0,-92r80,0r0,93v80,9,147,39,201,91r-66,87v-37,-37,-82,-60,-135,-71r0,173v111,30,217,65,217,200xm349,-94v55,-6,97,-38,97,-90v0,-53,-47,-67,-97,-84r0,174xm269,-573v-49,5,-90,33,-91,82v0,32,30,57,91,75r0,-157","w":605},"%":{"d":"360,-511v0,94,-70,165,-166,165v-95,0,-166,-71,-166,-165v0,-93,71,-166,166,-166v96,0,166,71,166,166xm196,0r-67,0r426,-667r68,0xm719,-153v0,94,-71,165,-166,165v-95,0,-166,-71,-166,-165v0,-93,71,-166,166,-166v95,0,166,73,166,166xm106,-511v0,54,36,98,88,98v53,0,89,-44,89,-98v0,-55,-36,-100,-89,-100v-52,0,-88,45,-88,100xm464,-153v0,54,36,98,89,98v53,0,89,-44,89,-98v0,-55,-36,-100,-89,-100v-53,0,-89,45,-89,100","w":747},"&":{"d":"309,-677v88,0,164,50,164,136v0,81,-54,123,-103,153v-16,9,-37,19,-63,32v35,48,94,117,132,160v29,-43,51,-89,66,-140r85,39v-27,65,-58,120,-92,166r130,131r-138,0v-23,-21,-42,-41,-59,-58v-55,47,-118,70,-187,70v-121,1,-216,-69,-214,-190v2,-109,66,-153,145,-195v-31,-56,-47,-105,-47,-147v-1,-92,84,-157,181,-157xm141,-187v0,68,52,116,117,115v39,0,77,-16,115,-47v-37,-39,-64,-71,-82,-93v-26,-32,-52,-63,-74,-95v-51,33,-76,73,-76,120xm313,-600v-45,0,-81,37,-80,83v0,28,11,61,33,100v37,-17,66,-35,85,-53v19,-18,29,-40,29,-65v1,-39,-29,-65,-67,-65","w":645},"'":{"d":"48,-618v-3,-50,67,-79,101,-42v11,11,20,26,17,42r-35,227r-48,0v-23,-140,-35,-216,-35,-227","w":214},"(":{"d":"156,-243v0,170,39,272,103,392r-65,50v-86,-102,-152,-266,-152,-442v0,-176,66,-341,152,-442r65,49v-64,122,-103,221,-103,393","w":276},")":{"d":"120,-243v0,169,-39,272,-102,392r65,50v129,-148,198,-441,111,-681v-28,-78,-64,-146,-111,-203r-65,49v63,122,102,222,102,393","w":277},"*":{"d":"201,-376r-55,0r5,-112r-94,60r-28,-48r99,-51r-99,-51r28,-48r94,61r-5,-112r55,0r-5,112r94,-61r28,48r-100,51r100,51r-28,48r-94,-60","w":347},"+":{"d":"473,-304r-185,0r0,208r-74,0r0,-208r-185,0r0,-67r185,0r0,-201r74,0r0,201r185,0r0,67","w":502},",":{"d":"121,-129v46,0,78,40,77,91v-1,76,-44,137,-93,171r-48,-39v29,-17,66,-58,72,-94v-41,13,-76,-20,-76,-61v0,-36,32,-69,68,-68","w":245},"-":{"d":"270,-197r-240,0r0,-90r240,0r0,90","w":300},".":{"d":"193,-60v0,37,-33,71,-70,71v-37,0,-70,-34,-70,-71v0,-36,34,-69,70,-69v36,0,70,33,70,69","w":246},"\/":{"d":"78,20r-78,0r237,-707r78,0","w":315},"0":{"d":"460,-40v-67,60,-189,68,-272,22v-123,-68,-174,-262,-130,-440v30,-120,103,-217,251,-219v123,-1,206,86,239,179v35,99,35,230,0,329v-18,51,-48,93,-88,129xm309,-92v51,0,87,-23,111,-68v52,-99,49,-307,-25,-378v-45,-43,-128,-43,-173,0v-76,73,-77,280,-25,378v24,45,61,68,112,68","w":617},"1":{"d":"309,0r-117,0r0,-516r-109,114r-68,-71r192,-194r102,0r0,667","w":380},"2":{"d":"288,-677v130,-1,241,76,241,205v0,58,-23,115,-71,172v-48,57,-121,122,-220,197r295,0r0,103r-483,0r0,-93v141,-107,236,-185,286,-235v50,-50,75,-98,75,-144v0,-66,-58,-101,-122,-101v-73,0,-133,26,-180,79r-68,-76v51,-63,140,-106,247,-107","w":595},"3":{"d":"528,-183v-3,126,-114,195,-252,195v-112,0,-204,-45,-252,-108r64,-77v37,46,106,80,184,81v77,1,139,-34,139,-102v0,-63,-49,-95,-148,-95v-37,0,-63,1,-76,2r0,-106v7,1,33,1,76,1v73,0,138,-22,138,-88v0,-64,-66,-94,-135,-93v-67,0,-125,25,-173,74r-60,-73v60,-70,141,-105,244,-105v131,0,238,59,240,179v1,84,-72,142,-144,153v75,8,157,73,155,162"},"4":{"d":"463,0r-117,0r0,-151r-318,0r0,-94r274,-422r161,0r0,413r89,0r0,103r-89,0r0,151xm346,-254r0,-308r-203,308r203,0","w":580},"5":{"d":"559,-214v0,139,-112,226,-255,226v-106,0,-188,-34,-247,-103r67,-81v45,53,105,80,179,80v77,0,137,-47,137,-118v0,-73,-58,-118,-134,-118v-57,0,-105,19,-146,57r-83,-24r0,-372r437,0r0,103r-320,0r0,192v41,-38,91,-57,151,-57v120,-1,214,89,214,215","w":600},"6":{"d":"563,-212v0,130,-110,224,-246,224v-129,0,-214,-76,-248,-172v-18,-50,-27,-108,-27,-173v-2,-191,104,-344,294,-344v78,0,142,25,191,74r-54,88v-37,-39,-83,-58,-137,-58v-117,0,-183,112,-176,239v31,-45,104,-94,179,-94v127,0,224,84,224,216xm162,-249v7,82,55,157,148,157v74,0,133,-52,134,-116v2,-77,-60,-119,-136,-119v-64,1,-118,36,-146,78","w":601},"7":{"d":"250,0r-129,0r252,-564r-346,0r0,-103r481,0r0,81","w":532},"8":{"d":"554,-172v1,122,-127,184,-256,184v-130,0,-257,-62,-256,-184v1,-90,76,-147,150,-172v-73,-24,-138,-70,-139,-158v-3,-119,124,-175,245,-175v122,0,247,55,245,175v-1,88,-67,134,-139,158v75,25,149,81,150,172xm298,-573v-67,0,-126,28,-126,89v0,64,70,81,126,93v56,-12,126,-29,126,-93v0,-61,-60,-89,-126,-89xm161,-187v2,127,272,127,274,0v1,-63,-83,-96,-137,-105v-54,9,-138,42,-137,105","w":596},"9":{"d":"560,-334v2,192,-104,345,-294,345v-77,0,-141,-25,-192,-74r55,-89v37,39,83,59,137,59v120,2,184,-114,175,-239v-30,46,-103,93,-179,93v-127,0,-223,-83,-223,-215v0,-130,109,-226,246,-224v150,3,227,91,259,212v11,40,16,84,16,132xm157,-458v-2,77,61,119,137,119v64,-1,117,-37,146,-79v-8,-83,-54,-156,-149,-156v-74,0,-133,51,-134,116","w":601},":":{"d":"193,-420v0,36,-34,69,-70,69v-36,0,-70,-33,-70,-69v0,-37,33,-70,70,-70v37,0,70,33,70,70xm193,-60v0,37,-33,71,-70,71v-37,0,-70,-34,-70,-71v0,-36,34,-69,70,-69v36,0,70,33,70,69","w":237},";":{"d":"193,-421v0,38,-32,70,-70,70v-38,0,-70,-32,-70,-70v0,-37,33,-69,70,-69v37,0,70,32,70,69xm121,-132v46,0,78,40,77,91v-1,76,-44,137,-93,171r-48,-39v29,-17,66,-58,72,-94v-41,11,-76,-21,-76,-61v0,-36,32,-69,68,-68","w":245},"<":{"d":"473,-90r-444,-207r0,-76r444,-207r0,80r-364,166r364,163r0,81","w":502},"=":{"d":"473,-396r-444,0r0,-67r444,0r0,67xm473,-205r-444,0r0,-68r444,0r0,68","w":502},">":{"d":"473,-297r-444,207r0,-81r365,-163r-365,-166r0,-80r444,207r0,76","w":502},"?":{"d":"231,-677v111,0,203,56,203,157v0,116,-104,143,-160,204v-25,26,-25,70,4,90r-89,30v-38,-34,-46,-100,-19,-147v30,-52,92,-71,128,-115v43,-54,-5,-115,-78,-115v-57,0,-103,23,-139,70r-68,-75v53,-66,126,-99,218,-99xm295,-60v0,37,-33,71,-70,71v-37,0,-70,-34,-70,-71v0,-36,34,-69,70,-69v36,0,70,33,70,69","w":459},"@":{"d":"73,-246v0,157,125,280,284,280v65,0,126,-19,183,-56r20,29v-65,42,-135,63,-208,63v-176,0,-317,-140,-317,-314v0,-206,194,-394,397,-394v180,0,315,137,315,311v0,131,-77,239,-187,242v-55,2,-91,-35,-95,-84v-30,44,-84,83,-150,84v-95,1,-155,-70,-155,-166v0,-124,111,-248,230,-248v59,0,102,24,127,72r11,-57r94,0r-54,256v-8,35,5,71,39,70v24,0,47,-14,69,-42v22,-28,32,-71,32,-128v2,-161,-116,-273,-279,-273v-184,0,-356,173,-356,355xm258,-258v0,56,35,98,91,97v49,0,92,-25,127,-76r26,-126v-12,-30,-45,-60,-90,-60v-85,0,-154,81,-154,165","w":783},"A":{"d":"672,0r-133,0r-49,-129r-306,0r-49,129r-133,0r262,-667r146,0xm457,-232r-120,-318r-120,318r240,0","w":673},"B":{"d":"602,-181v0,111,-77,181,-194,181r-337,0r0,-667r328,0v110,-3,189,68,190,170v1,78,-52,141,-116,153v70,8,129,83,129,163xm469,-478v0,-52,-39,-86,-93,-86r-188,0r0,172r188,0v56,1,93,-32,93,-86xm482,-196v0,-55,-42,-93,-101,-93r-193,0r0,186r193,0v61,1,101,-33,101,-93","w":649},"C":{"d":"392,-92v75,-1,139,-47,168,-97r100,50v-64,101,-153,151,-268,151v-197,0,-350,-147,-350,-345v0,-198,154,-345,350,-345v117,0,206,50,267,149r-99,52v-29,-52,-93,-97,-168,-97v-132,-2,-230,106,-230,241v0,134,99,243,230,241","w":682},"D":{"d":"668,-334v0,198,-147,334,-348,334r-249,0r0,-667r248,0v201,-4,349,136,349,333xm548,-334v0,-134,-90,-233,-228,-230r-132,0r0,461r131,0v136,3,229,-99,229,-231","w":710},"E":{"d":"528,0r-457,0r0,-667r457,0r0,103r-340,0r0,172r333,0r0,103r-333,0r0,186r340,0r0,103","w":577},"F":{"d":"188,0r-117,0r0,-667r457,0r0,103r-340,0r0,172r333,0r0,103r-333,0r0,289","w":563},"G":{"d":"392,-92v62,0,127,-30,158,-60r0,-103r-200,0r0,-103r316,0r0,249v-73,81,-164,122,-274,122v-196,0,-350,-146,-350,-346v0,-200,154,-345,350,-345v115,0,204,46,268,138r-95,55v-33,-47,-97,-88,-173,-89v-132,-1,-230,106,-230,241v0,134,99,241,230,241","w":717},"H":{"d":"652,0r-117,0r0,-292r-347,0r0,292r-117,0r0,-667r117,0r0,272r347,0r0,-272r117,0r0,667","w":723},"I":{"d":"188,0r-117,0r0,-667r117,0r0,667","w":259},"J":{"d":"411,-212v3,142,-88,224,-225,224v-73,0,-133,-24,-178,-71r55,-89v33,37,71,56,114,56v70,1,117,-51,117,-121r0,-454r117,0r0,455","w":482},"K":{"d":"615,0r-145,0r-223,-282r-59,69r0,213r-117,0r0,-667r117,0r0,317r261,-317r145,0r-271,314","w":621},"L":{"d":"474,0r-411,0r0,-667r117,0r0,564r294,0r0,103","w":506},"M":{"d":"764,0r-117,0r0,-515r-204,515r-50,0r-205,-515r0,515r-117,0r0,-667r165,0r182,458r181,-458r165,0r0,667","w":835},"N":{"d":"649,0r-113,0r-348,-477r0,477r-117,0r0,-667r120,0r341,462r0,-462r117,0r0,667","w":720},"O":{"d":"724,-333v0,196,-146,345,-341,345v-195,0,-341,-149,-341,-345v0,-196,146,-345,341,-345v195,0,341,149,341,345xm162,-333v0,135,87,241,221,241v132,0,221,-108,221,-241v0,-135,-88,-241,-221,-241v-134,0,-221,106,-221,241","w":765},"P":{"d":"582,-458v0,120,-90,208,-217,208r-177,0r0,250r-117,0r0,-667r294,0v128,-4,217,88,217,209xm462,-458v0,-64,-48,-106,-113,-106r-161,0r0,211r161,0v64,1,113,-42,113,-105","w":609},"Q":{"d":"383,-678v195,0,341,149,341,345v0,95,-30,175,-89,240r55,62r-81,68r-58,-65v-50,27,-106,40,-168,40v-195,0,-341,-149,-341,-345v0,-196,146,-345,341,-345xm162,-333v0,135,87,243,221,241v34,0,65,-7,94,-20r-83,-94r82,-68r83,94v30,-43,45,-94,45,-153v0,-135,-88,-241,-221,-241v-134,0,-221,106,-221,241","w":765},"R":{"d":"583,-458v0,107,-71,181,-159,196r164,262r-136,0r-147,-249r-117,0r0,249r-117,0r0,-667r293,0v127,-2,219,84,219,209xm463,-459v0,-63,-50,-105,-114,-105r-161,0r0,212r161,0v65,1,114,-43,114,-107","w":629},"S":{"d":"558,-195v0,132,-107,207,-258,207v-113,0,-203,-35,-272,-106r66,-91v57,62,127,93,211,93v76,0,133,-31,133,-92v0,-51,-53,-74,-100,-85v-60,-14,-134,-35,-188,-58v-55,-23,-101,-77,-100,-155v0,-121,111,-196,243,-196v102,0,185,31,249,94r-66,87v-51,-51,-116,-77,-194,-77v-61,0,-112,29,-112,83v0,41,41,59,77,71v23,7,47,14,75,20v114,30,236,63,236,205","w":594},"T":{"d":"347,0r-117,0r0,-564r-202,0r0,-103r521,0r0,103r-202,0r0,564","w":577},"U":{"d":"649,-264v0,175,-107,276,-289,276v-181,0,-289,-102,-289,-276r0,-403r119,0r0,400v0,107,62,175,170,175v108,0,170,-68,170,-175r0,-400r119,0r0,403","w":720},"V":{"d":"410,0r-146,0r-262,-667r133,0r202,539r202,-539r133,0","w":673},"W":{"d":"706,0r-125,0r-129,-493r-130,493r-125,0r-190,-667r130,0r130,513r138,-513r93,0r138,513r130,-513r131,0","w":903},"X":{"d":"658,0r-140,0r-187,-261r-187,261r-140,0r249,-342r-234,-325r140,0r172,244r171,-244r141,0r-235,324","w":661},"Y":{"d":"378,0r-117,0r0,-277r-259,-390r134,0r183,285r183,-285r134,0r-258,390r0,277","w":637},"Z":{"d":"545,0r-500,0r0,-95r340,-469r-340,0r0,-103r493,0r0,94r-342,470r349,0r0,103","w":589},"[":{"d":"247,190r-203,0r0,-868r203,0r0,72r-125,0r0,724r125,0r0,72","w":265},"\\":{"d":"237,20r-237,-707r78,0r237,707r-78,0","w":315},"]":{"d":"221,190r-203,0r0,-72r125,0r0,-724r-125,0r0,-72r203,0r0,868","w":265},"^":{"d":"418,-333r-80,0r-119,-261r-119,261r-81,0r162,-334r77,0","w":437},"_":{"d":"567,112r-570,0r0,-72r570,0r0,72","w":564},"`":{"d":"240,-556r-75,0r-165,-144r100,0","w":240},"\u02cb":{"d":"240,-556r-75,0r-165,-144r100,0","w":240},"a":{"d":"267,-495v118,1,202,53,202,174r0,321r-105,0r0,-53v-37,43,-90,65,-157,65v-87,0,-167,-66,-167,-160v0,-99,75,-158,167,-158v69,0,121,21,157,62r0,-72v0,-58,-52,-90,-113,-90v-55,0,-102,21,-143,62r-44,-73v54,-52,122,-78,203,-78xm145,-147v0,54,48,87,104,87v51,0,90,-17,115,-50r0,-74v-25,-33,-64,-50,-115,-50v-56,-1,-104,33,-104,87","w":537},"b":{"d":"298,-402v-52,0,-105,31,-125,65r0,192v21,34,73,64,125,64v85,1,136,-72,136,-161v0,-89,-51,-161,-136,-160xm543,-242v0,145,-81,253,-215,254v-63,0,-115,-26,-155,-78r0,66r-105,0r0,-667r105,0r0,251v39,-53,91,-79,155,-79v133,0,215,111,215,253","w":581},"c":{"d":"147,-242v0,90,58,162,146,161v47,0,84,-19,111,-58r69,65v-43,57,-105,86,-185,86v-143,0,-249,-111,-249,-254v0,-143,106,-253,249,-253v81,0,142,29,185,86r-69,63v-27,-37,-64,-56,-111,-56v-88,-1,-146,70,-146,160","w":498},"d":{"d":"39,-242v0,-142,82,-253,214,-253v65,0,116,26,155,79r0,-251r105,0r0,667r-105,0r0,-66v-40,52,-92,78,-155,78v-133,-1,-214,-110,-214,-254xm147,-242v0,89,52,162,137,161v51,0,104,-33,124,-65r0,-191v-21,-32,-73,-65,-124,-65v-85,-1,-137,71,-137,160","w":581},"e":{"d":"149,-207v7,75,68,133,153,133v56,0,102,-18,138,-54r48,69v-51,47,-116,71,-196,71v-147,0,-253,-106,-253,-254v0,-138,107,-255,245,-253v152,2,247,122,237,288r-372,0xm420,-282v-5,-69,-56,-127,-137,-127v-78,0,-131,59,-135,127r272,0","w":557},"f":{"d":"94,-483v-8,-116,48,-193,152,-194v51,0,90,14,116,42r-41,65v-15,-14,-34,-21,-55,-21v-54,0,-72,44,-67,108r98,0r0,91r-98,0r0,392r-105,0r0,-392r-80,0r0,-91r80,0","w":309},"g":{"d":"513,-25v-1,153,-98,221,-248,221v-82,0,-150,-24,-203,-72r49,-76v37,41,88,62,154,62v83,-1,146,-45,143,-135r0,-55v-41,54,-92,81,-155,81v-133,0,-214,-105,-214,-248v0,-144,79,-248,214,-248v64,0,116,26,155,79r0,-67r105,0r0,458xm147,-247v0,89,51,155,137,154v51,0,102,-32,124,-64r0,-181v-22,-32,-73,-64,-124,-64v-86,-1,-137,66,-137,155","w":581},"h":{"d":"174,-418v34,-40,97,-78,170,-77v104,0,156,51,156,153r0,342r-105,0r0,-304v0,-70,-30,-97,-97,-98v-54,0,-100,32,-124,64r0,338r-105,0r0,-667r105,0r0,249","w":568},"i":{"d":"186,-607v0,35,-30,65,-65,65v-35,0,-65,-30,-65,-65v0,-35,30,-65,65,-65v35,0,65,30,65,65xm173,0r-105,0r0,-483r105,0r0,483","w":241},"j":{"d":"186,-607v0,35,-30,65,-65,65v-35,0,-65,-30,-65,-65v0,-35,30,-65,65,-65v35,0,65,30,65,65xm173,28v0,104,-55,169,-160,168v-57,0,-79,-10,-114,-35r31,-78v20,18,42,27,67,27v47,0,71,-27,71,-82r0,-511r105,0r0,511","w":241},"k":{"d":"520,0r-132,0r-147,-200r-68,70r0,130r-105,0r0,-667r105,0r0,417r213,-233r130,0r-200,219","w":527},"l":{"d":"173,0r-105,0r0,-667r105,0r0,667","w":241},"m":{"d":"627,-495v91,1,140,53,139,146r0,349r-105,0r0,-315v0,-58,-27,-87,-80,-87v-47,0,-93,33,-112,64r0,338r-105,0r0,-315v0,-58,-26,-87,-79,-87v-48,0,-91,34,-112,64r0,338r-105,0r0,-483r105,0r0,65v26,-35,94,-77,158,-77v69,0,117,34,132,88v26,-43,95,-89,164,-88","w":834},"n":{"d":"344,-495v102,0,156,55,156,155r0,340r-105,0r0,-302v1,-69,-32,-99,-98,-100v-53,0,-99,32,-124,64r0,338r-105,0r0,-483r105,0r0,65v34,-40,99,-77,171,-77","w":568},"o":{"d":"535,-242v0,141,-103,254,-248,254v-145,0,-248,-113,-248,-254v0,-143,103,-253,248,-253v146,0,248,110,248,253xm148,-242v0,87,53,161,139,161v87,0,139,-74,139,-161v0,-86,-52,-160,-139,-160v-86,0,-139,74,-139,160"},"p":{"d":"542,-242v0,144,-80,254,-214,254v-62,0,-114,-26,-155,-79r0,251r-105,0r0,-667r105,0r0,66v39,-52,91,-78,155,-78v134,0,214,109,214,253xm173,-147v20,34,73,66,124,66v85,1,137,-72,137,-161v0,-89,-52,-161,-137,-160v-51,0,-104,32,-124,64r0,191","w":579},"q":{"d":"145,-242v0,89,52,162,137,161v51,0,104,-33,124,-66r0,-191v-21,-33,-73,-64,-124,-64v-85,-1,-137,71,-137,160xm37,-242v0,-144,80,-253,214,-253v65,0,116,26,155,78r0,-66r105,0r0,667r-105,0r0,-251v-41,53,-93,79,-155,79v-134,0,-214,-110,-214,-254","w":579},"r":{"d":"330,-391v-64,-15,-133,24,-157,62r0,329r-105,0r0,-483r105,0r0,70v33,-42,89,-81,157,-82r0,104","w":347},"s":{"d":"435,-139v-2,99,-89,151,-201,151v-86,0,-155,-25,-207,-76r48,-75v32,34,100,67,163,67v53,0,96,-19,96,-64v0,-43,-59,-55,-103,-64v-90,-18,-189,-41,-189,-149v0,-91,86,-146,190,-146v74,0,136,22,187,67r-44,74v-35,-39,-83,-58,-143,-58v-46,0,-88,20,-89,60v0,15,10,27,30,36v73,32,184,29,232,90v19,24,30,52,30,87","w":472},"t":{"d":"195,-139v0,32,15,58,46,58v20,0,35,-6,46,-18r25,80v-23,21,-56,31,-98,31v-83,0,-124,-42,-124,-125r0,-279r-80,0r0,-91r80,0r0,-132r105,0r0,132r98,0r0,91r-98,0r0,253","w":319},"u":{"d":"271,-81v52,0,99,-32,123,-63r0,-339r105,0r0,483r-105,0r0,-64v-45,51,-102,76,-170,76v-101,1,-156,-53,-156,-153r0,-342r105,0r0,303v0,70,31,98,98,99","w":567},"v":{"d":"308,0r-113,0r-197,-483r113,0r141,362r141,-362r112,0","w":503},"w":{"d":"600,0r-110,0r-113,-354r-112,354r-110,0r-150,-483r109,0r102,351r115,-351r93,0r114,351r102,-351r110,0","w":755},"x":{"d":"492,0r-118,0r-125,-178r-126,178r-118,0r178,-248r-167,-235r118,0r114,163r115,-163r118,0r-167,235","w":497},"y":{"d":"48,189r15,-94v42,18,93,5,110,-34r24,-55r-199,-489r113,0r141,362r141,-362r112,0r-233,570v-29,72,-75,106,-165,109v-23,0,-43,-2,-59,-7","w":503},"z":{"d":"430,0r-383,0r0,-80r238,-312r-238,0r0,-91r379,0r0,76r-242,315r246,0r0,92","w":476},"{":{"d":"134,41v-1,40,27,77,65,77r61,0r0,72r-61,0v-79,1,-142,-65,-142,-148r0,-187v0,-36,-17,-68,-52,-68r0,-62v35,0,52,-32,52,-68r0,-186v-3,-83,64,-150,142,-149r61,0r0,72r-61,0v-38,0,-65,35,-65,76r0,197v0,47,-15,76,-45,89v30,13,45,42,45,89r0,196","w":277},"|":{"d":"143,20r-72,0r0,-707r72,0r0,707","w":214},"}":{"d":"220,42v3,83,-63,149,-142,148r-61,0r0,-72r61,0v38,0,65,-37,65,-77r0,-196v0,-47,15,-76,45,-89v-30,-13,-45,-42,-45,-89r0,-197v1,-41,-27,-76,-65,-76r-61,0r0,-72r61,0v77,-1,142,67,142,149r0,186v0,36,17,68,52,68r0,62v-35,0,-52,32,-52,68r0,187","w":277},"~":{"d":"408,-667r73,8v-7,67,-15,113,-36,165v-18,44,-51,77,-108,77v-73,0,-97,-61,-115,-118v-9,-28,-21,-64,-51,-64v-37,0,-60,61,-70,183r-74,-9v8,-93,24,-176,79,-221v32,-25,91,-26,124,-1v43,33,47,101,76,145v8,13,19,19,31,19v36,0,60,-61,71,-184","w":507},"\u00a0":{"w":258},"\u00a1":{"d":"58,184r18,-463r91,0r19,463r-128,0xm122,-355v-36,0,-70,-33,-70,-69v0,-36,34,-70,70,-70v37,0,69,33,69,70v0,36,-33,69,-69,69","w":244},"\u00a2":{"d":"39,-242v0,-132,89,-235,207,-250r0,-73r78,0r0,72v63,8,113,36,149,84r-69,63v-21,-28,-47,-46,-80,-53r0,315v33,-7,59,-26,80,-55r69,65v-37,49,-87,77,-149,84r0,90r-78,0r0,-91v-119,-14,-207,-118,-207,-251xm246,-395v-59,19,-99,76,-99,153v0,76,39,137,99,154r0,-307","w":498},"\u00a3":{"d":"384,13v-54,0,-135,-46,-181,-45v-30,0,-69,13,-116,39r-40,-83v79,-36,118,-81,118,-136v0,-19,-4,-38,-13,-57r-130,0r0,-69r83,0v-32,-39,-55,-73,-58,-137v-5,-116,117,-202,234,-202v107,0,180,39,219,117r-93,55v-14,-41,-59,-76,-113,-76v-65,0,-120,44,-120,108v0,60,39,100,62,135r147,0r0,69r-116,0v12,69,-13,110,-67,150v15,-6,31,-9,50,-9v38,0,104,37,138,37v37,0,75,-18,90,-38r48,93v-33,33,-80,49,-142,49","w":536},"\u00a4":{"d":"486,-137r-29,29r-56,-57v-76,68,-204,68,-280,0r-57,57r-28,-29r56,-56v-67,-81,-67,-201,0,-280r-56,-57r28,-28r57,56v76,-67,203,-67,280,0r56,-56r29,28r-56,57v67,79,67,200,0,280xm261,-162v92,0,171,-79,171,-171v0,-92,-79,-171,-171,-171v-92,0,-171,79,-171,171v0,92,79,171,171,171","w":522},"\u00a5":{"d":"378,0r-117,0r0,-118r-238,0r0,-68r238,0r0,-91r-238,0r0,-68r193,0r-214,-322r134,0r183,285r183,-285r134,0r-213,322r192,0r0,68r-237,0r0,91r237,0r0,68r-237,0r0,118","w":637},"\u00a6":{"d":"143,20r-72,0r0,-316r72,0r0,316xm143,-371r-72,0r0,-316r72,0r0,316","w":214},"\u00a7":{"d":"236,-603v-49,-1,-93,21,-93,65v0,43,59,55,103,64v91,18,189,45,189,153v0,63,-39,106,-88,127v59,25,88,65,88,122v0,101,-93,153,-201,153v-81,0,-150,-26,-206,-78r47,-68v44,48,97,72,159,72v53,1,100,-21,100,-70v0,-66,-88,-65,-146,-83v-73,-23,-145,-47,-146,-140v-1,-66,52,-110,105,-125v-70,-25,-105,-67,-105,-126v1,-88,89,-140,189,-140v82,0,145,23,188,69r-44,62v-35,-38,-81,-57,-139,-57xm235,-384v-55,14,-89,30,-92,84v-2,34,35,58,59,66v13,4,33,9,60,15v46,-21,69,-49,69,-85v0,-53,-48,-66,-96,-80","w":477},"\u00a8":{"d":"247,-667v33,0,59,26,59,59v0,32,-27,58,-59,58v-31,0,-58,-27,-58,-58v0,-32,26,-59,58,-59xm38,-667v33,0,59,26,59,59v0,32,-27,58,-59,58v-31,0,-59,-27,-59,-58v0,-32,28,-59,59,-59","w":285},"\u00a9":{"d":"389,-679v186,0,345,160,345,345v0,186,-160,345,-345,345v-185,0,-345,-161,-345,-345v0,-186,160,-345,345,-345xm389,-23v167,0,311,-145,311,-311v0,-167,-144,-311,-311,-311v-166,0,-311,144,-311,311v0,165,146,311,311,311xm227,-335v0,95,75,178,166,176v50,0,90,-20,119,-59r29,28v-39,45,-88,68,-148,68v-115,0,-208,-97,-208,-214v0,-117,93,-211,208,-211v61,0,110,22,147,66r-28,29v-23,-31,-68,-58,-119,-58v-91,-1,-166,79,-166,175","w":778},"\u00aa":{"d":"52,-597v75,-79,276,-75,276,68r0,203r-77,0r0,-34v-25,28,-60,42,-105,42v-57,0,-111,-43,-111,-104v0,-63,52,-102,111,-102v45,0,80,13,105,39r0,-46v0,-37,-35,-59,-74,-58v-38,0,-69,14,-94,43xm112,-422v0,67,112,68,139,22r0,-44v-27,-46,-139,-46,-139,22","w":382},"\u00ab":{"d":"460,-63r-100,0r-160,-180r160,-177r100,0r-160,177xm290,-63r-100,0r-160,-180r160,-177r100,0r-160,177","w":490},"\u00ac":{"d":"473,-463r0,258r-70,0r0,-191r-374,0r0,-67r444,0","w":511},"\u00ad":{"d":"270,-197r-240,0r0,-90r240,0r0,90","w":300},"\u00ae":{"d":"247,-677v116,0,212,96,212,212v0,114,-98,212,-212,212v-114,0,-212,-98,-212,-212v0,-114,98,-212,212,-212xm247,-284v97,0,182,-84,182,-181v0,-99,-83,-182,-182,-182v-98,0,-181,84,-181,182v0,96,84,181,181,181xm343,-512v0,39,-34,70,-62,72r65,97r-41,0r-63,-96r-43,0r0,96r-33,0r0,-243r99,0v42,-1,78,31,78,74xm265,-469v22,1,44,-20,44,-43v0,-24,-21,-45,-44,-45r-66,0r0,88r66,0","w":494},"\u00af":{"d":"363,-591r-363,0r0,-62r363,0r0,62","w":363},"\u203e":{"d":"363,-591r-363,0r0,-62r363,0r0,62","w":363},"\u00b0":{"d":"151,-677v69,0,130,60,130,130v0,69,-61,129,-130,129v-70,0,-129,-60,-129,-129v0,-70,59,-130,129,-130xm151,-479v37,0,70,-31,70,-68v0,-38,-32,-70,-70,-70v-37,0,-69,33,-69,70v0,37,32,68,69,68","w":302},"\u00b1":{"d":"473,-325r-185,0r0,207r-74,0r0,-207r-185,0r0,-68r185,0r0,-200r74,0r0,200r185,0r0,68xm473,0r-444,0r0,-68r444,0r0,68","w":502},"\u00b2":{"d":"196,-827v83,-1,155,40,154,121v0,34,-15,68,-45,102v-30,34,-77,73,-140,118r188,0r0,65r-305,0r0,-60v85,-61,143,-106,174,-136v31,-30,47,-58,47,-83v1,-42,-33,-62,-75,-62v-46,-1,-90,24,-110,50r-43,-51v37,-43,88,-64,155,-64","w":394},"\u00b3":{"d":"259,-628v46,5,98,43,96,97v-2,77,-74,117,-160,117v-72,0,-125,-21,-158,-64r41,-52v29,34,67,51,115,51v44,1,81,-18,81,-57v0,-39,-32,-58,-95,-58v-24,0,-38,0,-42,1r0,-64v5,1,19,1,42,1v59,0,89,-18,89,-54v0,-37,-39,-52,-80,-52v-43,0,-79,15,-108,45r-38,-47v37,-42,89,-63,154,-63v83,-1,151,34,152,108v1,51,-45,84,-89,91","w":394},"\u00b4":{"d":"240,-700r-165,144r-75,0r140,-144r100,0","w":240},"\u00b5":{"d":"271,-80v53,0,99,-32,123,-64r0,-339r105,0r0,483r-105,0r0,-64v-56,62,-126,88,-221,71r0,177r-105,0r0,-667r105,0r0,303v0,70,31,99,98,100","w":567},"\u03bc":{"d":"271,-80v53,0,99,-32,123,-64r0,-339r105,0r0,483r-105,0r0,-64v-56,62,-126,88,-221,71r0,177r-105,0r0,-667r105,0r0,303v0,70,31,99,98,100","w":567},"\u00b6":{"d":"27,-495v0,-92,80,-172,172,-172r193,0r0,767r-55,0r0,-712r-83,0r0,712r-55,0r0,-423v-92,3,-172,-80,-172,-172","w":449},"\u00b7":{"d":"123,-314v36,0,69,33,69,69v0,37,-32,70,-69,70v-38,0,-70,-32,-70,-70v0,-36,34,-69,70,-69","w":246},"\u2219":{"d":"123,-314v36,0,69,33,69,69v0,37,-32,70,-69,70v-38,0,-70,-32,-70,-70v0,-36,34,-69,70,-69","w":246},"\u00b8":{"d":"214,111v0,52,-53,83,-108,83v-43,0,-79,-10,-106,-31r23,-46v24,19,51,29,81,29v27,0,54,-11,55,-36v2,-37,-51,-37,-67,-15r-40,-23r30,-83r55,0r-25,64v44,-30,102,6,102,58","w":214},"\u00b9":{"d":"204,-421r-81,0r0,-297r-66,69r-47,-49r124,-123r70,0r0,400","w":264},"\u00ba":{"d":"371,-483v0,93,-72,165,-169,165v-96,0,-168,-73,-168,-165v0,-93,72,-165,168,-165v98,0,169,71,169,165xm115,-483v0,57,32,102,87,102v57,0,90,-45,90,-102v0,-59,-33,-101,-90,-101v-56,0,-87,43,-87,101","w":405},"\u00bb":{"d":"290,-243r-160,180r-100,0r160,-180r-160,-177r100,0xm460,-243r-160,180r-100,0r160,-180r-160,-177r100,0","w":490},"\u00bc":{"d":"619,-667r-427,667r-67,0r427,-667r67,0xm777,-92r-54,0r0,92r-80,0r0,-92r-197,0r0,-57r165,-251r112,0r0,244r54,0r0,64xm643,-156r0,-175r-117,175r117,0xm204,-267r-81,0r0,-297r-66,69r-47,-49r124,-123r70,0r0,400","w":806},"\u00bd":{"d":"619,-667r-427,667r-67,0r427,-667r67,0xm644,-406v83,-1,155,40,154,121v0,34,-15,67,-45,101v-30,34,-77,74,-140,119r188,0r0,65r-305,0r0,-60v85,-61,143,-106,174,-136v31,-30,47,-58,47,-83v1,-42,-33,-62,-75,-62v-46,-1,-90,24,-110,50r-43,-51v37,-43,88,-64,155,-64xm204,-267r-81,0r0,-297r-66,69r-47,-49r124,-123r70,0r0,400","w":841},"\u00be":{"d":"716,-667r-427,667r-67,0r427,-667r67,0xm873,-92r-54,0r0,92r-80,0r0,-92r-197,0r0,-57r165,-251r112,0r0,244r54,0r0,64xm739,-156r0,-175r-117,175r117,0xm259,-474v46,5,98,43,96,97v-2,77,-74,117,-160,117v-72,0,-125,-21,-158,-64r41,-52v29,34,67,51,115,51v44,1,81,-18,81,-57v0,-39,-32,-58,-95,-58v-24,0,-38,0,-42,1r0,-64v5,1,19,1,42,1v59,0,89,-18,89,-54v0,-37,-39,-52,-80,-52v-43,0,-79,15,-108,45r-38,-47v37,-42,89,-63,154,-63v83,-1,151,34,152,108v1,51,-45,84,-89,91","w":903},"\u00bf":{"d":"228,196v-111,0,-203,-56,-203,-157v0,-116,103,-144,159,-205v25,-26,26,-70,-3,-90r89,-30v38,34,45,100,18,147v-30,52,-92,70,-128,115v-43,55,6,116,79,116v56,0,102,-23,139,-70r68,75v-54,66,-127,99,-218,99xm164,-424v0,-36,34,-70,70,-70v36,0,70,34,70,70v0,36,-34,70,-70,70v-36,0,-70,-34,-70,-70","w":396},"\u00c0":{"d":"413,-728r-75,0r-165,-144r100,0xm672,0r-133,0r-49,-129r-306,0r-49,129r-133,0r262,-667r146,0xm457,-232r-120,-318r-120,318r240,0","w":673},"\u00c1":{"d":"503,-872r-165,144r-75,0r140,-144r100,0xm672,0r-133,0r-49,-129r-306,0r-49,129r-133,0r262,-667r146,0xm457,-232r-120,-318r-120,318r240,0","w":673},"\u00c2":{"d":"481,-728r-66,0r-78,-97r-74,97r-67,0r93,-144r96,0xm672,0r-133,0r-49,-129r-306,0r-49,129r-133,0r262,-667r146,0xm457,-232r-120,-318r-120,318r240,0","w":673},"\u00c3":{"d":"498,-860v0,76,-31,134,-103,134v-42,1,-67,-35,-87,-58v-34,-40,-77,-17,-73,52r-58,0v0,-76,31,-134,103,-134v54,0,67,47,98,70v37,27,67,-17,63,-64r57,0xm672,0r-133,0r-49,-129r-306,0r-49,129r-133,0r262,-667r146,0xm457,-232r-120,-318r-120,318r240,0","w":673},"\u00c4":{"d":"442,-839v33,0,59,26,59,59v0,32,-27,58,-59,58v-31,0,-58,-27,-58,-58v0,-32,26,-59,58,-59xm233,-839v33,0,59,26,59,59v0,32,-27,58,-59,58v-31,0,-59,-27,-59,-58v0,-32,28,-59,59,-59xm672,0r-133,0r-49,-129r-306,0r-49,129r-133,0r262,-667r146,0xm457,-232r-120,-318r-120,318r240,0","w":673},"\u00c5":{"d":"439,-795v0,54,-46,102,-101,102v-54,0,-103,-48,-103,-102v0,-54,49,-103,103,-103v55,0,101,49,101,103xm286,-795v0,28,24,52,52,52v27,0,51,-25,51,-52v0,-28,-23,-52,-51,-52v-29,0,-52,23,-52,52xm672,0r-133,0r-49,-129r-306,0r-49,129r-133,0r262,-667r146,0xm457,-232r-120,-318r-120,318r240,0","w":673},"\u00c6":{"d":"912,0r-457,0r0,-129r-246,0r-77,129r-134,0r410,-667r504,0r0,103r-340,0r0,172r333,0r0,103r-333,0r0,186r340,0r0,103xm455,-232r0,-318r-191,318r191,0","w":960},"\u00c7":{"d":"494,107v0,52,-53,83,-108,83v-43,0,-79,-10,-106,-31r23,-46v24,19,51,29,81,29v27,0,54,-11,55,-36v2,-37,-51,-37,-67,-15r-40,-23r21,-58v-175,-13,-311,-155,-311,-343v0,-198,154,-345,350,-345v117,0,206,50,267,149r-99,52v-29,-52,-93,-97,-168,-97v-132,-2,-230,106,-230,241v0,134,99,243,230,241v75,-1,139,-47,168,-97r100,50v-61,97,-146,147,-254,151r-14,37v44,-30,102,6,102,58","w":682},"\u00c8":{"d":"375,-728r-75,0r-165,-144r100,0xm528,0r-457,0r0,-667r457,0r0,103r-340,0r0,172r333,0r0,103r-333,0r0,186r340,0r0,103","w":577},"\u00c9":{"d":"465,-872r-165,144r-75,0r140,-144r100,0xm528,0r-457,0r0,-667r457,0r0,103r-340,0r0,172r333,0r0,103r-333,0r0,186r340,0r0,103","w":577},"\u00ca":{"d":"442,-728r-66,0r-78,-97r-74,97r-67,0r93,-144r96,0xm528,0r-457,0r0,-667r457,0r0,103r-340,0r0,172r333,0r0,103r-333,0r0,186r340,0r0,103","w":577},"\u00cb":{"d":"405,-839v33,0,59,26,59,59v0,32,-27,58,-59,58v-31,0,-58,-27,-58,-58v0,-32,26,-59,58,-59xm196,-839v33,0,59,26,59,59v0,32,-27,58,-59,58v-31,0,-59,-27,-59,-58v0,-32,28,-59,59,-59xm528,0r-457,0r0,-667r457,0r0,103r-340,0r0,172r333,0r0,103r-333,0r0,186r340,0r0,103","w":577},"\u00cc":{"d":"204,-728r-75,0r-165,-144r100,0xm188,0r-117,0r0,-667r117,0r0,667","w":259},"\u00cd":{"d":"297,-872r-165,144r-75,0r140,-144r100,0xm188,0r-117,0r0,-667r117,0r0,667","w":259},"\u00ce":{"d":"272,-728r-66,0r-78,-97r-74,97r-67,0r93,-144r96,0xm188,0r-117,0r0,-667r117,0r0,667","w":259},"\u00cf":{"d":"234,-838v33,0,59,26,59,59v0,32,-27,58,-59,58v-31,0,-58,-27,-58,-58v0,-32,26,-59,58,-59xm25,-838v33,0,59,26,59,59v0,32,-27,58,-59,58v-31,0,-59,-27,-59,-58v0,-32,28,-59,59,-59xm188,0r-117,0r0,-667r117,0r0,667","w":259},"\u00d0":{"d":"694,-334v0,198,-147,334,-348,334r-249,0r0,-286r-87,0r0,-85r87,0r0,-296r248,0v201,-4,349,136,349,333xm574,-334v0,-134,-90,-233,-228,-230r-132,0r0,193r159,0r0,85r-159,0r0,183r131,0v136,3,229,-99,229,-231","w":736},"\u00d1":{"d":"519,-860v0,76,-31,134,-103,134v-42,1,-66,-35,-86,-58v-34,-40,-78,-17,-74,52r-58,0v0,-76,31,-134,103,-134v54,0,66,47,97,70v37,27,68,-17,64,-64r57,0xm649,0r-113,0r-348,-477r0,477r-117,0r0,-667r120,0r341,462r0,-462r117,0r0,667","w":720},"\u00d2":{"d":"461,-728r-75,0r-165,-144r100,0xm724,-333v0,196,-146,345,-341,345v-195,0,-341,-149,-341,-345v0,-196,146,-345,341,-345v195,0,341,149,341,345xm162,-333v0,135,87,241,221,241v132,0,221,-108,221,-241v0,-135,-88,-241,-221,-241v-134,0,-221,106,-221,241","w":765},"\u00d3":{"d":"549,-872r-165,144r-75,0r140,-144r100,0xm724,-333v0,196,-146,345,-341,345v-195,0,-341,-149,-341,-345v0,-196,146,-345,341,-345v195,0,341,149,341,345xm162,-333v0,135,87,241,221,241v132,0,221,-108,221,-241v0,-135,-88,-241,-221,-241v-134,0,-221,106,-221,241","w":765},"\u00d4":{"d":"528,-728r-66,0r-78,-97r-74,97r-67,0r93,-144r96,0xm724,-333v0,196,-146,345,-341,345v-195,0,-341,-149,-341,-345v0,-196,146,-345,341,-345v195,0,341,149,341,345xm162,-333v0,135,87,241,221,241v132,0,221,-108,221,-241v0,-135,-88,-241,-221,-241v-134,0,-221,106,-221,241","w":765},"\u00d5":{"d":"544,-860v0,76,-31,134,-103,134v-42,1,-67,-35,-87,-58v-34,-40,-77,-17,-73,52r-58,0v0,-76,31,-134,103,-134v54,0,67,47,98,70v37,27,67,-17,63,-64r57,0xm724,-333v0,196,-146,345,-341,345v-195,0,-341,-149,-341,-345v0,-196,146,-345,341,-345v195,0,341,149,341,345xm162,-333v0,135,87,241,221,241v132,0,221,-108,221,-241v0,-135,-88,-241,-221,-241v-134,0,-221,106,-221,241","w":765},"\u00d6":{"d":"488,-839v33,0,59,26,59,59v0,32,-27,58,-59,58v-31,0,-58,-27,-58,-58v0,-32,26,-59,58,-59xm279,-839v33,0,59,26,59,59v0,32,-27,58,-59,58v-31,0,-59,-27,-59,-58v0,-32,28,-59,59,-59xm724,-333v0,196,-146,345,-341,345v-195,0,-341,-149,-341,-345v0,-196,146,-345,341,-345v195,0,341,149,341,345xm162,-333v0,135,87,241,221,241v132,0,221,-108,221,-241v0,-135,-88,-241,-221,-241v-134,0,-221,106,-221,241","w":765},"\u00d7":{"d":"396,-142r-145,-145r-144,145r-48,-48r145,-144r-145,-145r48,-47r144,144r145,-144r47,47r-144,145r144,144","w":502},"\u00d8":{"d":"724,-333v0,196,-146,345,-341,345v-67,0,-127,-15,-179,-46r-25,34r-87,0r55,-76v-70,-66,-105,-152,-105,-257v0,-196,146,-345,341,-345v63,0,119,14,170,42r22,-31r87,0r-51,71v75,66,113,154,113,263xm383,-92v132,2,221,-108,221,-241v0,-69,-20,-127,-60,-172r-276,383v34,20,72,30,115,30xm383,-574v-134,-2,-221,106,-221,241v0,65,17,120,52,164r275,-379v-31,-17,-67,-26,-106,-26","w":765},"\u00d9":{"d":"437,-728r-75,0r-165,-144r100,0xm649,-264v0,175,-107,276,-289,276v-181,0,-289,-102,-289,-276r0,-403r119,0r0,400v0,107,62,175,170,175v108,0,170,-68,170,-175r0,-400r119,0r0,403","w":720},"\u00da":{"d":"526,-872r-165,144r-75,0r140,-144r100,0xm649,-264v0,175,-107,276,-289,276v-181,0,-289,-102,-289,-276r0,-403r119,0r0,400v0,107,62,175,170,175v108,0,170,-68,170,-175r0,-400r119,0r0,403","w":720},"\u00db":{"d":"508,-728r-66,0r-78,-97r-74,97r-67,0r93,-144r96,0xm649,-264v0,175,-107,276,-289,276v-181,0,-289,-102,-289,-276r0,-403r119,0r0,400v0,107,62,175,170,175v108,0,170,-68,170,-175r0,-400r119,0r0,403","w":720},"\u00dc":{"d":"466,-839v33,0,59,26,59,59v0,32,-27,58,-59,58v-31,0,-58,-27,-58,-58v0,-32,26,-59,58,-59xm257,-839v33,0,59,26,59,59v0,32,-27,58,-59,58v-31,0,-59,-27,-59,-58v0,-32,28,-59,59,-59xm649,-264v0,175,-107,276,-289,276v-181,0,-289,-102,-289,-276r0,-403r119,0r0,400v0,107,62,175,170,175v108,0,170,-68,170,-175r0,-400r119,0r0,403","w":720},"\u00dd":{"d":"487,-872r-165,144r-75,0r140,-144r100,0xm378,0r-117,0r0,-277r-259,-390r134,0r183,285r183,-285r134,0r-258,390r0,277","w":637},"\u00de":{"d":"582,-345v1,121,-89,208,-217,208r-177,0r0,137r-117,0r0,-667r117,0r0,112r177,0v128,-4,217,89,217,210xm462,-345v0,-64,-48,-107,-113,-107r-161,0r0,212r161,0v64,1,113,-42,113,-105","w":609},"\u00df":{"d":"281,-677v93,0,193,49,193,136v0,50,-38,91,-70,110v-27,17,-70,41,-70,78v0,39,55,49,96,57v88,18,176,49,176,155v-1,96,-87,155,-194,153v-95,-1,-140,-32,-192,-79r46,-72v27,35,85,66,146,66v51,0,93,-21,93,-64v0,-42,-55,-55,-96,-65v-84,-20,-175,-44,-176,-148v0,-49,37,-89,67,-108v24,-16,64,-39,66,-69v2,-39,-46,-57,-87,-57v-59,0,-105,40,-105,99r0,485r-105,0r0,-485v0,-113,91,-192,212,-192","w":623},"\u00e0":{"d":"267,-495v118,1,202,53,202,174r0,321r-105,0r0,-53v-37,43,-90,65,-157,65v-87,0,-167,-66,-167,-160v0,-99,75,-158,167,-158v69,0,121,21,157,62r0,-72v0,-58,-52,-90,-113,-90v-55,0,-102,21,-143,62r-44,-73v54,-52,122,-78,203,-78xm145,-147v0,54,48,87,104,87v51,0,90,-17,115,-50r0,-74v-25,-33,-64,-50,-115,-50v-56,-1,-104,33,-104,87xm343,-556r-75,0r-165,-144r100,0","w":537},"\u00e1":{"d":"267,-495v118,1,202,53,202,174r0,321r-105,0r0,-53v-37,43,-90,65,-157,65v-87,0,-167,-66,-167,-160v0,-99,75,-158,167,-158v69,0,121,21,157,62r0,-72v0,-58,-52,-90,-113,-90v-55,0,-102,21,-143,62r-44,-73v54,-52,122,-78,203,-78xm145,-147v0,54,48,87,104,87v51,0,90,-17,115,-50r0,-74v-25,-33,-64,-50,-115,-50v-56,-1,-104,33,-104,87xm436,-700r-165,144r-75,0r140,-144r100,0","w":537},"\u00e2":{"d":"267,-495v118,1,202,53,202,174r0,321r-105,0r0,-53v-37,43,-90,65,-157,65v-87,0,-167,-66,-167,-160v0,-99,75,-158,167,-158v69,0,121,21,157,62r0,-72v0,-58,-52,-90,-113,-90v-55,0,-102,21,-143,62r-44,-73v54,-52,122,-78,203,-78xm145,-147v0,54,48,87,104,87v51,0,90,-17,115,-50r0,-74v-25,-33,-64,-50,-115,-50v-56,-1,-104,33,-104,87xm414,-556r-66,0r-78,-97r-74,97r-67,0r93,-144r96,0","w":537},"\u00e3":{"d":"267,-495v118,1,202,53,202,174r0,321r-105,0r0,-53v-37,43,-90,65,-157,65v-87,0,-167,-66,-167,-160v0,-99,75,-158,167,-158v69,0,121,21,157,62r0,-72v0,-58,-52,-90,-113,-90v-55,0,-102,21,-143,62r-44,-73v54,-52,122,-78,203,-78xm145,-147v0,54,48,87,104,87v51,0,90,-17,115,-50r0,-74v-25,-33,-64,-50,-115,-50v-56,-1,-104,33,-104,87xm429,-688v0,76,-31,134,-103,134v-42,1,-66,-35,-86,-58v-34,-40,-78,-17,-74,52r-58,0v0,-76,31,-134,103,-134v54,0,66,47,97,70v37,27,68,-17,64,-64r57,0","w":537},"\u00e4":{"d":"267,-495v118,1,202,53,202,174r0,321r-105,0r0,-53v-37,43,-90,65,-157,65v-87,0,-167,-66,-167,-160v0,-99,75,-158,167,-158v69,0,121,21,157,62r0,-72v0,-58,-52,-90,-113,-90v-55,0,-102,21,-143,62r-44,-73v54,-52,122,-78,203,-78xm145,-147v0,54,48,87,104,87v51,0,90,-17,115,-50r0,-74v-25,-33,-64,-50,-115,-50v-56,-1,-104,33,-104,87xm371,-667v33,0,59,26,59,59v0,32,-27,58,-59,58v-31,0,-58,-27,-58,-58v0,-32,26,-59,58,-59xm162,-667v33,0,59,26,59,59v0,32,-27,58,-59,58v-31,0,-59,-27,-59,-58v0,-32,28,-59,59,-59","w":537},"\u00e5":{"d":"267,-495v118,1,202,53,202,174r0,321r-105,0r0,-53v-37,43,-90,65,-157,65v-87,0,-167,-66,-167,-160v0,-99,75,-158,167,-158v69,0,121,21,157,62r0,-72v0,-58,-52,-90,-113,-90v-55,0,-102,21,-143,62r-44,-73v54,-52,122,-78,203,-78xm145,-147v0,54,48,87,104,87v51,0,90,-17,115,-50r0,-74v-25,-33,-64,-50,-115,-50v-56,-1,-104,33,-104,87xm371,-646v0,54,-46,102,-101,102v-54,0,-103,-48,-103,-102v0,-54,49,-103,103,-103v55,0,101,49,101,103xm218,-646v0,28,24,52,52,52v27,0,51,-25,51,-52v0,-28,-23,-52,-51,-52v-29,0,-52,23,-52,52","w":537},"\u00e6":{"d":"610,-495v150,1,242,124,232,288r-372,0v7,76,67,131,153,131v55,0,101,-18,138,-54r48,71v-51,47,-116,71,-196,71v-85,0,-152,-31,-200,-93v-49,62,-115,93,-198,93v-93,1,-175,-62,-175,-159v0,-98,73,-159,167,-159v68,0,120,20,157,61r0,-71v0,-58,-52,-90,-113,-90v-55,0,-102,21,-143,62r-44,-73v54,-52,122,-78,203,-78v87,0,142,30,165,90v41,-60,100,-90,178,-90xm741,-282v-5,-69,-56,-127,-137,-127v-78,0,-131,59,-135,127r272,0xm145,-147v0,54,48,87,104,87v58,0,100,-23,127,-69v-8,-15,-12,-32,-12,-53v-25,-35,-64,-52,-115,-52v-56,-1,-104,33,-104,87","w":878},"\u00e7":{"d":"399,109v0,52,-53,83,-108,83v-43,0,-79,-10,-106,-31r23,-46v24,19,51,29,81,29v27,0,54,-11,55,-36v2,-37,-51,-37,-67,-15r-40,-23r21,-60v-125,-10,-219,-116,-219,-252v0,-143,106,-253,249,-253v81,0,142,29,185,86r-69,63v-27,-37,-64,-56,-111,-56v-88,-1,-146,70,-146,160v0,90,58,162,146,161v47,0,84,-19,111,-58r69,65v-39,51,-92,79,-161,85r-15,40v44,-30,102,6,102,58","w":498},"\u00e8":{"d":"149,-207v7,75,68,133,153,133v56,0,102,-18,138,-54r48,69v-51,47,-116,71,-196,71v-147,0,-253,-106,-253,-254v0,-138,107,-255,245,-253v152,2,247,122,237,288r-372,0xm420,-282v-5,-69,-56,-127,-137,-127v-78,0,-131,59,-135,127r272,0xm359,-556r-75,0r-165,-144r100,0","w":557},"\u00e9":{"d":"149,-207v7,75,68,133,153,133v56,0,102,-18,138,-54r48,69v-51,47,-116,71,-196,71v-147,0,-253,-106,-253,-254v0,-138,107,-255,245,-253v152,2,247,122,237,288r-372,0xm420,-282v-5,-69,-56,-127,-137,-127v-78,0,-131,59,-135,127r272,0xm450,-700r-165,144r-75,0r140,-144r100,0","w":557},"\u00ea":{"d":"149,-207v7,75,68,133,153,133v56,0,102,-18,138,-54r48,69v-51,47,-116,71,-196,71v-147,0,-253,-106,-253,-254v0,-138,107,-255,245,-253v152,2,247,122,237,288r-372,0xm420,-282v-5,-69,-56,-127,-137,-127v-78,0,-131,59,-135,127r272,0xm428,-556r-66,0r-78,-97r-74,97r-67,0r93,-144r96,0","w":557},"\u00eb":{"d":"149,-207v7,75,68,133,153,133v56,0,102,-18,138,-54r48,69v-51,47,-116,71,-196,71v-147,0,-253,-106,-253,-254v0,-138,107,-255,245,-253v152,2,247,122,237,288r-372,0xm420,-282v-5,-69,-56,-127,-137,-127v-78,0,-131,59,-135,127r272,0xm389,-667v33,0,59,26,59,59v0,32,-27,58,-59,58v-31,0,-58,-27,-58,-58v0,-32,26,-59,58,-59xm180,-667v33,0,59,26,59,59v0,32,-27,58,-59,58v-31,0,-59,-27,-59,-58v0,-32,28,-59,59,-59","w":557},"\u00ec":{"d":"195,-556r-75,0r-165,-144r100,0xm173,0r-105,0r0,-483r105,0r0,483","w":241},"\u00ed":{"d":"286,-700r-165,144r-75,0r140,-144r100,0xm173,0r-105,0r0,-483r105,0r0,483","w":241},"\u00ee":{"d":"263,-556r-66,0r-78,-97r-74,97r-67,0r93,-144r96,0xm173,0r-105,0r0,-483r105,0r0,483","w":241},"\u00ef":{"d":"225,-667v33,0,59,26,59,59v0,32,-27,58,-59,58v-31,0,-58,-27,-58,-58v0,-32,26,-59,58,-59xm16,-667v33,0,59,26,59,59v0,32,-27,58,-59,58v-31,0,-59,-27,-59,-58v0,-32,28,-59,59,-59xm173,0r-105,0r0,-483r105,0r0,483","w":241},"\u00f0":{"d":"39,-229v0,-131,90,-241,216,-239v67,0,120,30,159,90v-28,-55,-81,-111,-158,-167r-145,64r-21,-52r112,-49r-68,-43r57,-85v49,30,88,57,119,80r105,-46r22,50r-79,35v118,103,177,217,177,341v0,152,-96,262,-248,262v-143,0,-248,-101,-248,-241xm148,-229v0,81,56,148,139,148v85,0,139,-66,139,-148v0,-82,-54,-147,-139,-147v-83,0,-139,67,-139,147"},"\u00f1":{"d":"349,-495v102,0,156,55,156,155r0,340r-105,0r0,-302v1,-69,-32,-99,-98,-100v-53,0,-99,32,-124,64r0,338r-105,0r0,-483r105,0r0,65v34,-40,99,-77,171,-77xm445,-688v0,76,-31,134,-103,134v-42,1,-66,-35,-86,-58v-34,-40,-78,-17,-74,52r-58,0v0,-76,31,-134,103,-134v54,0,66,47,97,70v37,27,68,-17,64,-64r57,0","w":568},"\u00f2":{"d":"535,-242v0,141,-103,254,-248,254v-145,0,-248,-113,-248,-254v0,-143,103,-253,248,-253v146,0,248,110,248,253xm148,-242v0,87,53,161,139,161v87,0,139,-74,139,-161v0,-86,-52,-160,-139,-160v-86,0,-139,74,-139,160xm362,-556r-75,0r-165,-144r100,0"},"\u00f3":{"d":"535,-242v0,141,-103,254,-248,254v-145,0,-248,-113,-248,-254v0,-143,103,-253,248,-253v146,0,248,110,248,253xm148,-242v0,87,53,161,139,161v87,0,139,-74,139,-161v0,-86,-52,-160,-139,-160v-86,0,-139,74,-139,160xm452,-700r-165,144r-75,0r140,-144r100,0"},"\u00f4":{"d":"535,-242v0,141,-103,254,-248,254v-145,0,-248,-113,-248,-254v0,-143,103,-253,248,-253v146,0,248,110,248,253xm148,-242v0,87,53,161,139,161v87,0,139,-74,139,-161v0,-86,-52,-160,-139,-160v-86,0,-139,74,-139,160xm431,-556r-66,0r-78,-97r-74,97r-67,0r93,-144r96,0"},"\u00f5":{"d":"535,-242v0,141,-103,254,-248,254v-145,0,-248,-113,-248,-254v0,-143,103,-253,248,-253v146,0,248,110,248,253xm148,-242v0,87,53,161,139,161v87,0,139,-74,139,-161v0,-86,-52,-160,-139,-160v-86,0,-139,74,-139,160xm448,-688v0,76,-31,134,-103,134v-42,1,-67,-35,-87,-58v-34,-40,-77,-17,-73,52r-58,0v0,-76,31,-134,103,-134v54,0,67,47,98,70v37,27,67,-17,63,-64r57,0"},"\u00f6":{"d":"535,-242v0,141,-103,254,-248,254v-145,0,-248,-113,-248,-254v0,-143,103,-253,248,-253v146,0,248,110,248,253xm148,-242v0,87,53,161,139,161v87,0,139,-74,139,-161v0,-86,-52,-160,-139,-160v-86,0,-139,74,-139,160xm391,-667v33,0,59,26,59,59v0,32,-27,58,-59,58v-31,0,-58,-27,-58,-58v0,-32,26,-59,58,-59xm182,-667v33,0,59,26,59,59v0,32,-27,58,-59,58v-31,0,-59,-27,-59,-58v0,-32,28,-59,59,-59"},"\u00f7":{"d":"256,-574v30,0,54,24,54,53v0,29,-25,56,-54,56v-29,0,-55,-27,-55,-56v0,-29,26,-53,55,-53xm482,-304r-453,0r0,-67r453,0r0,67xm256,-206v28,0,54,26,54,54v0,29,-25,55,-54,55v-28,0,-55,-27,-55,-55v0,-29,26,-54,55,-54","w":511},"\u00f8":{"d":"535,-242v2,141,-103,254,-248,254v-56,0,-104,-14,-143,-42r-25,30r-68,0r53,-64v-43,-47,-65,-107,-65,-178v-2,-143,103,-253,248,-253v51,0,98,13,139,39r23,-27r69,0r-51,61v45,47,68,107,68,180xm287,-81v124,0,174,-159,113,-259r-193,233v24,17,51,26,80,26xm287,-402v-122,0,-174,156,-115,256r191,-233v-22,-15,-47,-23,-76,-23"},"\u00f9":{"d":"271,-81v52,0,99,-32,123,-63r0,-339r105,0r0,483r-105,0r0,-64v-45,51,-102,76,-170,76v-101,1,-156,-53,-156,-153r0,-342r105,0r0,303v0,70,31,98,98,99xm361,-556r-75,0r-165,-144r100,0","w":567},"\u00fa":{"d":"271,-81v52,0,99,-32,123,-63r0,-339r105,0r0,483r-105,0r0,-64v-45,51,-102,76,-170,76v-101,1,-156,-53,-156,-153r0,-342r105,0r0,303v0,70,31,98,98,99xm450,-700r-165,144r-75,0r140,-144r100,0","w":567},"\u00fb":{"d":"271,-81v52,0,99,-32,123,-63r0,-339r105,0r0,483r-105,0r0,-64v-45,51,-102,76,-170,76v-101,1,-156,-53,-156,-153r0,-342r105,0r0,303v0,70,31,98,98,99xm427,-556r-66,0r-78,-97r-74,97r-67,0r93,-144r96,0","w":567},"\u00fc":{"d":"271,-81v52,0,99,-32,123,-63r0,-339r105,0r0,483r-105,0r0,-64v-45,51,-102,76,-170,76v-101,1,-156,-53,-156,-153r0,-342r105,0r0,303v0,70,31,98,98,99xm391,-667v33,0,59,26,59,59v0,32,-27,58,-59,58v-31,0,-58,-27,-58,-58v0,-32,26,-59,58,-59xm182,-667v33,0,59,26,59,59v0,32,-27,58,-59,58v-31,0,-59,-27,-59,-58v0,-32,28,-59,59,-59","w":567},"\u00fd":{"d":"48,189r15,-94v42,18,93,5,110,-34r24,-55r-199,-489r113,0r141,362r141,-362r112,0r-233,570v-29,72,-75,106,-165,109v-23,0,-43,-2,-59,-7xm417,-700r-165,144r-75,0r140,-144r100,0","w":503},"\u00fe":{"d":"542,-242v0,144,-80,254,-214,254v-62,0,-114,-26,-155,-79r0,251r-105,0r0,-851r105,0r0,250v39,-52,91,-78,155,-78v134,0,214,109,214,253xm173,-147v20,34,73,66,124,66v85,1,137,-72,137,-161v0,-89,-52,-161,-137,-160v-51,0,-104,32,-124,64r0,191","w":579},"\u00ff":{"d":"48,189r15,-94v42,18,93,5,110,-34r24,-55r-199,-489r113,0r141,362r141,-362r112,0r-233,570v-29,72,-75,106,-165,109v-23,0,-43,-2,-59,-7xm356,-667v33,0,59,26,59,59v0,32,-27,58,-59,58v-31,0,-58,-27,-58,-58v0,-32,26,-59,58,-59xm147,-667v33,0,59,26,59,59v0,32,-27,58,-59,58v-31,0,-59,-27,-59,-58v0,-32,28,-59,59,-59","w":503},"\u0152":{"d":"371,-677v95,1,178,44,218,106r0,-96r457,0r0,103r-340,0r0,172r333,0r0,103r-333,0r0,186r340,0r0,103r-457,0r0,-97v-40,63,-122,108,-218,109v-193,3,-329,-150,-329,-345v0,-195,136,-347,329,-344xm387,-92v102,-1,171,-57,202,-136r0,-212v-30,-79,-101,-132,-202,-133v-137,-2,-225,104,-225,240v0,136,90,244,225,241","w":1093},"\u0153":{"d":"671,-495v154,0,248,122,238,288r-373,0v7,76,68,135,154,133v53,0,109,-24,137,-54r48,69v-49,47,-115,71,-196,71v-87,0,-154,-40,-199,-120v-47,80,-112,120,-193,120v-145,0,-248,-113,-248,-254v0,-143,103,-253,248,-253v82,0,146,40,193,120v44,-80,108,-120,191,-120xm807,-282v-3,-70,-55,-127,-136,-127v-79,0,-130,58,-136,127r272,0xm287,-80v86,0,139,-74,139,-162v0,-87,-54,-160,-139,-160v-85,0,-139,73,-139,160v0,88,53,162,139,162","w":945},"\u0178":{"d":"426,-839v33,0,59,26,59,59v0,32,-27,58,-59,58v-31,0,-58,-27,-58,-58v0,-32,26,-59,58,-59xm217,-839v33,0,59,26,59,59v0,32,-27,58,-59,58v-31,0,-59,-27,-59,-58v0,-32,28,-59,59,-59xm378,0r-117,0r0,-277r-259,-390r134,0r183,285r183,-285r134,0r-258,390r0,277","w":637},"\u02c6":{"d":"285,-556r-66,0r-78,-97r-74,97r-67,0r93,-144r96,0","w":285},"\u02dc":{"d":"321,-688v0,76,-31,134,-103,134v-42,1,-66,-35,-86,-58v-34,-40,-78,-17,-74,52r-58,0v0,-76,31,-134,103,-134v54,0,66,47,97,70v37,27,68,-17,64,-64r57,0","w":321},"\u2013":{"d":"563,-197r-533,0r0,-90r533,0r0,90","w":593},"\u2014":{"d":"803,-197r-773,0r0,-90r773,0r0,90","w":833},"\u2018":{"d":"120,-416v-46,0,-78,-40,-77,-91v1,-76,44,-137,93,-171r48,39v-29,17,-66,58,-72,94v40,-13,76,20,76,60v0,37,-31,70,-68,69","w":245},"\u2019":{"d":"121,-677v46,0,78,40,77,91v-2,75,-44,136,-93,170r-48,-38v29,-17,66,-58,72,-94v-41,11,-76,-21,-76,-61v0,-36,32,-69,68,-68","w":245},"\u201a":{"d":"121,-129v46,0,78,40,77,91v-1,76,-44,137,-93,171r-48,-39v29,-17,66,-58,72,-94v-41,13,-76,-20,-76,-61v0,-36,32,-69,68,-68","w":245},"\u201c":{"d":"124,-416v-46,0,-79,-40,-78,-91v2,-76,44,-137,94,-171r47,39v-29,17,-65,58,-72,94v42,-13,77,19,77,60v0,36,-32,70,-68,69xm309,-416v-46,0,-79,-40,-78,-91v2,-76,44,-137,94,-171r47,39v-29,17,-65,58,-72,94v42,-13,77,19,77,60v0,36,-32,70,-68,69","w":430},"\u201d":{"d":"306,-677v46,0,78,40,77,91v-2,75,-44,136,-93,170r-48,-38v29,-17,66,-58,72,-94v-41,11,-76,-21,-76,-61v0,-36,32,-69,68,-68xm121,-677v46,0,78,40,77,91v-2,75,-44,136,-93,170r-48,-38v29,-17,66,-58,72,-94v-41,11,-76,-21,-76,-61v0,-36,32,-69,68,-68","w":430},"\u201e":{"d":"121,-129v46,0,78,40,77,91v-1,76,-44,137,-93,171r-48,-39v29,-17,66,-58,72,-94v-41,13,-76,-20,-76,-61v0,-36,32,-69,68,-68xm306,-129v46,0,78,40,77,91v-1,76,-44,137,-93,171r-48,-39v29,-17,66,-58,72,-94v-41,13,-76,-20,-76,-61v0,-36,32,-69,68,-68","w":430},"\u2022":{"d":"180,-356v61,0,114,53,114,114v0,61,-53,113,-114,113v-61,0,-114,-52,-114,-113v0,-61,53,-114,114,-114","w":358},"\u2026":{"d":"123,-129v36,0,69,33,69,69v0,37,-32,70,-69,70v-37,0,-70,-33,-70,-70v0,-36,34,-69,70,-69xm368,-129v36,0,69,33,69,69v0,37,-32,70,-69,70v-36,0,-70,-34,-70,-70v0,-36,34,-69,70,-69xm613,-129v36,0,69,33,69,69v0,37,-32,70,-69,70v-37,0,-70,-33,-70,-70v0,-36,34,-69,70,-69","w":735},"\u2039":{"d":"290,-63r-100,0r-160,-180r160,-177r100,0r-160,177","w":320},"\u203a":{"d":"290,-243r-160,180r-100,0r160,-180r-160,-177r100,0","w":320},"\u20ac":{"d":"415,-92v75,0,139,-47,168,-97r100,50v-64,101,-153,151,-268,151v-169,1,-301,-103,-336,-242r-53,0r0,-68r40,0v-1,-21,-2,-44,1,-73r-41,0r0,-68r54,0v37,-136,167,-239,335,-239v117,0,206,50,267,149r-99,52v-29,-52,-93,-97,-168,-97v-102,0,-177,59,-209,135r268,0r0,68r-287,0v-3,29,-3,53,0,73r287,0r0,68r-269,0v32,78,106,137,210,138","w":703},"\u2122":{"d":"419,-447r-28,0r0,-182r-75,182r-8,0r-75,-182r0,182r-28,0r0,-220r43,0r64,160r64,-160r43,0r0,220xm169,-641r-62,0r0,194r-28,0r0,-194r-62,0r0,-26r152,0r0,26","w":454}}});
